weight of input layer
0th node's weight,-0.694582,0.266432,-0.764553,0.762244,0.0473507,-0.520185,0.441497,-0.726336,-0.37592,-0.377974,0.973982,-0.484355,-0.668428,-0.0719159,-0.592194,0.355728,0.174315,0.614474,0.350961,-0.613895,0.0657053,-0.892531,-0.138477,0.574286,-0.940107,0.768313,0.26901,0.36008,-0.033616,-0.725783,-0.653477,0.563633,-0.96741,-0.396979,-0.98268,-0.84391,0.228508,0.905401,-0.216891,-0.379582,0.459459,-0.921299,-0.913284,-0.689053,-0.459316,-0.606222,0.793002,0.583382,-0.318238,0.34689,-0.499366,-0.662052,0.689951,0.267726,-0.0481,0.512385,-0.820158,-0.853471,-0.280668,0.694263,-0.399609,-1.09358,-0.281259,0.500313,0.725147,-0.741086,-0.436544,0.562465,-0.011856,-0.0897699,0.741047,-0.193349,0.861685,-0.717818,0.758018,0.0580624,0.681357,0.547799,0.309517,-0.832186,0.933869,0.116431,0.974698,-0.493567,0.0408885,-0.580618,0.776682,-0.966605,-0.255563,-0.240946,0.428578,-0.284178,0.236468,-0.126989,-0.325406,0.148393,0.0425177,-0.563603,0.587604,-0.806798,
1th node's weight,-0.820897,-1.01927,0.277344,0.106909,-0.865004,-0.967108,0.180766,0.796734,0.749133,-0.41972,0.468372,-0.423726,1.02131,0.717683,0.308286,-0.0758056,-0.497433,0.57985,0.423255,0.548001,0.0468912,0.949551,-0.158018,0.44964,0.226334,-0.602935,-0.17019,-0.942193,-0.72836,0.811935,-0.699648,-0.493606,1.03835,0.489119,-0.132292,-0.690296,-0.162512,-0.398375,-0.81826,0.52738,-0.842271,-0.0544796,-0.606309,-0.372763,0.905009,0.782332,1.02171,-0.382215,-0.506646,-0.35778,-0.643497,0.955128,-0.0308204,0.954673,-0.380809,0.585034,0.732847,0.607204,-0.0493518,0.426022,-0.362093,-0.683709,-0.608361,0.540404,-0.0863859,0.232791,1.02789,-0.793533,-0.763766,0.413728,-0.068212,0.716834,-0.64611,0.649289,-0.940137,-0.601086,-0.368026,-0.619936,-0.790647,-0.924858,-0.301582,-0.655472,0.145869,0.621422,0.790826,0.500538,-0.852301,-0.2466,-0.0759412,-0.0256418,0.523857,0.230981,-0.584384,-0.638957,0.609389,-0.327812,-0.304776,-0.573639,0.510018,0.571197,
2th node's weight,0.278461,-0.714624,-0.238851,-0.112543,-0.58677,-1.1262,0.46172,-0.508026,0.588342,-0.933767,-0.484034,0.182519,-0.841258,0.437975,-0.283534,0.450073,-0.556765,-0.0114973,-0.0253188,0.35393,0.00625614,0.107595,0.173545,0.0408331,0.239571,0.821459,-0.318764,-0.506545,-0.897661,0.246669,0.22726,0.893775,-0.704986,-0.721765,0.362689,0.829912,0.912085,-0.448236,0.33388,-0.396134,0.802221,-0.971515,0.654551,-0.238311,0.417983,-0.128123,-0.0887839,-0.240896,-0.088369,-0.0879185,-0.0427271,0.0758117,0.413269,0.233818,-0.31975,-0.116639,-0.996879,0.525786,0.916817,-0.297755,-0.505809,-0.385762,-0.22426,0.0127461,0.34855,-0.43813,-0.932359,0.600986,-0.630481,-0.985633,0.39111,0.648852,-0.604576,-0.351205,0.225316,0.348536,-0.521904,0.6013,0.970011,-0.31501,0.302892,0.76913,0.364109,0.511389,0.81023,-0.764003,0.958441,0.338708,-0.475315,-0.655292,0.00698802,0.295671,-0.903506,0.32245,0.347543,-0.221793,-0.598758,-0.00497506,0.016566,-0.568159,
3th node's weight,-0.358566,-0.935376,0.763916,0.849468,-0.274967,0.282455,0.215056,0.485802,0.760418,0.487545,0.53766,-0.569051,0.127412,-0.362247,-0.909633,-0.306388,-0.563718,0.00481407,0.492088,-0.32182,0.317523,-0.190124,0.128988,-0.241414,-0.458778,0.800759,0.638818,-0.65275,-0.188462,0.0455365,-0.948586,-0.137018,-0.243593,0.933908,0.660215,-0.522783,-0.513143,-0.327954,-0.956395,-0.724034,0.467857,-0.747008,0.39422,-0.225579,-0.58997,-0.506525,-0.459077,0.0470506,-0.125235,-0.885927,0.160436,0.895393,-0.657093,0.0188746,0.132053,0.0415486,0.640232,-0.278826,0.198298,0.370604,0.236001,0.281434,-0.642804,0.00194286,-1.02939,-0.147053,-0.211833,-0.393774,-0.422757,0.903747,-0.11914,0.0622867,-0.489718,0.143777,-0.668602,-0.879969,0.202196,0.969808,-0.194058,0.935316,0.226848,0.567367,0.385071,0.864336,-0.258391,0.614052,0.816625,0.0161522,-0.461996,-0.611118,-0.602608,0.838151,-0.136038,0.930478,-0.208097,0.607413,0.882502,0.297831,-0.442198,-0.494776,
4th node's weight,0.34802,0.377932,0.650823,-0.513016,-0.362303,0.940418,0.26193,0.281441,-0.67952,-0.595243,0.292109,-0.372317,0.862463,0.406604,-0.30715,-0.837163,-0.0401034,0.639395,-0.588653,-0.655754,0.14498,0.277891,-0.641992,0.368349,-0.547372,-0.298881,0.637083,-0.113018,-0.463065,-0.222855,-0.501944,-0.959193,0.803378,-0.792253,0.947175,-0.951582,-0.243592,-0.463807,0.969697,-0.406093,-0.276928,-0.637527,-0.584984,0.752007,-0.878648,0.588546,-0.0104924,-0.429747,-0.637237,-0.0341715,-0.848931,-0.940085,0.9138,0.93211,-0.749543,0.894418,0.933838,0.0163095,0.696808,0.297689,0.311674,0.951843,0.196269,-0.494165,-0.519346,0.620944,0.572075,0.107506,0.00122029,0.285516,0.359253,-0.308094,-0.144257,-0.360293,0.756912,-0.225518,-0.90517,0.490043,-0.608624,0.341246,-0.0383565,0.00445143,-0.843564,0.552657,-0.191567,0.813946,-0.696383,-0.0483153,-0.601462,-0.553953,-0.0172819,-0.400021,0.139679,-0.335259,-0.365698,0.486776,-0.693145,0.790512,0.0987661,-0.301363,
5th node's weight,0.160162,-0.254436,0.843136,-0.539023,-0.907345,-0.306825,0.760029,-0.0860617,0.714707,0.370984,-0.815338,0.15711,0.479781,0.450403,-0.235947,0.249535,0.00312823,-0.618324,0.357766,-0.64882,0.332887,0.174946,-0.70518,-0.0586635,0.917371,0.678925,0.506442,0.822072,0.666201,-0.695545,0.913894,-0.409336,-0.118074,0.387649,0.831834,0.99484,-0.710835,0.651943,0.554411,0.213415,-0.229507,0.610447,0.461137,-0.961749,-0.180653,0.314569,0.272923,0.24935,0.764084,0.636019,-0.905731,-0.685612,-0.191406,-0.0184641,0.0824812,0.464413,0.976219,0.172451,-0.907082,0.344328,-0.393892,0.902785,-0.178905,-0.462531,0.787546,0.466721,-0.296428,0.240307,0.760354,0.618208,0.532224,0.711048,-0.375939,0.687764,-0.336893,-0.929739,0.111951,-0.739277,-0.656836,-0.03466,-0.0372749,-0.0161185,0.0855553,0.413914,0.6559,0.461963,0.307845,0.947234,0.620799,0.38528,-0.680356,-0.0663595,0.137734,-0.898367,0.316347,0.373883,-0.3117,-0.172978,0.0236088,0.04754,
6th node's weight,-0.659851,-0.434396,0.778926,0.804654,0.723957,-0.805358,0.842501,-0.045598,-0.175991,0.0233247,0.775386,0.254746,0.476832,0.766732,-0.605137,-0.425087,-1.00001,-0.509176,-0.0105487,-0.123907,-0.596406,0.549276,0.307243,0.393524,-0.101083,0.72511,0.173089,0.912682,0.12474,0.129786,0.58671,-0.815256,-0.190191,-0.727432,-0.803395,0.705647,-0.954095,0.955382,-0.651652,-0.333174,-0.701324,0.070315,-0.705275,-0.852548,-0.887365,0.142081,-0.379593,-0.33016,0.641101,-0.710194,-0.687402,-0.0382741,-0.471259,0.59169,-0.390719,0.148466,0.350705,-0.923074,0.318491,-0.2324,0.175868,-0.311571,-0.599675,-0.468642,0.207939,-0.499858,-0.823047,-0.833906,-0.179847,0.384988,-0.602132,-0.413463,0.251945,0.195796,-0.288504,0.456473,0.714449,0.456746,0.852207,-0.0102163,0.844274,0.0723681,0.561564,-0.709996,0.696421,0.492648,-0.609615,0.511228,0.27493,0.442284,-0.622641,-0.885974,-0.140991,0.887217,-0.566593,-0.432226,-0.115133,-0.451532,0.291315,0.386328,
7th node's weight,0.21969,0.0478326,0.601938,-0.47763,0.333388,-0.638817,-0.649529,-0.0383403,0.183284,0.518691,-0.636048,0.688144,0.291386,0.703866,0.969084,-0.968447,0.600884,-0.6305,0.525782,-0.954273,0.214519,0.334778,-1.00106,0.349139,0.721712,-0.840036,0.658469,0.436246,-0.420942,-0.128241,-0.322604,-0.870409,0.787264,0.261783,-0.250438,0.620513,0.33293,-0.913325,0.118241,-0.975242,0.389831,0.415238,-0.671862,0.249297,-0.690983,-0.61065,0.387669,-0.81919,0.342816,0.548175,-0.918868,0.0848857,0.00466512,0.0557738,-0.779762,0.289121,0.716076,-0.198377,0.123591,0.498073,0.112024,0.200786,0.49258,-0.407827,-0.106485,-0.822862,-0.878525,-0.472401,-0.520507,-0.621196,-0.365091,0.426416,-0.447006,0.88144,0.176397,-0.838734,0.1746,-0.295468,0.687628,-0.127124,0.763001,0.77375,-0.949119,0.437083,0.924679,0.321388,0.34377,-0.684462,0.613271,-0.474564,-0.927003,-0.505667,0.115257,0.85415,0.178246,0.240343,-0.560167,-0.20749,0.0170758,0.448132,
8th node's weight,-0.624373,-0.248041,-0.946881,0.198617,-0.456746,0.175429,0.33592,0.292769,0.928512,-0.315922,-0.519976,-0.450397,0.432583,-0.69156,-0.210143,-0.103474,-0.464439,0.309263,0.556248,0.155491,0.436206,-0.389575,0.125128,-0.223786,-0.124263,-0.192249,-0.872197,0.40836,0.0354909,-0.0210954,0.88358,0.372966,0.919509,-0.408705,0.168396,-0.180581,0.0220302,-0.17642,-0.748998,0.119984,0.272224,0.363134,0.270757,-0.892184,-0.26021,-0.635336,-0.6162,0.217713,-0.116251,0.847758,0.870962,-0.13082,-0.402294,0.61679,-0.314118,-0.0974574,0.418891,0.353532,-0.876904,0.00883271,-0.0239633,-0.0042065,-0.0570546,0.341295,0.10884,-0.234179,-0.640157,-0.641621,-0.164821,-0.701725,0.620041,0.61643,-0.746225,-0.979524,-0.212844,0.674988,0.174204,0.474168,-0.435826,-0.677676,-0.97804,0.425956,0.453851,-0.0929707,0.0690917,-0.933057,-0.195793,0.170637,-0.439058,0.479845,-0.348485,-0.261152,-0.853636,0.347934,0.615811,-0.858829,0.694425,0.0933397,-0.637236,0.193287,
9th node's weight,0.28066,-0.923458,0.364549,-0.774656,0.993665,-0.771388,0.628204,-0.165678,-0.765383,0.511884,0.942838,0.354023,-0.976747,0.258781,0.956704,0.93314,0.855863,1.12097,0.725276,0.157122,0.41748,0.359783,-0.159375,0.521271,0.315718,-0.219775,0.555437,0.741479,0.905852,-0.132082,-0.188035,0.182683,0.352613,-0.572802,0.614773,-0.938259,-0.00301387,-0.440074,-0.471497,-0.148356,-1.05034,-0.223831,0.581226,0.232926,0.0849782,-0.410878,-0.163686,-0.389421,0.181096,-0.656712,-1.00369,0.04385,0.904594,0.105738,0.151006,0.310743,-0.80708,-0.342511,0.0479596,-0.605472,0.741654,-0.724567,0.367017,-0.452983,-0.10218,0.83686,0.144125,0.244019,-0.404625,0.870769,0.0231879,0.929343,0.58893,-0.763042,-0.97573,0.601426,0.739077,-0.899453,0.924122,0.584347,-0.011848,0.0590899,0.951969,0.348482,0.335691,0.647697,1.01124,0.0298182,-1.01016,0.566839,0.213261,0.912237,-0.0696788,0.974944,-0.129014,0.100526,-0.404382,0.877997,-0.840081,-0.374503,
10th node's weight,-0.386146,-0.808077,-0.546389,0.295973,-0.488944,0.403335,-0.230186,-0.0924431,-0.316415,-0.086453,0.0714066,-0.416835,-0.426262,-0.687751,0.425113,-0.814766,-0.245328,0.0397933,0.277471,-0.0879667,0.845204,-0.228222,-0.868607,-0.0458919,-0.445721,-0.222216,0.72828,0.0601001,0.404264,-0.357908,0.36272,0.875572,0.00782519,-0.444018,0.320544,0.648257,0.651286,0.710618,-0.169103,-0.949012,-0.801194,-0.0406359,-0.158706,0.646636,-0.571579,0.679117,0.993877,0.471856,0.679086,-0.779145,0.205469,-0.297785,-0.780515,0.419166,-0.442781,-0.023699,-0.880165,0.615762,-0.429701,0.696913,0.587297,0.0326423,0.699573,0.859949,-0.35333,-0.255341,0.646266,-0.992488,0.221839,0.555512,0.790927,-0.297893,0.558237,-0.805157,-0.7997,0.435177,0.165661,0.563874,-0.820849,-0.19602,-0.167993,-0.302271,0.143594,0.0579066,-0.717519,-0.767881,0.599516,-0.539742,0.633136,-0.115381,0.739967,0.957173,0.499962,-0.317732,-0.900204,0.614671,-0.280053,0.878414,0.184761,0.173296,
11th node's weight,0.548371,0.116159,0.372729,-0.403554,-0.671469,-0.817327,-0.204682,-0.43952,-0.800708,-0.811628,0.346215,-0.745385,-0.92798,0.550349,-0.974277,0.654321,0.392413,0.245113,-0.529289,-0.62047,0.376621,-0.83776,-0.294195,-0.436857,0.253622,-0.482859,0.181748,-0.643135,-0.56412,-0.538843,0.0524105,0.323941,-0.680967,0.384568,0.381566,-0.700632,-0.0357289,-0.586661,-0.608454,0.787224,-0.167853,-0.163429,-0.135939,0.81226,-0.258215,-0.0655196,-0.643938,0.134922,0.448433,-0.415398,0.764598,0.316058,0.69072,-0.0894219,-0.610034,0.289316,-0.569356,-0.303353,-0.0902928,-0.835204,-0.229814,-0.0287709,0.387127,-0.220813,-0.573338,-0.12172,0.495909,0.4081,-0.54435,-0.753703,0.753296,-0.340213,-0.81409,0.180562,-0.322918,0.950862,-0.727726,0.620758,-0.756737,-0.772089,0.426535,0.283845,-0.96595,0.883373,-0.658174,0.270996,-0.937423,0.213521,0.982067,0.656218,-0.489419,0.589244,-0.158624,-0.760307,0.923102,0.588621,0.729127,0.56007,-0.81341,0.0171865,
12th node's weight,-0.651443,-0.961301,0.334607,-0.0688152,-0.687483,0.518635,-0.589111,-0.361575,-0.478915,0.643116,0.130123,-0.801186,0.136261,0.646867,0.109462,0.751038,0.76956,0.101986,-0.0743797,0.54625,-0.124446,0.849017,-0.42299,0.58698,-0.535403,0.209632,0.037914,0.949739,-0.695736,0.527181,0.70879,-0.819299,-0.373363,-0.542681,-0.370071,0.526879,-0.887238,0.56401,0.549738,-0.932123,-0.773545,-0.554913,0.915226,0.0404638,-0.529322,-0.742444,-0.306383,0.953217,0.246041,-0.159971,0.0973105,-0.707531,0.862755,0.945748,0.0547286,-1.09397,-0.00319771,0.168666,-0.907191,0.876375,-0.263442,-0.811222,0.325058,1.05055,-0.470127,-1.00038,-0.261821,-0.826219,-0.0559301,0.857159,0.684116,0.678728,-0.0897689,0.000169823,0.417394,0.0182828,0.777438,0.297899,-0.0840712,-0.146113,0.998363,0.636264,0.708478,-0.336377,0.84919,0.317524,0.687091,-0.424712,-0.292508,-0.91605,-0.136805,0.631853,0.775095,0.867378,0.577837,-0.881927,0.503001,-0.570939,0.959703,0.824394,
1th hidden layer's weight
0th node's weight,-0.0410444,-0.185584,-0.0945054,-0.63578,0.326632,-0.697184,0.703135,0.672329,-0.855839,-0.30624,-0.790428,-0.956072,0.725856,0.398973,-0.58153,-0.787016,0.6841,0.476478,-0.770014,-0.0618508,-0.860634,-0.408743,-0.373886,0.108917,0.539008,0.74347,0.740842,-0.721409,0.430385,0.735863,0.291224,0.497978,0.227326,-0.243702,0.608214,0.305286,-0.480711,-0.416001,0.896324,-0.116053,-0.51878,0.759565,0.949081,0.0646859,-0.0181441,0.406148,-0.708979,-0.847718,0.649833,0.84907,-0.348914,0.0949911,-0.739714,0.290777,-0.647838,-0.737613,-0.322387,-0.159329,-0.783091,-0.561349,0.666195,0.619358,0.407286,1.04,-0.901343,0.674569,-0.654801,0.681318,-0.66102,0.973986,-1.02661,-0.4285,0.155201,-0.557657,0.378826,0.0309997,-0.0292885,-0.866243,0.584101,-0.278041,0.425123,0.291351,-0.06649,0.527255,-0.225126,-0.854705,-0.0739033,0.230673,-0.920974,-0.882069,0.746418,0.0099087,-0.582542,-0.18142,0.347161,0.517423,-0.811066,0.798285,0.875009,0.916719,
1th node's weight,-0.529353,0.183627,0.157837,-0.921467,0.0105286,-0.363676,-0.797955,-0.590179,-0.313565,-0.0718861,-0.271565,0.0666308,-0.0330084,-0.872399,0.177396,0.678804,-0.620064,0.633787,-0.847864,-0.127156,-0.368221,-0.917372,-0.59669,0.626984,-0.416314,-0.339428,0.940971,-0.21309,0.451893,0.2922,-0.17776,0.81864,0.701042,0.143538,-0.924569,-0.603647,0.278761,-0.680007,0.896262,-0.611029,0.413149,0.747382,-0.916362,-0.550803,-0.313985,-0.00781303,0.699652,-0.36513,0.534799,0.79352,0.935633,0.275764,0.898328,-0.148403,-0.00340185,-0.963872,-0.203394,-0.33612,0.855421,0.851066,0.799532,0.831632,-0.00623174,-0.41066,0.0643322,0.258158,0.0207,-0.47532,0.792747,0.836609,-0.100625,0.525251,0.0624962,-0.771751,0.896526,-0.17296,0.0150351,-0.799129,0.826356,-0.417229,0.833142,0.0558174,0.636304,0.388732,0.42175,0.250355,-0.843555,0.293194,0.213243,0.705138,0.711929,0.0291794,-0.983937,-0.507522,-0.522779,-0.288011,0.642481,0.31949,-0.115783,0.794842,
2th node's weight,-0.431866,-0.998666,0.00259186,-0.821617,0.57654,-0.39626,-0.387487,0.341413,0.530335,-0.0406217,0.426468,-0.775554,0.0727406,0.610738,0.102577,0.479726,0.514128,0.0594308,0.124399,-1.01132,0.215388,0.975282,0.755811,-0.0174037,0.0364998,0.653161,0.0519657,-0.298502,-0.166883,0.387793,0.506308,0.747741,0.0593469,0.36265,-0.498293,0.173733,-0.267829,0.608363,-0.357169,-0.0645292,-0.374442,-0.944564,-0.714674,0.354478,0.667159,0.955782,-0.326643,-0.412619,0.597627,-0.674169,0.305088,-0.955255,-0.02397,0.169549,0.883565,-0.919331,-0.692338,0.87085,0.702718,0.579933,0.588333,0.915374,-0.965579,0.120934,0.467258,-0.956642,-0.586948,0.46039,-0.0150138,0.0228113,0.773042,0.119204,0.801061,-0.968015,0.192205,0.652111,0.515025,0.545259,-0.503672,0.913808,0.341749,-0.878522,0.319024,0.640312,-0.455175,0.246917,0.149074,-0.473096,0.355496,0.11248,-0.301019,-0.391719,0.761977,0.423313,-0.622419,-0.096087,0.205517,0.581815,-0.508389,-0.367468,
3th node's weight,-0.520166,0.661548,0.0463731,0.687982,0.745828,-0.638796,-0.731186,-0.510394,-0.138634,-0.427748,0.333638,0.622806,-0.958472,-0.924359,0.275245,-0.298789,-0.990079,-0.00644555,0.443783,0.0807867,0.569964,-0.106872,0.337055,-0.826507,0.329669,0.209967,-0.923399,-0.823972,-0.579087,-0.674303,-0.111687,-0.0624548,0.246707,0.473386,1.02406,-0.137446,0.826906,0.784036,0.815533,0.422563,-0.100358,-0.181281,0.221984,0.323809,-0.466061,-0.887344,0.831126,0.656956,0.349211,-0.201943,0.0185848,-0.52085,0.0716745,-0.924611,-1.03815,-0.787025,-0.283716,-0.686228,-0.451556,-0.329187,0.855731,-0.87753,-0.534185,0.178312,-0.0376669,-0.439001,-0.376152,0.427292,0.132659,0.653489,0.78781,-0.879955,-0.822178,-0.497708,0.800946,-0.217438,0.0533199,-0.10535,0.9163,0.360431,0.236977,0.0306874,-0.371335,0.876233,0.386832,-0.00651424,0.389495,0.0743312,0.62368,0.0467596,-0.576711,0.961471,0.144158,0.147957,0.0209736,0.363899,-0.775624,0.536767,0.658667,0.811757,
4th node's weight,-0.364692,-0.208711,0.525017,-0.701927,-0.85227,0.887837,-0.00234551,-1.04145,-0.713099,-0.716808,-0.0680947,0.603976,0.511989,-0.612566,0.645644,0.0637067,-0.765223,-0.574165,-0.562995,0.918587,0.858535,0.91844,-0.304256,-0.04038,0.100458,0.830462,0.228551,0.834941,0.0452151,0.0885217,0.870807,0.341803,0.0213022,0.6555,-0.793621,-0.629742,0.967373,0.541507,-0.545713,0.330801,-0.292553,0.910625,0.647915,-0.196589,-0.121911,0.543201,-0.264615,-0.371358,-0.709702,-0.920941,-0.132254,-0.609224,0.791368,-0.517647,0.0750511,0.588239,-0.547665,-0.342379,-0.117795,-0.23213,-0.335595,0.831062,0.71484,-0.500756,-0.610906,-0.380191,-0.193671,-0.670835,0.238432,-0.526912,0.034115,-0.399017,0.311847,-0.255195,-0.580752,-0.202524,0.238915,0.144041,0.259476,-0.272204,-0.772438,0.651479,-0.455078,-0.852537,0.731769,0.851396,-0.777343,-0.587236,0.150942,-0.34396,0.608527,0.0569583,-0.193967,-0.290933,0.257706,0.611386,-0.479374,0.369227,-0.339365,0.749754,
5th node's weight,-0.999383,-0.669197,0.898572,-0.900978,0.0882754,0.351693,0.894171,0.996569,0.771334,-0.232302,0.151334,-0.554082,0.652374,0.565362,0.233731,0.369451,-0.111535,-0.262579,0.516964,-0.858992,0.943501,0.0875457,0.27981,0.945809,0.571038,-0.373892,0.759061,0.0555037,0.317657,0.325237,0.564984,-0.180593,-0.660494,-0.606169,0.119805,-0.6052,0.483985,0.444989,0.608447,-0.534775,0.429914,0.910413,-0.820957,-0.431496,-0.256687,-0.340241,-0.36544,-0.894326,0.651161,-0.0681233,-0.781153,-0.753993,-0.714214,0.637954,-0.450067,-0.22483,0.0336454,0.568841,0.610887,-0.952289,0.705285,-0.556854,0.592659,0.570806,-0.551249,-0.218437,-0.523426,0.542512,0.472392,0.84441,0.12698,-0.0501985,-0.745831,0.873952,-0.68938,0.23299,-0.851384,0.301482,0.729592,-0.432993,0.761246,-0.48572,0.647221,0.0217087,-0.300407,-0.744171,-0.407834,-0.266998,0.602627,-0.302887,0.47591,0.526639,0.901641,0.764299,-0.78738,0.374735,-0.427755,-0.0889684,0.903117,0.67305,
6th node's weight,0.1648,-1.03183,-0.84982,-0.0218497,0.556088,-0.456361,-0.495842,-0.206829,0.116318,-0.0843013,0.11783,0.72769,0.583598,-0.402964,0.997229,0.647896,0.704535,0.521062,-0.816267,-0.257388,0.435797,-0.246556,-0.0126331,0.958054,-0.409386,-0.840258,0.78019,-0.102188,0.863695,-0.863211,0.75021,-0.718887,-0.423484,0.948203,-0.215982,-0.718935,0.728445,0.575732,-0.954143,0.928165,-0.115345,0.422281,-0.624639,0.0752757,-0.617216,0.440777,-0.0477567,-0.756823,0.398918,0.363353,-0.642576,0.32023,0.74667,0.707529,0.620616,0.276801,-0.197181,-0.137115,-0.661109,-0.961047,-0.54055,-0.512847,-0.586808,-0.668259,-0.200824,0.0692877,-0.513999,-0.879514,-0.931914,0.827355,-0.358238,-0.921949,-0.171418,-0.909237,0.607125,0.573876,0.888968,0.0570172,0.393783,-0.381264,0.580252,-0.449278,0.959799,0.0584257,-0.725659,-0.143835,0.380654,0.896145,-0.688006,0.0212249,-0.768226,0.660315,-0.176004,-0.879666,0.524014,-0.0204313,-0.352387,-0.758341,-0.624123,0.369867,
7th node's weight,0.812174,0.159701,-0.333454,0.00598954,-0.263935,-0.336853,0.483016,-0.24319,0.0141856,-0.156544,-0.239411,-0.128107,-0.767481,0.71498,-0.228968,0.335581,0.16754,-0.329673,-0.016978,-0.168447,0.994927,-0.722639,0.890231,0.690003,-1.02831,0.0243747,-0.694562,0.399886,0.7666,0.851031,0.0311567,0.397595,-0.84543,-0.901126,0.842496,-0.205599,0.0836339,-0.282808,0.207855,0.516776,-0.813312,0.197338,0.115093,0.156897,0.811777,0.985735,-0.78256,-0.26231,0.915966,1.00957,0.546184,-0.447844,0.796431,0.896009,-0.318504,0.609972,0.363667,0.946888,0.488052,-0.870151,0.684709,-0.11906,-0.924101,-0.165832,-0.788816,-0.0015913,0.88492,0.747302,0.820255,-0.345878,-0.492609,0.321568,0.221197,0.285965,-0.773027,-0.363267,0.72525,0.0990269,-0.826962,-0.710421,0.924743,0.62001,-0.940507,0.830457,0.578738,0.641496,0.893794,0.288506,-0.625838,0.326387,-0.937384,0.95638,0.147545,-0.0468201,0.562858,-0.974437,-0.783553,0.706287,-0.0954622,-0.589186,
8th node's weight,-0.588103,0.178803,0.613296,0.952678,0.434926,0.718716,-0.544234,0.428282,0.903737,-0.305936,-0.276536,0.216861,-0.364545,-0.00617893,0.500779,0.724456,-0.547077,-0.261579,-0.871849,0.0159429,0.875535,0.802474,-0.620609,-0.0648038,-0.641604,-0.315219,-0.0379619,0.0987651,-0.0572849,-0.0403957,-0.0341441,0.639533,0.957868,0.673331,-0.629536,0.434245,0.786591,0.157935,0.503503,-0.0207242,0.0124233,-0.212191,0.0937218,-0.549048,-0.154193,0.929183,-0.587586,-0.192219,-0.964618,-0.791315,-0.97384,-0.744619,-0.73591,0.0808274,-0.441895,-0.196637,-0.964434,0.0682344,-0.222554,0.565939,0.645374,-0.822131,-0.945796,-0.725266,0.239233,-0.469298,-0.11547,0.868645,-0.135663,-0.0505649,-0.513435,-0.8716,0.471621,0.239079,-0.66724,0.760489,0.616032,0.399785,-0.995912,-0.124389,0.706069,0.493273,0.605887,-0.823592,-0.810547,0.967038,0.925826,-0.976401,0.230931,0.276101,0.528651,-0.899813,-0.277567,-0.537828,0.478469,0.595402,0.286503,0.613999,-0.265618,0.443248,
9th node's weight,0.717988,-0.7946,-0.51712,0.404032,0.516615,0.132877,0.478795,-0.017595,0.123092,0.988786,-0.800754,-0.950431,-0.0984723,0.226808,-0.739938,-0.297867,0.925809,0.633228,0.335598,-0.75268,0.0409473,0.555927,0.059762,0.705205,0.969305,-0.966064,0.793225,-0.386156,-0.389996,-0.0739944,-0.18647,-0.261142,-0.336905,-0.102505,0.0377885,-0.126445,0.711268,-0.504363,-0.0359617,-0.263572,0.576593,0.652712,-0.448948,0.75235,-0.348053,0.902854,-0.96466,0.926929,0.727433,-0.916444,0.715675,0.806219,0.957487,-0.38587,0.34733,0.771514,0.876203,-0.919965,0.61625,-0.683756,-0.838308,0.888745,0.161061,0.380976,0.653998,-0.166328,0.99583,-0.500865,-0.211971,0.887148,-0.835475,0.765785,-0.755199,-0.135536,0.116574,-0.87654,0.70332,0.484782,0.37385,-0.463607,0.00963422,-0.457514,0.520013,-0.219921,0.148362,-0.755067,0.56325,-0.463321,0.198515,0.604348,0.448183,0.0474015,-0.902051,-0.217037,-0.754244,0.00430883,-0.234999,-0.897335,-0.546496,0.332748,
10th node's weight,-0.0402952,-0.331122,1.00561,-0.773715,0.95888,0.377991,-0.336133,-0.291632,0.990396,0.840561,0.0847318,0.316635,0.84497,0.366253,-0.362368,-0.260455,0.575545,0.366706,0.891808,0.566698,-0.575514,-0.428647,0.319649,-0.0555486,-1.01305,0.248677,0.16092,-0.172468,-0.896545,0.598979,0.182191,0.881952,0.398501,0.880116,-0.469858,0.508393,-0.0140443,0.744083,-0.350861,-0.45931,-0.782845,0.43204,-0.120191,-0.278806,0.569953,0.490523,0.635706,0.306751,0.76454,-0.131468,-0.404311,-0.855329,0.0789489,0.534791,-0.712873,0.97971,0.105054,-0.0160122,-0.668782,0.782607,-0.441613,-1.03275,-0.30788,0.513065,0.149238,-0.796219,0.701983,-0.842667,0.623454,-0.182781,0.503383,-0.883086,0.966824,0.303124,0.276362,-0.426404,-0.142828,-0.15822,-0.596551,-0.0597105,0.545928,-0.552676,-0.313544,0.112055,0.823805,0.297949,0.569678,-0.79409,-0.169154,0.313586,0.536585,-0.652257,0.22346,0.372715,0.881444,0.453479,0.963085,0.471733,-0.847848,0.166062,
11th node's weight,0.932777,-0.129404,-0.494765,-0.396838,0.707017,0.0848813,-0.374402,-0.889947,0.514463,-0.279749,-0.118493,0.164453,0.915761,0.532047,0.691582,0.130154,0.944055,0.173295,0.239084,0.698352,-0.87496,0.107133,0.158204,0.660703,0.692256,-0.739352,-0.441074,0.638913,-0.225876,0.361288,-0.276625,-0.847729,0.220022,-0.609485,-0.109666,0.4792,-0.160126,-0.373455,0.773544,0.439923,0.354356,-0.539147,-0.219295,0.069626,-0.736305,0.218581,0.423937,-0.409556,0.0146457,0.360386,0.872957,-0.885741,-0.654262,-0.906646,0.917352,-0.976034,0.182455,0.608479,0.0958745,-0.149774,0.932995,0.998172,0.0569005,0.436249,-0.0607474,-0.828377,0.467748,-0.493269,-0.0634278,0.781148,-0.254623,-0.198399,0.376156,-0.10812,0.843605,-0.30143,-0.390804,0.645218,-0.102955,-0.0110705,0.143896,-0.847091,-0.524363,-0.209837,-0.526157,-0.267141,-0.0634586,-0.214988,-0.333066,0.138391,0.382919,-0.126307,0.997655,0.279891,0.797742,0.89819,0.0340654,-0.611558,0.975192,0.380848,
12th node's weight,0.375913,-0.441275,0.20264,0.239153,0.694614,-0.148005,0.960689,0.972004,0.224891,-0.170342,-0.861747,0.0680409,0.496575,0.47282,0.876736,0.203274,-0.00997226,0.600834,0.86737,0.676132,0.528051,0.770393,0.0936137,0.72555,0.753955,0.479712,-0.883653,0.584125,-0.307146,-0.226416,0.659366,0.202714,0.383837,0.922101,0.358702,-0.94989,-0.593059,0.685819,0.249026,-0.380498,0.38966,-0.922472,-0.809518,0.188665,0.221685,-0.161922,-0.977595,-0.343025,0.274536,0.763312,0.297448,-0.891234,-0.154918,0.747974,0.0672103,-0.015526,0.699389,-0.469799,-0.413308,-0.0380651,0.291987,0.445953,0.50843,0.771001,-0.339681,0.258873,0.640771,-0.930183,-0.385883,0.0679748,0.773988,0.819434,0.166191,0.684334,0.0242523,-0.397018,-0.371782,0.120221,-0.0907122,-0.103727,0.0439052,-0.369297,-0.581878,0.533774,0.275074,0.221786,-0.106207,0.59601,-0.364527,-0.882731,-0.195536,-0.370049,-0.701324,0.751255,-0.0467093,-0.2949,-0.737061,-0.815916,0.488995,0.422616,
13th node's weight,-0.351331,-0.0171413,0.00679108,-0.259883,-0.21326,0.216015,0.560044,-0.841488,0.204839,-0.0609819,-0.459961,0.278031,0.648588,-0.752409,-0.73173,-0.825464,0.0760683,-0.96364,-0.549223,0.430235,-0.0755746,-0.1655,-0.611262,0.629843,0.45996,-0.797387,-0.988784,-0.551914,0.0927746,0.0324495,-0.821824,-0.648086,0.602578,0.454825,0.826471,0.374736,0.91994,-0.819349,-0.228601,0.496896,-0.955361,0.677053,0.0108744,0.0484376,-0.412825,0.227838,-0.95513,-0.79706,0.626836,0.78689,-0.610701,-0.223892,0.893667,0.434408,-0.768528,-0.816894,-0.435592,0.968205,-0.498919,0.0961448,-0.102607,-0.335719,-0.0799944,-0.88331,-0.768671,0.704996,-0.904069,0.570165,0.509541,0.0903734,-0.455486,-0.341191,0.652399,-0.977375,0.803769,0.59056,-0.0419491,0.253349,0.546834,0.359797,0.865034,-0.997784,0.843909,0.487376,0.885755,-0.267471,-0.115342,0.5968,0.540663,-0.135692,0.970512,-0.799686,0.426338,-0.853769,0.221071,-0.855061,0.92401,0.817664,-0.85753,0.198171,
14th node's weight,-0.218253,0.824068,-0.901999,-0.961412,0.280757,-0.420955,0.683819,0.965966,0.59599,-0.553562,0.298358,0.121226,-0.259187,0.298609,-0.677458,0.597478,-0.71768,-0.139544,0.732992,-0.279405,-0.847668,-1.03372,-0.982178,0.495512,0.704354,0.713986,-0.705216,-0.58272,-0.733866,0.859611,0.0912299,-0.901646,0.551633,0.0733267,0.85404,0.304404,-0.436567,-0.52587,0.937519,0.222414,-0.0186393,0.961083,0.0218029,0.572543,0.0396132,-0.719328,0.447682,-0.721494,-0.777262,-0.338933,0.195735,-0.439145,0.814035,0.776791,0.389709,-0.916367,-0.930221,0.635935,0.561545,0.651418,-0.0512018,-0.108839,0.638528,0.0810337,0.517271,0.0705351,-0.697379,-0.893031,-0.275115,0.220901,-0.00181693,0.666368,-0.178462,-0.479692,0.146566,0.0100938,0.790879,0.955388,0.237979,-0.291937,-0.1898,-0.735452,0.329212,0.248189,-0.371501,0.694498,0.964664,-0.613271,0.379581,-0.705083,0.743061,0.0550772,-0.556554,0.699387,-0.824047,-0.648261,-0.828849,-0.264766,-0.76447,-0.558439,
15th node's weight,0.284601,0.130555,0.124749,0.427408,-0.103799,0.852218,-0.557512,0.248777,0.488031,-0.419383,0.86118,-0.225952,-0.0383446,0.789335,0.705047,-0.294622,0.561544,0.311105,-0.554609,0.97894,-0.260848,0.295502,0.0633175,-0.610543,0.589696,-0.457058,0.150627,-0.676685,0.163915,0.580849,-0.474157,0.400143,0.41157,-0.20415,0.142971,0.525015,0.264822,-0.837044,-0.702643,0.388938,0.105633,0.535238,0.699863,0.15459,0.833423,0.528491,-0.650969,-0.793781,0.697718,0.078516,0.796809,-0.815995,-0.563032,0.971042,0.165373,-0.304786,0.351437,-0.645639,0.695746,0.721951,0.671841,0.111764,0.161027,-0.752633,-0.763707,0.808896,0.734759,0.0299368,0.907203,0.88004,0.0251461,-0.538635,0.886014,0.0600101,-0.459511,0.276921,0.116443,0.488258,-0.149647,-0.536713,-0.937337,0.277915,0.869793,-0.462597,-0.196527,0.148625,-0.329579,-0.261888,0.494113,0.089966,0.577258,-0.630593,0.252348,-0.909611,0.573379,-0.658333,-0.853942,0.448545,0.187807,0.0668135,
16th node's weight,-0.264094,-0.132985,-0.136003,0.08646,0.843047,0.477042,0.90127,0.479566,-0.0178684,-0.61053,-0.589001,-0.00224003,0.753226,-0.93395,-0.326757,-0.910634,0.716298,0.640632,-0.0347175,0.82762,0.85661,-0.819891,0.276609,-0.120455,-0.180153,-0.600509,0.856342,-0.139318,-0.150299,0.227767,0.533589,-0.5553,-0.16063,0.863332,0.749436,0.0422502,-0.00470369,-0.689867,0.575534,-0.579273,-0.198977,-0.625239,0.0661142,-0.365818,-0.736932,0.255415,-0.0803318,-0.217458,-0.815156,-0.851378,0.81427,-0.928699,-0.763613,-0.309277,-0.619111,0.742696,-0.596076,-0.23153,0.522692,0.0489121,-0.489714,-0.190896,0.912391,-0.0673921,0.933329,0.856257,-0.760068,-0.478504,-0.16223,0.86902,0.0774414,-0.851168,0.268604,-0.341747,-0.016001,0.654233,0.169725,-0.942458,0.327651,0.505713,0.418381,0.675613,0.3426,-0.0521675,0.0179855,-0.673778,-0.82592,0.753558,0.114376,0.0783705,-0.634431,-0.197526,-0.110622,0.26258,-0.493566,0.174176,-0.926807,-0.798243,-0.586624,0.241134,
17th node's weight,-0.308371,-0.511892,0.866493,-0.526068,-0.484138,-0.936783,0.743321,0.34733,0.697792,-1.06999,0.340959,0.126772,0.848626,0.591418,-0.145898,-0.736251,0.840447,0.545027,0.5961,0.508686,-0.588503,0.598509,0.0810247,0.233928,-0.515335,-0.162312,0.444928,-0.136448,0.320812,-0.141357,0.21712,0.804481,0.572341,0.369212,0.608442,0.176699,-0.256237,0.86766,0.526775,0.540575,0.0973664,-0.637162,-0.866666,-0.365801,-0.141573,0.354244,-0.179917,-0.604881,0.338231,0.13911,0.743068,-0.839182,-0.602528,0.859218,-1.16704,0.0504283,-0.602874,-0.733886,-0.813438,-0.520248,0.372994,-0.29427,0.89317,-0.934924,-0.0616018,0.763509,-0.587255,-0.116503,-0.958125,-0.63182,0.584197,-0.598467,0.292695,0.718662,-1.0613,-0.754563,-0.804781,0.966325,0.757716,0.880766,0.12869,-0.723039,-0.464929,-0.163907,-0.623807,-0.595925,-0.497317,-0.331354,-0.949444,-0.658295,0.509758,0.460901,0.144429,0.635226,0.881212,-0.431093,0.201113,0.392223,0.412156,-0.258157,
18th node's weight,-0.583671,0.448212,0.222868,0.959655,-0.20507,0.435827,0.155216,-0.569951,-0.467677,-0.986616,0.0763733,-0.213927,0.400779,0.266135,-0.158841,0.59873,0.324125,-0.423266,-0.797288,-0.600827,-0.769336,0.306954,0.547496,-0.211383,-0.615728,0.607681,-0.475089,0.762093,0.838626,-0.241795,-0.0626491,0.737757,0.777303,0.847714,-0.23699,0.667617,-0.0931565,-0.492661,-0.608704,-0.100908,-0.216492,0.214331,-0.0619678,0.353076,-0.984063,0.81876,0.279965,0.63626,0.934661,-0.469326,-0.480176,-0.978531,-0.49728,0.141191,-0.822224,0.464482,-0.943914,-0.7028,0.93099,0.222481,-0.721373,-0.300798,0.606723,-0.167813,0.296404,0.670582,-0.772599,0.979668,-0.549687,-0.594741,0.046551,-0.693536,-0.207027,0.740335,0.925449,0.650212,0.274665,0.435389,-0.512712,-0.544759,0.201794,0.160779,-0.116984,-0.331167,0.304663,0.679233,0.335653,-0.272453,-0.66808,0.566492,-0.771478,0.7226,-0.212474,-0.707624,-0.213252,-0.352088,0.342338,-0.651471,-0.56141,-0.933871,
19th node's weight,-0.0640677,-0.248882,-0.636534,0.375451,0.361615,-0.445187,0.306832,-0.0161002,0.948983,-0.764445,-0.495631,-0.416512,-0.936434,-0.559799,0.682937,0.627398,0.0966509,0.851043,0.43646,0.356775,-0.30151,0.857619,-0.739888,-0.156695,0.346588,0.787678,-0.631297,0.127173,-0.52142,-0.0294394,-0.335419,-0.220513,0.880566,0.826912,-0.597707,0.610556,0.939186,0.111846,-0.523328,0.653215,0.5151,-0.281862,0.422203,0.505172,0.840614,-0.102064,-0.383412,-0.851011,0.00934539,-0.679205,0.315484,-0.858623,-0.415307,0.500106,-0.0231084,-0.0916811,0.631773,0.677344,-0.666973,0.0271058,-0.0817076,-0.969919,-0.202421,0.729552,0.687002,-0.969722,0.34176,0.164081,-0.330385,0.375477,-0.168184,0.693906,0.574826,-0.589756,-0.663865,0.583336,0.485342,-0.753552,-0.664261,0.94771,0.598892,0.95508,0.796213,-0.625409,0.204164,0.6519,-0.848307,-0.226875,0.524217,0.0838929,-0.797615,0.0968368,-0.532193,-0.325863,0.566436,-0.774453,-0.0390481,0.81465,-0.00886213,-0.125787,
20th node's weight,0.783767,-1.02039,0.0895714,0.167254,-0.967746,0.751769,-0.8244,-0.78534,0.504295,-0.489804,-0.227235,-0.720899,0.665029,-0.367351,0.836179,-0.0263669,0.63439,-0.98256,-0.465339,0.592119,-0.42056,-0.408607,0.690295,-0.93848,-1.00625,-0.497495,0.497017,0.365636,0.816392,-0.707558,0.939145,-0.308946,0.576308,0.225893,-0.0897922,0.945655,-0.473741,-0.648029,0.253829,0.277526,-0.562477,0.554029,0.259028,-0.442474,-0.647551,-0.912884,0.937013,-0.0175718,0.62904,0.365527,-0.301519,0.102722,0.585975,-0.392645,-0.987308,0.88464,0.838279,0.394158,0.832307,-0.652233,0.976676,0.394884,0.828201,-0.210708,-0.298074,-0.306849,0.2249,0.582819,0.817078,0.21747,0.55624,-0.804886,0.644397,0.212813,-0.19414,0.383779,0.772632,-0.617643,0.759625,0.839417,0.379135,0.657945,-0.795023,0.00889291,0.647462,-0.232694,-0.549143,0.200951,-0.156368,0.0263464,0.248538,0.822906,-0.808627,0.41684,-0.144742,-0.130073,0.708425,-0.63493,-0.699101,-0.852712,
21th node's weight,0.804245,-0.289345,-0.921399,0.463859,0.558178,-0.978229,-0.929422,-0.789298,0.171562,-0.92288,0.491447,-0.00119826,0.831745,0.708784,-0.436816,-0.993389,0.739904,0.470788,-0.617053,0.100274,0.126847,-0.647612,0.240054,0.792901,-0.793137,0.708576,-0.516237,0.843068,-0.448886,0.0260089,-0.662211,0.889501,0.348508,-0.719926,-0.175472,-0.35356,0.135209,0.232196,0.844859,-0.0985799,-0.986607,-0.714997,-0.62054,-0.870245,-0.19785,0.789458,-0.643366,-0.0282152,-0.0462451,-0.376216,0.727369,-0.175461,0.764807,0.0519962,-0.15259,0.394495,-0.657962,0.723084,0.493564,0.371308,0.185842,-0.553448,0.422962,0.370519,-0.43054,-0.0101926,0.533065,0.419508,-0.820878,0.547108,0.892629,-0.319897,0.129882,-0.386963,0.523316,-0.589799,0.95252,-0.991676,-0.989192,0.232987,-0.429229,-0.312888,0.984368,-0.737669,-0.100466,0.00793971,-0.0780148,-0.209361,0.470586,-0.622777,0.795988,0.689839,-0.402084,0.158222,0.170661,0.0988517,0.626523,0.806777,-0.644128,0.205427,
22th node's weight,0.952114,-0.798144,-0.249307,-0.39026,0.236433,0.0217192,-0.131581,0.283889,-1.00547,0.352606,0.364044,0.38575,0.109293,-0.550986,-0.405893,0.680977,0.625921,-0.149909,-0.580426,-0.517417,-0.398312,0.859528,-0.153178,-0.0669065,-0.938339,0.723827,0.287768,-0.0854081,0.22981,-0.121821,0.693564,0.930818,-0.50879,-0.252485,-0.0712719,-0.270893,0.910547,0.824936,-0.319849,-0.693369,-0.775273,0.719721,0.358728,-0.294148,-0.363405,-0.996108,-0.0950773,-0.181541,0.729489,-0.16023,-0.399363,0.356658,-0.855588,-0.0930792,-0.903567,-0.127302,0.757459,-0.930475,0.314926,-0.134672,0.394218,0.734174,-0.374714,-0.48425,-0.361094,-0.347844,0.457005,-0.654779,-0.466183,0.846702,0.582843,0.854294,0.39502,-0.558405,0.00169462,-0.383062,-0.185889,-1.00678,0.648477,0.348576,-0.198467,-0.715423,-0.170977,0.926509,-0.11838,-0.982802,0.804567,0.875558,-0.163568,0.00757188,-0.72745,-0.972841,-0.266158,0.744061,0.0146783,-0.418009,0.168532,-0.578528,-0.0911645,-0.907164,
23th node's weight,-0.282373,-0.57735,-0.841696,-0.676512,-0.199684,-0.248746,0.716077,-0.587127,0.533222,-0.249265,0.456189,-0.149592,-0.139766,0.0707862,0.605242,-0.567939,0.50087,-0.214363,-0.130379,-0.265947,-0.297422,0.376033,-0.0766336,0.132986,0.917412,0.743698,-0.83685,0.167239,0.725879,0.51314,-0.00721707,-0.906736,-0.758312,0.746321,-0.335288,-0.12143,-0.848295,0.37321,0.167555,0.873853,0.354136,0.660856,0.449709,-0.826854,-0.900989,0.866478,-0.805399,-0.219912,0.0731744,0.942211,-0.249943,0.0715007,1.02536,0.5503,-1.01853,-0.565725,0.836055,-0.894581,-0.492559,-0.123013,0.548878,-0.913996,0.0977709,0.507599,0.13315,0.458287,-0.423245,0.514444,-0.68564,0.222475,0.615751,-0.621311,0.224417,0.143432,-0.934329,0.330482,0.972453,0.855771,-0.496236,0.720436,-0.725463,0.082884,0.496419,-0.158963,0.475698,0.659438,-0.964498,-0.354589,-0.798796,-0.787591,0.15845,1.08083,-0.35086,0.678793,-0.83801,-0.3283,0.425437,0.569171,0.846522,-0.010241,
24th node's weight,-0.569571,0.58661,0.902558,0.818735,0.915372,-0.836706,0.902811,-0.920736,-0.741961,0.844518,-0.98001,0.635014,0.156195,0.406917,-0.246317,-0.194886,0.943874,0.27697,0.412691,0.424752,0.152535,-0.544472,-0.604468,0.941996,0.411532,-0.675445,0.501734,0.571508,-0.824403,0.114358,-0.476436,0.22902,0.213495,-0.388404,0.30613,-0.708611,0.794605,0.756993,-0.849072,0.680422,-0.0787804,-0.160474,-0.812264,0.117568,0.759555,-0.949738,-0.346015,0.659881,0.552964,0.0767635,-0.346277,-0.648814,0.677161,0.0975281,-0.261391,-0.0869267,0.0350148,-0.762222,0.603738,-0.684626,0.839608,0.289836,0.0395013,-0.767346,0.530096,-0.340785,0.562041,0.774609,-0.817984,0.934683,-0.891361,0.367942,0.821398,0.353483,-0.963291,0.772478,0.339996,-0.159073,-0.857255,0.127195,-0.279066,0.151296,-0.517327,0.861013,-0.470364,0.370488,-0.576719,0.47464,0.392166,0.162628,0.469589,0.148327,0.429936,-0.417899,-0.590252,-0.587448,0.590643,-0.897991,-0.279983,0.93367,
25th node's weight,-0.0297248,0.721071,0.163998,0.278008,-0.921994,-0.991219,-0.488148,0.0737929,0.173824,0.788271,-0.221154,0.0828353,-0.65127,-0.556589,0.670686,-0.333778,0.823728,0.389008,0.770343,0.380797,-0.21667,0.521461,0.895564,-0.512606,0.781858,0.788329,0.0588223,-0.739085,0.392267,0.505805,0.564779,-0.963541,0.237056,0.0984188,-0.491833,-0.369257,-0.442788,0.319827,-0.746529,0.263703,-0.821521,-0.780606,0.399623,-0.044723,0.126711,0.172562,0.526837,-0.784864,-0.259815,0.855582,-0.928437,-0.641569,0.438703,-0.486446,-0.868335,0.524297,-0.814188,-0.634737,0.549495,0.265949,-0.713772,-0.657528,0.897558,0.906623,0.644852,-0.562953,-0.00549916,-0.387192,0.0207881,0.53053,-0.836859,-0.94023,0.508639,-0.235123,0.634186,0.502888,0.857475,-0.444913,0.445472,0.0425184,0.0372341,-0.301014,-0.678804,-0.117426,-0.894174,0.171964,0.936297,-0.769811,0.359826,0.481507,-0.847666,-0.121282,-0.330573,-0.73622,0.379911,-0.612351,-0.642779,0.688922,0.279555,-0.0299239,
26th node's weight,-0.244118,0.393682,0.308269,0.224004,0.446824,-0.192664,0.144672,-0.357787,-0.0907555,0.931763,1.00113,-0.862691,-0.903452,0.762528,0.735422,-0.163843,-0.00778355,-0.149027,-0.00619639,0.264799,-0.280969,-0.837378,0.965543,-0.852768,-0.950446,0.204203,0.616101,0.228426,0.300726,-0.681871,-0.569765,-0.187865,0.479381,0.721984,-0.611184,0.678498,0.425429,-0.026531,-0.160373,-0.476878,-0.496743,0.0997355,-0.169825,0.425719,-0.212842,-0.246883,0.0129044,-0.688816,0.789435,-0.384242,0.42778,-0.247474,-0.551361,-0.417198,0.399307,0.79323,-0.199306,0.925549,-0.318709,0.482755,-0.0619474,0.315981,-0.270268,-0.621961,0.60194,0.377174,0.557241,0.91137,0.186439,0.603722,-0.550748,-0.0539693,0.689192,0.991941,-0.272854,-0.00320108,0.915198,-0.741755,0.449497,0.747026,-0.291753,-0.726755,-0.911705,0.75593,0.778104,0.636111,-0.855592,0.476916,-0.160587,-0.708817,0.669422,0.806075,0.884064,0.413981,-0.254327,0.100507,-0.900234,0.360212,0.52479,0.622453,
27th node's weight,-0.390428,0.0140235,0.610883,-0.480623,0.568429,-0.456546,-0.520327,0.81116,0.462184,0.488965,-0.499246,0.0666087,0.437111,-0.715556,-0.246832,0.281842,-0.693463,-0.162357,0.157156,-0.215829,-0.980115,0.404284,0.866157,0.754185,0.19685,-0.0427898,0.608829,0.74962,-0.738874,0.0766829,0.991305,0.418361,-0.142853,0.0820194,1.00936,-0.0911318,0.404697,0.0686496,-0.0951709,0.650743,-0.299841,0.661428,0.108571,-0.859867,-0.5978,0.502643,-0.906738,-0.405329,-0.859374,0.215802,0.951341,0.939118,-0.71851,0.193263,-0.406961,0.979358,-0.457264,0.41567,-0.87481,0.122491,0.296445,0.478941,-0.148115,-0.28432,0.109797,-0.0773189,-0.174287,0.00273584,-0.848658,0.880462,0.45844,-0.9126,-0.619851,-0.958769,-0.610994,0.444593,0.636324,0.430965,-0.252338,-0.351222,-0.800157,0.558543,-0.695314,-0.772427,0.332855,-0.591716,0.422505,-0.274799,-0.163655,0.477787,-0.576983,-0.294449,0.356855,0.868937,-0.43816,-0.830569,0.493593,-0.393288,0.199507,-0.579368,
28th node's weight,0.602819,-0.592951,0.620731,0.903937,-0.452303,-0.570665,-0.657856,0.876747,-0.523986,0.407048,-0.128652,-0.042193,0.21856,0.752847,0.181349,-0.799313,0.276631,-0.701609,0.0607498,-0.478614,0.627337,-0.410104,0.226506,0.577961,0.597682,-0.182672,1.02292,0.0797548,-0.0862162,0.884546,-0.0676149,0.0885896,-0.542657,-0.425813,0.739992,-0.84245,0.221786,0.0740005,0.365151,0.327405,-0.620398,0.0709775,0.544613,-0.992814,-0.73434,-0.56083,0.114444,-0.939009,-0.206747,0.189177,-0.961311,-0.0444232,-0.934692,-0.928185,0.048732,0.152235,-0.759562,0.349696,0.196036,-0.35511,0.0411274,-0.394803,1.02916,0.368489,0.68617,-0.40113,-0.520087,-0.903059,-0.552597,-0.629014,-0.525761,0.441727,-0.0885057,-0.207039,-0.60992,-0.141714,0.538342,0.562725,0.24503,0.96796,0.0173854,0.779159,-0.515798,0.0361618,0.61487,-0.711185,0.244471,-0.353828,-0.914882,0.255106,0.44672,-0.0216333,-0.108156,-0.240383,0.852698,-0.587517,0.982995,0.0241312,-0.86165,0.936589,
29th node's weight,0.329985,0.52525,0.787542,-0.117096,0.951522,-0.343927,-0.962267,0.973634,0.612159,0.635847,-0.292932,-0.771974,0.512205,0.742218,0.799064,0.674714,0.538079,-0.514452,0.164098,0.119085,-0.81163,-0.205095,-0.281747,0.606893,-0.322126,-0.248572,-0.764397,0.719423,0.356347,-0.0321743,0.842418,0.381662,-0.325092,-0.11245,0.909185,-0.066188,-0.497441,-0.308229,-0.117588,0.0421265,-0.957757,0.852952,-0.818062,-0.344826,-0.274799,-0.550066,-0.240742,-0.958543,0.140667,-0.400009,-0.626473,0.658308,-0.107369,-0.789786,-0.584703,0.278498,0.352184,-0.184711,-0.619688,-0.581796,0.184664,0.525972,0.0733095,-0.485316,0.481361,0.0656278,-0.110282,-0.946475,0.817805,0.13903,-0.917933,-0.843765,0.89398,-0.953588,-0.202275,0.348017,-0.673271,-0.0812061,-0.708296,0.968622,0.902933,0.850889,0.302816,-0.320849,0.594507,0.629879,-0.469077,0.487196,-0.105246,0.564139,-0.422886,-0.513457,0.618407,-0.142255,0.794082,0.333154,-0.456034,0.401666,-0.825856,-0.728348,
30th node's weight,-0.257468,0.27168,0.914052,0.45672,0.255939,0.42944,0.0528965,-0.645906,-0.101874,0.896985,0.106416,-0.931852,0.860011,0.944469,0.542787,0.308117,0.854004,0.0725327,0.776343,-0.135427,0.575808,-0.556003,-0.285598,0.344411,-0.664008,-0.267654,-0.705183,0.493926,0.922946,-0.724031,-0.267078,-0.515867,0.0968002,0.0712978,-0.846199,-0.549354,0.164166,-0.703887,-0.0695516,0.070412,-0.913436,0.701326,-0.336688,0.0514703,0.639263,0.141011,-0.99277,0.810173,-0.356885,0.485167,-0.531337,0.666498,-0.902846,0.44179,0.616077,-0.177451,0.961699,0.148702,-0.44035,-0.470495,-0.927366,-0.280765,0.399832,-0.324059,-0.830766,0.4102,0.757925,-0.607436,0.805369,-0.42315,-0.337941,0.503628,-0.75121,0.382383,0.241503,1.02088,0.39216,-0.911666,0.0800275,0.11565,0.0217106,-0.506711,0.164212,-0.239217,-0.0722084,0.857103,-0.37255,-0.298837,-0.869068,0.902149,-0.53832,-0.272331,0.668757,-0.206254,-0.556328,0.835664,0.511147,-0.627511,1.01396,0.115859,
31th node's weight,0.483402,0.0396828,0.957716,0.361689,-0.496593,-0.632369,-0.133789,0.0101104,0.837765,-0.953105,-0.511971,0.49571,0.59023,-0.427758,-0.590713,0.0744561,0.985391,0.590288,0.113949,0.887754,-0.315856,0.768689,-0.710816,0.259234,0.485569,-0.571162,0.808133,-0.720217,0.748896,0.550699,-0.0434764,0.419386,-0.439635,0.272116,-0.739255,-0.635425,-0.808122,1.00181,-0.889778,0.715696,-0.223683,0.863621,0.414205,0.621661,-0.934603,0.763959,-0.332059,-0.375629,-0.326363,0.87302,0.0450521,-0.693659,0.399159,-0.652558,0.17992,0.630648,-0.502305,-0.888077,0.299188,0.524008,-0.803086,0.795071,-0.546083,0.0506612,-0.252425,0.936513,-0.0712211,-0.897377,0.954674,0.628082,0.0210782,0.0696907,0.296693,-0.306356,-0.788123,-0.0872341,0.0684715,0.318895,-0.123547,-0.434474,0.69787,-0.971845,-0.218498,0.265103,-0.696386,-0.170674,-0.0834305,-0.869436,0.264462,-0.00708633,0.766549,0.678044,0.790503,-0.567502,-0.857982,0.467109,-0.754454,0.357763,-0.229298,-0.453472,
32th node's weight,0.529054,-0.167162,-0.928039,-0.149367,-0.607602,-0.40723,-0.360464,-0.484229,0.916012,0.150937,-0.290224,-0.17443,-0.0459627,-0.624359,-0.331597,0.676566,-0.81683,-0.787422,0.0396573,-0.39132,0.527778,-0.106601,0.514316,-0.370307,0.188808,0.258221,0.881642,-0.750951,0.512438,0.534771,-0.196107,-0.660425,-0.0514391,0.866676,0.37909,-0.462034,0.190497,-0.493466,0.623294,-0.622525,0.582961,0.682417,-0.12897,-0.546452,-0.208724,-0.566085,-0.929917,0.921902,-0.00665319,-0.530937,-0.228678,-0.764839,0.762843,0.119177,0.613997,0.504011,-0.143995,-0.939289,0.101834,-0.54834,0.451465,0.228359,0.11192,-0.386084,0.763882,-0.879725,-0.436711,-0.700249,-0.283343,-0.0743841,-0.870401,-0.591435,-0.658185,-0.812349,0.351061,0.512341,-0.580682,-0.736412,0.417662,-0.91395,-0.219518,0.511884,0.854731,1.00666,0.747412,-0.949483,-0.0601584,0.746488,0.697003,-0.313481,-0.967864,0.325457,0.445511,-0.806464,-0.910584,-0.136853,0.472871,0.0139088,0.595394,-0.133535,
33th node's weight,0.750985,-0.163823,-0.0926132,-0.708414,-0.454962,-0.934059,0.883953,0.691103,-0.410423,-0.305386,0.70003,-0.659749,0.654262,-0.297905,0.172059,0.350375,-0.964591,0.242824,0.602925,-0.466501,0.00951139,-0.868812,0.267776,0.032642,0.227209,0.135116,0.161542,0.212654,0.483552,-0.447216,-0.0147085,-0.414393,0.77799,0.483189,0.976353,-0.862253,0.248309,-0.202822,-0.0204226,0.135142,0.762869,-0.790814,-0.437968,-0.0710856,0.837688,0.0841891,-0.80265,-0.935788,0.125768,0.105958,-0.101872,-0.988104,0.0440759,0.0552676,-0.258623,-0.29137,0.415785,0.298574,-0.183719,0.398483,0.539423,0.435726,0.738204,-0.473185,0.0916822,0.863419,-0.248366,-0.0927799,-0.258173,0.314658,-0.336121,0.00544078,-0.565621,0.954983,0.523461,0.15364,-0.189585,-0.222027,-0.963828,-0.853387,0.0701897,-0.781063,0.205587,0.537469,-0.395836,-0.62535,0.616514,-0.191695,0.0225772,0.575092,-0.20776,-0.156721,0.0890191,0.763659,-0.949452,0.159895,0.648384,0.381833,-0.423346,0.190736,
34th node's weight,-0.997097,-0.736898,-0.470708,-0.912608,0.224486,-0.618434,-0.189176,-0.335874,0.284144,0.720567,-0.6298,0.794756,0.245107,-1.00682,0.474391,0.382845,-0.206257,-0.151896,0.282167,-0.475169,-0.329766,0.239607,-0.580368,0.180665,-0.0953736,0.39544,0.428745,-0.134429,0.955783,-0.978403,0.654184,0.0102442,-0.357797,0.499155,0.297214,0.255914,0.805012,0.38008,-0.281207,-0.762643,-0.393511,-0.802097,-0.534674,0.194601,0.105199,-0.714426,-0.868389,-0.763619,-0.313848,-0.243704,0.506328,0.445828,0.737123,0.971977,-0.107682,-0.828308,0.623121,-0.865254,0.644497,-0.0985348,-0.474775,0.675877,0.178624,0.631101,-0.699671,0.340014,-0.952955,-0.884016,-0.338601,0.762561,0.176467,0.878207,-0.651848,-0.18037,0.163445,-0.180402,0.0773448,0.353028,0.925328,-0.0762939,-0.16737,-0.790316,0.347837,-0.311493,0.25667,0.342079,-0.246815,0.209343,-0.199674,-0.24006,-0.563038,0.527353,0.347938,0.199369,-0.610679,0.549147,-0.458086,0.682505,-0.534025,0.506697,
35th node's weight,-0.522603,-0.118377,-0.345237,0.219528,-0.0306726,0.448937,0.309541,0.271672,-0.556918,-0.205285,-0.632906,-0.507435,-0.437519,0.691876,-0.639331,0.683714,-0.620642,-0.158056,-0.0748098,-0.525116,-0.733429,-0.746159,-0.0151777,-0.770515,-0.420118,-0.361741,0.483623,-0.57643,-0.667031,0.213372,-0.445542,-0.852233,-0.433831,-0.471344,-0.380664,-0.0858217,-0.0598225,0.601346,0.0689669,-0.459744,-0.365788,0.139854,-0.579504,0.575839,0.51889,0.829285,0.54889,-0.387807,0.921843,0.185773,-0.892007,-0.0318204,-0.0161365,-0.583969,-0.0192053,-0.17165,0.101748,0.840532,0.23111,0.604501,0.358296,-0.81707,0.0791404,0.980246,-0.706361,0.465463,0.713365,-0.0841511,0.0946337,-0.615235,0.279876,-0.242865,0.85942,-0.0904839,0.0460302,0.896166,0.24712,0.24734,0.0184583,0.622127,-0.915475,-0.822717,-0.215038,0.332706,-0.178275,0.449174,0.416658,0.187791,0.0692896,0.585435,-0.325009,-0.61834,0.629863,0.472468,-0.519286,-0.96177,-0.180176,-0.892828,0.714754,0.0244101,
36th node's weight,0.494799,0.0194874,0.449997,0.912294,0.479175,-0.0156477,0.726835,-0.660409,0.00185537,0.644751,-0.0562031,-0.0669255,0.959089,0.655071,-0.541061,0.310485,-0.960485,0.293296,0.222455,-0.745851,-0.355781,-0.4118,0.0982164,0.53059,-0.985829,0.266986,-0.513792,-0.929224,0.615625,0.955111,0.497859,-0.229982,-0.309153,-0.52055,-0.51388,-0.915686,-0.528775,0.780967,-0.833963,0.0178454,0.781978,0.68887,0.700912,-0.874074,0.86233,-0.794504,0.186095,0.447648,-0.448321,-0.677616,0.142651,0.146322,-0.851781,0.423895,0.813153,0.86703,-0.909839,-0.0765486,-0.150211,-0.299328,-0.223812,-0.53773,-0.183116,-0.57612,0.184381,0.569281,0.394092,0.714467,-0.662465,0.766001,0.255133,-0.808022,0.840408,0.606348,0.0266709,0.157279,0.103404,1.00205,0.977473,0.917941,0.919992,-0.651833,0.894963,0.177021,-0.185047,0.415683,0.355961,-0.311053,0.741186,-0.20268,0.103187,0.135215,-0.594523,-0.236227,-0.499344,0.301695,0.628611,0.608624,0.778801,0.254394,
37th node's weight,0.923088,-0.739998,-0.362927,-0.520501,-0.124569,-0.544133,-0.944539,0.511134,-0.289785,-0.832166,-0.548085,0.754484,-0.870586,0.388125,-0.0447317,0.855783,0.457656,0.767202,0.457272,-0.16792,0.688186,0.106373,0.309282,0.725604,-0.91669,0.0261382,-0.317729,-0.488425,-0.144135,-0.448621,-0.91853,-0.155167,-0.874792,-0.813716,-0.125457,0.607354,0.961149,0.663859,0.203333,0.60963,0.227631,0.915335,0.731211,0.236916,-0.915467,0.31425,-0.209647,-0.203974,0.804072,0.540885,-0.718263,0.94455,0.857037,-0.134311,0.0268329,0.858283,-0.700803,-0.798555,0.799614,0.53876,-0.327355,0.423717,0.776181,0.0835157,-0.256839,0.682966,0.230936,-0.168153,-0.942964,0.000267473,0.178795,-0.532007,-0.509739,0.176218,-0.832178,0.346965,-0.396411,0.313153,0.0765439,0.763465,-0.900528,0.98427,0.189239,0.139634,0.808711,-0.0922225,0.672439,-0.558508,-0.0685333,-0.642474,0.374746,0.157952,0.847081,0.8743,0.292883,0.495589,-0.0880621,0.121163,-0.349673,0.0505524,
38th node's weight,-0.316806,-0.73161,0.0482501,0.876262,0.0909597,-0.131105,0.964957,0.539425,-0.437808,-0.764299,0.176589,-0.598552,-0.865373,0.790771,-0.232055,-0.162921,-0.431573,-0.650942,0.422536,0.97183,-0.449477,-0.916286,0.072999,-0.797194,0.422094,-0.695166,0.928218,0.276115,-0.193253,-0.519669,0.877652,0.497615,0.121844,0.851597,-0.165543,-0.696542,0.359312,0.00623404,0.0496473,-0.86704,-0.0353283,0.960667,0.8246,0.627679,0.651161,-0.823669,-0.607647,0.126197,-0.75507,-0.119232,-0.309055,0.0526073,-0.642588,-0.51,0.702814,0.647505,0.23966,-0.245519,-0.379397,0.607804,0.235542,-0.583801,0.145468,-0.507489,-0.92297,0.655544,-0.0224055,-0.147268,0.800721,0.270377,-0.678861,0.415454,-0.104128,0.0481245,0.59676,-0.32117,-0.415375,-0.162465,0.23627,-0.748373,0.242729,0.390498,-0.103355,-0.956245,0.33042,-0.953894,-0.289587,-0.0621671,0.649674,-0.506735,0.534287,-0.512399,0.869031,0.590745,0.923813,-0.360334,-0.822109,-0.169869,0.793314,0.530616,
39th node's weight,-0.556687,-0.0942646,-0.40557,0.609927,-0.442557,-0.27264,0.853213,0.872773,-0.822875,0.871066,-0.288076,-0.854776,-0.173896,-0.620313,0.0253062,0.597633,-0.805664,-0.970891,0.338526,0.780734,0.822383,0.981713,-0.319889,0.119181,-0.38138,-0.856285,0.968397,0.33739,0.164604,-0.1289,0.269905,0.411172,-0.453889,0.729999,0.76332,0.944949,0.757757,0.311331,-0.198348,0.0692518,-0.209295,-0.76579,-0.814516,0.973612,-0.213103,-0.924001,-0.546154,0.360244,-0.0326039,0.275617,-0.606985,0.62851,0.725399,0.817099,0.293936,-0.263382,0.11888,0.182993,-0.681342,0.818918,-0.368525,0.229784,-0.403051,0.711817,-0.894106,0.0385451,-0.472381,0.949896,0.487037,-0.81393,-0.173897,-0.172829,-0.868948,0.817259,-0.962105,-0.480056,0.755166,0.862121,-0.615799,0.557917,0.0145321,0.627015,0.356893,0.39555,-0.260709,0.328055,-0.577291,-0.16152,-0.565573,0.739102,-0.720361,0.718482,-0.664118,0.49215,-0.924024,0.0586669,0.497167,0.292269,0.946137,0.118924,
40th node's weight,-0.393333,0.746919,-0.790441,0.961183,-0.957549,0.15272,0.892681,0.756985,-0.950627,0.904794,-0.367404,-0.352428,-0.112445,0.349577,-0.786886,-0.63425,0.723116,0.811557,0.203311,-0.0994284,0.455272,-0.0680782,-0.683596,0.907564,0.593621,-0.496192,-0.167254,0.698073,0.391747,-0.64264,0.639281,-0.281544,0.0597765,-0.870249,0.0431572,-0.966059,0.584493,0.291148,0.668323,0.445166,-0.618649,-0.339119,0.746668,0.697654,-0.876852,-0.585584,-0.793882,0.479449,-0.695289,-0.934436,-0.382658,0.0397929,0.446118,0.676046,0.405877,-0.267543,-0.523203,0.805072,-0.966316,0.646641,0.279661,-0.375345,0.603722,-0.821872,0.094826,0.243862,-0.285527,0.592538,-0.845338,0.705993,-0.38734,0.315201,0.181157,0.192927,0.254021,1.02453,-0.259976,-0.00580229,0.268527,-0.799942,0.1135,0.576256,0.00689425,-0.0638745,0.815322,-0.771698,0.892429,-0.90474,-0.841281,0.689023,-0.349082,-0.00312518,0.37089,-0.596156,0.264368,-0.0523849,-0.403324,0.00702358,-0.29666,0.522307,
41th node's weight,-0.831657,-0.209861,0.720172,0.687853,-0.006704,-0.45094,-0.213106,-0.150708,-0.625078,0.981235,0.471068,0.931133,-0.649861,0.606354,1.03571,-0.749688,-0.12674,0.499533,-0.179958,-0.69133,0.433949,-0.200601,-0.145401,0.677844,-0.522568,0.275276,-0.0546413,-0.0587822,-0.654528,-0.533953,0.823693,-0.921598,0.521882,-0.282313,-0.0562154,-0.650132,-0.997756,-0.416808,-0.109441,-0.197158,-0.583732,0.862604,-0.233045,-0.547725,0.491743,-0.786722,0.798207,-0.872119,-0.924746,-0.178157,0.644327,0.0674857,0.760762,0.192249,0.0244002,0.553363,0.0596451,0.117601,-0.26407,-0.786443,0.242183,-0.30825,-0.739338,-0.305265,0.730054,0.271195,0.776078,0.228367,0.844546,0.416441,0.299605,0.222056,0.343283,0.197038,0.877071,-0.388219,-0.326202,0.72032,0.0733708,0.14607,0.98667,0.478531,-0.675964,-0.0741545,0.296056,0.931257,-0.161965,0.697638,-0.614096,-0.367308,-0.146037,-0.487697,0.852289,-0.150709,0.809859,-0.505081,-0.949368,0.158325,-0.386321,-0.501224,
42th node's weight,0.55557,-0.611753,-0.400469,0.0761245,-0.406559,-0.480001,-0.351088,-0.765076,-0.943017,0.314094,0.148439,-0.43458,0.178194,-0.523519,-0.820238,0.685278,0.123715,-0.177034,0.557694,0.493256,0.594686,0.846172,0.403406,0.358331,0.929592,0.335176,-0.231235,-0.72144,-0.431947,0.167988,-0.253049,-0.71172,-0.602806,-0.448754,0.346626,-0.268775,0.513133,-0.734762,0.324226,0.0912555,-0.0145624,0.969252,0.0273566,-0.921718,-1.00588,0.593792,-0.0140017,-0.657639,-0.861557,0.0326345,-0.325403,0.0590375,0.245126,0.673879,0.0305178,-0.248841,-0.516618,-0.660509,0.404847,-0.952716,0.560192,-0.497596,0.620198,0.693287,0.732995,-0.967087,-1.02258,-0.650838,0.162866,-0.686744,-0.776984,-0.62614,-0.753592,-0.52223,0.547773,0.0625457,-0.714851,-0.62729,0.546461,-1.01319,0.707635,-0.723902,-0.054873,-0.649343,0.8356,0.338301,0.324363,0.352218,-0.594634,-0.36441,-0.997487,0.505857,0.389745,0.0310563,-0.485757,0.508184,0.814466,-0.558501,0.257644,-0.677766,
43th node's weight,0.0313664,0.5559,0.540932,-0.242212,-0.738186,-0.322956,-0.775603,0.805651,-0.00993578,0.121163,0.657662,-0.239732,-0.824102,-0.394158,0.577635,0.497245,-0.27833,0.512327,0.636499,-0.319306,-0.296989,-0.156892,0.896434,-0.944903,0.293705,0.957593,-0.91947,-0.524605,-0.474166,1.00018,-0.146101,0.203479,-0.203553,-0.137822,0.989748,-0.446319,-0.901691,0.786094,-0.392734,-0.363608,-0.0843111,0.220716,-0.820069,-0.484897,0.804409,-0.872084,-0.12783,-0.292514,-0.0578016,-0.661916,-0.961648,-0.959276,0.502343,-0.62869,0.160078,-0.556159,0.0481569,-0.0624226,0.980335,-0.666074,-0.0805259,0.162921,-0.832861,0.166045,-0.621979,0.0955537,-0.0300411,-1.02216,-0.569416,0.499135,-0.675862,0.816835,-0.144548,0.511687,0.428,-0.427615,0.625745,0.366723,0.447181,-0.888425,-0.222543,0.819002,-0.805608,-0.399704,0.277404,-0.114352,0.749949,-0.275265,-0.600562,0.471114,-0.860327,-0.146859,-0.822828,0.511856,-0.500571,-0.497353,0.407191,-0.213963,0.997004,0.891625,
44th node's weight,-0.26726,0.779853,0.413493,-0.267232,-0.80982,-0.160386,0.661983,-0.985558,0.970006,0.83805,-0.000382956,0.0974983,0.322455,-0.603932,-0.225245,-0.751918,-0.401759,0.804356,0.0314402,-0.0972975,-0.84379,-0.920883,0.419489,-0.608483,0.10192,-0.85096,-0.638049,0.599092,0.950141,-0.721303,0.335821,0.581035,-0.541781,0.678681,-0.212656,0.804548,0.684965,1.0053,0.381067,0.212132,0.980423,-0.494715,-0.866251,0.953462,-0.276629,-0.0478068,-0.32111,-0.348304,-0.450153,0.247333,0.914808,0.729208,0.665188,0.707064,-0.228566,0.657381,-0.214877,0.464213,0.0730483,0.361301,0.835027,-0.118322,0.289605,0.619633,-0.71068,-0.804738,0.440466,-0.106275,-0.0493941,0.742735,0.777856,0.0391785,-0.822271,0.361852,0.669481,-0.945516,0.496879,0.488137,-0.5707,-0.737846,-0.0198785,-0.792638,-0.418979,-0.748789,-0.147774,0.204811,-0.676304,-0.287602,0.250363,0.770035,-0.559624,0.663178,-0.949321,-0.605515,0.697757,-0.812195,-0.889505,0.407013,-0.437545,-0.459151,
45th node's weight,-0.774706,0.701444,0.609344,0.919985,0.680767,0.970378,1.0056,-0.116733,-0.693442,-0.0628497,-0.947491,0.779372,-0.351661,0.042528,0.625677,0.594675,-0.287332,0.113438,-0.565603,-0.799074,0.192731,0.0181478,-0.0970741,0.147534,-0.570681,-0.475816,-0.461188,0.914148,-0.410796,-0.237425,-0.71217,-0.595333,0.429932,-0.0479176,-0.45111,-0.0414112,-0.959704,0.189808,0.660213,-0.701725,-0.499636,-0.0519799,-0.294447,0.319045,-0.00583266,0.217079,-0.288405,0.254869,0.147409,-0.28638,-0.78151,0.732952,0.0218024,0.276945,-0.841842,-0.115286,0.965432,0.734541,1.04275,-0.136103,-0.990578,0.0720003,-0.787723,0.623258,-0.490988,-0.898899,0.683286,-0.0230064,1.03717,-0.807959,-0.102176,0.356996,0.0583484,0.373785,0.0306755,-0.964462,0.615479,-0.15712,-0.806359,0.796323,-0.991768,0.270745,0.76392,-0.0605164,0.604731,-0.786032,-0.961688,0.191875,-0.838184,0.382917,0.317392,-0.508423,-0.528045,-0.237739,-0.818624,-0.162356,0.937747,-0.813614,-0.505855,0.735592,
46th node's weight,-0.260558,-0.0374896,-0.234004,0.236664,0.820042,0.676463,0.222574,-0.634632,-0.900902,-0.00853368,0.905611,0.147518,0.959485,-0.587872,-1.0962,0.981182,-0.465979,0.0473971,-0.50178,-0.269026,-0.212677,0.146012,0.970312,-0.702453,-0.946564,-0.431754,0.524866,-0.869317,-0.935407,0.0766745,-0.151748,0.594635,0.664463,-0.431775,0.279432,-0.0368622,-0.480752,0.918461,-0.875439,-0.915595,0.367196,0.279374,0.0974955,-0.234205,-0.639816,-0.302273,-0.474325,-0.334,0.796344,0.541467,-0.147559,0.814059,0.760127,0.757823,-0.084881,0.0631322,-0.156867,0.102744,0.274867,0.366117,0.584088,-0.96013,0.106973,-0.692616,-0.446663,0.124703,0.0340495,0.970092,0.350711,-0.469256,-0.532703,-0.33425,0.171391,-0.294146,0.275696,0.874648,-0.649255,-0.785057,-0.134749,-0.597384,0.129165,0.63471,0.100724,-0.545027,-0.140157,0.909777,-0.22187,0.694985,-0.384524,0.288855,0.696963,0.336518,0.253019,0.0791982,0.116305,-0.609149,0.100389,-0.592962,0.252153,-0.765578,
47th node's weight,-0.787226,0.162103,-0.687552,-0.255694,0.554395,0.273316,-0.384729,0.303468,-0.12351,-0.58491,-0.464838,0.759968,0.884684,0.609918,0.535105,0.534396,-0.154057,0.498587,-0.112476,-0.950943,0.846644,0.0770663,0.4259,0.506091,-0.514221,0.0207739,-0.773267,0.249093,0.225562,0.867634,-0.204202,-0.948076,0.391269,0.504191,0.0401082,-0.687909,0.739598,0.751231,-0.560726,0.000645388,-0.629165,0.780687,-0.117681,0.468005,-0.392926,-0.293794,0.289438,-0.611196,0.794603,-0.412805,0.672437,0.557938,0.497241,-0.388271,-0.730204,-0.0930718,-0.0594747,0.692102,-0.36964,-0.415501,-0.525883,0.703672,-0.150361,0.995517,-0.237326,-0.925134,-0.767521,-0.853428,-0.552419,0.312741,0.816347,0.81348,-0.684063,-0.659885,-0.774823,0.461417,-0.81657,-0.42487,-0.51701,-0.586459,0.397562,0.735683,0.489034,-0.796985,-0.282184,-0.610642,0.49504,0.52813,0.918947,0.312945,0.410668,0.544614,0.933111,0.637491,-0.0805269,0.861273,-0.413252,0.187723,0.887394,0.261864,
48th node's weight,0.0686651,-0.254014,-0.632881,0.778005,-0.322158,-0.592079,-0.258407,0.581112,-0.569884,0.700679,0.737966,0.250681,-0.791195,-0.573205,-0.498508,0.849505,0.330927,0.408363,-0.24298,-0.102463,-0.689003,-0.167623,-0.783949,-0.361954,0.167641,0.414749,0.743767,-0.220544,-0.486882,0.400036,0.613355,0.0282892,-0.151128,0.930819,0.0798774,0.548393,-0.430977,0.276341,0.47821,0.912161,-0.724405,-0.526121,-0.209604,-0.481683,-0.567086,0.547475,0.161761,-0.631877,-0.381555,0.0944416,0.750616,0.355618,-0.533339,0.119998,-0.319541,0.300479,0.285965,0.436556,0.628888,0.995736,-1.04352,-0.531989,-0.687449,0.462928,0.872281,-0.961818,0.797653,-0.86705,0.642156,-0.00529689,-0.150402,-0.435249,-0.125668,0.689537,0.0316321,-0.709167,-0.799162,-0.632411,-0.50772,0.873496,-0.944112,0.3365,0.687278,-0.482354,0.361856,-0.238062,0.739797,0.676317,0.459155,0.73804,0.727834,-0.42858,-0.765634,0.757532,-0.0111638,-0.279782,-0.235764,0.0832643,-0.37499,0.305559,
49th node's weight,0.252099,-0.696494,-0.0998701,0.00861563,0.688659,0.455565,0.81601,0.374438,0.058061,-0.516142,0.440718,-0.208192,-0.556359,-0.879137,0.825377,-0.69888,0.578047,-0.279959,0.337299,0.80774,0.351005,0.794003,-0.86351,-0.570429,0.891492,-0.224835,-0.241898,-0.39111,0.844713,-0.658523,0.640654,0.729662,-0.783271,0.203889,0.269004,0.636122,0.527248,-0.446779,0.202385,0.244595,0.454332,-0.448615,0.283451,0.821993,-0.525489,-0.49483,-0.211951,-0.971308,-0.84528,-0.487884,0.932425,-0.298778,-0.302522,0.112337,0.765402,-0.856036,0.366791,-0.24877,0.314261,-0.0879091,0.314211,0.600109,-0.463042,0.780638,-0.971378,0.587362,0.606404,-0.326763,0.0745752,0.131367,0.616524,-0.879694,-0.949315,0.499769,0.69074,0.504251,0.582106,0.275336,-0.434769,0.830692,0.250579,-0.72217,-0.559102,-0.877343,0.555196,0.0773191,-0.918197,0.116031,0.985719,0.111059,-0.906618,-0.0917865,0.078064,0.695194,-0.560296,-0.894607,0.69144,-0.615624,0.945781,-0.601688,
50th node's weight,-0.679645,0.571721,-0.810986,-0.812114,-0.923959,0.4105,0.213922,-0.38862,-0.798787,-0.449219,0.718089,0.42769,0.866586,0.967875,-0.68556,0.571224,0.40779,0.400242,0.817595,0.756056,0.0396,0.672482,0.728567,-0.79724,-0.607898,0.0318059,1.01317,-0.848972,-0.782839,-0.399654,0.236626,0.434891,-0.00896153,0.352006,-0.0267932,0.501945,-0.391662,0.850293,0.962998,0.0624802,-0.304189,-0.563632,0.279108,-0.663543,0.721037,0.448749,0.488846,-0.488947,0.170376,0.694744,0.797533,0.49918,0.702513,0.521714,0.870326,-0.572787,-0.945414,-0.304864,-0.228082,-0.696079,-0.653726,0.0189077,-0.879656,0.35541,-0.696334,-0.877227,-0.48935,-0.910775,0.153401,0.0929745,0.292377,0.239341,0.802135,-0.0807338,0.471537,-0.402778,0.682031,-0.335842,-0.564449,0.229266,0.999486,-0.373848,0.644468,-0.0349887,-0.742003,-0.236737,0.985934,-0.836067,-0.709025,0.335692,-0.881439,-0.595089,0.85947,-0.642853,-0.177938,0.728477,-0.540363,-0.334884,-0.257763,-0.0323504,
51th node's weight,-0.641484,0.933479,0.109166,-0.11874,-0.331473,0.77276,-0.918462,-0.495136,-0.379351,-0.516844,-0.963641,-0.958842,0.945193,0.736737,-0.785115,-0.821023,-0.0368507,-0.643156,-0.170096,0.747091,0.900288,0.335119,-0.209359,-0.514457,0.637083,0.335323,-0.302144,0.800583,-0.0999063,-0.487024,-0.320235,-0.563667,0.440716,-0.00405821,-0.65815,0.255527,0.0568807,-0.640744,0.92547,0.00814172,0.875436,0.934092,0.232424,-0.731841,0.919261,0.926589,-0.7348,0.329582,0.255375,0.341447,0.279316,0.085408,0.85222,0.11953,-0.682974,0.746361,-0.260471,-0.00272623,0.764717,0.503688,-0.765072,0.653045,0.305927,-0.0393998,0.283546,-0.552297,0.158211,-0.310585,0.915291,-0.866894,0.0952882,0.0532184,0.807293,0.84087,-0.557847,0.43291,0.30806,0.0854751,-0.457879,-0.162645,-0.337693,0.381714,-0.448067,0.603407,0.178694,0.408606,0.240375,-0.745349,0.296016,0.340106,0.333844,-0.872053,-0.126214,0.759716,-0.906622,-0.845623,0.00442963,0.302463,0.302444,-0.012686,
52th node's weight,-0.719416,-0.646954,-0.694597,0.28863,-0.177881,-0.321846,0.221085,0.192732,-0.643743,-0.856313,0.479824,-0.537378,0.271622,-0.127344,0.80607,0.888838,0.670161,-0.81962,-0.66081,0.983431,0.942798,-0.186998,0.00290393,0.721445,0.531041,0.704895,-0.130946,-0.147799,-0.699911,-0.267278,0.85339,-0.480977,0.751452,-0.80075,0.642672,-0.861105,-0.0508124,0.00740362,0.340276,0.466114,-0.520374,0.472407,0.983618,0.236099,0.868624,-0.204753,-0.843642,-0.089195,-0.157692,-0.326053,-0.251425,-0.547196,-0.818082,0.663909,-0.591508,-0.312343,-0.298921,0.54186,0.286918,0.11828,-0.454495,-0.867525,0.787835,-0.281713,-0.980434,0.726015,-0.894116,-0.781226,-0.178974,0.161168,-0.278574,-0.849555,-0.713971,-0.610331,0.534065,-0.29581,0.156705,-0.775172,0.832564,-0.730266,0.311635,-0.0115968,0.482269,0.546712,-0.443638,0.202801,-0.337938,0.493085,0.0368517,0.617991,0.831088,0.799878,1.00717,-0.743602,-0.0385969,-0.334734,-0.0585519,-0.336735,-0.637685,-0.752458,
53th node's weight,-0.324175,0.475315,0.0170434,0.975573,-0.743152,0.933981,-0.824418,0.47462,0.247759,0.857839,-0.553601,0.650292,-0.99909,-0.616697,-0.32297,0.722071,0.730664,-0.0960426,-0.163351,-1.00686,-0.541142,-0.573759,0.425682,-0.682135,-0.0383725,0.623406,-0.726123,-0.678896,-0.787754,1.00483,0.486136,-0.364331,-0.855486,-0.569962,-0.56252,0.458924,-0.00235352,-0.827681,0.883656,-0.381835,0.429129,-0.163286,-0.944489,0.504779,0.301184,1.01258,0.169671,-0.29897,-0.420093,0.580063,0.246763,0.844087,-0.123803,0.836024,-1.0561,-0.569992,0.50011,-0.184257,-0.525307,0.566277,0.713013,0.810153,-0.796499,-0.943477,-0.390352,0.331418,0.606148,0.840663,0.0373326,-0.514912,-0.235764,0.195795,-0.037361,0.781734,-1.01756,0.32116,-0.805186,-0.44661,0.158428,0.161571,0.378206,-0.0407821,-0.124801,0.742818,0.451889,0.877794,0.927327,-0.10695,-0.849604,-0.460948,0.135196,1.04018,0.284331,-0.455957,0.924667,0.716337,0.407652,-0.22452,0.658696,0.548914,
54th node's weight,0.552171,0.0483896,-0.697205,-0.72222,-0.308604,-0.164854,-0.878068,-0.252531,0.613887,-0.400589,0.662292,-0.267113,-0.777626,-0.810178,-0.380642,0.878764,0.826892,-0.527214,-0.0186763,-0.302143,-0.100349,0.263466,-0.568185,0.33534,-0.580521,0.466565,0.955898,0.736461,-0.43218,-0.616422,0.044244,0.518705,-0.402925,0.84356,-0.694746,0.649783,-0.700073,-0.658248,-0.494964,0.307175,-0.0411932,0.213247,-0.0394061,0.318112,-0.211639,0.185246,0.926937,0.340915,0.370566,-0.377018,-0.898842,0.782841,0.466485,-0.636169,1.00473,0.812834,-0.41914,-0.443704,0.24925,-0.15054,-0.383507,-0.0619829,0.664609,-0.104166,-0.247459,-0.886095,-0.0586019,-0.481963,-0.521645,-0.938582,0.100999,-0.92085,0.459666,-0.888093,-0.0297472,0.531018,0.27013,-0.44304,-0.913711,0.55999,-0.88068,0.69673,0.353431,0.818906,0.928081,0.0836963,-0.781465,-0.951122,-0.866734,0.744552,-0.8433,-0.323214,-0.698678,-0.144252,-0.159642,-0.946809,0.444553,0.707689,-0.869107,-0.228122,
55th node's weight,-0.838028,-0.539894,0.111385,-0.387107,0.895604,0.840432,0.54987,0.446371,0.903114,0.59671,0.771206,0.127608,-0.0715263,0.742501,-0.784706,0.437116,0.0124431,0.671426,1.00145,-0.43319,0.281545,-0.562268,0.271102,0.990789,-0.889093,0.187461,-0.627396,-0.774909,-0.405051,-0.298263,-0.738085,-0.568572,0.866854,0.578486,-0.612234,0.48231,-0.853031,-0.222032,0.330244,0.0610328,-0.961694,-0.237238,0.825617,0.664183,-0.460372,-0.666313,0.36275,-0.0113637,-0.1734,0.73916,0.803384,-0.687608,0.641321,-0.978984,-0.0483753,-0.992137,-0.4902,0.450111,-0.538401,0.791588,-0.0311548,-0.939263,0.438796,0.771935,0.661204,-0.955369,-0.262775,-0.602355,-0.344031,-0.683331,-0.946863,-1.02534,0.501488,1.01934,-0.272459,-0.214555,-0.0405488,-0.993042,-0.918534,-0.460286,-0.761264,0.546368,-0.609342,0.801369,-0.842462,0.0870562,0.241885,0.0547105,0.846505,0.0179548,-0.426017,0.697381,0.0774414,-0.471531,-0.78087,-0.768943,0.754653,0.783599,-0.204852,0.416695,
56th node's weight,-0.0263004,-0.617695,-0.881175,0.952203,-0.241704,-0.7164,-0.555712,0.465134,0.465225,-0.835015,-0.513408,-0.141629,0.340444,0.0875607,-0.659789,-0.574821,-0.821069,0.836657,-0.204341,-0.294253,-0.733819,-0.643488,0.230594,-0.500045,-0.948584,0.594447,0.780698,-0.758436,0.0514971,0.548674,-0.505083,0.732164,0.355708,0.701814,0.478994,0.815864,-0.752068,-0.548071,0.548477,-0.0610713,0.988532,-0.0702698,-0.881247,-0.778839,-0.338009,-0.107793,-0.260328,-0.901455,0.721222,0.719714,0.318182,0.150426,-0.868032,0.319049,0.176825,-0.139695,0.956104,-0.882898,-0.0327625,-0.830646,0.571171,-0.36323,0.810268,0.686514,-0.31968,0.940128,-0.198452,-0.775768,-0.117255,-0.670944,-0.657046,0.227086,0.413915,-0.848118,0.109544,0.753862,-0.0532468,0.50019,0.585076,-0.85544,-0.0798862,0.392099,-0.301958,-0.634421,-0.704016,-0.853899,0.863399,-0.657467,-0.384529,0.482675,0.959209,-0.526053,0.468043,0.298463,-0.0759255,0.482645,0.512006,0.78281,0.938084,0.716502,
57th node's weight,-0.429228,0.154548,0.800317,0.128047,0.0501831,-0.414911,-0.761196,-0.790835,0.687007,-0.401832,0.255245,0.755158,0.132296,-0.953798,-0.668791,-0.209198,-0.936002,-0.106783,0.350626,0.926627,0.948971,0.416788,-0.782778,0.746543,0.702221,0.519626,-0.607513,0.390484,0.219106,-0.727995,-0.85559,0.527289,-0.242829,-0.0491017,0.227095,0.633472,-0.785563,0.310582,-0.337895,-0.564257,0.727518,0.596308,0.680134,0.19704,0.413852,0.876229,0.920148,0.384245,0.968863,-0.44709,-0.450855,-0.308918,-0.395394,0.553238,-0.631993,-0.961746,0.321247,-0.489304,-0.842825,-0.195102,0.501699,0.215117,0.116352,0.0834676,0.49156,-0.011959,0.0909228,0.590934,0.762503,-0.731975,-0.661006,0.579414,-0.814274,0.810452,0.884496,-0.149788,-0.407636,0.964676,0.906778,0.613743,-0.422592,0.884624,0.138416,0.689654,0.211665,-0.150304,-0.297709,-0.180662,0.712833,-0.760181,-0.341871,0.497484,0.318944,0.803515,-0.161659,-0.33938,-0.397439,0.51593,-0.670857,0.353013,
58th node's weight,-0.937315,0.657754,0.791957,0.734267,0.279202,-0.989578,0.663135,0.321852,-0.221205,0.158555,-0.523841,0.199014,0.616694,-0.584242,0.0470451,0.128095,0.358304,-0.605287,-0.549428,0.221415,-0.71033,-0.00412411,-0.814787,0.673975,-0.758564,-0.980951,0.460583,0.415797,-0.221133,0.490063,0.605486,0.244543,-0.0952798,0.294825,0.885116,-0.646449,0.0915482,0.54916,-0.663575,-0.71204,0.12374,-0.682598,0.593162,0.58591,-0.99922,0.0121059,0.429301,0.370617,0.695387,-0.0763254,0.525123,-0.0625632,0.291027,-0.343736,0.239284,0.133924,-0.682244,-0.157484,-0.0641909,0.785519,-0.0193286,-0.855321,-0.873834,0.724969,-0.714331,0.389116,-0.00344419,-0.50661,-0.782259,0.962878,-0.480264,0.965543,-0.955355,0.194832,0.203487,-0.0225623,-0.092996,-0.345279,0.261638,0.858823,-0.251968,0.605518,-0.384239,-0.240433,-0.718776,-0.682039,-0.88551,-0.328028,0.5963,-0.895962,-0.343397,-0.99673,-0.286972,0.122958,-0.530918,-0.94289,-0.584286,-0.652198,-0.0260976,-0.59284,
59th node's weight,-0.943074,-0.694989,0.757116,-0.390428,-0.0273453,-0.286396,-0.626588,0.997724,-0.30401,0.8474,0.33276,-0.554881,0.443521,-0.72851,-1.1601,1.00104,-0.118959,0.585537,0.693033,-0.0915586,-0.264698,-0.770586,-0.328177,0.90444,-0.512915,0.433656,-0.459166,0.414983,-0.566149,0.00683256,-0.78996,-0.914785,-0.990438,0.358958,-0.0933577,0.016093,0.453962,0.432556,-0.100678,-0.941079,0.913169,-0.945183,0.581995,0.855035,0.728514,-0.0650015,0.103417,0.337107,-0.530524,0.110531,-0.46111,0.875592,-0.784354,0.865449,0.342951,0.980926,-0.158823,-0.785641,0.734026,-0.292675,0.0405536,-0.665852,-0.052827,0.222205,-0.0471385,-0.645075,-0.757375,-0.319006,-0.513404,0.148283,0.253188,0.864412,0.0771986,0.134128,-0.248626,0.701593,-0.649362,0.422157,0.8339,-0.43723,-0.340507,-0.214748,0.731655,-0.720216,-0.0812912,0.367234,1.02582,0.937417,-0.839814,0.61733,0.723845,-0.706718,0.728652,-0.0863632,0.617,-0.856466,-0.483127,0.418612,-0.686971,0.787251,
60th node's weight,0.420091,0.916446,-0.330852,0.177295,-0.584236,0.0663709,-0.0547763,-0.110352,-0.690436,0.683558,-0.890224,0.779595,-0.937823,-0.720013,0.163806,-0.060734,-0.723105,-0.2195,0.862084,-0.874685,-0.269717,-0.0353998,0.497492,0.103942,-0.140177,-0.222613,0.0358788,-0.688292,0.546539,-0.262587,0.710488,-0.194265,-0.293796,0.29082,-0.977724,-0.503914,0.8123,-0.587895,-0.576672,0.537551,0.214196,-0.0619293,0.867151,-0.650259,0.826689,-0.435687,0.22479,-0.00451725,0.115586,0.512241,-0.536483,0.0592698,0.307676,-0.617859,0.727146,0.740065,-0.43363,-0.640648,-0.457298,0.120979,-0.909936,-0.258862,0.450718,0.066686,-0.629401,-0.637499,0.496598,-0.0334027,-0.565404,-0.568469,-0.746261,-0.00581124,0.491161,0.102538,0.64954,0.61848,-0.351389,0.74596,-0.00313467,-0.544721,0.0405218,0.800175,-0.211051,0.795498,-0.557343,0.0574371,0.904516,-0.467726,0.0046083,-0.812113,-0.908627,-0.42258,-0.405405,0.787943,0.25688,-0.730431,0.515456,0.610936,0.102883,-0.174778,
61th node's weight,-0.0143015,-0.0448833,-0.129791,0.332463,-0.465814,0.728753,0.0200329,0.621792,0.467875,-0.345382,0.425631,0.425131,-0.102099,-0.741839,0.439354,0.273383,0.540757,-0.207828,0.636373,0.0355825,0.430527,-0.960987,-0.101516,0.105665,0.287021,0.241546,0.310399,0.726328,-0.560548,-0.0753473,-0.918488,-0.238784,-0.556359,-0.561825,0.4003,0.804075,-0.235356,0.760711,0.0768907,0.623493,0.0260688,-0.103786,-0.784758,0.767926,-0.77111,-0.674103,0.35419,0.430335,-0.714057,-0.122019,-0.584942,-0.858693,0.218766,0.853261,0.825532,0.779088,0.25562,-0.754359,0.970291,-0.232248,0.801449,-0.140832,0.293629,-0.399727,-0.779828,0.62971,0.464176,-0.0306787,0.20824,0.791722,0.74841,0.832973,-0.474897,-0.465283,-0.119005,0.674925,-0.457466,0.832631,0.746582,-0.480259,-0.732996,-0.611905,-0.279911,-0.908594,0.317786,-0.578252,-0.237701,-0.600182,0.206546,0.234015,-0.56989,-0.0320602,-0.511194,0.413306,0.177934,-0.161849,0.640623,0.51435,0.757217,-0.780898,
62th node's weight,-0.79585,-0.466894,-0.909987,-0.261397,-0.824668,0.309627,0.835419,-1.00275,0.919591,0.172377,-0.0221827,0.719146,0.0826511,-0.698631,0.0238084,0.524871,0.766615,0.619711,-0.00506823,-0.324108,-0.427425,-0.286499,0.431817,-0.238279,-0.31297,-0.297961,-0.606266,-0.347238,-0.518621,0.256393,-0.720324,-0.561304,-0.594775,-0.640995,0.17956,0.341188,-0.720007,-0.223284,-0.695905,-0.412282,-0.763333,0.516822,-0.588986,-0.727052,0.721056,-1.00443,0.463428,-0.034624,0.917876,0.707758,0.662266,0.487251,-0.920548,0.38821,-0.35331,0.375978,-0.312407,-0.99234,0.252898,0.390921,-0.908559,0.389203,0.267581,-0.209746,-0.0205548,-0.184365,0.586009,0.868036,0.547307,0.490051,0.252359,-0.152482,-0.204342,-0.671264,0.235816,0.329142,-0.0636076,0.705451,0.294076,0.532523,-0.788226,0.943815,-0.180524,0.225832,-0.805115,0.37132,-0.539453,-0.753783,-0.320087,0.642927,0.433952,0.303493,0.403019,0.703287,0.134404,0.539868,-0.0917612,-0.256441,-0.218189,-0.440339,
63th node's weight,-0.81479,0.138255,0.890543,0.558205,-0.152117,0.424803,-0.246467,-0.421332,0.551635,-0.400493,-0.578234,0.347537,0.0573848,-1.05762,-0.579418,0.79176,-0.922996,0.77092,0.434261,0.561029,-0.859494,0.420121,0.27402,0.849557,-0.312971,0.29931,0.549862,0.794497,0.660156,-0.46202,-0.613198,-0.564509,0.725743,0.20266,-0.260907,0.224931,0.107174,0.331372,0.0686184,0.915004,-0.482199,0.817174,-0.706241,0.289061,0.694846,-0.112587,0.215183,0.629995,-0.193488,0.943733,0.0417791,0.0291937,0.965867,-0.706789,0.990381,-0.343099,0.654015,0.541633,-0.118963,-0.790304,0.267546,-0.550318,0.37155,-0.44936,-0.513638,-0.318149,1.06922,1.10971,0.415339,-0.977812,-0.263971,0.559903,-0.355319,1.00679,0.163648,0.379685,0.806597,0.759124,-0.699242,0.607491,-0.147547,0.81984,0.779854,-0.321637,-0.153249,-0.252677,-0.628771,0.837519,-0.496364,-1.01901,0.891585,-0.249703,-0.768886,0.814953,-0.0210719,0.722397,0.743864,0.561086,-0.868673,0.39451,
64th node's weight,0.944127,0.911,0.768239,-0.426511,0.441327,-0.251414,-0.960619,-0.633851,0.344932,-0.967637,-0.139597,0.0343814,-0.720712,0.163829,-0.0471388,-0.963596,-0.807492,-0.469851,-0.752169,-0.687277,-0.67983,0.443587,0.280227,-0.120287,0.53321,0.654114,-0.102797,0.612344,0.0171842,-0.977236,-0.739398,0.603171,0.805061,-0.247501,0.644548,-0.938111,0.917751,0.151628,0.588078,-0.221113,0.988404,-0.364393,-0.366851,-0.399095,-0.38256,0.73157,0.458498,-0.800791,-0.429058,0.930896,-0.722842,0.610688,-0.628823,-0.066978,0.645689,0.913156,0.165966,-0.236634,0.375242,-0.341687,-0.21944,0.655005,0.152961,0.883523,-0.974717,0.371382,-0.205032,0.734298,-0.428313,0.0412535,0.4621,-0.321897,0.227859,-0.642332,0.577853,0.688452,0.836959,0.82753,0.476326,0.441985,0.242541,0.421998,0.241725,0.193893,-0.555563,0.160949,0.31285,0.362367,-0.407872,-0.355653,0.573013,0.704377,-0.032601,1.00565,-1.02943,0.722314,-0.354862,0.0233755,-0.295874,-0.264471,
65th node's weight,-0.465498,-0.92553,-0.595179,0.535399,-0.207379,-0.882774,0.56264,-0.569924,0.173389,-0.285194,-0.656575,0.749943,-0.593322,-0.727426,-0.344361,0.0128742,0.679345,-0.340757,0.908237,0.842567,-0.327759,-0.852642,-0.635677,-0.550509,-0.745105,0.358946,-0.683921,0.21849,-0.77636,0.681434,0.289157,0.423957,0.246259,0.0914926,0.54234,-0.397618,0.123345,-0.76083,0.127821,0.0558039,0.925084,-0.435197,0.256281,0.634661,-0.0613222,-0.254052,-0.87494,-0.352005,0.7106,0.90542,0.438214,0.335299,-0.480085,-0.923359,-0.684808,0.209273,0.137409,0.69716,1.04865,-0.0109238,-0.0407645,-0.368233,-0.520779,-0.370969,-0.296386,0.326725,-0.497969,0.571493,0.9304,-0.0663077,0.25284,0.932048,-0.0767064,0.906423,0.0795522,-0.0819716,0.678633,0.736403,0.722606,0.1183,0.362777,-0.00651351,0.407623,0.254525,-0.486719,-0.252885,0.866805,-0.844054,-0.907789,0.902782,-0.514332,-0.943615,-0.577501,-0.133,0.00394193,-0.758168,0.705469,-0.536649,-0.566491,-0.109726,
66th node's weight,-0.641878,0.319506,-0.198809,-0.304065,-0.166698,0.0975486,0.724682,0.972731,0.803867,-0.80159,-0.93928,0.439116,-0.484003,-0.77662,0.712093,0.243839,-0.570525,0.949335,-0.871057,-0.570534,0.585641,0.40799,0.965753,-0.398431,-0.0823678,-0.04742,-0.969552,0.585994,0.564156,-0.969299,-0.814532,0.686602,0.456489,-0.908762,0.470091,0.116527,-0.312836,0.487015,-1.01666,-0.974191,-0.339771,0.462382,0.0595576,0.756034,0.322114,-0.40267,-0.257882,-0.53891,0.787449,-0.638118,0.48753,-0.660632,-0.786897,0.794948,0.148088,-0.82797,-0.548828,0.0728694,-0.284736,-0.747312,-0.980592,0.685387,0.0575224,0.178508,-0.978448,0.314616,0.759093,-0.156305,0.769591,-0.760628,-0.0498906,0.184895,0.449431,0.886519,-0.520308,-0.629677,0.780977,0.315505,0.294874,0.6447,-0.120593,0.442565,0.968222,-0.448441,0.736782,-0.407063,-0.0544107,0.302913,-0.354103,0.0455957,0.592193,0.744746,-0.565114,0.959909,-0.043612,0.2672,0.619875,-0.787671,-0.623898,-0.411692,
67th node's weight,-0.102963,0.7153,-0.825767,0.0497776,-0.941015,0.102041,0.598411,0.151789,0.874727,0.188996,0.0357199,0.132828,0.724805,0.258997,0.0863293,-0.498188,0.50836,0.294408,-0.262878,0.786515,0.679804,-0.188109,-0.349081,-0.179886,0.845535,-0.843118,0.118266,0.781683,-0.950619,-0.125635,0.64658,0.488832,0.13353,-0.418817,0.41611,0.262002,0.323501,-0.272751,0.423763,0.619714,0.619349,-0.335898,-0.213534,-0.44624,-0.679561,-0.566826,0.255563,0.534841,0.240211,0.886661,-0.13285,0.772273,0.405804,-0.0125202,0.829185,0.474867,0.841148,0.855573,-0.527783,-0.446187,-0.63447,-1.02806,0.139478,-0.824081,0.658938,0.666482,0.583285,0.0582464,0.108345,-0.815584,0.392826,0.155173,-0.0768299,-0.497579,-0.17098,-0.895026,0.307805,-0.842019,0.404041,0.921996,0.852151,-0.853432,-0.138332,-0.534172,-0.486593,-0.303835,-0.265332,-0.0996065,-0.6454,-0.051321,-0.174215,-0.44571,-0.0118842,-0.0194843,-0.222178,0.733181,0.824498,-0.775017,0.343731,1.00457,
68th node's weight,0.257843,0.0117418,-0.638928,0.92973,-1.00268,-0.730438,-0.138823,0.181869,-0.297617,0.285464,0.248229,-0.612193,-0.163592,-0.283543,-0.950684,-0.223533,-0.425353,0.338799,0.152116,-0.643524,0.223249,0.719568,0.528585,-0.303018,0.67923,-0.696222,0.088579,-0.89056,-0.509592,0.0857523,0.563563,0.139585,0.14201,0.344797,1.00711,0.782146,0.619781,-0.921659,0.0423002,0.775695,-0.324869,-0.969255,-0.322905,0.0617511,0.835428,0.0229135,-0.992169,-0.545895,-0.593853,-0.899026,-0.896628,-0.475305,0.953166,-0.855885,-0.720785,0.319238,0.804194,0.0562096,0.175796,-0.204668,0.220399,0.361188,0.928019,0.510021,-0.315117,0.363397,-0.66329,0.947393,0.082494,0.766177,0.547708,-0.268992,0.510893,-0.106151,0.879518,-0.217155,0.342883,0.649062,0.2842,0.610093,0.641616,0.208274,0.326009,0.159506,-0.565865,-0.608039,0.435547,-0.935856,0.646987,0.387118,-0.691648,-0.507261,0.826502,-0.112619,-0.432365,-0.813051,0.430961,0.221518,-0.582055,-0.29778,
69th node's weight,-0.467284,-0.163959,0.585524,0.369474,-0.377018,-0.516694,0.00661779,0.644695,0.788024,-0.808714,-0.083324,-0.810858,0.288755,0.597551,-0.827127,0.489465,0.622636,-0.745238,-0.231757,-0.654391,-0.184616,-0.560518,-0.510014,-0.151059,0.320848,0.519825,0.432384,-0.105328,-0.573966,0.884814,-0.217904,-0.792633,-0.965379,-0.846015,0.876676,-0.526047,-1.02384,0.585156,0.28056,-0.740493,0.226054,0.871482,0.225185,0.855197,-0.6083,0.946852,-0.28348,-0.676453,-0.513777,-0.420943,-0.231306,0.355402,0.0600057,-0.365471,-0.401359,-0.350104,-0.608956,-0.049445,-0.926393,-0.732534,-0.676806,0.0355021,0.311658,-0.665411,-0.731179,-0.856977,0.950673,0.38443,0.693786,-0.435608,0.682723,-0.375378,0.706918,-0.54992,-0.505518,-0.577346,0.790743,0.612129,-0.363183,0.360716,0.731761,0.42249,0.6932,0.0711878,-0.70324,-0.985145,-0.608481,0.80884,0.770356,0.323844,-0.533726,0.256397,-0.630775,-0.053526,-0.708204,-0.47556,0.514918,-0.481249,-0.801099,-0.0777646,
70th node's weight,-0.485594,-0.390555,-0.820965,-0.827626,-0.121639,-1.00467,0.738735,-0.839294,-0.588188,-0.243296,0.414971,-0.91979,-0.546253,0.334086,-0.362316,0.502757,0.343025,0.513097,-0.878478,-0.406948,0.0413598,-0.925387,-0.534733,0.312702,-0.403755,0.836847,-0.382491,0.925519,-0.677087,0.954958,0.47826,0.0932521,-0.781575,0.345321,0.723551,0.40374,-0.479133,0.739867,-0.855515,0.439111,-0.215761,0.543355,-0.208916,0.718845,-0.444573,0.0674946,0.286753,0.333024,0.080345,-0.353346,1.0399,0.769075,-0.924879,0.796251,-0.161042,0.17432,-0.836779,-0.122254,0.549313,-0.819663,0.71949,-0.339353,-0.846132,-0.715713,0.739951,-0.551066,0.325597,0.245225,-0.849855,-0.69105,0.952484,0.272883,0.112265,0.488477,-0.466477,0.472306,0.529231,-0.261408,-0.246364,-0.500813,0.576728,0.995239,0.417562,0.58574,0.156563,-0.222855,-0.91251,-0.964885,-0.0124708,0.111689,-0.242607,-0.589755,-0.359282,-0.43292,-0.885493,0.88997,0.374173,0.517421,-0.281508,0.546482,
71th node's weight,-0.164156,-0.00319273,0.882126,-0.858456,-0.911177,-0.434046,-0.002678,-0.118789,-0.997626,-0.360697,0.0692866,-0.364027,0.25606,-0.518957,0.272391,0.824409,0.46545,-0.272156,0.39482,0.429845,0.785684,-0.823527,0.0325654,-0.740538,0.77122,0.169133,-0.668014,-0.459366,-1.01658,0.566176,-0.0097649,0.525721,0.320372,0.590005,-0.370386,-0.0733348,-1.01515,-0.286398,0.206499,-0.530647,0.382545,0.451354,-0.357518,0.130757,0.691893,0.685163,0.841787,0.34379,0.482802,0.0456334,0.979369,0.842694,-0.576135,0.765851,-0.136938,-0.0361919,0.0909253,0.761603,0.108525,-0.236478,0.441091,-0.0986158,0.551408,0.463161,0.233213,0.35212,0.375284,-0.0317014,-0.324843,-0.487934,0.756986,0.353564,-0.330917,0.0704738,0.473895,-0.170417,0.951741,-0.0169135,0.642106,-0.717633,-0.425572,-0.526653,-0.971284,0.465545,0.641692,-0.480091,-0.0392542,0.163324,0.0686564,0.96994,-0.550015,0.500243,0.94266,-0.659699,-0.795846,0.218379,-0.811268,0.421944,-0.271631,-0.0397231,
72th node's weight,-0.202297,-0.681477,-0.866406,-0.301825,0.192262,-0.192618,0.79371,0.869121,-0.372207,-0.973182,0.235356,-0.418524,0.673655,0.0282391,-0.516579,0.7995,-0.763876,0.0650976,-0.94252,-0.0883856,0.785073,0.554033,-0.369315,0.293524,0.456459,0.0560377,1.04751,-0.30557,-0.713139,0.143375,-0.526256,-0.835024,0.403263,0.105158,0.418215,-0.164372,-0.878264,-0.131313,-0.784404,0.860811,-0.944841,0.304413,0.888101,-0.322537,0.83518,0.600122,0.320376,-0.492614,0.0297392,0.74021,-0.646134,-0.0162633,-0.668371,0.12334,0.581796,0.584196,0.74156,-0.708686,0.394883,-0.662256,0.731851,0.0968927,-0.186016,-0.0820602,-0.416663,0.147335,0.785948,0.294696,-0.586562,-0.988644,0.707778,-0.92492,-0.320535,0.625759,-0.975155,-0.254902,-0.760131,-0.837597,-0.626732,0.832927,0.170337,0.168937,-0.170668,0.1483,0.932971,-0.552643,-0.54041,0.549046,-0.105633,0.451791,0.580346,-0.776486,0.624928,0.744405,-0.849959,0.317387,0.152502,-0.749326,0.46471,-0.636515,
73th node's weight,0.102303,0.665811,-0.361147,0.758421,0.38203,0.517762,0.628761,-0.6084,0.012422,-0.125697,-0.97285,0.73281,-0.569191,0.667503,-0.437097,0.750169,-0.668138,-0.478432,0.364594,-0.259477,0.331649,-1.00706,-0.339445,-0.362751,0.127164,-0.138537,-0.502434,0.781402,-0.452941,0.518293,0.773268,0.569609,0.890023,-0.526648,-0.490857,-0.716818,0.0621235,-0.762536,0.262889,0.14839,-0.749303,0.0584662,-0.492059,0.839176,-0.683422,-0.173481,0.445038,0.44411,-0.580228,-0.643202,-0.644469,1.00253,0.546826,0.0438342,0.659105,0.979656,0.855582,-0.840881,-0.744898,-0.539626,-0.424536,-0.650772,0.431773,0.781188,-0.655872,0.227602,0.148204,-0.284815,-0.931978,-0.507357,-0.270036,-0.580383,-0.364889,0.362169,-0.133786,0.291358,0.662775,0.14107,-0.938954,0.460601,-0.0299073,0.00326552,0.909333,0.0258866,-0.606059,0.117168,0.386233,-0.498969,-0.568106,0.543547,-0.0408739,-0.000656815,-0.423719,-0.708298,0.400743,-0.363545,-0.04435,-0.424373,0.233237,-0.301111,
74th node's weight,-0.383198,-0.981287,0.765696,-0.80467,-0.395029,0.246913,-0.675195,0.745708,0.567155,0.888595,0.564787,-0.572574,-0.0467641,0.928633,-0.286335,-0.591322,0.551167,-0.645033,-0.680334,-0.0921415,-0.440239,0.54034,-0.691176,0.319153,-0.413707,-0.617627,-0.0578864,0.354477,0.647536,0.777954,-0.216338,0.763187,0.174069,0.138645,-0.570392,-0.036527,-0.353123,-0.86146,0.168317,0.488528,-0.665862,-0.390026,-0.555669,-0.543511,-0.0755413,-0.12123,-0.87236,0.631322,-0.669029,-0.199678,-0.451209,-0.597948,0.149189,0.144527,0.0695088,0.455501,-0.179412,-0.934485,-0.061142,-0.377157,0.639318,0.512249,0.358445,0.0497557,-0.559167,0.638782,-0.341484,0.163604,-0.58618,-0.0898822,-0.0241048,0.893029,0.301793,-0.0578782,-0.385645,-0.0863836,0.33325,-0.0157217,0.384931,0.767448,-0.532739,-0.889884,-0.938088,-0.40216,0.713112,0.0317852,-0.324587,-0.602958,0.0841047,0.405584,0.308448,-0.175212,-0.138967,-0.629367,0.471269,-0.538289,-0.598535,0.709936,0.0240417,-0.0474626,
75th node's weight,-0.276991,-0.480285,0.0244757,0.356057,-0.191412,-0.304938,0.201723,0.259252,0.634744,-0.122324,-0.441827,0.959233,-0.0631103,0.113698,-0.122922,0.692305,-0.114468,-0.120615,0.88505,0.781487,0.200045,0.374153,0.747039,0.837237,0.732144,-0.260003,-0.714079,-0.0329207,-0.735092,0.309685,-0.92016,0.744204,0.505862,0.233372,0.394025,0.828564,0.373488,0.464829,-0.45036,0.169104,-0.119576,0.860803,0.233323,0.185901,0.406036,0.910783,-0.0400786,-0.655047,-0.0235723,-0.539507,-0.611467,-0.864555,-0.219593,0.830951,0.305366,0.668048,-0.164533,0.571947,0.4906,0.181519,-1.03737,-0.971766,-0.205031,-0.897839,0.0646161,-0.78777,0.64633,-0.436832,0.903824,0.070213,0.962407,0.165686,0.766316,0.683756,0.530311,-0.130721,-0.122853,-0.72818,0.729985,0.818825,0.723812,-0.5872,0.893396,0.142886,0.271165,-0.252634,0.535735,-0.633048,0.86804,-0.71203,-0.789068,0.0712556,-0.853156,0.0694752,-0.730464,0.760227,0.0443929,-0.486544,0.221203,0.714908,
76th node's weight,-0.964677,-0.365024,0.771342,0.259928,0.536432,-0.177615,0.12154,-0.472221,-0.111342,0.456503,0.759737,-0.688217,0.127829,0.114153,-0.178245,0.378019,-0.349614,0.236213,0.158279,0.259364,-0.347754,0.635894,-0.948741,-0.461805,0.659727,0.671175,-0.0231057,-0.931153,0.370578,0.755314,-0.959838,0.052575,-0.48103,-0.514418,0.103119,-0.356638,0.382081,-0.429181,-0.937092,-0.136635,-0.877054,0.63456,0.327804,-0.901679,0.70962,0.688683,0.574743,-0.527802,0.747156,-0.353352,-0.647559,-0.28741,-0.449272,-0.957165,0.927735,-0.195055,0.169804,0.135948,-0.443208,-0.136882,-0.791068,0.570107,0.592692,-0.823955,0.903238,0.685194,-0.513598,0.516149,-0.26672,-0.853272,-0.535095,0.67738,-0.803369,-0.202399,0.94287,-0.879723,0.652044,-0.336772,-0.656103,0.538064,-0.564743,0.515219,-0.511723,-0.686889,-0.569211,-0.70022,0.595025,-0.230172,0.50411,0.000812631,-0.245872,0.560951,0.481515,0.437809,-0.0401173,0.741134,0.32366,-0.250962,-0.628754,-0.533282,
77th node's weight,0.608394,0.5724,0.165772,-0.817895,0.298462,-0.660506,0.302068,-0.581539,0.439643,-0.567042,-0.955513,0.88421,0.0117399,0.952676,0.634477,0.440491,-0.531639,0.859114,-0.77342,0.795979,0.919746,0.905652,0.723131,-0.564419,0.601141,0.778397,-0.0894483,-0.419202,0.66345,-0.672366,-0.602618,-0.854048,0.470228,0.41624,-0.793108,0.440704,-0.451934,0.911324,0.867142,0.366198,-0.487915,-0.0259635,-0.722139,-0.427988,-0.273475,0.345964,0.341217,0.344687,-0.450314,0.56144,0.492643,-0.44454,-0.731182,-0.808425,-0.0974466,0.197536,0.314309,-0.357668,0.489705,0.724343,-0.238435,0.861831,-0.103634,1.03716,-0.226656,0.276731,0.0600539,-0.852489,0.0702265,0.0532402,-0.838987,0.408254,-0.608166,-0.430645,-0.881989,-0.472229,-0.874508,0.708156,0.431526,0.0644346,0.634193,0.176145,0.107983,-0.153051,-0.440128,-0.0352076,0.668563,0.0344938,-0.215661,-0.521022,0.151304,-0.0620844,0.527845,0.489349,0.781444,-0.834445,-0.458895,-0.296978,0.619425,-0.706581,
78th node's weight,-0.49554,-0.958107,0.309359,-0.177493,0.812131,-0.648262,0.375378,-0.648815,-0.487483,0.428647,0.305613,-0.602039,0.322404,-0.819593,-0.0596397,0.0661802,-0.355092,0.886014,0.498195,-0.0721537,-0.0266097,-0.442868,0.12341,0.756942,0.349078,0.152179,-0.609779,0.784899,0.937645,0.33618,-0.0126685,0.654687,0.156332,0.882313,0.938907,-0.561245,-0.0179064,0.0799376,-0.947831,-0.488789,0.349243,0.954192,0.747163,0.051637,-1.00377,-0.803667,0.260833,-0.943151,0.534645,-0.195482,-0.177674,-0.430215,-0.528155,0.653558,0.393758,0.401148,-0.264921,-0.809377,-0.632682,0.304338,0.400631,-1.04741,-0.1052,0.311516,-0.215606,0.358726,0.341681,0.911042,0.980859,0.710266,0.969838,-0.898957,0.911186,-0.419319,-0.703205,-0.481913,-0.253089,0.309021,0.239725,0.801146,0.806945,-0.683493,0.697983,0.950577,-0.252072,0.935065,-0.773534,-0.593952,0.581048,-0.588111,0.241082,-0.0281548,0.529143,0.424639,-0.5283,-0.765473,-0.91801,0.773309,-0.0685789,-0.358255,
79th node's weight,-0.501022,-0.216864,0.52929,0.569363,-0.756999,-0.93661,0.00722627,0.553085,0.261666,-0.876555,-0.72579,0.485187,-0.782843,-0.752634,0.461033,-0.326037,-0.476281,-0.754166,0.682648,0.715392,0.00932171,-0.825305,0.627955,-0.698137,0.286839,-0.464933,-0.685813,-0.805309,-0.0505976,0.83183,0.984315,0.663927,0.896916,-0.444472,0.0834347,0.413391,0.351627,0.874162,0.675706,0.70475,0.5623,-0.846484,-0.0937187,0.077502,-0.182537,-0.736734,-0.000810428,0.620435,-0.60436,0.192641,-1.12234,0.946703,0.242134,-0.0959914,0.451294,0.0417251,0.63143,-0.968297,1.02722,-0.901531,-0.135593,0.72209,-0.0284652,0.589209,-0.195602,-0.689608,0.25673,-0.462361,0.989818,0.219954,-0.637084,-0.847945,-0.640443,0.118904,0.277958,-1.02484,-0.199835,0.861261,-0.0103929,0.41248,0.320571,-0.454174,0.395145,0.429779,-0.510323,0.242218,0.406251,0.057948,0.0753486,-0.647571,-0.36801,0.656214,-0.193217,1.05146,-0.114075,-0.663459,-0.408212,0.752189,0.916934,0.577953,
80th node's weight,-0.691318,0.150052,-0.0685953,-0.166198,0.835562,-0.576685,-0.171591,-0.819825,0.698931,0.492343,0.339564,-0.36269,0.275982,0.13322,-0.427388,0.514528,0.899314,-0.0244859,0.409486,0.629648,-0.833964,0.927692,-0.0663553,-0.375616,-0.279067,0.0798682,0.0980557,0.420832,0.743961,0.662744,-0.045391,-0.373584,-0.53173,-0.396214,-0.543915,-0.107406,-0.912639,0.238541,-0.852148,-0.247368,-0.0242781,0.0279522,0.874254,-0.828675,-0.10946,0.556681,-0.0484703,0.950538,-0.315235,-0.192922,-0.720418,-0.949024,0.949299,-0.678909,0.454612,0.729858,-0.643516,0.953581,-0.821442,-0.733719,0.751234,0.4649,-0.813315,0.327552,0.563765,-0.959116,0.838705,-0.182372,-0.492096,0.772062,0.0450538,0.791849,-0.891868,-0.576131,-0.576086,-0.659965,-0.561777,-1.01322,-0.263995,0.704813,0.233519,0.0812075,0.799834,0.14382,0.753694,-0.949114,-0.27945,-0.0158991,-0.112017,-0.964503,0.70126,-0.598873,0.430967,1.0412,-0.192372,0.724853,1.00712,-0.132538,-0.609858,0.0735356,
81th node's weight,-0.520672,-0.813114,0.956291,0.787306,-0.767504,0.0731223,-0.914107,0.738433,0.248455,-0.997776,-0.556174,-0.584064,-0.4942,0.407656,0.352669,-0.482912,0.651498,0.0560535,-0.887464,0.548083,0.333041,-0.34456,0.316235,0.726474,0.992527,-0.206004,0.765025,0.889263,0.817193,-0.775528,0.757413,0.0420683,0.468287,-0.435191,0.29095,0.0175241,0.423628,-0.656931,0.288233,0.368789,-0.835572,0.0214838,-0.524586,0.460781,-0.787278,-0.691621,-0.736927,-0.443424,-0.919807,-0.4943,0.416667,-0.919943,0.481286,-0.979736,0.253266,-0.262041,-0.839932,0.522745,-0.0133934,-0.884939,0.205992,0.589832,-0.926065,0.0187926,-0.536366,0.00469331,0.0443094,0.542827,0.21273,-0.51565,0.819834,-0.495639,0.170625,-0.491566,0.30874,0.446732,-0.130075,-0.497823,-0.192035,0.850875,0.53324,0.726194,-0.329135,0.700576,0.0199171,-0.946992,0.131063,-0.694088,0.819304,0.638487,-0.858801,-0.0132906,0.287611,0.987997,-0.989555,0.100157,-0.280771,0.246993,-0.553246,0.202782,
82th node's weight,-0.498767,0.390412,0.411985,0.781295,0.422878,-0.853333,0.449857,0.926545,-0.895497,0.53716,-0.234839,0.68997,-0.767923,-0.123875,-0.858307,0.409249,0.933607,0.617338,-0.820733,0.115166,0.0293366,-0.485797,-0.560376,0.439801,-0.639485,-0.909753,-0.863718,-0.966832,0.524642,-0.840664,0.557029,0.818315,0.227123,-0.0534768,0.422312,-0.73043,0.490756,0.369887,0.88858,-0.213024,-0.611668,0.858778,1.00522,0.541828,-0.0909615,0.0587573,-0.883042,-0.038606,0.6731,-0.977168,0.97002,0.234744,0.800265,0.540475,-0.490074,-0.391986,-0.255895,0.87819,-0.345608,-0.309926,0.759314,-0.109934,-0.807292,0.90313,0.836796,0.51628,0.101344,0.974614,-0.327145,0.177267,-0.896571,0.376066,1.03986,0.317031,0.725621,-0.507988,-0.864298,-0.686916,0.107049,0.993679,-0.435913,-0.952003,0.645504,-0.323097,-0.82174,0.815211,0.98968,-0.494302,-0.665664,-0.791584,-0.195143,0.243667,0.707518,-0.512909,-0.219262,0.790077,0.0532517,-0.980325,-0.193059,0.188899,
83th node's weight,0.818988,0.136398,0.531136,-0.580655,0.621501,0.723895,-0.401602,0.648368,0.473212,0.465664,-0.120593,0.175627,-0.917809,-0.571525,-0.239084,-0.709358,-0.55346,-1.01716,-0.245192,0.390892,-0.873494,-0.230407,0.140534,0.332074,0.427239,-0.499327,-0.289035,0.46034,-0.73627,0.573991,0.325824,0.951276,0.751692,0.77989,0.582522,0.927734,0.708396,-0.596442,-0.717062,-0.611441,-0.472506,-0.0895817,0.235367,0.833164,-0.479804,-0.0984779,-0.673262,0.0427203,-0.635169,-0.13621,-0.375968,0.267526,0.825918,1.01441,0.176576,-0.889785,0.979615,0.440399,-0.744651,-0.977783,-0.473306,0.410976,0.772585,-0.431812,0.660322,-0.342611,-0.804197,0.573346,-0.0305456,0.860363,0.635415,0.29915,0.00628758,-0.780683,0.905258,0.0856556,-0.970616,0.825848,-0.651017,-0.628406,-0.673674,0.267746,-0.0931117,-0.113696,0.309834,-0.209877,-0.969085,0.8252,-0.617624,-0.037223,-0.834312,0.00513818,0.516364,-0.829858,-0.650316,0.330559,-0.0012073,1.05964,-0.740854,0.626421,
84th node's weight,0.534558,0.16674,-0.309123,0.629707,0.646355,0.777866,-0.378003,-0.0842888,-0.593148,-0.616426,0.956882,-0.263035,0.761056,0.445353,-0.805604,-0.0373402,-0.947782,-0.413171,0.950981,0.621664,-0.30907,-0.388965,0.605754,-0.911649,0.830195,0.724473,-0.226235,0.885775,-0.225732,-0.3643,-0.460035,0.167209,0.803239,-0.0918431,0.365887,-0.512987,0.799729,-0.451489,0.00104932,-0.638302,-0.807454,0.157859,-0.349164,0.335592,0.137887,-0.198121,-0.981761,0.644307,0.287496,-0.129,0.725931,0.308401,-0.0162044,-0.763182,0.765862,0.61208,0.237525,0.591852,-0.516333,0.60816,-0.0698728,0.290197,0.0599474,-0.655622,-0.118579,0.956627,-0.513584,0.271254,-0.855338,0.886477,-0.981891,-0.54125,-0.548601,0.011238,0.966096,0.435612,-0.618129,0.402014,0.807494,0.76063,-0.837547,0.461131,-0.779465,0.417297,-0.881923,-0.324315,0.101463,-0.952437,-0.474338,-0.652606,0.256617,-0.198361,-0.292312,0.844855,0.280634,-0.117687,0.841418,-0.0638759,0.281117,0.406995,
85th node's weight,-0.587239,-0.0774888,-0.474563,0.515357,0.178263,0.581353,0.665075,-0.688086,0.207922,-0.864241,0.0397153,-0.754189,-0.272701,0.0133402,0.52234,-0.19426,-0.443406,-0.0833335,0.547296,-0.983218,0.781621,-0.173967,0.280081,0.481006,0.609045,0.728536,-0.479167,0.749453,0.766772,-0.100141,-0.196155,-0.790311,0.57583,-0.227718,0.65632,-0.0386335,0.852977,0.755309,0.331804,-0.0827364,-0.398735,0.803102,0.686204,-0.610053,0.76423,-0.0367219,0.0406499,0.457555,-0.554556,0.77426,0.0570055,0.478032,-0.827212,0.42025,-0.057799,0.0834766,0.669766,0.371593,-0.712521,0.953261,-0.175218,-0.655467,0.841773,-0.226078,-0.755276,-0.765001,-0.621839,0.48123,-0.667573,-0.86813,-0.506127,0.777089,0.814935,-0.964489,-0.931878,0.647229,-0.109928,-0.726763,-0.338725,-0.0221267,-0.105974,0.123701,-0.245226,0.66518,-0.602527,-0.363536,0.25618,0.483264,0.239516,-0.0628935,0.367875,-0.51517,-0.608994,-0.628443,-0.212308,-0.701165,-0.0117448,0.010766,-0.677754,0.120652,
86th node's weight,-0.511577,-0.595992,-0.781529,0.0917797,-0.595324,0.94351,0.984847,-0.480923,-0.874531,0.951955,-0.211326,-0.150403,0.897177,0.845856,0.501052,-0.368802,0.0206998,-0.239562,0.942931,-0.569015,-0.288626,-0.121925,-0.269272,-0.612612,-0.81211,-0.889158,0.590889,0.111483,0.688624,-0.331673,0.511944,0.956353,0.352352,-0.587533,-0.0403935,0.889129,-0.607441,-0.214694,0.270691,-0.671946,-0.86276,-0.908185,0.849901,-0.0179196,-0.239257,0.533246,-0.123632,-0.651149,-0.0429885,-0.186547,-0.159401,0.130035,-0.653728,-0.204404,-0.368367,0.172102,-0.115012,-0.304403,-0.168406,0.131838,-0.461296,-0.87111,0.982974,0.282132,0.675987,-0.255557,0.697895,0.922999,-0.602349,0.314707,-0.753433,-0.224988,-0.656055,-0.183931,-0.716849,-0.559809,0.674824,-0.554543,-0.831799,0.0851997,0.399367,0.811294,-0.390499,-0.852787,-0.485166,-0.744017,0.512518,-0.377953,-0.659456,-0.299185,0.890659,0.721121,0.525124,-0.913091,0.752214,0.502321,-0.480051,-0.974835,-0.445308,-0.980877,
87th node's weight,0.924492,-0.473376,-0.472794,0.792424,0.792995,0.966044,-0.876114,-0.853124,-0.734679,-0.504015,0.269391,0.00264328,-0.00933341,0.259715,-0.356361,-0.928605,-0.477553,-0.266765,0.0421761,0.335846,0.249951,0.303067,0.209062,-0.464886,-0.120924,-0.802951,-0.311282,-0.854662,0.768134,0.0990969,-0.222073,0.219712,0.969829,-0.918939,-0.121773,0.432934,-0.453853,-0.772884,0.709745,0.299744,0.0701218,-0.643012,-0.27468,-0.900764,-0.00439061,-0.0302357,-0.93882,0.374138,0.0840334,0.0970848,-0.229644,0.280219,-0.701259,0.164439,-0.490858,-0.891186,0.67392,-0.524548,1.03119,-0.7464,0.873417,-0.97416,-0.181757,0.181342,-0.190848,0.372618,-0.152118,0.598512,-0.917244,-0.415191,0.381291,0.559686,0.603484,-0.980907,0.290717,-0.218378,-0.923805,-0.629534,-0.509848,-0.564548,-0.428463,-0.120743,0.0874706,-0.564387,0.126429,0.883619,-0.668967,-0.223526,-0.920561,0.0946486,0.109699,-0.25943,-0.0142267,-0.604752,-0.0506497,-0.964157,-0.286404,0.102516,-0.33107,-0.73078,
88th node's weight,-0.710266,-0.522752,0.908066,-0.327052,0.868357,0.106735,-0.655563,-0.742471,0.026426,0.806711,0.228605,-0.859216,-0.818959,0.380201,0.810404,-0.570135,-0.407933,-0.364644,-0.508727,0.590452,-0.691499,-0.728418,0.756154,-0.823352,0.403834,-0.0381786,-0.883442,-0.0255445,0.929064,-0.121853,0.792553,-0.665492,-0.964905,-0.467304,-0.328062,0.176064,-0.872048,-0.411076,0.0859594,0.281921,-0.491049,0.657844,-0.533225,0.347897,0.58627,-0.886522,0.209506,0.654166,0.312662,0.736238,0.605593,-1.00864,0.63763,-0.304658,0.868299,-0.232805,0.00854673,-0.341053,-0.72922,0.944959,0.817724,0.36087,-0.348959,-0.802947,0.0738904,0.0524794,0.679929,-0.239266,0.15301,0.349027,-0.119022,0.270998,-0.699803,-0.638084,-0.533386,0.00648524,-0.588158,-0.964002,-0.0399801,0.356227,0.554007,0.341513,0.649407,0.215314,-0.260555,-0.463756,0.909338,-0.984043,-0.306711,-0.745206,0.890041,-0.478377,-0.68472,0.770156,0.951574,0.099205,0.0666704,0.553647,-0.75946,-0.850093,
89th node's weight,-0.243239,0.836421,-0.341802,0.393886,-0.446067,-0.241141,0.185646,0.13556,0.275763,0.614343,0.778065,0.693098,-0.821274,1.0165,0.374683,0.855633,-0.429474,0.530871,0.266503,-0.533362,-0.413709,-0.160121,-0.238702,0.396003,-0.665825,0.559283,0.823071,-0.836547,-0.138286,0.764921,-0.439642,0.778349,-0.624947,0.970041,-0.476297,0.950311,0.463847,-0.176886,0.756073,0.651219,-0.554755,-0.708523,0.648933,-0.656158,0.208448,-0.32595,-0.374753,-0.198009,0.381049,0.0448032,0.624238,-0.265211,0.486107,0.349958,-0.494728,0.326895,0.950646,-0.868802,-0.153154,0.788689,-0.0635353,0.650014,-0.224949,-0.445683,0.420801,-0.123856,-0.720434,-0.804715,-0.909649,0.376578,0.660139,-0.430425,-0.109948,-0.223319,-0.377178,0.219954,0.917404,-0.598884,-0.457941,0.282593,-0.261156,-0.063835,0.37482,0.287203,-0.715579,0.936885,0.7902,-0.369376,-0.372338,0.241389,-0.641695,0.182105,0.281176,0.00802364,0.903433,0.764316,0.03975,0.736103,0.838413,-0.0580189,
