-0.278674,0.0898597,-0.926051,0.742647,-0.0781373,0.363255,0.338629,0.0190479,0.863017,0.753398,-0.167133,-0.772468,-0.601585,0.0179484,0.928636,-0.396514,-0.601181,0.627576,-0.065504,-0.266455,-0.684756,0.151205,0.788413,0.237668,0.539707,0.0659014,0.159498,-0.635112,0.732968,0.333188,-0.0802088,0.692369,0.492162,0.487113,0.82234,0.668973,0.181484,0.190523,-0.45246,-0.248046,0.945093,-0.185819,0.303628,0.317813,0.648928,0.737695,0.0887261,-0.744324,-0.752318,-0.55461,0.0141603,0.250976,-0.459656,0.912375,0.5993,0.504784,-0.819941,-0.810327,0.584236,-0.0583576,0.704739,-0.527758,-0.445777,-1.01209,0.877371,-0.209718,-0.137456,0.524573,-0.858538,-0.117348,-0.747217,0.0582423,-0.361536,-1.03688,0.853301,0.871877,-0.0323328,-0.52503,0.46101,0.69447,-0.795004,-0.910544,0.595457,-0.586001,-0.444974,-0.833368,-0.838069,-0.69706,0.485035,-0.792604,-0.765034,-0.0303855,0.325339,-0.0812546,-0.405311,0.522986,-0.63589,-0.984359,-0.440407,0.152405,
0.439487,0.0505591,0.849495,0.858775,0.179307,0.337728,0.353062,-0.559086,-0.742452,0.928431,0.423591,-0.782441,0.724359,-0.876234,0.922985,-0.843825,-0.933054,-0.574402,0.844807,-0.541575,-0.729867,0.53921,0.542836,-1.03455,-0.579489,1.06452,-0.0580394,-0.627432,0.0683073,0.0851166,0.944237,0.642426,-0.931707,0.92557,-0.217088,0.96264,0.648286,-0.323387,0.612231,0.892997,-0.545084,-0.279855,-0.091083,-0.00271563,0.668585,0.834034,0.670895,-0.663971,0.206234,0.0272369,0.981294,-0.917067,-0.0931759,0.318505,0.576742,0.234297,-0.803315,-0.249824,0.0594606,-0.920712,-0.904584,0.290187,0.783035,-0.203534,0.245362,0.260237,-0.853649,0.724327,-0.650282,-0.460352,0.107301,0.534389,0.416847,-0.336351,0.903618,0.694127,-0.321292,0.192137,-0.297677,-0.0712012,0.326983,0.222063,0.370277,0.53681,0.220127,-0.487845,0.533282,-0.257833,-0.192175,-0.650706,-0.891838,1.018,0.802287,0.855052,0.666988,0.639628,-0.787008,-0.99551,-0.467558,-0.811645,
0.317011,0.0638291,-0.178063,-0.520425,0.66787,0.721446,0.031196,-0.954596,-0.346099,0.204174,0.491825,-0.423252,0.794336,0.0226933,0.427698,-0.69083,0.766466,0.524512,-0.185372,-0.525291,0.303492,0.878769,0.938704,-0.174497,-0.291185,0.363575,0.843431,0.212148,-0.496224,-0.626084,-0.177793,-0.348965,-0.86403,0.0858825,0.782494,0.607503,0.424822,-0.974481,-0.819491,-0.240589,0.63497,0.12432,-0.0224264,0.368716,0.00568043,0.201722,-0.331573,0.0566677,0.0466548,-0.683016,0.831819,0.57285,-0.053486,1.01746,-0.306029,-0.281177,0.0201604,0.690874,-0.503452,-0.997127,0.374876,-0.111811,-1.02195,-0.819593,0.851867,0.24702,-0.903341,-0.679459,-0.223097,0.279519,0.190725,0.52896,-0.635166,-0.627474,0.679895,-0.26727,-0.450684,0.65697,0.525205,0.107391,1.04191,0.40525,-0.0787595,0.0766178,-0.596287,-0.766331,-0.27807,0.0724469,0.371143,0.516173,-0.747919,0.0872624,-0.517023,0.576771,-0.366808,-0.0491848,-0.101917,-0.0200927,-0.694025,0.187992,
-0.95185,0.148864,-0.372013,-0.625373,0.399732,-0.566562,0.331583,-0.71784,0.0419653,0.894496,-0.868244,0.137127,0.564763,-0.437904,0.145779,-0.755032,0.387769,0.71281,0.914265,-0.411957,-0.137082,0.773056,0.130759,-0.395671,0.739423,-0.241267,-0.33322,-0.810298,-0.976891,-0.408564,-0.392511,-0.10263,-0.135957,0.292231,0.33372,0.151837,0.249409,-0.0159119,-0.0931137,0.925026,0.496781,0.713492,0.961733,-0.495372,0.0440416,0.0978987,-0.989067,-0.0624606,-0.0265137,-0.133076,0.106001,-0.909708,0.560442,0.362953,-0.654806,-0.581155,0.333212,-0.447555,0.724798,0.00699602,-0.420046,-0.90038,-0.0728844,-0.316679,0.449311,-0.0393371,0.727885,0.260981,0.395192,0.298455,-0.519543,0.114673,0.741287,-0.588802,0.662371,0.434417,0.433835,0.93748,0.809996,0.116918,0.00648974,0.586546,-0.128567,0.94125,0.922718,0.240184,-0.52665,-0.79837,0.917356,-0.47894,-0.430185,0.237042,0.0689356,-0.346446,-0.0490787,0.873238,-0.229914,0.892937,0.808235,-0.422407,
0.546709,-0.500969,-0.750636,-0.218789,-0.701054,0.855004,-0.032925,0.969428,-0.952277,-0.269737,0.609465,-0.000551251,0.245941,-0.694352,0.74955,-0.722315,0.27108,0.619363,-0.193362,-0.895412,-0.758229,-0.0250227,0.699857,-0.214402,0.0825866,0.557042,-0.365253,-0.255831,0.936343,-0.49538,0.562097,-0.179377,0.21367,0.0921727,-0.576045,0.237946,0.642524,-0.590919,0.316913,0.015884,-0.96921,0.764729,-0.208882,-0.903671,-1.03098,0.500169,0.322081,0.206761,0.231389,-0.467729,0.675346,-0.34505,-0.586605,-0.40696,-0.449349,0.550007,-0.0507534,-0.263454,0.413396,-0.636822,0.301312,-0.861737,-0.0828642,0.200064,-0.194037,0.130171,-0.813188,0.808301,-0.577198,0.613864,-0.367708,0.539343,0.376065,0.843319,-0.670753,0.973363,0.475336,0.389146,-0.779735,0.909118,0.235833,0.0637465,0.284609,-0.0569988,-0.762368,-0.82644,0.16594,-0.660687,0.316955,0.86522,0.914211,0.596317,0.713824,-0.889666,0.583576,-0.16516,0.352897,-0.0147548,-0.31547,-0.0824952,
-0.233963,-0.297756,-0.11337,-0.270783,0.731541,-0.299667,0.736071,0.075656,0.0869722,-0.736991,0.246976,0.372118,0.581511,0.480241,0.620322,0.548328,0.531781,0.544335,0.758553,0.853585,-0.118916,0.532821,0.451179,0.483298,0.0288878,-0.473696,-0.125157,-0.353223,0.0760393,-0.354408,0.0802797,-0.635236,-0.906903,-0.186626,-0.663115,0.0158332,0.69594,0.269724,0.894761,0.962107,0.802429,-0.290739,-0.30801,0.104076,0.520053,0.7242,0.565364,-0.209609,0.0712577,-0.685541,-0.816065,0.923108,-0.584073,-0.939243,0.545074,-0.323205,0.489697,-0.470026,0.383349,0.954392,0.221828,0.270586,-0.776316,-0.232789,0.471566,0.714866,0.907299,-0.215637,-0.130374,-0.329019,0.809338,-0.0340345,0.882341,-0.0878638,-0.941472,-0.0845725,-1.01316,-0.250802,0.24944,0.744362,-0.447106,-0.578555,-0.016848,0.0583494,-0.917739,-0.145961,-0.00952049,0.314377,0.0253197,0.83309,0.298253,-0.291524,-0.78921,-0.23506,-0.571934,-0.707273,-0.481708,-0.462323,0.0303758,0.327211,
-0.5186,0.712177,0.715274,0.553392,0.081916,0.0888796,0.929359,0.494791,0.530065,-0.711969,-0.114335,-0.903809,0.779229,0.072396,0.639615,0.204846,-0.0762237,0.00985203,0.565428,-0.652057,0.873308,0.34958,0.75513,-0.481854,0.270582,0.741107,-0.541832,0.931791,0.0316144,0.220089,0.906725,0.715629,1.01538,0.73992,0.73116,-0.369865,-0.499774,-0.387246,0.0501107,0.974528,-0.318442,0.87132,-0.179892,0.581134,-0.129149,-0.434935,-0.241683,-0.368318,-1.00627,0.511591,-0.343004,-0.250421,0.379002,-0.913029,-0.0375152,-0.621942,0.144105,-0.560506,0.0750608,0.487746,0.723043,-0.174268,0.0410353,-0.856128,0.671713,0.984473,-0.746122,0.888228,0.284055,0.493882,-0.27606,0.637127,0.902358,0.327014,0.494521,-0.936161,-0.2031,0.0693342,0.0396029,-0.323454,0.913069,-0.328994,-0.248441,0.768433,0.453644,-0.421626,-0.462963,0.016409,-0.0309308,-0.0566444,0.481917,0.502925,-0.814626,0.266369,-0.728048,0.373531,-0.752804,0.285005,-0.193198,-0.825828,
0.162563,-0.227421,0.552096,-0.729609,0.482543,-0.0402129,0.77357,-0.258447,0.862963,0.89896,-0.973641,-0.230309,-0.84774,0.605364,0.271063,-0.563173,-0.392557,-0.314187,0.551019,0.906472,0.287608,-0.599401,0.946691,0.826556,-0.34747,0.00658858,-0.411011,0.379432,0.860346,0.921319,-0.115005,-0.239393,0.316521,-0.656294,-0.643046,0.719032,0.208834,0.437522,-0.903871,-0.553634,-0.330987,-0.131581,0.123902,0.00578929,0.167096,-0.242265,0.374319,-0.165074,-0.05199,-0.12605,0.44607,0.168313,-0.748929,0.789272,-0.470558,0.846146,0.515198,-0.414469,-0.80341,0.800862,0.700129,0.325682,0.832281,0.732917,0.875721,-0.62734,-0.548177,0.0624087,0.721319,-0.860863,0.408722,-0.0260926,0.755301,-0.28415,-0.71005,-0.790267,-0.228737,0.893468,-0.620043,-0.806908,-0.974963,-0.0254514,0.00528939,-0.0737824,-0.871906,-0.845413,0.335484,0.738214,0.755611,-0.469446,-0.80417,-0.0204016,-0.873163,0.500691,0.935982,-0.242258,-0.650488,-0.494683,0.659822,0.0916165,
-0.490775,0.431044,-0.319457,-0.483255,-0.708209,-0.511259,-0.743177,-0.970655,-0.726548,-0.339988,-0.117766,0.253075,-0.259921,0.403194,0.362084,-0.460097,-0.0228037,0.766861,0.667039,0.0887942,0.333383,-0.276991,0.428252,-0.943983,0.44508,0.341897,-0.240764,0.859518,0.184342,-0.208995,-0.503247,-0.765957,0.14992,-0.416713,0.445314,0.841569,0.255924,0.859154,0.336151,-0.714193,0.706535,0.494132,-0.180652,0.734844,0.0354275,-0.422833,-0.601528,-0.897857,-0.877977,0.321052,-0.848305,-0.606555,-0.953892,-0.172712,-0.595694,0.554057,-0.0389054,-0.00588747,0.58592,0.944854,0.374857,-0.884196,-0.460526,-0.259613,-0.146039,-0.71635,-0.165406,-0.582586,-0.603214,-0.246819,0.857773,0.395735,0.491297,0.00565568,-0.128613,0.654773,-0.467196,-0.382302,-0.139428,0.225264,0.296392,0.0658361,0.714888,-0.417124,-0.618065,-0.457445,-0.728212,0.319649,0.131965,0.236341,0.249122,-0.553049,-0.214254,-0.266891,-0.560548,0.877366,0.732122,-0.838602,0.126917,-0.698439,
0.871957,-0.769944,-0.65885,-0.0703831,0.939565,0.019162,0.128833,-0.29039,0.575409,-0.258852,-0.505457,-0.604969,0.995278,-0.126952,-0.367995,-0.764513,0.369501,0.755439,0.0566446,-0.180759,-0.0217329,-0.97425,0.404708,-0.472832,0.692078,-0.446596,0.826804,0.42542,-0.458693,-0.256537,-0.208366,0.617886,-0.734415,-0.873594,0.52667,0.403066,0.0113377,0.0194922,-0.333418,-0.643534,-0.311785,0.909669,-0.963857,-0.483108,-0.204584,-1.06244,-0.0220699,-0.430597,-0.754737,-0.798567,-0.66257,0.0016963,0.387476,0.357888,0.459689,-0.532032,-0.668862,0.893203,0.807888,-0.741891,0.872621,-0.547478,-0.708627,0.274142,-0.751931,-0.0803204,-0.403978,0.864522,0.947747,0.661706,0.639961,0.57674,0.315056,0.463833,-0.867926,0.597061,-0.621964,0.79143,0.588793,0.294632,0.933455,0.888684,0.403482,-0.74053,-0.0473089,0.00359149,0.801361,0.0342813,-0.39556,-0.695486,0.112973,-0.333267,0.0818108,-0.898244,-0.377695,0.426172,-0.889521,0.842157,0.934847,0.25429,
0.318357,0.203843,0.124736,0.945902,-0.389274,-0.0270152,0.730299,0.995118,0.189432,0.336627,-0.356428,0.580826,-0.218896,0.766604,-0.353581,0.25952,-0.594654,0.0831289,0.147234,-0.384906,-0.463921,0.956155,0.827843,0.590537,-0.106375,-0.802286,-0.842636,-0.316003,0.590923,0.123002,0.13369,0.161713,-0.131754,-0.59221,-0.401262,0.0687256,-0.37643,-0.715664,0.455632,-0.870798,-0.193398,0.662312,-0.164555,0.163456,-0.607835,-0.407191,-0.486925,-0.339548,-0.126201,0.948698,-0.440146,-0.617072,-0.945225,-0.946414,0.421782,0.375126,-0.231891,-0.963273,-0.731687,0.555717,0.865848,0.59631,-0.529452,-0.29417,-0.823328,0.903131,-0.871899,-0.774063,-0.147404,0.439687,0.240294,0.837753,0.859704,-0.330921,0.379533,-0.387513,-0.596735,0.0665708,0.521064,0.36409,0.516771,0.619561,0.548692,0.638016,0.728383,0.419588,0.944821,-0.902358,0.300792,-0.737017,-0.902085,0.938333,0.116582,-0.619773,-0.634045,-0.54015,0.0268851,-0.225251,-0.369795,0.514479,
-0.210752,0.354239,0.182679,0.965669,-0.250285,-0.682603,0.316731,-0.184347,-0.507058,0.724802,0.112302,-0.0582597,-0.656815,0.610569,0.341747,0.930975,-0.108821,-0.321173,0.834312,-0.496851,0.776067,-0.366798,0.610908,-0.355304,0.86674,0.534996,0.453323,0.929585,-0.963998,0.135849,-0.743038,0.737524,-0.70428,-0.865892,-0.746246,0.198716,-0.312799,-0.852427,0.143047,0.927596,0.889978,-0.399801,-0.723754,0.618569,-0.509913,0.192673,0.223896,-0.349184,0.885301,0.459789,0.472213,-0.809026,-0.868633,0.837644,0.315954,-0.178127,-0.761867,-0.854852,0.717475,0.141529,-0.831262,-0.24718,-0.993808,-0.629376,0.404791,0.276138,0.590571,-0.0390229,-0.688911,-0.871982,-0.805046,0.558385,-0.19404,-0.736398,0.811739,-0.994615,-0.768854,-0.494821,-0.496281,0.772852,-0.468975,0.363646,0.786706,0.490376,-0.14789,0.776643,-0.745503,0.753406,0.79585,-0.364322,-0.451872,-0.0304783,0.2695,-0.120128,0.760102,0.364233,-0.763822,-0.661595,-0.823376,-0.526901,
-0.110228,-0.565819,-0.211632,0.80741,-0.214587,0.614419,0.0377614,0.421408,0.592112,-0.8842,0.491214,-0.625046,-0.242301,1.01895,-0.889516,-0.504313,0.458833,0.61017,-0.831538,-0.643414,-0.25626,0.838782,0.295581,0.183192,0.183521,0.924639,-1.00484,-0.425699,-0.329541,-0.148094,0.464951,-0.0981291,-0.106416,-0.264348,0.661431,-0.366284,0.482655,0.23848,0.646859,-0.769366,-0.103649,-0.832533,-0.575797,0.414304,0.585399,1.09807,-0.81647,0.284929,0.909258,-0.656087,0.387005,-0.396207,0.954338,0.0327614,-0.858382,0.329703,0.893911,-0.0136803,0.570397,0.687728,0.854895,0.534943,-0.0897666,-0.0731257,0.942528,0.796293,0.139034,-0.809791,0.811343,0.319541,0.511049,0.843725,-0.271394,0.871209,0.0991459,-0.599385,-0.786429,-0.547458,-0.330349,-0.601843,0.126967,0.719083,1.02818,0.606278,0.052849,1.03244,0.940735,-0.273499,0.45644,-0.789565,0.0127645,0.188203,0.525336,0.327951,-0.0516564,0.756339,-0.878609,0.173328,0.713276,0.344369,
-0.059439,-0.00503102,0.853487,0.303645,-0.703758,-0.528339,-0.778888,-0.0553936,-0.947756,-0.160482,0.529831,-0.976098,0.486876,-0.554365,-0.389105,-0.765786,0.282606,-0.213159,-0.727418,0.0389038,0.276604,0.0757271,0.369565,-0.326599,0.358093,0.00389159,0.766472,-0.447984,0.0531648,-0.316877,-0.842299,0.569748,-0.823942,0.371553,0.663446,-0.917975,0.883999,-0.369859,-0.0750737,-0.96676,-0.801068,0.35134,-0.225303,0.658498,-0.0839249,0.722957,-0.183367,-0.689913,0.644756,-0.768963,0.593191,0.606634,0.781406,-0.210284,1.01171,-0.0911043,-0.581658,0.432571,0.0768467,-0.782495,-0.412892,-0.536459,-0.512722,0.982854,0.206027,0.681657,-0.908251,0.45804,-0.791811,0.106295,-0.572815,0.186145,0.89508,0.132612,0.784473,-0.514473,-0.427742,0.742897,-0.202073,-0.28021,-0.411433,-0.361654,-0.712543,-0.307484,-0.27585,0.773737,-0.473319,0.879282,0.697934,0.291703,-0.359332,-0.550137,0.792981,-0.666208,0.641544,-0.619665,0.264853,0.466813,0.0863488,-0.258575,
-0.308931,-0.670118,0.0361737,-0.0490745,-0.486082,-0.557533,0.401662,-1.03635,-0.69989,0.928946,1.03399,0.635253,-0.419764,-0.0146479,-0.457748,0.758218,-0.15864,-0.666373,-0.509183,-0.99727,-0.329681,-0.837653,-0.441851,-0.368947,0.0193364,-0.455546,-0.132608,-0.152954,-0.171829,-0.583701,-0.442252,0.964566,-0.898403,-0.240239,0.771689,-0.258549,-0.588852,-0.606697,-0.357807,0.854486,0.37294,-0.64511,-0.172401,-0.854562,-0.0714997,0.181573,-0.146112,-0.0999796,0.0861345,0.802308,-0.476435,0.23585,-0.597473,0.474777,0.0371894,0.95523,0.421414,0.768851,0.90505,-0.438043,0.172669,-0.837225,0.0881825,0.68407,-0.4718,0.915923,-0.658114,0.134406,-0.0145438,0.243734,-0.78923,0.512254,0.567138,0.443095,-0.766588,-0.00878112,-0.950336,-0.144919,-0.920705,-0.286788,0.119831,-0.871003,0.966274,-1.01657,0.67549,-0.0919979,-0.609015,0.631599,0.882018,0.632725,0.446062,-0.151779,-0.885358,0.279246,0.0234568,-0.480497,-0.465506,-0.447367,0.931433,0.128236,
0.956806,0.88895,-0.111654,-0.970418,-0.653789,-0.550262,0.00188189,0.917628,-0.399025,0.253538,-0.511201,0.453673,-0.160861,-0.478475,-0.114436,-0.218921,0.459305,-0.204967,-0.0149007,-0.838705,-0.345362,-0.782271,-0.409187,0.938028,0.645451,0.529142,0.900274,0.466548,0.293583,0.0134121,-0.559623,-0.209279,0.803302,0.505325,0.162405,0.700378,-0.0484067,0.0799037,0.364392,0.0384331,0.322707,0.220473,-0.652201,-0.491587,0.883223,0.737175,0.845104,0.607741,0.922122,-0.450587,0.623132,-0.256928,-0.109622,0.416413,-0.848576,0.105243,-0.0595427,-0.362421,0.101742,0.0198383,-0.806368,0.73241,0.637647,-0.494278,-0.649344,0.102674,-0.791198,-0.78453,0.306078,0.915083,0.782127,-0.9112,0.865661,0.0693798,0.592441,-0.18049,-0.964893,-0.0643015,0.0177299,-0.0280537,-0.445275,-0.940927,-0.724958,-0.444688,0.0126467,0.972689,0.0905935,-0.269221,-0.799458,-0.441402,-0.0318953,-0.304065,0.500376,0.613197,-0.029893,0.287151,0.9275,0.582365,0.83914,0.453624,
0.460501,0.511033,-0.646061,0.229648,0.406325,-0.690541,0.343506,0.120842,-0.50395,-0.916514,-0.203509,0.242423,-0.0123714,0.45329,0.417636,0.139779,0.798536,0.599369,0.828965,0.191727,-0.0891289,-0.393347,-0.24873,-0.589179,-0.171936,0.534356,-0.793707,-0.397514,-0.244108,-0.97585,0.480534,0.464387,0.600962,-0.786588,-0.627543,-0.17009,0.727326,0.472797,-0.201874,-0.160036,-0.847385,-0.289522,0.54915,-0.941463,-0.6135,-0.233539,-0.105786,-0.106557,0.120606,-0.322575,0.54863,-0.165983,0.454695,-0.920357,-0.345776,0.928011,0.586822,-0.0632436,0.751843,-0.484782,0.504997,0.694658,0.591427,-0.379056,0.188614,-0.667474,0.148841,0.0243324,-1.00088,0.213602,-0.263566,-0.565254,0.430183,-0.645795,-0.0267927,-0.18242,-0.961453,-0.555083,-0.123462,0.939059,-0.752347,-0.420779,0.388406,0.682238,-0.723265,-0.0608209,0.465628,0.648505,-0.891136,-0.550419,0.643377,-0.805053,0.443484,-0.677238,-0.772232,-0.217981,-0.149914,0.839286,-0.0861936,-0.0921095,
-0.396907,-0.920606,0.360892,0.669672,0.254724,0.764985,-0.862624,-0.328358,0.45731,0.24378,-0.758981,-0.568004,0.387917,0.88952,0.268695,0.799343,-0.596882,-0.539111,0.957479,0.109297,0.421435,0.8967,-0.17697,0.879568,-0.00415576,-0.745917,-0.151039,-0.828825,0.207333,-0.659943,0.233575,0.61311,0.12128,-0.837469,0.0320358,-0.793142,-0.319438,-0.375053,-0.352182,-0.667688,0.666102,0.86432,0.31838,0.745314,-0.870481,0.32505,0.880755,0.409024,-0.323939,0.330368,-0.0144473,-0.0162725,-0.237188,-0.271647,-0.747743,0.318279,-0.0694969,-0.46958,0.601483,0.742121,0.308251,-0.0989374,0.449616,0.496767,-0.967443,0.00906858,0.853717,-0.655761,-0.00280562,-0.334808,0.515874,-0.142191,-0.428427,-0.809637,0.357528,-0.279975,-0.43247,0.235708,0.1718,0.0326142,-0.329637,-0.285083,0.403189,0.276544,-0.0796356,-0.246936,0.0330141,-0.13823,-0.524427,-0.0478315,-0.909629,-0.0149341,0.84658,0.207438,-0.300879,-0.81857,-0.673271,-0.728634,-0.920992,0.910558,
-0.554087,0.376714,-0.367867,-0.0425643,-0.679996,0.678717,0.671366,0.608837,0.898267,0.789303,-0.33201,-0.495647,0.0621139,0.126175,-0.718127,-0.276649,0.124321,-0.353368,-0.965594,0.973213,-0.0186043,-0.628567,-0.653185,0.131176,0.668087,0.719657,0.645409,-0.232124,-0.543779,0.200441,0.570025,0.44766,-0.107858,-0.0412178,0.31981,-0.0816626,-0.98685,0.387294,-0.477266,-0.643715,-0.377554,0.572215,0.357111,0.936672,-0.411076,0.90428,0.664429,-0.546773,0.649007,0.110823,-0.578625,0.897109,0.859673,0.678893,0.220999,-0.991169,-0.320422,-0.471469,0.889957,0.514441,-0.614678,-0.969534,-0.0291496,-0.450459,-0.800471,-0.903221,0.539614,0.521739,-0.0470883,-0.155272,0.162323,-0.889043,-0.179236,-0.91641,0.709563,0.323105,0.525608,-0.49864,-0.600534,0.494602,-0.584941,-0.114863,0.0925933,0.341841,0.627763,0.195054,0.589422,-0.804776,-0.175067,-0.938606,-0.807698,-0.559811,-0.474084,0.903747,-0.387368,-0.087471,-0.979012,0.895114,0.918778,0.519893,
0.277049,0.707546,0.24949,0.559712,-0.48757,1.0409,0.492431,0.589363,0.578788,-0.431114,0.239437,-0.99032,0.368161,0.338346,0.415584,-0.785859,0.465359,-0.612623,-0.356723,-0.351815,-0.383409,0.916263,0.321354,-0.318342,-0.238866,-0.0556348,0.295933,0.401303,-1.0567,0.0198434,0.348604,-0.850256,-0.446288,-0.732486,0.0523485,0.803457,0.184288,0.248044,0.155001,-1.01968,-0.0143439,-0.367995,-0.57546,0.649851,-0.538003,-0.697414,-0.26102,-0.146057,-0.0105973,0.685974,-0.60411,-0.529981,0.798129,0.647508,-0.73808,-0.363148,0.547673,0.191136,-0.774463,-0.181639,-0.217582,0.334436,-0.455982,-0.119399,0.479273,-0.835864,0.39239,-0.65857,-0.744294,-0.55798,-0.492066,0.267773,0.570821,0.955397,-0.270327,0.0905964,-0.521738,0.331717,0.0932385,0.648673,-0.957151,0.621414,-0.269038,-0.868868,0.214077,0.023185,0.0223556,0.063307,0.221978,-0.787616,-0.28221,-0.0613493,0.633355,0.639901,0.112309,0.193925,0.722421,0.607858,0.731068,0.571234,
-0.434461,-0.405405,-0.0728461,-0.87227,-0.852271,-0.27492,-0.426239,-0.888192,-0.0390033,-1.00842,-0.538825,0.296505,0.160717,0.392744,0.201172,-0.275941,0.626561,-0.00240712,-0.691082,0.114803,0.753893,-0.0911075,0.241733,-0.399362,-0.205725,-0.654738,0.853643,0.851151,0.446762,0.104285,0.550839,0.433082,-0.754465,0.740802,0.217073,-0.926956,-0.227179,-0.0804777,-0.0386961,0.24617,0.367453,-0.302145,0.727128,-0.0810453,0.821136,0.547072,-0.138366,0.114246,0.42149,-0.483415,-0.0592136,0.412616,0.355089,-0.231832,-0.162531,-0.520031,0.891133,0.77671,0.660652,-0.133237,-0.135498,-0.534511,-0.204358,0.94235,0.757573,-0.896018,0.904222,-0.899635,0.279109,0.61129,-0.969877,0.0861542,-0.165799,0.547432,0.740663,0.403401,-0.838781,-0.923286,0.774464,-0.12802,-0.144228,0.800448,0.157473,-0.110126,-0.995612,-0.612638,-0.23565,-0.678658,-0.397044,0.59714,0.194306,0.688828,0.661309,-0.583628,0.186845,0.176758,-0.592567,0.398411,0.117127,-0.741038,
0.0338766,-0.0975987,-0.9301,0.851344,0.777706,-0.398874,0.543394,-0.875625,0.0418387,-0.241282,0.479671,-0.534987,0.63496,-0.579836,-0.736901,0.551971,-0.0863325,0.422354,-0.816412,0.968581,-0.419566,0.583765,0.0220119,-0.969829,0.512405,0.647124,-0.0506355,0.597758,-0.612576,-0.63973,-0.846617,-0.956622,0.178607,-0.54082,0.149535,0.0770031,-0.983026,0.785498,0.867754,0.931656,0.20592,0.859492,0.0885672,0.0485559,0.0561796,-0.926873,-0.646113,0.711311,0.460398,0.955935,0.766707,0.323004,-0.820694,-0.127998,0.639283,0.539097,0.0339556,-0.793742,-0.549606,0.132019,-0.913991,-0.448797,-0.492386,0.5963,0.125415,-0.216209,-0.886352,0.83144,0.842767,-0.837086,0.682053,-0.27847,0.428476,-0.331696,0.000789638,-0.410126,-0.792579,-0.451983,-0.3528,-0.964425,-0.775643,-0.664475,-0.197005,-0.424073,-0.745777,0.841042,0.56111,-0.381663,0.234179,0.531833,0.53877,-0.55984,-0.0902981,-0.832115,0.274206,0.806682,0.117338,0.481355,-0.783033,0.522948,
0.856076,-0.876215,0.235844,-0.520738,0.46648,-0.135634,0.569531,-0.465783,0.610021,-0.401794,-0.873756,0.891877,0.371941,0.747298,0.858001,-0.362177,-0.281215,-0.456799,-0.0924923,-0.644869,-0.160959,-0.552664,-0.806757,0.668551,0.559726,0.574042,-0.195343,0.694672,0.396164,0.565112,-0.61614,-0.532014,-0.0286883,-0.231733,-0.519919,-0.15015,-0.447118,-0.905185,0.183425,0.521171,-0.694136,-0.343748,-0.14819,0.59071,0.789437,0.845965,0.820904,-0.271116,0.2006,-0.996025,0.871325,-0.2934,-0.232749,0.0469062,0.385005,-0.676612,0.10531,-0.562916,0.133865,-0.894488,-0.306345,0.162205,-0.260573,-0.726834,0.880472,0.525791,0.370889,-0.382656,0.00880578,0.925086,-0.947877,-0.725746,0.278149,0.670032,0.956582,-0.37361,0.305852,1.01491,-0.824286,0.30368,-0.470328,-0.316097,-0.239981,0.490983,-0.837747,-0.167359,0.100848,0.855039,0.13626,-0.388678,0.32598,-0.0169808,-0.651073,-0.972967,0.772057,0.678433,-0.598862,0.64238,-0.817655,-0.274139,
-0.400311,-0.617466,-0.525216,-0.959738,0.355509,0.123393,-0.928121,0.455695,0.284052,-0.471221,0.0882197,0.919781,-0.404203,0.821709,0.565489,-0.957652,-0.341599,0.829625,-0.319404,-0.234378,0.957794,-0.909729,0.667146,0.618831,0.625904,0.115669,0.509314,0.241038,-0.304575,-0.513849,0.12809,0.922179,0.708096,-0.385637,-0.853262,-0.955279,-0.919927,-0.566378,0.865018,0.79297,0.385554,-0.0325685,-0.714828,0.194287,-0.317778,0.601517,-0.636276,-0.101776,0.995869,0.452259,0.50891,-0.512249,0.195074,-0.647039,-0.714303,0.578677,0.0865244,0.4361,0.30573,-0.00371064,-0.00321932,0.628888,-0.843494,0.131381,-0.436729,-0.382438,0.677933,-0.470971,0.21647,-0.602986,0.244377,0.553179,0.696688,0.687571,-0.193503,-0.134266,-0.87781,0.636632,0.648837,-0.669653,-0.522687,-0.839567,0.981856,-0.0484202,-0.958108,-0.93246,0.959728,-0.4623,0.72789,-0.252471,0.186843,-0.252253,0.491814,0.0396893,-0.490346,0.769158,-0.979071,-0.611601,0.518394,-0.817561,
0.139897,0.237551,0.281176,-0.31665,-0.732315,-0.123029,0.353802,0.30631,-0.860505,0.8183,0.061926,0.789888,0.265515,-0.665382,0.461349,0.624441,0.36476,-0.0612042,0.906336,-0.696733,-0.526151,-0.186824,-0.715411,-0.835208,-0.263521,-0.0847004,-0.731604,0.886586,0.961959,0.33165,-0.612074,-0.141358,0.350861,-0.0703202,0.742423,0.87967,0.958901,0.403538,-0.421592,0.94667,-0.130205,-0.408653,-0.848579,-0.611707,0.770066,1.00048,0.594207,-0.0986224,-0.58007,0.307793,0.321191,0.746943,0.794461,0.641432,-0.158606,1.00958,-0.816586,0.574221,0.266373,-0.715844,0.965168,0.829746,0.494283,-0.810736,-0.326511,0.908068,0.545783,-0.525882,-0.29939,0.434518,0.61405,0.92852,-0.424841,0.549883,0.529184,0.353394,-0.812248,-0.693011,0.903305,0.547774,0.671522,0.9396,0.872294,-0.533565,-0.657009,-0.456693,0.902202,0.0544234,-0.460814,0.406884,0.49853,-0.18764,-0.0452671,-0.984394,-0.654926,-0.819564,-0.695975,0.358205,0.461047,-0.955289,
-0.232093,0.616471,0.70413,-0.954011,-0.0160386,0.452275,0.284492,-0.347641,-0.606172,0.683587,0.817654,-0.987938,-0.551753,-0.839854,0.843473,-0.590598,-0.814907,-0.0481471,0.774004,-0.277262,0.756366,-0.155268,-0.686616,0.184144,-0.833524,-0.23917,0.239177,-0.844412,-0.517824,-0.687002,0.656891,0.498193,0.132638,-0.628608,0.545753,0.70172,0.755407,0.797919,-0.325282,0.756037,0.185937,-0.758105,0.22752,0.520054,0.143595,0.551881,-0.470233,-0.694621,0.176262,0.0383829,0.518252,0.236367,-0.671232,-0.112396,0.854786,-0.683102,-0.222329,0.587224,-0.0277058,-0.912843,0.733006,-0.432191,-0.409582,-0.800306,0.587123,-0.556231,0.183121,0.347918,-0.314817,-0.0811303,0.30178,-0.797031,-0.688153,0.774024,0.95793,-0.825714,0.0955489,-0.184327,0.819482,0.709087,-0.432075,0.891434,-0.513645,0.464306,-0.285524,0.54447,-0.880965,-0.938957,-0.222385,0.12735,-0.101248,0.715611,0.815312,0.808213,-0.631639,-0.617987,0.393202,-0.38001,-0.688302,-0.914544,
0.895164,0.0750829,-0.37918,-0.517669,0.902021,0.920627,-0.242283,-0.259989,-0.938993,0.577439,0.469099,-0.849321,-0.453593,-0.552586,0.897534,0.621822,-0.575901,0.681078,0.00356136,-0.71547,0.451372,0.453027,-0.00423447,0.0227912,0.228583,-0.592606,-0.584592,0.974363,0.503788,-0.333171,-0.707037,0.983246,-0.884114,0.330127,0.242347,0.286828,-0.123805,-0.79362,0.706853,0.763848,-0.801255,-0.572395,0.964706,-0.848173,0.820035,0.838702,-0.390831,0.202969,-0.153781,-0.167665,0.833613,-0.679452,0.100153,0.0264269,1.00964,0.980005,0.447815,-0.497838,-0.873084,0.789266,-0.721726,-0.656815,0.328174,0.446647,-0.216192,0.604333,-0.447421,0.944369,-0.90497,-0.379004,0.628184,-0.372399,0.928024,0.846377,-0.884467,-0.782446,0.0352803,-0.827806,0.293421,-0.0887746,-0.698952,-0.903868,-0.748526,0.849388,0.633494,-0.957273,-0.301372,-0.998793,-0.425667,-0.297212,0.779383,-0.426365,-0.947826,-0.0185413,-0.430828,0.399595,0.642057,0.0494706,0.0839297,0.970475,
0.590743,-0.757526,0.519893,-0.957955,0.0566662,0.288571,-0.143497,-0.832596,0.707916,0.837113,0.822335,-0.668982,0.184297,0.763646,-0.502154,-0.987314,-0.294887,-0.647968,0.500532,0.676292,-0.344807,-0.409251,0.356313,-0.533155,-0.861966,-0.625132,0.454478,-0.453192,-0.0504239,-0.225331,-0.557998,0.827131,-0.456338,-0.341618,-0.193956,0.514403,-0.765612,0.343276,0.355153,0.162259,-0.761838,0.358775,-0.384643,0.000828183,-0.0302677,0.366936,-0.412466,-0.0899887,0.369858,0.120971,0.917843,-0.231051,-0.486315,-0.280061,0.21731,-0.178796,0.21865,-0.019736,0.503892,0.378723,-0.992146,-0.701586,0.862844,0.748004,-0.966742,-0.539903,0.426019,0.633035,0.379823,0.839671,0.141216,0.00420642,-0.0504143,0.71806,-0.354526,-0.0204086,0.118177,0.569772,-0.383914,0.897833,-0.872845,1.03805,0.955688,0.456985,-0.267154,-0.785958,0.0532229,0.490852,0.819901,0.479809,0.302982,-0.584544,-0.919186,-0.613208,-0.762448,-0.17297,-0.657246,-0.617882,-0.283554,0.260327,
-0.00456611,0.315201,-0.273949,-0.684859,-0.579387,0.972528,-0.265919,-0.185566,-0.992436,0.720715,-0.0649269,-0.687407,-0.989812,-0.403504,0.696512,0.598156,-0.99051,-0.179214,0.923362,0.433874,0.204008,-0.430807,0.565874,-0.324577,0.880918,0.794285,-0.17905,-0.119789,0.453963,0.506807,0.0942141,-0.426043,-0.550142,-0.967766,0.309274,0.842083,-0.439854,-0.739983,0.670222,-0.109432,-0.0281591,-0.610203,-0.768926,0.432052,0.334481,0.489161,0.186122,0.579493,0.91525,0.452043,0.347517,-0.858475,-0.561238,-0.108082,-0.432319,0.888601,-0.924254,0.925715,-0.736377,-0.793327,-0.435763,-0.825416,0.0155526,-0.173114,0.601742,-0.73583,-0.570505,0.569238,0.969652,-0.432075,0.0436362,0.367773,0.643296,-0.162155,0.779688,-0.548607,0.674746,-0.980075,0.173876,-0.246738,-0.858823,0.0258313,0.294548,-0.303758,-0.874476,-0.944803,0.468133,-0.0413869,-0.81051,-0.263643,0.834676,-0.626064,-0.804786,0.130697,-0.289863,0.27284,-0.31704,-0.964007,0.402882,-0.884608,
0.246559,-0.582774,-0.617648,0.563249,0.725108,-0.426886,-0.260178,-0.703562,0.210477,0.619887,0.0758328,0.86904,-0.145861,-0.20002,0.603034,-0.370643,-0.674372,-0.646141,0.558406,0.419569,0.926563,0.246555,-0.905875,-0.610562,0.461542,0.502477,-0.666192,0.779194,-0.248767,-0.018969,0.124605,0.241074,0.805452,-0.506594,0.90354,0.220422,-0.281736,-0.675132,-0.034621,-0.0266552,0.476143,0.978041,0.338704,0.753542,0.533717,0.502181,0.159545,-0.993937,0.542336,-0.863892,0.904256,-0.527505,-0.334979,0.398189,0.66115,0.23695,0.504822,0.160211,-0.627813,0.501098,-0.56927,-0.313729,0.645088,-0.170601,0.474388,0.800018,0.180482,0.823526,-0.749902,0.717202,-0.963777,-0.354762,-0.294558,0.31761,-0.934964,-0.243379,0.187497,-0.269989,-0.561453,-0.265029,-0.55503,-0.163341,-0.514862,0.458874,0.372147,-0.956331,0.919557,0.49852,0.824322,0.380274,0.0757977,0.820002,0.00363727,-0.442397,0.980196,0.362455,0.605457,-0.970687,0.089523,0.944401,
-0.806122,-0.179384,-0.580397,-0.588743,0.670644,0.980338,-0.838445,-0.571359,0.384015,0.0330379,-0.101739,0.472245,-0.0598813,-0.782287,0.186639,-0.733618,-0.381111,-0.515042,0.0175132,0.768049,-0.472481,-0.145256,0.445774,-0.30266,-0.055379,0.585718,0.908929,0.00597075,-0.204589,-0.265714,0.12235,0.772033,-0.473477,-0.460777,0.947869,-0.6812,-0.76611,0.612632,-0.762438,0.196824,0.40108,0.117685,0.292023,-0.695642,-0.334525,-0.771977,0.672258,0.12159,-0.301038,0.408181,-0.287801,-0.373192,0.44594,0.250993,0.419876,0.984501,-0.190784,-0.281072,0.485939,-0.230521,0.157053,0.951665,0.929274,0.923199,-0.898796,0.591959,-0.627811,-0.503149,-0.020415,-0.910943,-0.170635,-0.13109,-0.248924,0.693402,-0.0718397,-0.125159,-0.707874,0.43599,0.223454,-0.44232,0.324718,0.792712,-0.205915,-0.767461,-0.31837,0.811871,0.564255,0.157016,0.0440968,-0.00144896,-0.711784,0.055195,0.0337029,-0.165429,0.289099,0.487837,0.251331,0.414648,0.750221,0.973846,
-0.0587093,-0.965311,0.0338864,0.875031,-0.385453,-0.776951,0.82491,0.778428,-0.791713,-0.464668,-0.198254,0.350446,-0.848384,-0.473572,0.794798,-0.386245,0.092753,-0.0237553,0.513376,0.815722,-0.499645,0.569409,0.70653,0.147297,-0.240147,-0.233036,0.415309,-0.102502,-0.399393,-0.876142,-0.0225931,0.629251,0.469408,0.700389,-0.29472,0.265859,-0.235559,-0.22402,0.92411,-0.292238,0.278308,-0.0142372,0.0497979,0.204745,-0.816137,0.65242,0.915959,0.0963103,-0.241815,0.7723,0.235497,-0.218851,0.283646,0.792424,-0.485005,-0.85638,-0.83676,-0.369185,0.695674,-0.389102,0.626079,0.0526488,-0.867101,0.815581,0.0700804,-0.412526,-0.401664,-0.648268,0.573963,0.618185,0.395784,-0.607811,-0.160565,0.62888,-0.00616402,0.129122,-0.101932,0.538173,-0.638036,-0.467911,0.054904,-0.102864,-0.611327,0.866459,-0.111892,0.59057,-0.349264,0.0246149,0.135715,-0.541043,0.411646,0.425206,-0.511365,-0.983858,0.282405,-0.0615741,0.546093,0.88947,0.408765,-0.669236,
0.112031,0.0186789,0.983594,0.810952,-0.129167,0.954449,-0.819874,0.867508,-0.698668,-0.743153,-0.85334,0.824977,0.929477,0.0763621,0.77669,-0.716682,-0.231289,-0.639062,-0.653162,-0.869259,0.438985,-0.79798,-0.838522,0.671985,0.242242,-0.672875,-0.163617,0.195937,-0.359491,-0.197907,0.848282,0.315794,-0.65426,0.65891,-0.989125,-0.164493,0.143397,0.0729474,-0.47503,0.863951,-0.96707,-0.963111,0.393382,-0.0148567,-0.834641,-0.426832,0.194663,0.351542,-0.961759,-0.0299973,0.371116,0.339134,0.948135,-0.7848,0.311881,-0.706163,-0.713837,0.68209,0.359224,-0.985718,0.29634,0.619228,-0.269412,-0.231922,0.65739,0.0391596,0.904852,0.427651,0.814144,-0.0390533,0.953307,-0.825265,0.617176,0.981579,-0.835327,0.717816,0.80453,1.00161,-0.865031,0.272142,0.277043,0.271405,-0.338095,0.215293,1.00229,-0.211573,-0.764202,-0.680837,-0.175448,0.25301,0.656346,0.257377,-0.28965,-0.734375,0.0880498,-0.0564551,0.907618,-0.171873,-0.965655,0.294828,
-0.33526,1.00616,-0.830679,-0.459369,-0.970474,0.437949,0.73516,-0.553244,0.273116,0.687963,-0.658303,-0.149024,-0.558851,-0.293651,-0.916205,-0.747523,-0.752125,0.658825,0.661301,-0.384188,-0.544023,-0.51368,-0.742071,0.133956,0.596302,-0.898552,-0.615273,-0.0816255,0.356109,-0.127683,0.629132,-0.00686912,0.566509,-0.630983,-0.936521,0.104182,-0.417013,1.01252,-0.902062,0.0833917,0.262642,0.765152,-0.0232772,-0.505489,0.477117,0.56457,0.775746,-0.802866,0.923409,0.258885,0.847394,0.588961,0.117411,-0.286079,0.911282,-0.812492,0.6977,-0.827527,-0.166726,0.975211,-0.736657,0.642615,-0.570737,0.079375,-0.134961,0.66196,0.129911,0.630859,-0.668289,-0.817986,0.301696,-0.842544,-0.297284,-0.785621,-0.535989,-0.581019,-0.256396,-0.575735,0.946685,0.793609,-0.503359,-0.765296,-0.112193,-0.121081,-0.498718,0.226287,9.05781e-05,0.397848,0.561149,0.0221689,-0.963757,0.191061,-0.026409,-0.596183,-0.661335,0.816213,-0.00310521,-0.126958,0.890833,-0.936568,
-0.294664,-0.681333,-0.85929,-0.706994,1.00039,0.441316,0.606812,-0.247658,0.0430666,0.968528,-0.566182,-0.2099,0.00185193,-0.216895,0.169877,-0.906801,-0.493532,-0.429165,0.287319,-0.348095,-0.120428,-0.259822,0.651483,0.134368,0.160542,-0.489728,-0.451775,0.303889,0.734051,-0.196225,0.68343,-0.734884,0.561135,-0.896297,-0.599726,0.605887,0.778285,0.40428,0.780365,-0.819171,0.309956,0.898409,0.0074225,-0.1318,-0.729319,-0.822497,0.802614,0.429193,-0.264941,0.750921,0.593465,0.715012,-0.53006,-0.0098687,0.465922,0.629357,-0.577713,-0.608083,0.266391,0.0889321,-0.727503,-0.435739,0.0803305,-0.573499,-0.489311,0.104049,-0.487308,0.53654,0.728452,0.710248,-0.0912193,0.554804,0.0846774,0.388239,0.107418,-0.921939,0.033386,-0.666093,0.1399,-0.971779,-0.277651,-0.945778,0.095424,0.514391,-0.976203,0.584632,-0.0308607,0.276948,-0.265383,0.0921825,0.716545,0.651744,-0.311333,-0.359947,-0.97901,-0.334952,0.0733942,-0.786534,-0.75054,0.802133,
-1.02903,-0.801045,-0.911659,-0.437595,0.472937,-0.198929,0.918835,0.557824,-0.870569,-0.684202,0.603232,0.569077,0.800323,0.652368,0.586023,-0.799536,0.740011,-0.381017,0.237053,-0.296349,0.661863,0.592858,-0.489926,0.268202,-0.831134,-0.796643,-0.7628,0.0413804,0.831941,1.00188,-0.463742,-0.648342,-0.239616,-0.832135,-0.0702766,0.180529,-0.111403,0.303602,0.729634,0.566729,0.150262,0.286424,0.17528,0.544332,0.366048,-0.504833,0.152074,0.484319,0.125815,-0.155833,-0.862346,0.0790197,0.422001,0.177004,0.111196,-0.117225,0.904055,-0.614204,-0.617029,0.895808,-0.46606,0.255542,-0.0977637,0.987056,-0.684799,0.362791,-0.112331,0.442614,-0.055057,0.649279,-0.808803,-0.0291631,0.363415,-0.145469,0.97873,-0.734921,-0.413005,-0.217211,-0.351141,0.296873,0.656508,0.989209,0.627612,0.163155,-0.900961,0.111635,-0.546998,0.812564,-0.910468,0.994106,-0.965686,-0.575225,-0.740065,0.783098,0.399584,-0.211897,-0.245738,0.416598,-0.351479,0.774223,
0.205835,0.694034,-0.015044,0.081816,0.747351,-0.377683,0.55669,0.786563,-0.865448,0.793268,0.20215,0.114098,0.309672,0.25924,-0.254479,-0.293706,-0.700599,0.648185,-0.102495,0.888471,0.061424,0.892069,-0.158979,-0.618708,-0.284666,-0.784164,0.274141,0.882037,0.58703,0.244959,0.532925,-0.267144,0.798658,0.969579,-0.0891014,-0.578157,0.779211,-0.0581148,0.651495,0.169453,0.174931,-0.425851,-0.435991,0.150864,0.99238,0.783983,0.480319,0.0712638,-0.377055,0.557544,-0.857598,0.101524,0.787534,-0.543691,-0.278738,0.47047,0.73798,-0.280522,-0.494067,0.181362,-0.971113,-0.323549,0.155786,0.510873,0.587709,0.720995,-0.30531,-0.406062,-0.568416,0.808602,-0.692918,0.507836,-0.531986,-0.0510148,0.0733223,0.157881,0.845137,0.135582,-0.539462,-0.178305,0.864916,0.428585,-0.796189,0.115466,0.750449,0.198047,0.656101,-0.114945,-0.707393,0.200748,-0.0957125,-0.489017,-0.733999,-0.566272,-0.463841,0.108063,0.630086,-0.535843,-0.801553,0.331206,
-0.503142,-0.0922221,-0.361065,0.986752,0.00866326,-0.0609482,-0.089124,0.849067,-0.266318,-0.564571,-0.219637,-0.206166,-0.289211,-0.763182,-0.836784,0.390358,0.336686,1.04379,0.103199,-0.335471,0.0840865,0.901724,0.407026,0.539927,-0.809481,-0.737756,0.620391,0.470458,0.0349379,-0.435018,0.597554,0.148872,0.0575662,-0.150541,0.423516,0.502147,0.40205,-0.831249,-0.852063,-0.696464,-0.766588,-0.732038,0.161478,-0.645565,-0.0602792,0.64474,-0.720698,-0.114053,-0.700188,0.191358,0.42787,0.278707,0.209838,0.536643,0.463645,-0.921566,0.311126,0.33893,-0.48064,0.451918,0.517608,-0.422563,-0.175717,0.914687,-0.985727,0.843822,0.499373,0.157836,0.957867,0.556978,0.95296,-0.634466,0.856729,0.291579,-0.434331,0.595634,-0.198177,0.354017,0.622019,0.279962,0.510366,0.236642,-0.796359,-0.195165,-0.141233,-0.342861,-0.756569,0.0438169,-0.274011,0.576793,0.967696,0.711572,0.58075,-0.562058,-0.932124,0.823543,-0.0580368,-0.96559,-0.053775,0.852773,
-0.0719144,0.664559,0.673439,-0.264433,-0.886108,0.95352,0.686154,0.0202097,-0.404482,0.643979,-0.568697,0.852764,0.821737,0.153552,-0.38451,-0.70575,-0.0648406,-0.310136,0.181647,0.191551,0.376312,-0.947955,0.862249,-0.923319,-0.154599,0.342668,0.975846,0.223596,-0.446905,0.496174,0.706477,0.962468,-0.551269,0.735365,0.179228,0.941754,0.551661,-0.822995,0.982971,-0.0657044,-0.494304,-0.573997,0.252197,-0.119172,-0.20402,-0.530343,-0.549162,-0.816638,-0.613253,-0.959859,-0.280724,0.710523,0.622809,0.119018,0.326706,0.986536,0.977193,-0.627918,0.77837,-0.920359,0.489774,0.651717,0.634673,0.216596,-0.656458,0.987144,0.313411,-0.253998,-0.402123,-0.211952,0.627293,-0.377943,-0.877933,0.656457,-0.923347,-0.860724,0.550598,0.961658,0.103752,-0.265465,0.230139,-0.478085,0.0166525,-0.294588,-0.455149,-0.790051,0.950002,0.453463,0.288954,-0.447657,0.310926,-0.166662,-1.00124,-0.120394,-0.940155,0.29032,-0.971461,-0.725528,-0.384235,0.915514,
0.57261,0.498486,0.195721,0.36995,-0.332197,-0.222038,-0.255336,0.879619,-0.341473,0.182973,-0.292864,-0.23363,-0.505166,-0.765237,0.723214,0.50654,0.221126,1.00421,-0.539815,-0.810668,0.195134,0.719851,-0.348059,0.10422,0.570786,0.205686,-0.112109,-0.859069,-0.161165,-0.423344,0.612808,0.378525,-0.237603,-0.729308,0.993776,-0.374844,0.606704,0.671511,-0.572165,0.0287275,0.123862,-0.143693,-0.795377,0.503881,0.645441,-0.756727,0.114108,-0.862635,-0.566101,0.947043,-0.188238,-0.216502,0.659371,0.0403706,0.395786,-0.437959,-0.840733,0.255849,0.888438,-0.132891,0.807939,-0.324133,-0.706822,0.387458,0.576078,-0.465356,0.696513,0.511193,-0.174352,-0.0107021,-0.192682,0.0479593,-1.02092,0.721403,-0.757044,-0.423667,-0.641643,0.0489487,-0.50753,0.0123976,-0.964278,0.998522,-0.0544532,0.192965,-0.654013,-0.468911,0.550482,0.558305,0.878374,0.301444,-0.212931,-0.426196,-0.951866,-0.623478,-0.0671217,-0.184862,-0.719422,-0.928484,-0.908719,0.940857,
-0.183144,-0.0360989,-0.565057,0.176148,-0.90241,0.896756,-0.656738,0.932371,-0.373403,0.0206165,0.60701,0.512304,-0.56693,-0.481929,0.682309,0.310108,-0.503188,0.640593,0.141949,-0.115919,-0.4343,-0.741226,-0.0640516,-0.959896,0.409442,0.171326,0.800253,-0.225427,0.892047,0.217611,-0.349692,-0.532234,-0.998299,-0.542846,0.328762,-0.506365,-0.799497,-0.90573,0.452637,-0.222718,0.632592,-0.402755,0.189517,-0.977151,-0.79361,-0.218897,-0.989328,0.304275,-0.934195,0.299536,0.212487,-0.915054,0.641243,0.517805,0.820838,-0.310388,-0.361667,0.0320891,-0.485569,-0.44647,0.108492,0.514747,-0.333795,0.123236,-0.0262795,-0.693904,0.225388,-0.840864,0.143097,0.739557,0.795377,-0.102724,0.534065,0.398183,-0.393115,-0.958373,0.72769,-0.382153,-0.00365272,-0.641234,-0.749357,-0.197952,-0.370244,0.773073,-0.817693,-0.587675,-0.563767,0.66017,0.0683254,-0.0631408,-0.570285,-0.296275,-0.321887,0.600864,-0.681099,-0.184147,0.797741,-0.994614,-0.153166,-0.94855,
-0.649886,-0.83935,-0.41238,-0.0205022,-0.959648,0.250028,0.612294,0.916,-0.367408,0.265325,-0.317348,0.169965,-0.348628,-0.499672,0.685151,-0.393596,0.85876,-0.905996,0.722103,-0.625901,-0.707191,0.183392,0.0201992,-0.0153127,-0.306525,-0.581582,-0.361898,-0.268449,-1.01016,-0.692922,0.212569,-0.774718,-0.428366,0.29044,-0.742969,0.36734,0.908002,0.313291,0.438845,-0.675794,-0.469825,-0.301194,0.921819,0.699356,0.409097,0.0469902,0.290646,0.5052,-0.565882,0.800531,0.564211,0.25246,0.88137,0.790981,-0.880403,0.222535,0.0748111,0.380267,-0.417913,-0.94368,-0.209419,0.594185,-0.859777,-0.519799,0.116815,-0.813941,-0.635687,0.561189,0.947555,0.682467,0.0270026,0.489122,0.464668,-0.00419694,0.150411,0.473855,0.372877,-0.642319,0.712819,-0.551741,0.600975,-0.904916,-0.428052,0.831689,0.681813,0.581987,0.558256,-0.27997,-0.172398,-0.820123,0.72093,0.47942,0.00409846,0.730943,-0.436372,0.857874,0.566712,0.44943,-0.835937,0.503811,
0.287055,0.300688,0.405183,0.24791,0.560066,-0.107719,-0.989684,-0.988588,-0.459214,0.117246,-0.91233,0.34281,-0.23214,0.815214,0.454608,0.0707627,-0.454056,0.241331,-0.701987,0.62535,-0.986074,-0.269827,0.239564,-0.802475,0.0733026,-0.157454,-0.899828,-0.127413,-0.935712,-0.34338,-0.505531,-0.0696785,-0.243157,0.152454,0.802315,0.81757,-0.737966,-0.366693,0.020476,0.842739,-0.0655973,0.394736,-0.9747,0.361988,-0.229841,0.549738,-0.986969,0.538334,-0.0876928,-0.359075,0.502539,-0.340451,-0.376777,0.517742,0.189061,-0.617682,0.438564,0.162609,0.0593691,-0.465398,0.949623,0.921939,0.475332,-0.274223,-0.611765,-0.158047,0.878117,-0.998733,-0.0570902,-0.181588,0.0148553,0.620695,-0.0693478,0.102542,0.716286,0.0242092,-0.770686,0.624299,0.418113,0.34591,0.864123,-0.791128,-0.497751,0.265483,0.128918,-0.991533,-0.924791,0.198503,-0.282891,-0.614147,0.45656,-0.773314,0.256095,0.884644,-0.349881,0.790162,-0.39507,0.114655,-0.184652,0.619058,
-0.416866,-0.0474712,0.1576,0.636697,-0.750129,0.77043,-0.215859,-0.879265,0.699573,-0.666687,-0.695841,0.733626,-0.977304,0.183229,0.0139359,-0.728412,0.890661,0.664655,0.0576366,0.702682,-0.797738,-0.609953,-0.727027,-0.605988,0.23537,-0.981723,0.964423,-0.0960154,0.359996,-0.0174543,0.884988,0.689429,-0.620198,-0.417175,0.866711,-0.1721,-0.590616,0.580766,-0.786879,0.358583,0.792565,-0.546594,-0.919073,-0.0192951,1.01114,0.603666,0.676875,-0.252778,0.479232,-0.749607,0.227459,0.547938,-0.287793,0.344972,0.136377,0.571379,0.467177,-0.515142,0.0170331,-0.221638,0.0306536,-0.995243,-0.389398,0.17367,-0.978273,0.635712,0.344277,-0.411337,-0.0879896,0.396043,0.140077,-0.636976,0.145857,0.764255,-0.168579,-0.592979,-0.952536,-0.929454,-0.834973,-0.68205,0.989645,-0.943182,-0.011299,0.842079,-0.592675,0.362186,-0.756013,-0.862923,-0.299018,-0.701426,0.0480212,0.981546,-0.184809,-0.704075,-0.835818,-0.559852,0.316346,-0.346315,0.754737,-0.0574749,
-0.232554,-0.391273,0.955,-0.260319,0.63131,-0.75206,-0.775202,-0.188203,0.383326,-0.799098,-0.162512,-0.588373,-0.1184,0.83926,0.182348,0.653383,0.305324,-0.769308,0.380807,0.740687,-0.81776,0.30069,-0.834438,0.582512,-0.352813,-0.668096,-0.460584,-0.383992,-0.630897,-0.743584,-0.334828,-0.298286,-0.546949,0.19764,0.595665,-0.208874,0.330894,-0.574692,0.202578,-0.206829,0.511527,0.730593,-0.347352,0.928671,0.92227,-0.601268,-0.588398,-0.44921,-0.957557,0.97592,0.670764,0.766138,0.369745,0.631247,-0.189375,0.434083,-0.615615,-0.326193,0.773956,-0.79994,-0.430768,0.058643,-0.678525,0.212042,-0.913408,-0.921332,-1.01058,-0.449041,0.600395,0.408196,0.924033,-0.214508,-0.377823,0.190913,-0.697423,0.885954,0.894915,-0.103371,0.531477,-0.773926,-0.959873,-0.077386,0.252018,0.774783,0.086482,-0.413903,-0.905324,0.035985,-0.518669,-0.587195,-0.216066,-0.0805592,-0.909143,0.637342,-0.631893,0.364711,-0.108684,-0.779812,-0.557946,0.733923,
0.646394,-0.0877544,-0.44928,0.513464,0.767439,0.316871,-0.927732,-0.160018,-0.624879,-0.603232,-0.802973,-0.443361,0.288754,0.284227,0.802056,0.204039,0.886523,0.275314,0.565224,-0.395138,-0.128406,-0.403442,-0.69371,-0.963656,-0.636589,0.388341,0.896048,0.288854,-0.597195,-0.924748,0.50848,0.0702975,-0.203774,-0.367431,-0.155015,-0.0238468,0.139901,-0.620725,-0.324711,-0.572967,0.832699,0.983112,-0.819001,-0.532889,-0.248346,0.234829,-0.118254,-0.53519,-0.0106393,0.344048,0.768377,-0.983175,-0.0114871,0.914693,0.506962,0.0808927,0.711285,-0.869416,0.0124091,-0.63526,-0.372427,-0.530907,-0.530012,-0.395504,0.99494,-0.411246,0.531415,0.803352,-0.506251,0.704692,0.668627,-0.871049,-0.0470203,-0.490997,0.651372,-0.260193,0.0837195,0.509391,-0.809327,0.150454,-0.000453549,-0.164286,0.688184,0.599361,-0.949235,0.405826,-0.660917,0.773465,-0.561544,0.139429,-0.890392,0.42951,0.0692524,0.593506,0.921373,-0.545736,-0.396735,0.41832,-0.809436,0.709717,
0.458739,0.094794,-0.776739,-0.756822,-0.291734,-0.494097,0.343539,-0.120678,0.73972,-0.0106039,0.223787,0.273506,0.990796,0.836912,-0.766626,0.961228,0.886826,0.071255,-0.740555,0.218318,0.409005,-0.0818904,1.0464,-0.25611,0.204866,0.845169,0.924718,0.00273878,-0.207959,0.056902,-0.668027,0.976069,-0.283466,0.628198,-0.606476,-0.260288,-0.729574,0.497473,-0.223528,-0.943721,-0.975691,0.0212802,0.985341,-0.375464,0.0913617,1.03403,0.829966,-0.0088282,-0.569887,0.195896,-0.6182,-0.690247,0.0474843,0.0417783,0.965938,-0.954924,0.273964,0.655999,0.861987,0.350634,-0.985751,-0.927928,-0.805313,-0.507602,0.884343,-0.499756,0.215775,-0.517858,0.901278,0.820639,0.540725,-0.512143,0.7011,0.292816,-0.884784,0.550116,0.774956,0.531702,-0.828765,-0.927348,0.720016,0.22732,0.293194,0.34379,-0.145457,-0.112533,-0.543656,-0.898374,-0.544898,0.191811,-0.491315,0.705051,-0.809159,-0.106409,-0.485062,0.102783,-0.701345,0.285786,0.465339,-0.452074,
-0.486664,-0.574416,-0.228528,0.233834,0.188069,0.796354,0.82154,-0.0337589,0.476044,0.14038,-0.244701,0.0467619,0.95497,0.0195017,0.39379,0.281156,-0.502515,0.376296,0.713937,0.345782,-0.848169,0.635863,0.93822,-0.135981,-0.638049,-0.760046,0.102337,0.636658,-0.26344,-0.943707,-0.1504,-0.0287847,-0.716045,0.548953,-0.641226,-0.21629,-0.462197,0.109627,-0.0797198,-0.119053,-0.959999,0.832304,-0.964741,0.96173,0.57142,0.186116,0.177798,-0.898394,-0.301606,0.263479,-0.306591,-0.338389,-0.414431,-0.24527,0.240043,-0.0694746,0.294523,-0.741821,-0.0770065,-0.724352,0.603908,0.18469,-0.0989088,-0.650111,0.463371,0.325022,-0.124224,-1.00575,-0.853472,0.653387,-0.303409,0.0394375,-0.550523,0.669872,0.397948,-0.750741,0.0229374,0.584571,0.532628,0.213223,0.421988,-0.548717,0.367666,0.026545,-0.436472,0.107734,0.676492,-0.842194,-0.505372,-0.836168,0.575668,-0.55234,0.839109,-0.053586,-0.360009,0.442003,0.707654,-0.391315,-0.234257,-0.372592,
0.150294,-0.753716,0.195229,-0.218368,0.44387,0.705485,-0.384939,0.366962,0.521886,0.807297,-0.378722,0.301869,-0.887726,-0.0394606,0.735402,-0.866167,0.310319,-0.0330768,0.399825,0.284322,0.882402,0.186419,0.0390891,-0.891263,-0.490715,-0.549707,0.862592,0.903097,0.789089,-0.9018,-0.122901,-0.254078,-0.352547,0.895181,0.429748,-0.298398,-0.850114,-0.656531,-0.60732,-0.823266,-0.641364,-0.332403,-0.590436,0.227315,-0.227414,-0.953394,0.611413,0.804268,-0.70555,0.508382,-0.238665,-0.737598,-0.663739,0.509883,-0.591335,-0.749158,-0.828293,-0.764231,0.511184,-0.897238,0.173284,-0.516334,-0.822616,-0.684731,0.0712402,-0.21275,0.173371,-0.695756,0.560704,0.68654,-0.00984933,-0.105911,0.13136,-0.107044,-0.308641,0.677526,-0.59138,-0.655087,-0.278065,-0.260583,0.853829,-0.292922,0.841413,-0.667823,0.161159,-0.867892,0.265361,0.949624,-0.688959,-0.12036,-0.379831,0.283141,-0.983897,-0.891095,0.441825,-0.890187,-0.900645,-0.540719,-0.426688,0.567509,
-0.955729,-0.699465,0.617032,-0.434664,0.0394773,0.952685,0.262978,-0.256974,0.172941,-0.0108327,0.748842,0.0474354,-0.673385,0.928021,0.787415,0.495192,-0.127584,0.4156,-0.831467,-0.771482,-0.765542,0.47783,1.00206,0.451394,0.101954,0.765837,-0.906031,0.476893,-0.16905,0.366192,-0.888494,1.0008,0.729823,-0.614622,-0.166227,0.0150097,-0.0548293,0.682344,0.198596,-0.0503522,0.709869,0.105513,0.920302,-0.395149,0.111329,1.01788,0.683971,0.391614,0.421849,-0.420715,0.824284,-0.970538,-0.197709,-0.522212,-0.156209,-0.190956,0.164219,0.438699,0.185023,0.457169,0.240718,0.88263,-0.361883,-0.19788,-0.819976,-0.615671,-0.366425,0.657433,-0.293164,0.127553,-0.0180669,-0.254146,-0.0719679,-0.761565,0.298378,-0.51458,0.0175613,-0.287552,-0.395334,-0.112695,-0.258286,0.108284,-0.878935,-0.61812,0.925307,-0.0212447,0.317133,-0.686643,0.837959,0.45767,-0.815073,-0.87952,-0.135926,0.268464,-0.45474,0.374586,-0.876247,-0.972078,0.169012,0.435752,
0.231217,0.389077,0.711508,0.373513,0.309307,0.816058,-0.697736,-0.951336,0.986886,-0.515076,0.287773,-0.40779,-0.719366,-0.792712,0.96463,-0.393827,0.890391,0.436516,0.907205,0.216479,0.309293,-0.33499,0.447777,0.492485,0.556861,-0.63263,-0.595757,0.725946,-0.449724,-0.335127,-0.832501,0.533668,-0.810135,-0.371383,-0.809175,0.130714,0.282282,0.336232,-0.60874,0.377342,-0.277571,-0.980498,-0.752835,0.280581,0.989036,-0.940527,-0.775544,0.721664,0.506478,0.769661,-0.0946876,0.734162,-0.658068,0.46787,-0.181623,0.0666088,0.772879,0.073531,0.778866,0.622261,0.589234,0.862484,-0.112965,-0.263978,-0.721267,-0.0681497,-0.303416,-0.369404,-0.0148314,-0.0671039,-0.967429,-0.855493,-0.863415,-0.904367,0.990568,0.678585,-0.332545,-0.0411124,-0.842408,-0.0929443,0.588262,-0.255301,0.873293,0.894622,-0.680043,-0.591595,0.194049,-0.870164,0.372357,-0.166987,0.994073,0.514134,-0.837905,0.778983,0.820013,-0.990088,0.789804,-0.0572347,-0.948562,0.448474,
-0.798839,0.102656,-0.211617,-0.763026,-0.624216,-0.659352,-0.232516,0.85243,-0.801317,-0.291203,-0.154857,0.527036,-0.88339,0.683013,0.656348,-0.392602,0.67961,0.328155,-0.814312,0.0642682,-0.478246,-0.29865,0.329571,0.161793,-0.390607,-0.0226409,-0.16852,0.407251,0.674477,-0.66505,-0.788319,-0.615504,-0.414435,-0.999051,-0.858962,-0.102561,-0.723268,-0.962005,0.966834,-0.733038,-0.663798,0.665903,0.801982,-0.0438347,-0.118376,0.990979,-0.0122715,-0.5452,-0.233736,0.147812,0.366337,0.275175,0.281563,-0.456863,0.239045,0.0614919,-0.757458,0.809486,-0.117371,0.471712,-0.687892,-0.29221,0.956814,0.406816,-0.746463,0.123313,0.0517861,-0.227852,-0.888229,-0.29393,0.623587,0.138473,0.782783,0.0625331,-0.396674,-0.67998,-0.759305,0.148216,0.152008,-0.72345,0.0854489,0.150509,-0.214947,0.338408,-0.0165023,0.194901,-0.770821,-0.769759,-0.0376879,0.136234,-0.485465,-0.252404,0.404084,-0.247733,0.520723,0.490702,0.41829,-0.867403,0.870384,0.935617,
-0.953336,0.42252,-0.831597,0.0786611,0.919389,0.257827,-0.175928,-0.277269,0.864401,0.438926,0.62319,0.574925,-0.462192,-0.367274,-0.664252,0.275837,-0.0840206,0.199759,-0.221665,-0.545434,0.872665,0.177558,-0.268298,0.824317,-0.633424,-0.0925089,-0.771995,0.880474,-0.0463678,-0.825954,0.980917,-0.328787,0.0773182,-0.510995,0.036533,0.636266,-0.960494,0.563198,-0.810301,-0.571508,-0.285886,0.421596,0.148495,0.949682,-0.429498,-0.466917,0.485789,-0.799127,0.468256,0.618078,-0.503969,-0.474059,0.144676,0.0718349,0.310063,-0.64,0.705107,0.302741,0.643744,-0.018342,-0.923469,-0.0120906,0.574295,-0.713681,-0.883532,1.00176,-0.930401,0.958695,-0.460339,0.00426994,0.988537,-0.0326707,0.182018,-0.628266,0.788344,-0.182326,0.758725,-0.879985,-0.156844,-0.376819,0.573474,0.121207,0.46607,-0.623075,-0.188459,0.959777,0.667784,0.439468,0.46652,0.913357,-0.973727,0.740956,-0.953129,-0.649481,0.965687,0.755552,-0.280132,-0.361436,-0.160291,0.152939,
0.502686,1.01567,0.425311,0.497877,0.0958551,0.423902,0.680735,-0.488963,0.0349578,-0.793284,0.207973,-0.502838,-0.0276618,-0.863262,0.871014,0.23812,-0.712009,0.0641892,-0.133883,0.220228,0.482019,0.949256,-0.702613,0.0797958,-0.474003,0.206347,-0.234098,-0.667212,-0.360531,0.497186,-0.802732,-0.137457,-0.581613,0.7492,0.210504,-0.781363,-0.0138154,-0.786431,-0.217401,-0.159366,0.195915,0.898205,-0.358629,-0.845344,0.241196,0.516972,-0.62631,0.392395,0.0820205,0.800125,0.529367,0.843368,-0.224526,-0.317977,0.861694,0.870492,-0.368065,-0.989469,0.565278,-0.950244,-0.0833338,-0.570881,-0.702049,-0.802531,-0.634191,0.8681,-0.0274867,-0.0579675,0.786597,0.383071,-0.498683,0.570836,-0.440788,-0.389837,-0.204288,-0.21995,0.488631,-0.382414,0.082924,-0.0695065,-0.941934,-0.752304,-0.610883,-0.952441,0.851555,0.759029,0.611141,0.470995,0.676297,0.261947,-0.522785,0.135172,0.208542,0.174549,-0.0653438,-0.130619,-0.61433,-0.552746,0.465374,-0.929644,
0.192001,-0.147751,-0.361875,0.589884,0.162137,0.341778,-0.502529,0.352169,-0.343377,-0.193569,-0.179338,0.0835291,0.410134,-0.0408093,-0.0765755,-0.623545,-0.257927,0.532873,0.957689,-0.929783,-0.819983,-0.962441,-0.202848,0.358096,0.948035,-0.367159,-0.828962,-0.0232127,-0.403213,-0.825468,0.0314057,0.198123,0.707883,0.575396,-0.181933,0.836945,-0.537303,0.134315,0.417686,-0.271214,0.602344,0.453237,-0.880111,0.0437771,0.425436,-0.23568,-0.828406,-0.695267,0.0271534,0.523524,-0.158203,-0.642249,0.463888,-0.401605,-0.104807,0.980225,-0.550887,-0.0226814,-0.910206,0.528462,0.91035,-0.311535,-0.0557239,0.583776,0.752734,0.0656105,-0.620069,0.719033,-0.365901,-0.943651,0.510396,-0.370532,0.299731,-0.878714,0.929552,-0.234808,0.621114,-0.48179,-0.624213,-0.0924435,0.295084,-0.694978,-0.622369,0.0295125,-0.951125,-0.396835,0.140547,-0.954375,0.458182,-0.852337,-0.732062,-0.406373,-0.423383,0.330643,-0.789039,-0.129109,-0.557849,-0.81424,0.455451,-0.252055,
-0.893805,0.796796,0.64962,0.786871,0.665284,-0.15877,0.851562,-0.80331,0.470041,0.898943,0.916055,-0.369902,0.870875,0.482411,-0.00574389,-0.581917,-0.129527,-0.0872708,-0.950935,-0.348674,0.72452,0.400926,-0.506834,-0.598569,-0.0116389,-0.501701,-0.663464,-0.312792,0.667977,0.316145,0.122045,-0.713695,-0.162069,-0.512709,0.862559,0.814036,-0.756892,-0.880696,-0.285109,0.742603,-0.120561,0.629891,0.647924,0.705137,-0.956543,-0.32313,-0.510433,0.713907,0.324685,-0.75019,0.893591,0.276275,0.58431,-0.131532,0.87765,-0.808868,0.260396,-0.00169986,0.210456,0.219195,-0.89718,-0.892377,-0.435119,0.753416,-0.64493,-0.232699,-0.721496,-0.0532169,0.277525,-0.509286,0.002171,0.930871,0.315575,-0.671042,-0.60631,0.116,0.714699,0.582405,0.0583706,-0.962797,0.746807,0.892832,-0.691709,-0.670208,0.623918,-0.095936,-0.389464,0.468304,-0.378598,0.1803,-0.424755,0.864575,0.807696,0.27994,0.969335,0.757087,-0.151829,0.259973,0.13509,-0.88811,
0.629106,0.43998,0.132772,0.59592,-0.954014,0.316272,-0.653461,-0.878018,-0.217159,0.515333,-0.666183,-0.243707,-0.90226,-0.161975,0.299488,-0.754295,-0.0540884,0.4249,0.827124,0.0471712,0.0862201,0.497578,-0.644406,-0.887811,0.934163,-0.652353,-0.299959,0.814174,0.625219,0.110034,-0.436012,0.959686,-0.353128,0.956208,0.627791,-0.804074,0.154388,0.33023,-0.976396,0.479809,-0.318669,-0.0384192,0.703473,0.880277,0.502065,-0.249778,-0.420664,-0.572213,0.120746,0.631583,0.896977,0.0711079,0.912049,0.770319,-0.437899,-0.893368,-0.403016,-0.406716,-0.0394485,-0.889891,0.0106683,-0.172504,0.0175567,0.237507,0.704144,0.569508,-0.769197,-0.211803,0.361253,0.0630119,0.841006,-0.956895,-0.808103,0.225386,0.38407,-0.740597,0.29469,-0.0447709,-0.9557,0.0588345,0.0227668,0.50664,-0.439081,0.574838,-0.937471,0.447192,0.618253,-0.90553,0.575293,-0.440985,0.119443,0.982018,-0.0849917,0.308809,-0.519796,-0.112855,-0.792014,-0.59016,0.702903,0.128374,
0.107652,-0.953501,0.562613,-0.72539,-0.409802,-0.528103,0.0367217,-0.744992,-0.538081,-0.477147,0.0922076,0.884443,-0.792266,0.855021,-0.933037,-0.237348,0.906736,-0.233954,0.0763824,0.271225,0.719811,-0.768168,0.959676,0.709614,0.707639,0.0801562,-0.177012,0.446882,-0.68508,0.990311,-0.384866,0.813818,0.11558,0.742555,-0.837141,0.514192,-0.158624,-0.0431077,0.341705,0.467845,-0.573353,-0.669723,0.497431,0.776101,-0.331235,0.249597,0.270337,-0.922124,0.426013,0.704729,-0.00267899,0.190938,-0.577437,-0.362297,-0.195265,-0.466941,0.785819,-0.0485898,0.729049,-0.971305,-0.354284,-0.698529,-0.407959,-0.626045,-0.709285,-0.0904385,0.527808,-1.04401,-0.983727,-0.790761,0.992395,0.649983,-0.0942072,0.483185,0.926888,0.0742306,-1.01863,-0.731937,-0.331059,0.249523,0.192259,-0.0775565,-0.0726423,-0.978276,0.428394,-0.62507,0.0786699,1.01141,0.452313,-0.412814,0.0882862,-0.157559,-0.150966,0.0429161,-1.00947,0.977352,0.450129,-0.616476,-0.174394,-0.654908,
-0.743426,0.622467,0.439592,-0.474968,0.151645,-0.222143,0.617964,-0.265626,0.323881,0.747802,-0.24455,0.0702137,-0.5398,-0.80418,0.670626,0.731715,0.211188,0.570733,-1.01936,0.123739,0.473173,-0.620574,0.449994,-0.170969,-0.075085,0.749076,0.37685,-0.566193,-0.0828544,-0.484134,-0.497944,0.434951,-0.954177,0.897494,0.686721,-0.461898,-0.00281149,-0.883526,-0.426786,-0.108412,0.654862,0.965422,0.774732,0.898534,-0.130539,-0.0463808,-0.896699,-0.768586,0.794737,-0.863746,0.187967,0.694797,0.734709,0.971818,-0.542533,-0.838205,0.305437,0.40585,-0.951356,-0.260895,0.116475,0.264116,-0.498857,0.850889,0.159832,0.228973,0.749538,0.271487,-0.116545,-0.115893,0.297676,0.494908,-0.349684,0.931143,0.141899,0.987491,0.124447,-0.210186,0.752449,-0.838468,0.256268,-0.74484,0.913231,-0.175767,0.521574,-0.306729,-0.845995,0.880981,0.406341,-0.0688241,-0.981775,0.993565,-0.777069,-0.0633196,0.121939,0.429637,-0.901154,0.619228,0.00705954,0.0869915,
0.11399,0.59237,-0.209833,0.990514,-0.114438,-0.1914,0.113934,-0.506596,0.928691,-0.607271,-0.863597,0.379139,-0.838601,-0.0786621,-0.0365156,-0.337563,-0.712752,-0.888184,-0.849539,-0.124091,-0.937508,0.505679,-0.594899,-0.672889,0.436946,-1.02266,0.440163,0.0828813,0.831007,0.347182,-0.284097,-0.446261,0.900149,0.126421,-0.548286,-0.920136,0.939178,-0.654253,0.364503,-0.459246,0.731171,-0.218999,0.590327,0.237891,0.718272,-0.520917,0.238589,-0.790525,-0.858261,-0.346351,-0.606241,-0.823917,0.237967,0.313563,-0.551901,0.200806,0.395647,-0.783041,0.952688,0.444458,-0.422102,-0.142828,-0.675747,0.29936,-0.645302,0.976563,-0.683786,-0.289669,-0.884577,0.813019,0.717323,-0.88576,-0.225251,0.0638754,0.632171,-0.143898,-0.898486,0.804043,-0.0336101,0.372338,-0.285011,0.262438,0.0362863,0.368799,-0.652353,0.90162,-0.221359,0.470415,0.425435,-0.290785,-0.285327,0.485379,0.142831,-0.557508,-0.887181,-0.582753,0.509023,-0.257064,0.710492,0.918626,
0.809948,0.885161,0.114353,-0.0421554,0.17495,0.778372,0.62542,-0.764506,0.412457,-0.749336,-0.603883,0.70691,-0.169998,-0.623043,-0.0461882,-0.709843,0.898987,-0.858936,-0.163004,0.250622,0.487398,-0.966623,-0.191976,-0.543887,-0.95179,-0.370302,-0.168692,-0.199792,0.388458,0.450783,0.294864,0.412639,0.5267,-0.130008,0.441873,-0.804017,-0.0976361,0.111065,0.951638,-0.497262,-0.440989,1.04235,-0.58355,0.966569,0.502606,0.433073,0.145082,0.113143,0.192776,0.636168,0.78142,-1.02992,-0.661483,0.837836,0.497625,-0.980028,-0.127319,0.347776,-0.413269,-0.789768,-0.294955,0.0184674,0.127744,-0.414641,-0.992657,-0.155986,-0.0752771,0.897359,-0.607928,-0.0508698,-0.675212,-0.21009,0.641804,-0.0325033,0.864323,0.571966,-0.736393,0.592039,0.171752,0.545569,-0.0437104,0.320658,-0.773661,0.92397,0.317797,-0.678258,0.923616,0.296226,-0.802225,-0.23066,0.178413,-0.681073,0.424925,-0.295055,-0.676287,-0.0971809,-0.58667,-1.00799,0.744232,0.441281,
0.507947,0.417066,-0.452597,0.868606,0.432374,0.516702,0.331725,0.928755,-0.789573,0.986803,0.640579,-0.707177,-0.76632,-0.468309,-0.426821,-0.476086,-0.604017,-0.369766,0.819633,0.207503,-0.364458,0.700632,-0.564297,0.480037,0.549375,-0.760883,-0.291713,0.204438,-0.213514,-0.515034,-0.33935,-0.379494,0.0358135,0.913332,0.289137,0.593872,0.511354,0.180853,-0.240596,-0.250547,0.78199,0.769439,0.659871,-0.216095,0.72947,-0.879789,0.0290025,-0.403535,-0.737367,0.815907,-0.615753,-0.114772,-0.222497,-0.891664,-0.474365,-0.523797,-0.187477,-0.942281,0.434366,-0.585627,0.836154,0.0334345,-0.778114,-0.832499,-0.33504,0.885,0.233876,-0.218103,-0.735173,-0.294195,-0.376557,-0.563501,0.520136,-0.0340115,-0.604479,0.866262,0.532198,0.284324,-0.485075,0.637022,-0.435033,0.380384,0.934885,0.706957,-0.35382,-0.24686,0.34996,0.546601,-0.254066,0.92857,-0.356285,0.802207,0.905858,0.356898,-0.906106,-0.982362,-0.100994,-0.712979,0.363969,0.097858,
0.896017,0.948738,0.468936,0.946752,0.179022,0.325574,-0.799085,0.295751,-0.343902,-0.850952,-0.06135,-0.558842,0.486757,-0.475878,-0.322643,-0.512599,-0.621864,0.576322,-0.928744,0.183691,-0.263435,-0.580846,0.756606,0.645483,-0.496602,-0.788963,0.886112,-0.751737,-0.810672,-0.0128659,-0.504979,-0.636007,-0.421296,-0.38662,-0.938989,-0.145526,-0.851628,0.672591,0.92237,-0.498601,-0.395218,0.0741681,-0.444418,0.16641,-0.761048,-0.756278,0.908159,-0.258647,0.275648,-0.537172,-0.662796,0.850059,0.227152,0.519991,0.14928,-0.832005,0.230448,-0.967555,-0.738845,0.91897,-0.607844,-0.496776,-0.176056,0.500403,-0.379043,-0.668441,-0.72353,-0.757945,0.290924,0.370413,0.306053,0.920994,0.527926,-0.767303,-0.861134,-0.469043,0.272074,0.794504,0.396445,0.862434,0.982884,0.15633,-0.301078,0.621007,-0.119386,0.455342,0.979732,0.460995,0.941236,0.0235987,0.136081,0.221209,-0.397368,0.361819,-0.241191,0.622168,0.29212,0.407496,-0.782976,-0.800028,
-0.61724,-0.45477,-0.491494,0.0857345,0.981582,-0.659182,-0.757758,-0.720541,-0.595915,0.675546,1.00161,0.360016,0.559442,-0.193922,-0.150182,-0.746274,0.648596,-0.466312,0.406933,0.398226,-0.800051,-0.9258,-0.180949,-0.46079,-0.543825,0.79084,-0.116074,-0.328675,0.677443,0.408576,-0.903898,-0.822762,0.215665,-0.16972,0.994511,0.74277,0.33113,0.346863,-0.751125,0.37522,-0.720016,0.112975,0.0206852,0.921573,-0.186239,0.752266,0.160153,-0.673477,-0.291768,-0.850834,-0.926955,0.160249,-0.491666,0.0162286,-0.449527,0.853477,0.43116,0.114032,-0.198235,-0.772593,-0.574496,-0.804258,-0.163472,0.876334,-0.239003,0.499098,-0.434735,0.942769,-0.190025,-0.76343,0.609873,0.56155,0.83422,-0.150047,-0.39618,-0.780083,0.856703,0.514263,0.863211,-0.983258,0.473073,0.582229,0.87037,0.549195,0.392832,-0.247712,-0.71528,0.100371,0.414112,-0.130429,-0.65795,0.217358,-0.0366338,0.243494,0.594003,0.709225,0.885066,0.962997,0.90689,0.659579,
0.214663,0.421167,-0.133965,0.228526,-0.659651,-0.415801,-0.875439,0.844791,0.228614,0.934631,-0.495737,-0.521918,-0.794564,-0.355113,0.105085,-0.874924,-0.114803,-0.284949,-0.377642,-0.0750892,-0.327766,0.015714,-0.316557,0.0243178,-0.485256,0.410688,0.708628,0.00588901,-0.109193,-0.932459,0.754253,-0.257668,0.117133,-0.0862988,-0.347139,0.436338,0.414892,-0.206818,-0.362737,0.236018,0.980356,-0.529369,-0.362,-0.886992,0.317428,-0.13775,-0.071578,0.608446,-0.892927,0.94669,0.248897,0.614157,0.0395698,-0.713926,-0.753267,-0.377936,0.889899,0.401073,0.761144,-0.314449,-0.651551,0.0271103,-0.754807,0.265596,-0.249863,-0.979957,0.971828,0.842505,0.198051,-0.593467,-0.143949,-0.0143277,-0.323385,0.2269,0.742774,-0.708445,-0.581193,-0.327971,-0.682422,-0.913089,0.296878,0.723201,0.0391991,0.0492299,-0.449002,0.109657,-0.690087,-0.171872,0.103383,-0.848985,-0.191616,0.860236,0.534549,0.865409,0.285115,-0.725221,-0.286008,-0.754376,0.0232618,-0.275286,
0.830834,-0.289916,-0.9757,-0.915936,0.572313,-0.248018,-0.551692,0.478917,-0.691427,0.834825,0.173686,0.9737,0.481268,0.0672056,0.75133,-0.703066,0.620047,0.317543,0.888167,-1.01524,0.78763,0.253227,-0.225892,-0.612514,0.09154,0.345593,0.885263,0.972914,-0.312164,-0.0708201,-0.546125,-0.161685,-0.488481,-0.683425,0.0575589,-0.880492,0.078274,0.0964722,0.164528,0.991131,0.219275,-0.180506,-0.721011,-0.925821,0.222832,0.966279,0.254187,-0.814117,0.34283,-0.447945,-0.256878,0.241979,-0.534129,-0.758543,0.897143,-0.321307,0.694036,0.409371,0.199229,-0.425099,-0.0721219,-0.923909,-0.875855,0.333525,-0.929247,-0.270287,0.990475,-0.104675,-0.525417,0.286084,0.106578,-0.295928,0.302264,-1.0281,0.412335,0.0109351,-0.248883,0.881784,0.725706,0.100287,0.0412109,0.359543,-0.7691,-0.185489,-0.671925,0.913223,-0.958721,0.132516,0.434996,-0.516967,0.747535,0.548046,0.918137,0.483309,0.706592,-0.645963,-0.108889,-0.0540134,0.601874,-0.00768418,
0.551741,0.240899,-0.0121929,-0.795367,0.541945,-0.317943,-0.139156,0.0143265,0.16058,0.49471,-0.406043,0.311978,0.221881,0.280755,0.767693,-0.738448,-0.0407665,-0.520793,0.0912792,-0.0884278,0.493758,0.118642,-0.464546,0.279769,-0.191003,-1.00936,-0.71513,0.519488,-0.941809,0.700173,0.0479513,0.851888,-0.949538,-0.939779,0.0695514,-0.524837,0.432886,-0.143098,0.227936,0.555163,0.0763188,-0.804512,-0.42841,0.620577,-0.446105,-0.369299,0.313097,0.0228395,-0.288157,-0.926873,0.542159,-0.0811682,-0.603178,0.809316,-0.627142,-0.705107,-0.802547,0.300674,0.348291,-0.30228,0.883289,-0.00408722,0.461146,-0.851103,0.912974,0.414321,-0.691613,-0.167787,-0.308465,-0.040996,0.492566,0.517845,0.208065,-0.171551,-0.892394,0.309997,-0.859743,-0.88329,0.498737,-0.517286,0.565644,-0.856677,-0.894434,-0.352068,-0.721377,-0.705505,-0.769183,-0.915139,0.799919,-0.0059443,-0.758765,-0.668016,0.692783,-0.489244,0.505943,-0.394846,-0.44638,-0.638028,-0.705508,0.845587,
0.319618,0.506054,-0.925505,0.736416,-0.221509,-0.65927,-0.139752,-0.656896,0.66514,-0.737884,-0.962138,-0.551938,-0.448754,-0.889306,0.497336,-0.175345,0.166331,-0.389158,-0.0380371,0.0331504,0.280803,-0.457916,0.858753,-0.535452,-0.000573038,0.694464,-0.640575,0.685335,-0.0157904,0.165626,0.808049,-0.21312,-0.687211,0.920507,0.192899,0.357057,-0.156832,-0.308719,-0.135657,-0.575848,0.821566,0.837296,-0.943868,0.894785,0.0440239,-0.266776,0.136974,0.95343,-0.307704,0.719678,0.473004,0.925293,0.145973,0.77667,-0.885598,-0.783787,0.363336,-0.529908,-0.250531,-0.390505,-0.616438,0.617076,0.958852,0.364623,0.76552,-0.595953,-0.12883,0.739698,0.365112,0.183063,0.288571,-0.346092,0.888526,-0.581351,0.684406,0.832254,0.940233,0.124056,0.575586,0.0177722,-0.761342,-0.111189,-0.468408,-0.763525,0.003866,0.116892,0.0421747,-0.218093,0.420789,0.218313,0.268881,0.45413,0.938401,-0.821709,0.697657,0.993561,-0.792365,-0.581875,0.089229,0.161267,
-0.123429,-0.778668,0.642868,0.282173,-0.177094,1.01501,0.794633,-0.362455,-0.0853844,0.418027,0.98721,0.848436,-0.77092,0.913708,0.278605,0.0765605,-0.0115168,-0.242696,-0.655158,0.2612,0.229838,-0.708205,-0.741856,-0.923,-0.580111,-0.439961,-0.65385,-0.379329,0.117833,0.992579,-0.538643,-0.618759,0.839755,-0.716828,0.736394,-0.325589,0.313231,-0.473174,-0.478889,-0.933573,0.0119319,0.605366,0.278115,-0.336858,-0.909334,-0.230484,-0.248745,0.447223,0.0811034,0.628306,0.642095,0.764843,-0.0473341,0.896795,0.270612,0.700261,-0.319291,0.768998,-0.768667,0.198159,-0.358533,0.227603,-0.610207,-0.112565,-0.410437,0.383297,0.468304,-0.129561,-0.214776,0.56895,0.294808,-0.362254,0.728287,-0.519351,-0.444551,-0.295275,0.00557851,0.0899808,-0.475136,-0.12863,-0.459835,0.43704,0.173446,0.579588,0.329221,0.154241,-0.591705,-0.0320908,0.510963,-0.636788,-0.934332,-0.372657,-0.714659,-0.465577,-0.0892626,-0.0716593,0.184852,-0.252443,-0.485887,-0.328971,
-0.104541,0.19943,0.919951,0.849435,-0.262905,-0.718109,-0.362654,0.961609,0.0760333,0.833579,-0.47004,0.932891,-0.824399,-0.977179,-0.11207,0.23489,0.416443,0.5765,-0.719242,-0.152615,-0.618935,0.321537,-0.110646,-0.528231,-0.477537,-0.74089,0.375953,-0.741785,-0.385919,-0.139131,-0.331748,-0.203949,0.414224,-0.276562,0.486053,-0.0645391,-0.747701,0.753405,0.76724,0.988427,-0.921742,-0.0288456,-0.120335,-0.918322,0.107673,-0.348813,-0.794684,-0.988298,-0.498616,-0.702888,0.20593,-0.685396,0.378575,-0.800664,0.727144,-0.267341,0.236565,-0.976616,-0.249252,-0.42417,0.0911802,-0.0299282,-0.191975,0.2947,0.575982,0.48069,0.802017,0.621008,-0.781739,0.788925,0.219107,-0.243543,0.0922522,-0.102568,0.101516,0.488304,-0.0612617,-0.948615,1.02218,0.217199,-0.305997,-0.553001,0.408521,-0.574724,-0.724722,0.0412814,-0.822627,-0.706985,0.853273,-0.579364,0.269189,0.395896,0.468443,-0.803526,0.607969,0.445331,0.963628,-0.872586,-0.866356,0.883979,
0.355256,0.869428,-0.202627,-0.876296,-0.751394,0.784645,0.37689,0.354082,0.401132,0.226581,-0.797077,-0.414621,0.733134,-0.874922,-0.637456,-0.424742,-0.128924,0.473487,-0.415369,0.355614,0.797063,0.518972,-0.88682,0.984709,0.263856,-0.206204,-0.688346,-0.462399,-0.869986,0.670868,0.793756,-0.0807944,0.818523,-0.30459,0.109425,-0.05614,0.609641,-0.22323,0.999819,0.565183,-0.311005,0.176325,-0.370648,-0.415088,0.292244,-0.335673,-0.445093,0.716013,0.287687,-0.332683,-0.984245,0.760016,0.627107,-0.62288,1.01303,0.00424342,0.428973,0.0749469,-0.344009,0.137387,-0.14781,-0.858485,0.0522161,0.0335666,0.793994,-0.233467,0.0164308,-0.885263,-0.492108,-0.98245,0.580214,0.589254,-0.0386437,-0.26869,0.519905,0.163484,0.458472,0.153668,0.445868,-0.569037,-0.858048,0.490645,-0.41337,0.843634,0.122078,0.336056,-0.645607,-0.605793,0.660489,0.97688,0.948851,-0.407006,-0.322247,0.241603,0.486403,-1.00639,0.122666,-0.632077,-0.637376,-0.431841,
-0.944297,0.919116,-0.411092,0.320852,-0.979341,-0.410605,-0.812937,0.560763,0.197662,0.703486,-0.902822,-0.194435,0.737151,0.729202,-0.725944,-0.180917,0.048119,0.998674,-0.600489,-0.602039,0.349034,-0.252559,-0.579662,-0.0210751,0.324662,0.3042,-0.971766,-0.433687,-0.122214,-0.580516,0.473663,0.228407,0.131142,-1.00675,0.251967,0.0965609,-0.0590807,0.545182,0.262865,0.436043,0.800648,0.534899,0.177238,-0.45673,0.795114,0.799226,0.645821,0.285181,0.287692,-0.645709,0.980158,0.569107,0.367815,1.01077,-0.0396162,-0.574392,0.765433,0.476952,0.532265,-0.468207,0.308231,-0.449472,-0.726358,0.588828,-0.0520664,0.422911,-0.499051,-0.701338,0.705069,-0.874941,0.908669,0.486164,-0.607328,-0.133423,-0.52824,-0.389082,-0.800581,0.642306,0.336254,0.367782,-0.806251,0.903023,-0.202947,-0.0644401,0.797528,-0.481114,-0.543218,-0.16461,-0.109551,0.181932,-0.615493,0.00566875,0.598295,0.277531,0.622631,0.116403,-0.668656,-0.666356,0.533589,-0.955753,
-0.242641,0.785573,0.593546,0.90587,-0.935895,-0.748436,-0.615743,-0.39377,-0.455843,0.559937,0.215829,0.641317,0.401335,-0.180055,-0.552464,0.178916,-0.117587,0.853302,-0.430325,-0.197184,-0.97374,-0.321076,0.0114133,0.653185,-0.770833,-0.710697,-0.715819,0.276504,0.54274,0.805791,-0.725999,0.48593,0.050132,0.292981,-0.0377881,-0.289292,0.451009,0.801612,0.866496,-0.971404,0.756719,-0.151378,0.84,-0.743698,0.63492,0.35845,0.141322,0.424707,0.601054,-0.855328,-0.420748,0.281112,-0.029865,-0.638201,-0.00612167,0.652549,-0.574598,-0.360588,-0.717329,-0.611053,-0.24115,-0.266506,-0.652101,-0.950448,0.0505934,0.322543,0.291445,-0.0260285,0.136572,0.217622,0.433243,-0.507793,-0.634516,0.12145,-0.928193,-0.0623613,0.315835,-0.463511,-0.0161876,-0.442795,0.427475,-0.913823,0.526645,-0.384233,-0.0194658,-0.108261,0.0368665,0.170029,0.148606,0.858316,0.918509,-0.290452,-0.857982,0.959639,0.923716,-0.797458,0.199573,-0.225962,0.084779,0.838152,
0.230118,-0.396585,-0.736578,0.917445,-0.889918,-0.681995,-0.647851,0.15374,-0.375547,-0.224716,0.0271921,-0.650756,-0.391869,-0.0907686,0.988376,0.979887,0.767533,-0.280256,0.338473,-0.125963,-0.125988,0.6034,-0.055647,-0.380148,0.404628,0.312128,0.915627,-0.57777,0.530802,0.69427,0.815974,0.201864,-0.952787,0.193388,0.396705,-0.679411,-0.655337,-0.858466,-0.178322,0.723809,0.695784,-0.512431,-0.679261,0.5776,0.068771,-0.238907,0.0897525,-0.220708,0.578374,0.337618,0.0186622,0.643484,-0.218448,0.130325,-0.628943,-0.870629,0.384218,0.495857,0.697341,0.666558,-0.812922,0.457898,0.0811672,-0.442692,-0.558256,-0.618023,-0.998376,-0.0104519,-0.946611,0.53358,0.818584,-0.801658,0.587969,0.616472,0.672767,-0.271566,0.168784,0.416148,0.549722,-0.327718,-0.106433,-0.234082,-0.119954,-0.943215,-0.517368,0.787369,0.779461,0.167797,0.755047,0.534966,0.253673,-0.236465,-0.166634,-0.903082,0.659809,-0.0222044,-0.247657,0.0194934,-0.119159,0.754528,
0.499219,-0.497526,0.856309,0.850831,0.0915502,0.678449,-0.629101,-0.26815,-0.392275,0.980323,-0.264386,0.66862,0.822187,-0.327048,-0.415272,0.158236,-0.872438,-0.153179,-0.619451,-0.43327,-0.347989,-0.296082,-0.957562,0.453956,0.83012,0.859154,0.350259,0.00598725,0.0509399,0.929964,-0.192956,0.993272,-0.779762,-0.245887,0.483685,0.809183,-0.922098,0.363346,0.719958,-0.968763,0.847307,0.248392,-0.333615,0.674664,-0.375748,0.180075,-0.354575,0.199603,-0.134642,0.490364,0.941066,-0.916114,-0.80964,-0.0599124,-0.270952,0.176508,0.00108241,0.248552,0.323802,-0.215947,-0.712755,-0.744637,-0.102167,-0.779178,-0.0257263,0.0697447,0.596014,-0.689527,0.130791,-0.993777,0.576957,0.347766,-0.677039,-0.413288,0.343614,-0.72994,1.01871,-0.929705,-0.877648,0.833846,0.540636,-0.451012,0.183632,-0.414359,0.638285,0.688567,0.0652243,-0.97839,-0.790294,-0.289835,0.0712617,-0.780448,0.218225,-0.286466,0.885974,-0.195203,0.844118,0.861999,0.120173,0.594951,
0.162036,0.517575,-0.0446598,-0.332285,0.78427,-0.699462,-0.246014,0.435979,-0.747929,-0.326606,-0.0166986,-0.592994,0.044743,-0.571948,0.998522,-0.699659,0.475863,0.388013,0.110055,-0.991415,0.756149,0.767338,-0.115366,-0.511559,0.467706,-0.742649,-0.197756,0.575139,0.628788,0.6331,0.969084,-0.24177,0.63045,0.479135,0.642149,-0.525793,-0.859353,0.297208,-0.262732,0.212505,-0.294186,-0.525846,0.919264,0.153456,-0.0959259,-0.505775,0.831545,0.669808,0.832754,-0.895831,0.664766,-0.15291,0.145072,0.145952,0.767129,0.730926,-0.334559,-0.760035,-1.00726,0.595246,-0.88123,-0.134462,0.75955,0.548055,-0.272357,-0.803772,0.233915,0.232797,-0.157774,0.200689,0.719667,-0.0209954,0.0984689,0.597039,-0.191219,0.140807,-0.317776,0.878105,0.994521,-0.756175,0.882271,0.679063,0.841531,0.867745,0.420805,-0.559388,0.550677,0.0340714,-0.327468,-0.223089,0.679925,-0.912343,0.752362,0.345792,0.508885,0.119281,-0.980125,0.938735,-0.0554852,-0.362825,
0.199392,0.0265887,-0.144539,-0.484295,-0.496359,-0.473568,-0.776383,0.953548,0.543045,0.472575,-0.67625,0.582122,0.175411,-0.514461,0.765657,-0.375826,0.592643,-0.733529,0.912863,-0.610456,0.962872,0.883995,-0.503198,0.351457,-0.753393,0.959368,0.497133,0.999293,-0.751405,0.275896,0.566198,-0.420389,-0.378697,0.481991,-0.569875,-0.762205,0.232612,-0.27699,0.77119,0.168569,0.731325,0.268452,0.0988861,-0.793838,0.38071,0.427823,0.216008,0.371872,-0.747674,-0.11558,-0.56036,-0.341022,-0.701305,0.906707,-0.607732,-0.863804,0.300476,-0.136088,0.569599,-0.0692316,0.56071,-0.0817925,0.161563,0.696049,-0.664479,0.988829,0.183659,-0.174786,0.331306,-0.00908856,0.986867,0.162755,0.497989,-0.0878361,-0.618435,0.949726,-0.0382417,-0.135789,-0.434862,-0.368234,-0.915917,0.237806,0.820861,0.922243,0.205459,-0.70267,0.64285,-0.870457,0.388421,-0.0738574,-0.837377,-0.686629,0.978736,-0.731025,-0.554903,0.702746,0.855084,0.482823,0.297139,-0.657172,
0.495923,0.0241029,-0.207009,0.946431,-0.00664001,-0.951643,0.516105,0.872209,0.945138,-0.716711,-0.0184174,0.761269,-0.0544353,0.906358,0.887204,0.729802,0.162922,0.778213,0.175699,-0.729141,0.208483,-0.542002,0.199397,0.575683,0.0247893,0.661615,0.0375581,0.227592,-0.694156,0.967182,0.279609,-0.825764,-0.139919,-0.291591,-0.737643,-0.389134,-0.540557,0.239479,0.286058,0.455572,0.188588,0.364901,-0.278479,0.615855,-0.267595,-0.829051,-0.473462,-0.670489,-0.543715,0.599266,0.113775,0.15093,0.182525,1.00525,-0.710692,-0.681982,-0.925996,-0.309104,-0.0973541,-0.982229,-0.515578,0.474771,0.226402,-0.2949,-0.211445,0.23823,0.536998,0.516111,0.220155,-0.190737,-0.35464,0.85791,-0.548484,0.674473,-0.78066,0.467393,-0.757241,0.749036,0.806486,-0.188471,0.589763,0.889181,0.733638,-0.232258,0.0660776,0.176481,0.672588,-0.924758,0.544715,-0.107227,-0.861801,0.863981,-0.750402,0.0774753,0.625109,0.851348,0.567464,-0.182019,-0.326756,-0.435809,
-0.625073,0.33745,-0.089949,0.236706,-0.747153,0.961728,-0.82919,-0.948557,0.929792,-0.485645,-0.0226991,-0.821248,0.165163,-0.643704,-0.406567,0.672583,0.799443,0.667808,-0.789154,-0.85794,0.702276,0.18549,0.299606,0.645926,0.429255,-0.391135,-0.158844,-0.207691,-0.6867,0.835737,-0.877354,0.646159,0.472207,0.909568,0.219645,0.732385,-0.513541,-0.758356,-0.38705,-0.576028,0.7644,-0.852339,0.972304,-0.190958,0.0835508,0.777507,-0.522443,-0.631555,-0.47724,0.811629,0.840679,-0.64149,0.424096,-0.778027,0.0853305,-0.192918,-0.142703,-0.958867,-0.624344,-0.109877,0.139268,-0.162633,0.849958,0.660499,-0.249657,0.145682,-0.124624,0.240046,-0.355744,-0.503263,-0.230015,-0.191949,0.34132,0.468953,0.732723,0.641364,0.038726,1.01062,0.678599,0.50228,-0.601519,-0.271628,-0.777038,-0.466438,0.41851,0.147542,-0.150283,-0.315812,0.173173,-0.977269,0.591408,0.204275,0.946002,0.742524,0.60337,0.332059,-0.42273,-0.0920914,-0.958147,0.210336,
-0.124138,-0.00809884,0.491017,0.969854,-0.0743048,-0.947008,-0.377713,-0.189427,-0.135682,-0.370376,-0.650307,0.316558,-0.921331,0.213755,0.613632,-0.744025,0.890477,0.664576,0.25325,-1.01629,-0.116275,0.200196,0.0133382,0.915535,-0.329012,0.125496,0.133829,0.554237,-0.576113,-0.906267,0.830628,0.736013,-0.305488,-0.371922,-0.160789,-0.4127,0.43954,-0.577217,0.534104,-0.794774,-0.780357,-0.304303,0.604467,0.1599,-0.0698209,0.346457,-0.20723,-0.278756,0.923945,-0.9743,0.933531,-0.909954,-0.54878,0.289625,1.03664,-0.411035,-0.760005,-0.929092,0.0906598,-0.0592333,0.801217,-0.787452,0.667219,0.554894,0.155701,1.00285,0.191172,0.486528,0.297582,0.929456,0.262016,0.602083,0.729576,-0.0939998,0.907876,-0.677314,0.70718,0.162469,0.940014,0.864655,0.446169,0.845095,-1.00103,0.839793,-0.804703,0.322049,0.671746,0.082813,0.216546,0.557262,0.14469,-1.0351,-0.472363,0.917339,0.44126,0.176574,0.954517,0.280783,0.0664253,0.803177,
-0.249242,0.0128567,0.36482,-0.77568,-0.520684,-0.6491,0.170768,-0.826635,-0.486176,-0.292194,-0.392209,-0.999437,0.0720849,-0.680119,-0.481711,-0.238045,0.151407,0.36164,0.886089,0.571347,0.369221,0.913372,0.982321,0.118073,0.0651448,0.362976,0.56446,0.914009,-0.723914,-0.906323,0.929882,-0.326366,-0.09272,0.418289,0.40883,-0.107964,0.108237,0.268116,0.21799,-0.281519,-0.804614,0.217448,0.268791,0.894442,0.695703,0.369579,0.385405,-0.912106,0.449616,-0.19545,0.103595,0.26344,-0.80615,0.443937,-0.238296,0.0995328,0.435465,-0.304373,-0.281598,0.263728,0.640564,0.588914,0.195998,0.327391,-0.259076,0.587455,0.885066,-0.966974,0.485034,0.287294,-0.336249,-0.475023,-0.809952,-0.430565,-0.0648729,0.368983,0.713677,0.820143,0.0370964,0.0607905,0.616496,-0.46447,-0.886914,0.363486,0.308774,-0.61844,0.13817,0.622198,0.070455,0.957261,0.58432,0.11741,-0.58393,-0.122213,-0.721861,0.354517,-0.918086,-0.395291,0.0470737,-0.428857,
0.0309464,-0.556831,0.0875256,0.00192763,-0.628262,0.152458,-0.957812,-0.686531,0.864876,0.603965,-0.529364,0.877961,0.31804,0.956405,-0.274833,0.410481,-0.113967,-0.969173,-0.920122,-0.799786,0.787393,0.240368,-0.771532,-0.0927387,0.412933,0.390286,-0.375349,-0.0655682,0.419479,0.556099,0.102466,-0.627686,-0.760296,0.0590253,-0.851562,0.693154,-0.7704,0.841751,0.707223,-0.599485,0.769198,0.280926,0.929187,-0.118796,0.424235,0.937101,0.880665,-0.967749,-0.748095,-0.842061,-0.0985294,-0.834616,0.516147,0.963084,0.937798,0.887245,0.0283765,0.871243,0.868495,-0.280434,-0.640318,-0.671481,0.570187,0.693283,-0.72245,0.76279,0.651369,-0.557862,0.47737,0.186565,-0.31099,-0.031285,0.70253,0.930655,0.209057,0.0757543,0.642295,0.516572,-0.225285,-0.734238,0.322242,0.737734,-0.45325,0.68326,-0.00991092,-0.461578,0.482746,-0.965745,0.362798,-0.480717,0.564009,-0.745398,-0.679601,-0.61537,-0.120588,-0.384361,-0.901893,-0.944429,0.190075,0.775653,
0.146412,-0.522946,0.850392,0.317722,0.105157,0.689884,0.267299,0.553168,-0.458646,-0.540816,-0.114048,-0.559886,-0.811044,0.135869,-0.843746,-0.273082,-0.860761,-0.396785,0.705792,-0.00518414,-0.222656,-0.907929,-0.889309,-0.70716,0.652344,-0.756815,0.113929,1.00747,0.682085,0.00952072,0.641822,-0.299989,-0.332673,0.820398,-0.900995,0.056297,-0.01439,-0.921421,0.680987,-0.634711,0.778774,-0.618278,-0.728017,-0.405371,0.75801,0.0842219,-0.98272,0.238775,0.653785,-0.432492,-0.488418,-0.28406,0.348125,0.321641,-0.0249668,0.175011,0.233123,0.146543,-0.170442,0.443248,0.0229169,0.216956,-0.112241,-0.995825,0.0800521,-0.366543,0.634083,-0.307084,0.187968,0.142723,0.693152,0.389991,-0.873838,-0.747233,0.643592,0.554048,-0.592354,-0.761648,0.128253,-0.695065,0.728004,-0.880665,0.518933,0.539185,-0.832291,0.488505,-0.759217,0.0167476,0.240144,-0.325496,0.299919,-0.944742,0.254195,-0.819839,-0.495655,0.828377,0.258396,0.932317,0.350929,-0.374542,
0.903967,-0.434119,0.445548,0.807132,-0.592944,-0.682454,-0.843129,-0.902302,0.216237,-0.219077,0.121939,0.636567,0.280175,0.867288,0.794743,-0.128498,-0.129236,-0.645497,0.683385,0.550661,-0.614466,-0.176544,0.58914,-0.0438844,-0.967448,0.259444,-0.0487854,0.41998,-0.133135,0.300552,0.0531737,0.461079,-0.146341,-0.555848,-0.309055,-0.457076,-0.722866,0.805544,0.91667,-0.0624084,0.208291,-0.439549,0.135065,0.561809,-0.64475,-0.0866445,0.707659,-0.700566,0.384522,-0.177408,0.194467,-0.133608,-0.206369,-0.652477,-0.437421,0.777272,-0.201691,0.495498,-0.775568,1.00946,0.572987,-0.758648,-0.579127,0.32988,0.403186,-0.110389,-0.889311,0.858395,-0.64694,0.833081,-0.00460576,-0.662361,0.993987,-0.925364,-0.967329,0.880321,0.249025,0.800824,-0.880106,-0.883865,0.33252,0.443911,-0.772888,0.215041,-0.368203,0.736596,-0.601766,-0.618461,-0.667572,-0.997117,0.308742,0.747338,0.762165,0.836505,-0.773748,0.47761,0.474769,0.026781,0.880489,0.830943,
-0.569327,0.442248,-0.737452,0.595688,-0.217168,-0.705645,0.0860195,0.790396,-0.158376,0.180708,0.883345,0.650287,-0.80448,0.282386,-0.128222,-0.163931,-0.611413,0.628405,0.543665,0.861526,-0.649026,-0.999129,0.966439,-0.660678,-0.339458,-0.349993,-0.46847,-0.79296,0.160292,0.735786,-0.438955,0.99199,-0.959611,-0.266601,-0.756988,-0.455056,0.487952,0.331958,0.843219,-0.822941,-0.883621,-0.786284,0.65687,0.478855,-0.949988,-0.186659,-0.121095,0.0670527,0.881699,-0.81631,-0.568364,0.0275536,-0.114907,0.848152,0.788952,-0.978391,-0.154438,0.436458,0.15756,-0.53011,0.990411,-0.676764,-0.216426,0.36081,0.749601,-0.374454,-0.573088,0.338276,-0.813544,0.457589,0.919873,-0.36751,0.421349,-0.227136,-0.279286,-0.738155,0.403638,-0.17023,-0.735468,0.882637,-0.271471,0.253915,-0.430484,-0.650071,0.353587,-0.47447,-0.936979,-0.211822,-0.229676,-0.524667,0.212648,-0.697642,-0.46726,0.580308,0.80506,0.54081,0.692349,-0.744338,-0.0341539,0.726423,
0.910784,0.826612,-0.802007,-0.107724,0.650558,-0.220842,-0.601789,-0.382477,-0.884089,-0.964457,0.724572,-0.211132,0.856211,-0.0724284,0.84909,0.0753353,0.746623,0.344808,-0.877432,0.467305,0.236163,-0.898741,0.0765476,0.955836,-0.416194,-0.0611379,-0.602962,-0.227093,0.133605,-0.853485,0.655936,-0.489803,0.71815,0.756221,0.980861,-0.399323,-0.160274,0.702845,-0.203454,0.935293,-0.703041,-0.897031,0.42322,0.384232,0.0761346,0.184809,-0.377836,0.10173,0.447786,-0.745599,-0.246686,-0.367969,-0.446064,-0.435873,0.950539,0.736252,-0.096653,-0.573905,-0.111824,0.189584,-0.57377,0.88708,0.903076,-0.719848,-0.63512,-0.677653,0.427391,-0.94168,0.744744,-0.322998,-0.959424,-0.236006,-0.634739,0.896635,-0.826023,-0.444473,-0.543513,0.088979,0.439871,-0.941561,-0.528208,1.0128,-0.141469,-0.325946,-0.46467,-0.848647,0.403262,0.422664,-0.968678,0.161206,0.294357,0.252405,-0.347427,-0.154586,0.39094,0.40289,-0.546599,0.816267,-0.77697,0.540813,
-0.180431,0.760395,-0.0250026,1.01175,0.234598,-0.500478,-0.886697,0.352332,-0.850333,-0.596196,-0.785475,-0.017912,0.961907,-0.867526,-0.212584,-0.939412,0.467547,-0.439477,0.747726,0.938734,-0.838697,-0.256872,0.295816,0.785559,0.23628,-0.808971,0.48949,0.0366489,0.571606,0.391965,-0.153976,-0.743508,-0.678789,0.0288796,-0.0071242,-0.00981942,-0.590487,-0.592766,0.0288547,-0.304548,0.98382,0.871003,0.867701,0.96546,0.642404,-0.761057,0.114459,-0.543411,0.912329,-0.466948,-0.429614,-0.0490366,0.979427,0.486597,0.117672,0.89491,0.872945,-0.0175611,-0.437773,0.152918,0.842594,-0.977233,0.363556,0.817604,-0.222341,0.0393765,0.615004,0.972157,-0.915738,0.783424,-0.974222,0.956025,-0.00422874,-0.868929,0.373722,0.0703741,0.930932,-0.843333,-0.60572,0.18161,-0.938128,-0.489714,0.870788,-0.512515,-0.565076,0.0947163,-0.875488,0.564193,0.81279,0.500091,0.711222,-0.152984,-0.785561,-0.838841,-0.29201,0.362851,1.00628,0.595309,-1.00849,0.292485,
-0.872858,0.963936,-0.348251,-0.0895105,0.829223,-0.140242,-0.546915,0.892151,-0.929539,0.919861,-0.17234,-0.772544,0.958344,-0.891226,-0.306789,-0.0444739,-0.370589,0.933172,-0.749326,-0.591325,-0.0112258,-0.165629,0.181012,-0.943781,-0.71004,-0.788733,0.910485,-0.178139,0.811478,0.359975,-0.0983226,-0.0262575,-0.191144,-0.506022,-0.264584,0.222227,0.682382,0.0929487,0.625964,0.812315,0.429918,-0.52918,0.273593,-0.900698,0.719567,-0.0262236,0.95809,-0.400252,-0.297758,-0.196362,-0.406541,0.212447,-0.799133,-0.825502,-0.600416,0.0941718,0.831368,-0.360005,-0.328234,-0.404298,0.472257,0.407614,-0.118276,0.672974,-0.972003,0.470534,-0.495757,0.802706,0.343764,0.743335,0.489893,-0.789702,0.725924,-0.580881,-0.0447991,0.842939,-0.251824,-0.33107,0.15666,-0.0659756,-0.744419,0.573976,-0.0369265,0.407334,0.917884,-0.376567,-0.187133,-0.737438,-0.810093,0.640207,-0.187925,-0.578509,-0.220143,-0.918224,0.781416,0.319515,0.870965,-0.783708,0.508524,-0.0857012,
0.342929,0.887528,0.631579,-0.539823,-0.839469,0.551284,0.216285,-0.345334,-0.879375,0.720362,0.224343,0.693835,0.245763,-0.76456,0.543157,0.523522,-0.59572,0.784868,-0.620461,-0.753124,-0.390514,-0.800946,-0.0255795,-0.0325676,-0.261723,0.943337,0.295926,-0.447524,0.0220642,0.143785,0.623287,-0.417919,-0.189515,0.47633,-0.0699906,0.0200938,0.179259,0.84416,0.162071,0.355919,-0.872163,0.11294,0.117346,0.0179514,0.93448,-0.299178,0.874815,0.172897,0.445786,-0.166087,0.308785,1.02338,-0.747935,1.0064,-0.436275,-0.371699,0.732944,-0.617206,0.0914086,-0.600024,-0.629124,0.0833192,-0.681144,-0.901918,0.626052,-0.93222,0.828769,0.27796,0.34033,-0.427246,-0.866037,-0.707667,-0.701604,-0.373024,0.241653,-0.274493,-0.988485,-0.46993,-0.428163,-0.749855,0.451156,-0.463268,0.48046,-0.375002,0.442428,-0.270117,-0.0570076,0.874714,0.0436559,1.01461,-0.114747,-0.972742,-0.510413,0.664959,0.52647,-0.71672,0.14006,0.746659,-0.91775,0.586036,
-0.365406,-0.928822,-0.674297,-0.558785,-0.543577,0.65268,0.660112,-0.0684486,0.00523139,-0.25387,-0.536217,-0.553672,0.532368,-0.41974,-0.994379,-0.182245,-0.516165,-0.483209,-0.203471,-0.489666,-0.143872,-0.333441,0.790771,0.851822,-0.469235,-0.232469,0.0380006,-0.944211,0.691312,-0.211938,0.686669,0.843122,0.677853,-0.799128,0.52049,-0.603687,-0.32734,-0.473703,0.869168,-0.855983,1.01236,0.886213,-0.396414,0.479426,0.16171,-0.716168,-0.977632,0.209928,0.341711,-0.553872,0.458616,0.19319,-0.38362,0.549336,-0.368164,0.41552,0.567957,-0.818548,-0.318131,-0.625179,-0.640179,0.730334,-0.133885,-0.0546964,-0.577196,-0.497757,-0.759881,0.341174,0.396762,0.378302,-0.199421,-0.319062,-0.575675,0.832211,-0.926979,0.84582,0.327701,-0.921675,-0.0255279,-0.898086,-0.876663,0.865921,-0.309583,-0.641221,-0.454121,0.327568,0.549144,-0.956005,-0.107912,0.162567,-0.177939,0.115967,-0.029404,0.0479159,0.897649,0.974383,-0.00903915,0.636191,0.591536,-0.940264,
-0.301134,-0.374829,-0.628872,-0.418258,0.539116,-1.01161,0.0485611,-0.688019,-0.267447,-0.00361091,-0.45142,0.929862,0.309874,0.247263,0.668612,-0.347768,0.705076,-0.494529,0.377952,-0.149944,-0.960091,-0.589498,0.193752,0.438351,-0.932935,-0.275041,-0.859592,0.896854,0.159143,-0.291122,-0.355363,-0.415412,-0.331705,0.620093,0.684261,-1.00268,0.0153308,0.558499,0.87603,0.54543,-0.459992,0.327422,0.554699,0.0339772,-0.502803,0.763082,0.748252,-0.249663,-0.799307,0.152518,-0.872645,0.00601767,-0.289516,0.452446,0.854327,-0.251725,0.162612,-0.826544,0.826908,-0.460828,-0.801454,-0.676564,0.94014,-0.618752,-0.210488,0.495758,0.430956,-0.360941,-0.449519,-0.311743,-0.0475116,-0.535432,0.0091335,-0.292934,-0.114921,0.522197,0.404499,-0.419207,-0.843558,0.20193,-0.138534,-0.409872,0.364576,0.8694,-0.477051,0.99013,0.238281,-0.594142,0.42196,0.707011,0.115114,-0.231854,0.676976,0.402089,0.0319342,0.0551759,0.393188,-0.994491,0.345724,-0.910198,
-0.884043,-0.264461,-0.99118,-0.324397,-0.540081,0.212117,-0.207993,-0.93792,0.239412,-0.758965,-0.636782,-0.631174,-0.393946,-0.388348,0.777272,-0.797248,-0.208219,-0.457581,0.763198,-0.181598,-0.52045,0.356914,0.0491094,0.664445,-0.0378877,0.410874,-0.849281,0.771987,0.521112,-0.85703,-0.270921,-0.89756,-0.0971018,-0.148089,-0.530277,-0.203533,0.874011,-0.812917,-0.0901952,-0.983125,0.167827,0.139568,-0.767391,-0.812017,0.605734,0.725912,0.312151,0.0313873,-0.352708,0.33559,0.395036,-0.87589,0.0720287,-0.544455,-0.63525,0.802138,0.230249,-0.304625,-0.417293,0.44944,-0.747846,-0.00636054,0.767879,0.291735,0.021717,-0.793311,0.402169,-0.719353,-0.711325,-0.770002,-0.409204,-0.20131,0.321196,0.172836,0.548119,0.343889,-0.914422,-0.256081,-0.345724,-0.507825,0.778755,0.637734,-0.0786371,-0.26245,0.644577,-0.155347,-0.626326,0.185576,-0.112316,0.730334,0.183926,0.424186,-0.00101082,-0.0683272,-0.335254,0.85425,0.194525,-0.569284,-0.743978,0.937077,
-0.758594,-0.491158,-0.0499747,-0.857506,-0.835241,0.639342,-0.413683,0.13463,-0.0992333,-0.787941,-0.76758,-0.716684,0.406661,0.801197,0.00161052,-0.408952,0.627255,0.792651,0.370408,0.293393,0.309577,0.134628,0.276163,-0.774317,-0.37897,0.208851,0.223402,-0.807833,0.960297,-0.472277,-0.43306,0.222591,0.359934,-0.439424,0.978522,0.821353,-0.775855,0.956055,0.841367,0.498196,-0.819062,-0.0026471,-0.375612,0.860214,0.302334,0.93867,-0.452113,0.309338,0.292812,0.817153,-0.535006,-0.766946,-0.495222,-0.206651,-0.245739,-0.753342,-0.749874,-0.97326,0.864537,0.621724,-0.286036,-0.286687,0.789753,-0.938628,-0.652484,0.695451,-0.295279,-0.87412,0.636281,-0.190875,0.180308,-0.624044,0.614256,0.372392,-0.440605,-0.620288,0.242376,-0.681663,0.946651,-0.72947,-0.489952,-0.212467,-0.636345,0.012723,-0.0369588,-0.709766,-0.932171,-0.928353,-0.180198,-0.833367,-0.279063,0.150058,0.275622,0.202018,-0.195734,0.735102,-0.102214,0.0917601,-0.30228,0.880427,
0.000775502,-0.729297,0.291056,0.24687,0.175172,-0.577477,-0.104888,-0.0515128,0.329009,-0.937559,-0.0355576,0.26869,0.268942,0.561748,0.880647,0.0915625,1.02097,0.361828,-0.795709,0.0242515,0.617605,-0.73255,-0.250562,0.329934,-0.624466,-0.301645,0.815959,0.649227,0.771687,0.950032,0.0726397,0.816268,0.492116,-0.808743,0.0911213,-0.812785,0.258366,-0.1676,-0.459514,0.440928,0.804955,-0.696875,-0.743614,-0.161712,-0.0512389,-0.365861,-0.616295,0.809854,-0.366996,0.871584,0.638546,0.569499,-0.212877,-0.0398489,-0.897073,-0.196171,-0.435913,0.581797,-0.417244,0.325638,0.821241,-0.469544,0.505993,-0.857412,0.706954,0.86371,-0.0994716,-0.846719,-0.0633389,-0.606081,-0.796302,-0.838965,-0.51235,-0.314967,-0.0405244,-0.611692,0.241265,-0.833423,-0.546131,-0.346183,-0.763907,0.462818,-0.531097,0.197169,0.0757086,-0.441502,-0.0332999,0.955866,-0.683687,-0.790358,-0.176385,-0.55054,0.808725,0.788238,-0.0396318,0.0941669,-0.353156,-0.91639,0.00554944,0.569391,
0.0628049,0.999515,0.859391,0.807192,-0.958701,-0.331834,0.318987,0.748641,0.635725,-0.00429517,-0.898042,-0.282985,-0.0595115,-0.777912,-0.195946,0.566147,-0.386053,-0.466524,-0.90323,-0.429591,0.212103,0.727009,0.567795,-0.858508,0.925179,-0.0835679,0.504181,0.607762,-0.487311,0.619273,-0.916689,-0.83159,0.0909265,0.282447,0.238063,-0.917352,0.71102,0.561356,-0.542578,0.916704,-0.661346,0.0105684,-0.738002,-0.276735,-0.545689,-0.473496,-0.0552083,0.556363,-0.804957,-0.074269,-0.346116,-0.118738,-0.991159,-0.785859,0.158852,-0.204704,0.0361605,-0.892152,0.44979,-0.070575,-0.0665921,-0.149328,-0.0880063,0.648155,0.0317879,0.120058,-0.954274,-0.907691,0.551298,-0.773836,0.247116,0.380994,-0.674238,0.164571,0.802462,0.0409233,0.509321,-0.983609,0.95554,0.530923,-0.0714924,0.623354,0.287925,0.031157,0.893462,0.0754043,0.781153,-0.391064,-0.423372,-0.121749,-0.306212,0.504786,-0.446712,-0.967366,0.0123732,-0.923438,-0.827163,0.984209,-1.00379,0.353105,
0.183516,-0.781895,1.01564,0.0777584,-0.526578,0.316825,-0.51161,-0.799232,0.276565,0.873856,0.669145,0.0578653,0.703541,-0.275774,0.423763,-0.0107873,0.0910945,-0.757366,0.396507,-0.327913,-0.677681,0.438921,0.597355,-0.169325,0.4884,0.872329,0.195168,-0.0806404,0.105426,0.0332429,-0.861629,0.386355,-0.133719,0.395677,-0.523965,-0.755822,-0.445283,-0.626095,-0.193433,0.615584,-0.84416,0.867601,-0.231765,-0.108054,-0.0707313,0.163833,-0.529511,-0.545999,-0.378208,-0.602614,-0.138703,0.980448,0.654819,0.39861,-0.615067,-0.35022,0.709606,-0.881646,-0.235069,-0.557203,0.142696,0.647552,0.374553,0.593845,0.427922,-0.863174,0.864401,-0.996958,-0.916733,-0.401485,0.760111,-0.170385,-0.997925,0.133968,-0.960783,-0.393062,0.358147,0.320157,-0.517172,0.367347,0.728634,-0.879597,0.667653,0.753368,0.727883,0.373832,-0.786305,-0.596833,-0.144982,0.410636,0.0977624,0.97139,-0.692614,0.834006,-0.914815,-0.242641,-0.257051,-1.00339,-0.0326484,-0.676324,
-0.74732,-0.0206786,-0.960792,0.962341,-0.204931,-0.814725,0.665299,-0.285474,0.670475,0.649825,0.761878,0.0273413,0.520756,-0.303149,-0.407073,0.470394,0.492609,-0.300481,0.491019,0.24827,-0.782358,0.171714,0.569013,0.593959,-0.122765,-0.327522,-0.982213,0.430803,0.493251,-0.120809,-0.44082,-0.703957,0.718987,-0.454276,0.226059,0.81691,-0.992331,-0.996021,-0.332317,-0.721612,0.670842,-0.730338,0.5661,-0.910664,-0.0680022,0.185712,0.738772,-0.182101,-0.0357743,0.260384,-0.497459,0.15784,0.905991,-0.165875,-0.865424,0.0513476,0.566877,0.517605,-0.759702,0.585434,0.703436,-0.818024,-0.506539,0.817704,0.701807,-0.393242,-0.437357,0.413827,-0.659862,-0.834206,0.974319,0.278801,0.307501,0.159896,-0.247325,0.00490792,0.574803,-0.566001,0.562011,0.144786,0.371186,0.673708,-0.712263,0.74696,-0.981554,0.843246,0.223281,0.699519,-0.55447,0.373462,-0.430641,-0.220473,-0.89399,-0.0084399,0.887783,0.142006,-0.0268055,-0.131989,-0.804025,0.743913,
0.887919,-0.377201,-0.726249,0.972251,-0.895885,0.773442,-0.553495,0.559706,-0.952649,0.416332,0.962122,0.294407,0.0362295,-0.115261,0.0788912,-0.799961,0.330167,-0.316178,-0.359298,0.132933,0.39992,0.102727,-0.956949,0.0986078,-0.414427,0.0533716,0.611676,-0.133336,0.247283,0.853056,0.558253,0.61985,0.788773,-0.0782409,-0.555983,-0.774172,0.587385,-0.516425,0.57561,0.742428,0.0974648,0.892458,0.0305219,-0.243705,0.261412,-0.0808004,0.59886,0.765731,0.626957,0.746426,0.157423,0.340467,0.720074,0.450657,-0.787641,0.469479,0.269803,-0.376623,0.611825,-0.358196,0.602332,-0.912807,-0.150461,-0.457135,-0.113934,-0.272182,0.31935,0.862299,-0.300159,-0.234087,-0.744747,-0.205498,-0.971262,1.00397,-0.536859,-0.945153,-0.775711,-0.728205,-0.6306,0.708995,0.161048,-0.0721032,-0.109129,-0.48753,0.195644,0.198047,0.371968,0.81237,-0.493765,0.051563,-0.818016,0.428088,0.110678,0.270707,-0.874453,-0.89322,-0.715987,-0.129001,0.591433,0.0499617,
-0.908024,0.16363,-0.158163,0.928014,-0.664015,-1.02222,-0.0970961,-0.0347196,-0.581923,0.376644,-0.630105,0.759684,-0.913721,0.218529,0.432478,-0.654888,0.25547,0.235901,-0.515387,-0.864805,0.835518,-0.397326,0.424401,-0.147854,0.0685338,-0.792771,0.300301,0.356808,-0.501684,-0.352251,-0.656697,0.92902,-0.50609,0.492963,-0.577479,-0.497386,0.459236,0.385987,0.940039,0.653138,0.659097,0.258017,0.0818575,0.158024,-0.909806,-0.647178,-0.622854,-0.801733,-0.830902,-0.237752,0.471106,0.104445,0.215786,-0.439478,-0.656954,0.0483587,0.678969,-0.187608,0.281633,-0.249573,0.252218,-0.282407,-0.208473,-0.880044,-0.341419,-0.712045,-0.225157,-0.631552,0.0421086,-0.320691,-0.609539,0.169781,-0.0290751,0.494816,-0.786355,-0.871732,-0.692435,0.0414967,-0.922973,-0.121539,0.32425,-0.853783,0.781671,-0.793509,-0.0297544,-0.7778,0.137215,0.787946,-0.210283,0.419415,-0.650244,0.0763564,-0.88697,0.477386,0.491476,0.0599814,0.215459,0.233642,0.111582,-0.484348,
-0.539957,0.756342,-0.344787,0.200299,0.181251,-0.358294,0.570346,-0.291755,0.736729,0.607314,0.590753,0.929488,-0.843122,-0.238887,0.0359752,0.911161,-0.149518,-0.361459,0.67285,-0.89197,0.859875,-0.514671,-0.408313,-0.0782358,-0.356722,0.146418,0.994738,-0.916849,-0.42961,-0.028822,-0.127558,0.236526,0.556165,-0.785863,-0.766163,0.334462,-0.546311,0.390938,-0.503811,0.963235,-0.574107,0.424902,-0.201485,-0.977343,-0.0876731,-0.619406,0.266603,0.375571,-0.915159,-0.9599,-0.0968612,0.79116,0.978242,-0.994443,0.381172,0.0137976,0.122593,-0.561226,0.900821,0.233797,-0.732847,0.833757,-0.809869,0.382621,0.260347,-0.305283,-0.590221,0.585704,-0.58106,0.551514,0.855913,0.00235945,0.707325,0.646217,0.454671,-0.906365,-0.892772,0.365236,0.432451,-0.504702,0.401095,0.703336,-0.277954,-0.012339,-0.0894041,-0.385949,-0.772119,-0.560544,-0.0779611,-0.474608,0.376988,0.729863,-0.983414,0.767469,-0.765849,0.156731,-0.635664,-0.915564,-0.715968,-0.923153,
0.407782,-0.308696,-0.769182,0.537604,-0.455374,-0.354356,-0.944123,-0.807433,0.0127411,0.110867,0.276603,0.794745,0.403088,0.565493,-0.457176,-0.734551,0.471643,-0.635194,0.763118,0.164035,0.78932,-0.62706,0.48249,0.12639,-0.261899,-0.339536,0.466694,0.706345,-0.575766,-0.855254,0.125977,-0.327441,-0.916031,-0.152346,0.911453,-0.919489,-0.954913,-0.90048,-0.510336,-0.925666,0.646696,0.20629,-0.949406,0.40759,-0.910484,0.349501,-0.281497,-0.718024,-0.77405,-0.201578,0.0716907,-0.583735,-1.01271,0.993836,-0.555099,0.319902,-0.825895,-0.706414,0.074007,0.902617,0.0275681,0.347163,0.547455,-0.81649,0.511267,0.659331,-0.600593,0.787254,-0.303859,0.686786,0.426428,-0.416722,-0.810138,-0.502734,0.209348,-0.384061,0.458913,0.00332789,-0.244176,-0.0839094,0.910143,-0.680116,0.935935,0.887874,0.630738,-0.610418,0.489728,-0.442029,0.140764,-0.697763,-0.155935,-0.425476,0.945304,0.884298,0.887666,-1.0272,-0.039943,0.756861,0.0448827,0.731519,
0.200732,0.707804,-0.673716,0.421762,0.499944,-0.435738,0.0442193,0.499868,0.796736,-0.709173,0.294146,-0.000545649,0.329859,-0.346343,0.100834,0.476525,0.252595,0.382192,-0.833576,0.619447,-0.973071,0.501218,0.900866,-0.134285,0.127225,-0.946498,0.458465,0.356235,0.357545,0.123017,0.943547,0.813312,-0.470388,0.96208,0.336346,0.958179,0.630093,-0.956245,-0.226114,0.15861,-0.849111,-0.761372,0.386222,0.755337,-0.386504,-0.940009,0.877612,0.327125,0.0174679,-0.988114,-0.209579,0.0100591,-1.0466,0.768996,-0.150347,-0.866354,-0.626695,0.0637596,-0.0510122,-0.246526,-1.00507,-0.0272821,-0.25172,0.56369,-0.124386,-0.438715,-0.106128,-0.140905,-0.266625,-0.378126,-0.78959,-0.807559,0.518898,-0.713463,-0.474223,-0.912605,-0.935462,0.0294679,-0.223755,0.371856,-0.983267,-0.545064,-0.401853,-0.373369,-0.914167,-0.967753,-0.278193,-0.926088,0.0285859,-0.47237,-0.34614,0.801154,-0.125269,-0.521513,-0.0724714,-0.163439,0.467351,0.252033,0.976381,-0.0130649,
-0.904274,-0.130472,-0.601543,0.223476,-0.419288,-0.597013,-0.732307,-0.447714,-0.702491,0.0115143,-0.305186,0.650385,-0.596029,0.870771,0.055673,0.316662,0.432307,0.452363,0.950025,-0.928851,0.0139448,0.441831,-0.128762,0.00135614,-0.517492,-0.196125,-0.47927,-0.418698,0.245247,-0.156796,0.296299,0.317595,-0.399254,-0.560495,-0.766663,0.93768,0.159547,-0.952391,0.840418,0.146079,0.774776,-0.781148,0.957347,0.905275,0.0280409,-0.569041,-0.332347,-0.606265,0.82995,0.903802,0.814097,0.479868,0.776004,-0.46995,-0.536382,-0.149042,-0.376996,0.861402,0.594059,0.229241,0.919106,-0.711246,-0.248096,0.986633,-0.712872,-0.508538,0.74812,-0.286497,-0.366302,0.529069,0.194662,-0.380501,0.165991,0.523851,0.297687,-0.661174,0.520498,-0.825536,-0.206413,-0.666228,0.626613,0.507619,-0.841375,0.722781,-0.978241,0.309274,-0.556703,-0.122712,-0.691886,-0.469491,-0.123389,-0.486948,0.646997,0.203929,-0.96767,-0.712764,-0.443939,-0.223351,0.794186,0.731877,
0.773958,0.826282,0.0553903,0.041355,0.716386,-0.332294,-0.223573,0.459941,-0.964296,-0.323406,0.16589,0.164423,-0.0745942,-0.229939,0.267638,0.792499,-0.997829,-0.240309,-0.539842,0.34384,0.739958,-0.0765533,-0.889516,0.419419,0.950347,0.0780594,0.772126,0.0452527,-0.284953,-0.520945,0.172429,0.370432,-0.327717,-0.680703,0.552173,-0.909698,0.816895,0.398948,0.0898481,-0.804533,0.0575318,0.13827,0.619916,0.568481,0.881241,0.425167,-0.41487,0.442901,-0.281043,-0.00247859,0.205833,0.0595001,0.420061,0.254241,0.953067,0.177965,0.153836,0.928363,0.206433,0.624153,0.00554566,0.709947,-0.202053,0.933865,-1.00263,0.30797,-0.686622,-0.605854,-0.378346,0.899424,0.898883,0.49982,0.195863,0.702773,-0.396026,-0.293494,-0.712823,0.330356,0.46859,0.471324,0.0235108,0.655197,0.136105,-0.862153,-0.275724,0.335171,-0.958052,0.709206,0.72981,0.65078,0.851965,0.343879,-0.987437,-0.487561,0.332774,-0.199327,0.643696,0.415793,-0.364536,-0.644059,
-0.338475,-0.701274,-0.574483,-0.11628,-0.657367,0.960086,0.997992,-0.522185,0.786638,-0.786961,0.698532,0.621212,-0.416938,0.319245,-0.390879,0.667054,-0.102632,-0.406373,0.517653,-0.376248,-0.441713,0.868618,-0.90177,-0.820044,-0.619588,0.705132,-0.548964,0.650472,0.918023,-0.796038,-0.219472,-0.321609,0.8957,0.206868,0.834636,-0.940377,-0.163685,-0.293653,-0.229728,0.379688,-0.187192,-0.117806,0.19463,0.111484,0.234858,-0.899876,-0.516662,0.445956,-0.0811425,-0.238484,-0.190655,0.644905,0.0574523,-0.101505,0.888299,0.594471,-0.622795,0.403656,0.813377,0.0511778,-0.421186,0.00951875,-0.759423,0.64558,0.275036,-0.326296,0.860519,-0.787531,-0.360647,0.446208,0.312814,-0.933219,-0.747194,0.358772,0.780575,-0.726184,-0.879453,-0.892373,0.368553,0.871814,-0.923215,0.919358,-0.285423,-0.396454,0.302441,-0.69836,-0.0831886,-0.150929,0.0753473,0.938067,0.886307,0.427808,-0.700735,-0.57812,0.235397,-0.517962,0.239216,-0.317934,0.309342,0.398543,
