weight of input layer
0th node's weight,-0.274013,-0.029523,-0.993747,0.622871,0.049987,0.223649,0.426194,-0.171233,0.809579,0.827132,-0.55805,-0.814514,-0.472372,-0.175386,0.946972,-0.7447,-0.687335,0.609832,-0.292315,-0.0945261,-0.778691,0.0861516,0.829853,0.213304,0.631357,0.131939,0.258873,-0.71056,0.618877,0.400712,0.502437,0.700648,0.559711,0.235551,0.860375,0.72648,-0.227238,0.228605,-0.494682,-0.153771,0.948557,-0.419574,0.516424,0.435933,0.607711,0.742965,0.316244,-0.698573,-0.715567,-0.536544,0.174507,0.195334,-0.210833,1.01462,0.670985,0.426851,-0.987023,-0.862215,0.620879,-0.0585037,0.605614,-0.288701,-0.253938,-1.0089,0.998766,-0.31181,0.0681092,0.493558,-0.857464,-0.017013,-0.76994,-0.103584,-0.298706,-0.936196,0.811684,0.81936,-0.247127,-0.425291,0.476635,0.789417,-0.869151,-0.857885,0.514783,-0.584586,-0.538818,-0.631385,-0.912733,-0.607212,0.517663,-0.909463,-0.821306,0.0539638,0.62017,-0.163834,-0.37719,0.643885,-0.455455,-0.613556,-0.547064,0.159055,
1th node's weight,0.340518,-0.0797218,0.74853,0.945015,0.203066,0.238919,0.455728,-0.700056,-0.802444,0.960824,0.511939,-0.960839,0.845474,-0.71914,0.528706,-0.829453,-0.865607,-0.63695,0.885763,-0.636535,-0.754407,0.712885,0.678601,-0.878593,-0.503894,0.992971,0.160721,-0.497859,-0.0317265,0.135973,0.62802,0.577827,-0.79484,0.691327,-0.271532,0.786983,0.644373,-0.286913,0.637878,0.830964,-0.488424,-0.268935,-0.126117,0.073901,0.611015,0.854194,0.399461,-0.681541,0.440512,-0.037424,1.10851,-0.839558,0.155821,0.342775,0.339969,0.117222,-0.469178,-0.239068,-0.155278,-0.865211,-0.997485,0.572624,0.759067,-0.21314,0.151576,-6.17815e-05,-0.709739,0.954734,-0.862953,-0.503179,0.274593,0.311572,0.51404,-0.271774,0.857254,0.754581,-0.531963,0.249554,-0.345561,0.00310492,0.402972,0.200704,0.494403,0.532336,0.213659,-0.727145,0.374435,-0.438558,-0.256037,-0.458776,-0.905255,0.826872,0.68286,0.90558,0.558854,0.611636,-0.458615,-1.04426,-0.34142,-0.849684,
2th node's weight,0.314916,-0.00395008,-0.222711,-0.412355,0.630068,0.70277,-0.0175563,-0.925543,-0.319226,0.361039,0.556335,-0.306921,0.784216,0.210076,0.679425,-0.348773,0.573723,0.358931,-0.16642,-0.422626,0.101055,0.74098,0.78732,-0.303776,-0.316595,0.336483,0.744089,0.418409,-0.659434,-0.611328,0.0126217,-0.460409,-0.906575,-0.071689,0.699374,0.75842,0.575295,-1.06996,-0.816579,-0.401221,0.572121,0.236351,-0.148201,0.424809,0.00740735,0.189139,-0.0414435,0.0270167,0.288054,-0.700005,0.674283,0.626158,-0.129621,0.95072,-0.337297,-0.213414,0.388011,0.629666,-0.503355,-0.952349,0.447817,-0.253601,-1.07365,-0.796468,0.824201,0.21231,-0.919172,-0.693471,0.00436399,0.376665,0.395421,0.486545,-0.569332,-0.866758,0.450118,-0.295768,-0.189883,0.756741,0.558998,0.133489,0.954378,0.396643,0.0198111,0.00043282,-0.519769,-0.652845,-0.263771,-0.0651609,0.503706,0.487853,-0.788624,0.0278087,-0.237729,0.505381,-0.684951,0.0132995,-0.00503217,0.134086,-0.766194,-0.017083,
3th node's weight,-0.911483,0.127382,-0.329057,-0.62708,0.455584,-0.59339,0.346664,-0.715769,0.0981285,0.883549,-0.836716,0.0911585,0.555639,-0.453514,0.112956,-0.735077,0.25788,0.720865,0.922601,-0.379736,-0.0832102,0.771606,0.0837902,-0.428613,0.731968,-0.269406,-0.382698,-0.782337,-0.83918,-0.409121,-0.490121,-0.0186652,-0.223445,0.248217,0.359861,0.185591,0.169839,-0.0285543,-0.0612156,0.950776,0.533014,0.761338,0.965045,-0.450397,0.024014,0.106646,-0.840562,-0.0347655,-0.0341288,-0.178824,-0.0320408,-0.880073,0.580384,0.370398,-0.491693,-0.58085,0.33191,-0.395144,0.713463,-0.0188222,-0.406813,-0.887902,-0.085793,-0.355339,0.398553,0.00404475,0.696235,0.187952,0.192802,0.321012,-0.504785,0.147853,0.782794,-0.697386,0.596681,0.39847,0.479265,0.874949,0.822732,0.143429,-0.055262,0.634765,-0.179717,0.937097,0.931902,0.202261,-0.540489,-0.81456,0.881942,-0.423049,-0.391393,0.33104,-0.0236494,-0.292074,-0.0514051,0.903374,0.00775575,0.847087,0.805588,-0.401979,
4th node's weight,0.558611,-0.498496,-0.742884,-0.240561,-0.668282,0.850026,0.00624454,0.968863,-0.95886,-0.28707,0.64501,-0.0774607,0.244261,-0.69718,0.703811,-0.707412,0.19713,0.616751,-0.201729,-0.855833,-0.728247,-0.0306925,0.672693,-0.227891,0.0798464,0.535513,-0.409898,-0.234987,1.00592,-0.501393,0.507644,-0.140686,0.167616,0.0527469,-0.577835,0.268534,0.632327,-0.579594,0.319518,0.0299603,-0.974703,0.81298,-0.200233,-0.870583,-1.02151,0.49456,0.39256,0.194493,0.255742,-0.464294,0.664696,-0.342877,-0.599228,-0.383653,-0.397729,0.58183,-0.0410786,-0.242735,0.399446,-0.658388,0.320191,-0.849223,-0.0991581,0.188122,-0.197342,0.14844,-0.855763,0.770713,-0.655646,0.631154,-0.329196,0.589361,0.366742,0.795906,-0.722599,0.968143,0.527854,0.344063,-0.787165,0.922704,0.248766,0.0759298,0.274705,-0.0602185,-0.754821,-0.824187,0.163478,-0.668305,0.311457,0.895246,0.915469,0.638762,0.742349,-0.873063,0.575214,-0.140815,0.499623,-0.0795278,-0.316012,-0.0923198,
5th node's weight,-0.287607,-0.355192,-0.161884,-0.33712,0.725375,-0.272008,0.827104,0.0112555,0.129598,-0.66347,0.167571,0.237147,0.615049,0.5022,0.726285,0.507454,0.666575,0.57373,0.759216,0.907968,-0.0469684,0.566594,0.44691,0.505021,0.052515,-0.451165,-0.00409845,-0.322838,0.130214,-0.367009,0.00904288,-0.643488,-0.891408,-0.104028,-0.629963,0.0107459,0.682187,0.25665,0.899418,0.993525,0.800706,-0.203937,-0.21026,0.24618,0.491093,0.741654,0.558938,-0.166137,0.146666,-0.595734,-0.790455,0.93612,-0.463332,-0.898123,0.538033,-0.327812,0.409288,-0.438367,0.364956,1.03557,0.224168,0.300249,-0.808607,-0.21321,0.59314,0.715267,0.967324,-0.157514,0.0141577,-0.298505,0.7584,0.114377,0.923205,-0.108704,-1.04283,-0.0511602,-0.879023,-0.209984,0.22609,0.639636,-0.444198,-0.600233,-0.0751822,0.0687182,-0.964205,-0.217488,-0.0532907,0.414252,0.112195,0.837835,0.218682,-0.185117,-0.816145,-0.267433,-0.536496,-0.621498,-0.560991,-0.282614,0.110244,0.305728,
6th node's weight,-0.533321,0.787831,0.753517,0.588136,0.244347,0.0922336,0.80005,0.46739,0.533172,-0.734542,0.0230195,-0.967306,0.800916,0.0321805,0.652286,0.200442,-0.257733,0.0345791,0.510366,-0.660076,0.911935,0.341316,0.657681,-0.547104,0.21461,0.770454,-0.635886,0.97405,0.179656,0.274337,0.779756,0.668927,0.836499,0.78533,0.759947,-0.271623,-0.444086,-0.318413,0.0201281,0.966702,-0.327189,0.764855,-0.200792,0.586937,-0.0367142,-0.403827,-0.251468,-0.353413,-0.993062,0.583167,-0.354316,-0.229215,0.350136,-0.853536,-0.0910257,-0.639296,0.16385,-0.617631,0.0638059,0.464212,0.717898,-0.141162,0.0448542,-0.904131,0.684956,0.986473,-0.86879,0.814701,0.310925,0.479651,-0.176288,0.639091,0.919418,0.195091,0.439658,-0.926601,-0.35877,-0.049091,-0.0116971,-0.340481,0.916065,-0.305918,-0.125952,0.688977,0.426215,-0.282581,-0.433026,0.0974303,-0.00649485,0.0170432,0.470472,0.588331,-0.662001,0.340238,-0.683889,0.37189,-0.725503,0.425794,-0.199504,-0.822344,
7th node's weight,0.230928,-0.245639,0.562367,-0.698017,0.326278,-0.0712257,0.811847,-0.166645,0.817231,0.848012,-1.03159,-0.0318404,-0.902965,0.623619,0.152429,-0.517896,-0.345842,-0.368309,0.605418,0.860109,0.177033,-0.62491,1.04841,0.870082,-0.315125,-0.0452891,-0.438016,0.306788,0.65813,0.879673,0.0832013,-0.184439,0.479909,-0.784302,-0.704983,0.625877,0.166899,0.381763,-0.878546,-0.577227,-0.320517,-0.111918,0.0470514,-0.142117,0.103621,-0.290826,0.39053,-0.223451,-0.140605,-0.287433,0.431771,0.134095,-0.840805,0.688659,-0.410008,0.868108,0.575862,-0.389002,-0.773761,0.743216,0.702934,0.262914,0.860752,0.761341,0.740903,-0.629741,-0.485534,0.0778135,0.549918,-0.877146,0.359888,-0.176468,0.697377,-0.131387,-0.553827,-0.833239,-0.207207,0.971075,-0.545392,-0.685155,-0.980867,-0.0268485,-0.0588656,-0.00469509,-0.79801,-0.912931,0.349316,0.557318,0.6443,-0.547878,-0.713154,-0.212214,-0.998854,0.459194,0.856385,-0.326392,-0.598506,-0.815179,0.58626,0.109616,
8th node's weight,-0.476572,0.36947,-0.324292,-0.499167,-0.706792,-0.461692,-0.708401,-0.937997,-0.725474,-0.355727,-0.111582,0.229874,-0.267022,0.441917,0.41187,-0.497322,0.0131155,0.752483,0.654782,0.0739506,0.342894,-0.260621,0.434464,-0.919161,0.454353,0.360508,-0.255023,0.807464,0.210731,-0.233925,-0.565533,-0.744072,0.106481,-0.441922,0.44126,0.87255,0.244742,0.845044,0.343578,-0.697626,0.70675,0.455906,-0.142438,0.760677,0.0363417,-0.390062,-0.595376,-0.862615,-0.900239,0.333583,-0.838245,-0.641035,-0.952026,-0.187637,-0.562624,0.565703,-0.0280279,0.0161511,0.601275,0.932329,0.379832,-0.913799,-0.441723,-0.254016,-0.124827,-0.723123,-0.160328,-0.61363,-0.498953,-0.241184,0.875249,0.372826,0.4971,0.0124978,-0.161523,0.609687,-0.336554,-0.39405,-0.161881,0.210091,0.277792,0.057633,0.684032,-0.455765,-0.619365,-0.475577,-0.716922,0.317686,0.175493,0.247433,0.266899,-0.498483,-0.249963,-0.312927,-0.560974,0.850699,0.640564,-0.885779,0.148141,-0.708501,
9th node's weight,0.886591,-0.804724,-0.64954,-0.0878413,0.985479,0.00295331,0.218602,-0.291133,0.567135,-0.28302,-0.447886,-0.709215,0.989267,-0.129572,-0.433009,-0.727435,0.264337,0.751059,0.0362291,-0.128935,0.00801129,-0.982742,0.367831,-0.494238,0.677996,-0.489914,0.774175,0.452091,-0.361409,-0.257735,-0.279583,0.674634,-0.806444,-0.937311,0.523495,0.443289,-0.00424748,0.0394524,-0.33409,-0.624597,-0.325916,0.991511,-0.947888,-0.453714,-0.202961,-1.07157,0.0578677,-0.438576,-0.717866,-0.789071,-0.664257,0.00114811,0.374691,0.396615,0.525464,-0.491911,-0.639353,0.914935,0.787774,-0.766788,0.899868,-0.519964,-0.72929,0.254728,-0.754918,-0.0552497,-0.464072,0.815335,0.82987,0.684184,0.700872,0.653353,0.308199,0.395403,-0.935546,0.583598,-0.526236,0.742895,0.575614,0.324168,0.950131,0.906018,0.381023,-0.755865,-0.049934,0.00863689,0.795977,0.00858448,-0.395945,-0.655829,0.109033,-0.276409,0.144867,-0.870136,-0.403583,0.469715,-0.638897,0.745047,0.931692,0.231482,
10th node's weight,0.32189,0.18175,0.116644,0.927777,-0.37946,-0.0176848,0.749819,0.998325,0.183466,0.333864,-0.376446,0.517293,-0.21724,0.771113,-0.412825,0.253169,-0.617381,0.0833355,0.157787,-0.370931,-0.472985,0.962441,0.81984,0.606066,-0.0967204,-0.794118,-0.862489,-0.303833,0.585938,0.115376,0.16717,0.166717,-0.107017,-0.582675,-0.391987,0.0742567,-0.391785,-0.703702,0.449392,-0.854554,-0.200704,0.657788,-0.172993,0.17621,-0.621005,-0.387946,-0.44843,-0.331129,-0.118077,0.949548,-0.442165,-0.610738,-0.947707,-0.935021,0.434545,0.385683,-0.246747,-0.96148,-0.752581,0.530802,0.865195,0.594009,-0.531955,-0.290035,-0.819975,0.900006,-0.860837,-0.770102,-0.165673,0.447948,0.233882,0.850183,0.849748,-0.319396,0.390614,-0.388283,-0.616663,0.062765,0.517415,0.360149,0.520477,0.620523,0.546627,0.658881,0.744682,0.409142,0.944229,-0.870734,0.308944,-0.721308,-0.901851,0.91921,0.121174,-0.624343,-0.63234,-0.549523,0.0219097,-0.27236,-0.367126,0.52328,
11th node's weight,-0.203268,0.312387,0.177315,0.947073,-0.218056,-0.701257,0.368538,-0.16065,-0.516424,0.706029,0.120933,-0.100873,-0.670713,0.607741,0.319571,0.934096,-0.164488,-0.329991,0.830466,-0.436525,0.744404,-0.39774,0.587929,-0.364323,0.876719,0.546055,0.420514,0.938958,-0.943129,0.157138,-0.772972,0.75183,-0.729355,-0.896409,-0.743214,0.248791,-0.330501,-0.819422,0.142511,0.936315,0.88061,-0.349301,-0.698535,0.660434,-0.490244,0.225086,0.260436,-0.345261,0.875956,0.476067,0.456787,-0.813573,-0.860943,0.86641,0.338101,-0.113498,-0.734955,-0.845752,0.725414,0.116809,-0.825582,-0.245884,-1.00392,-0.626805,0.415119,0.287708,0.539555,-0.103124,-0.737876,-0.845399,-0.811894,0.641536,-0.214272,-0.748853,0.761025,-0.995599,-0.66019,-0.530526,-0.491789,0.764276,-0.455155,0.376208,0.794257,0.490418,-0.150977,0.804209,-0.746636,0.770933,0.818643,-0.355667,-0.42039,0.0261664,0.319547,-0.126666,0.770975,0.414408,-0.622805,-0.740295,-0.831495,-0.534682,
12th node's weight,-0.139244,-0.497047,-0.227246,0.850999,-0.311217,0.640414,-0.146552,0.423076,0.612909,-0.834668,0.387761,-0.392834,-0.231149,1.02055,-0.734774,-0.575662,0.681799,0.61815,-0.795559,-0.756553,-0.306508,0.851747,0.372206,0.220631,0.207803,1.00603,-0.889752,-0.483637,-0.522798,-0.141157,0.592183,-0.21124,0.0247247,-0.142096,0.663898,-0.45316,0.52292,0.192166,0.651553,-0.816402,-0.0698983,-0.995666,-0.604784,0.350547,0.58482,1.10486,-0.991375,0.296473,0.836039,-0.676281,0.391523,-0.400124,0.986723,-0.0496327,-0.993651,0.244251,0.840146,-0.0565248,0.61772,0.75169,0.799904,0.479621,-0.0459396,-0.0346771,0.945344,0.744721,0.252881,-0.71184,1.04569,0.266882,0.394328,0.684365,-0.252791,0.99927,0.230009,-0.573595,-0.965123,-0.448431,-0.301364,-0.655865,0.091496,0.684699,1.06944,0.624827,0.0521375,1.02591,0.951914,-0.240146,0.450828,-0.876564,0.0212006,0.0864436,0.400341,0.274592,-0.00177124,0.674353,-1.35452,0.392968,0.720037,0.383162,
1th hidden layer's weight
0th node's weight,-0.0382281,-0.0195216,0.882553,0.268149,-0.70879,-0.528943,-0.775164,-0.0461096,-0.963565,-0.181665,0.505558,-0.969374,0.447231,-0.538452,-0.391377,-0.764918,0.261316,-0.19992,-0.722467,0.0620113,0.212016,0.0611702,0.308021,-0.316829,0.375547,0.00927048,0.777154,-0.483607,0.0944087,-0.310194,-0.821645,0.520546,-0.851381,0.385077,0.680918,-0.874223,0.883751,-0.366921,-0.0731052,-0.927907,-0.796477,0.326108,-0.235572,0.610743,-0.0773351,0.64909,-0.221075,-0.687302,0.637127,-0.784975,0.596381,0.56184,0.822287,-0.251363,0.95693,-0.0661628,-0.580705,0.438907,0.0821558,-0.797397,-0.425702,-0.542224,-0.494836,0.987397,0.19676,0.681322,-0.892145,0.462763,-0.798545,0.0896436,-0.567738,0.177628,0.927455,0.141757,0.811261,-0.508166,-0.452171,0.729818,-0.213739,-0.279939,-0.419329,-0.405563,-0.673161,-0.315467,-0.280002,0.768331,-0.502763,0.872984,0.70958,0.28479,-0.368165,-0.522193,0.809605,-0.653381,0.649746,-0.619938,0.243738,0.459679,0.0764133,-0.27548,
1th node's weight,-0.294272,-0.707421,0.147307,-0.0449207,-0.460273,-0.633101,0.359568,-0.992293,-0.639426,0.902395,0.985801,0.633957,-0.459482,-0.0334685,-0.463549,0.761421,-0.135227,-0.650523,-0.484914,-0.934143,-0.259399,-0.859924,-0.538238,-0.389602,0.0525603,-0.484369,-0.0457274,-0.161257,-0.0553582,-0.626058,-0.484207,0.969073,-0.901768,-0.302181,0.799663,-0.119806,-0.605527,-0.598265,-0.312636,0.934694,0.367138,-0.549001,-0.0957824,-0.935659,-0.0698976,0.202327,-0.07811,-0.112149,0.0655215,0.722024,-0.448388,0.145274,-0.584016,0.431654,0.0247026,0.98397,0.392526,0.772825,0.925819,-0.454027,0.168613,-0.803672,0.13124,0.669935,-0.475078,0.830504,-0.582544,0.192756,0.0263927,0.233873,-0.878434,0.488042,0.549826,0.48093,-0.776131,-0.0649515,-1.00023,-0.156044,-0.977409,-0.288352,0.098896,-0.882087,1.09778,-1.05777,0.676996,-0.0747017,-0.557659,0.635384,0.986282,0.643517,0.460248,-0.162665,-0.91977,0.343027,-0.0434814,-0.527024,-0.507805,-0.470141,0.943865,0.130997,
2th node's weight,0.981575,0.880586,-0.0967325,-0.98035,-0.670989,-0.557555,0.0129676,0.946624,-0.395108,0.239164,-0.537805,0.457244,-0.195311,-0.493027,-0.121477,-0.216357,0.406146,-0.170433,-0.00344354,-0.811727,-0.393143,-0.802139,-0.467716,0.944063,0.655347,0.531646,0.886556,0.421933,0.319475,0.00266654,-0.567122,-0.23716,0.791328,0.500096,0.167607,0.770941,-0.0418232,0.0752447,0.364674,0.027205,0.342764,0.196138,-0.679313,-0.49867,0.867578,0.68006,0.852399,0.603481,0.902217,-0.454474,0.625165,-0.241281,-0.119432,0.381887,-0.876379,0.117622,-0.0428728,-0.346205,0.113136,-0.00425041,-0.822134,0.730572,0.663557,-0.509519,-0.652417,0.0425511,-0.796375,-0.780724,0.330922,0.929733,0.780043,-0.893632,0.871485,0.0705974,0.608536,-0.18602,-1.02886,-0.0917993,0.00367088,-0.0290569,-0.465428,-0.973412,-0.719398,-0.423045,0.00649919,0.982563,0.0925773,-0.296218,-0.767538,-0.47701,-0.0328859,-0.289659,0.484754,0.605429,-0.0351191,0.293644,0.884171,0.570309,0.829859,0.448185,
3th node's weight,0.468026,0.524747,-0.5489,0.25755,0.48547,-0.784357,0.314533,0.147892,-0.449169,-0.955505,-0.293109,0.295175,-0.0425535,0.378896,0.421732,0.129219,0.774903,0.623092,0.899013,0.219527,-0.168375,-0.429758,-0.363626,-0.549183,-0.137266,0.52548,-0.774286,-0.440425,-0.142102,-0.984148,0.521451,0.4416,0.585543,-0.817191,-0.614997,-0.145389,0.716657,0.522411,-0.160941,-0.141916,-0.83561,-0.378213,0.576276,-0.890641,-0.619314,-0.335004,-0.0718213,-0.128113,0.0698366,-0.395951,0.575575,-0.266999,0.431954,-0.952002,-0.333885,0.907138,0.584689,-0.0973958,0.738891,-0.474987,0.503881,0.694369,0.573408,-0.393205,0.174086,-0.654717,0.259323,0.0652458,-0.991428,0.155555,-0.346481,-0.528254,0.432518,-0.678293,-0.0924675,-0.245248,-0.937785,-0.584581,-0.159337,0.949272,-0.758558,-0.48448,0.446744,0.690105,-0.725957,-0.0191563,0.395992,0.625118,-0.886165,-0.562401,0.573048,-0.738855,0.452375,-0.630687,-0.795877,-0.284518,-0.189264,0.825424,-0.122038,-0.0682365,
4th node's weight,-0.302502,-1.00281,0.404144,0.641161,0.209457,0.799505,-0.872914,-0.293519,0.453513,0.214291,-0.779391,-0.583304,0.302729,0.924443,0.262857,0.805539,-0.60905,-0.55531,0.950769,0.138121,0.366266,0.867719,-0.248788,0.897054,-0.00303858,-0.758171,-0.175153,-0.887709,0.278961,-0.634869,0.24515,0.554586,0.115467,-0.798736,0.043016,-0.737852,-0.314117,-0.346275,-0.333186,-0.599121,0.636097,0.818221,0.336626,0.68536,-0.854597,0.245261,0.809405,0.414563,-0.311541,0.350068,-0.0239316,-0.051039,-0.197137,-0.329367,-0.814822,0.338176,-0.113495,-0.460634,0.634278,0.712515,0.269264,-0.12109,0.456479,0.495674,-0.981008,-0.0160792,0.754571,-0.661841,-0.00498152,-0.350429,0.556097,-0.149567,-0.392973,-0.78494,0.38911,-0.27256,-0.46279,0.228603,0.200452,0.0374316,-0.366407,-0.34207,0.430477,0.233586,-0.087534,-0.280754,0.0190445,-0.162467,-0.555446,-0.0826632,-0.871216,0.00728913,0.870118,0.235179,-0.263026,-0.814118,-0.68617,-0.7265,-0.919874,0.894332,
5th node's weight,-0.493562,0.347415,-0.28725,-0.0629628,-0.666046,0.633431,0.644508,0.634235,0.935483,0.727838,-0.371798,-0.547156,-0.0194,0.119013,-0.721814,-0.274368,0.185026,-0.337796,-0.923215,1.01318,-0.0423921,-0.65512,-0.761781,0.127982,0.671778,0.694792,0.730591,-0.258336,-0.434293,0.224021,0.558546,0.40075,-0.13783,-0.0626269,0.330844,0.0679796,-0.999451,0.402998,-0.433208,-0.541471,-0.406288,0.605054,0.42576,0.821783,-0.39084,0.889796,0.707444,-0.539116,0.647564,0.0807604,-0.571073,0.779833,0.868642,0.635721,0.217206,-0.958704,-0.35677,-0.478154,0.910015,0.488984,-0.633845,-0.964055,0.0032802,-0.472254,-0.819311,-0.909996,0.55294,0.580207,-0.0187397,-0.16486,0.119626,-0.895148,-0.200271,-0.863441,0.704038,0.305963,0.516951,-0.512212,-0.643445,0.493861,-0.621762,-0.129765,0.158856,0.295164,0.623944,0.207062,0.592429,-0.793262,-0.11732,-0.924482,-0.778586,-0.57486,-0.475876,0.962049,-0.4224,-0.114983,-0.986192,0.889076,0.932984,0.514744,
6th node's weight,0.366784,0.654614,0.326695,0.564492,-0.496402,0.939168,0.469364,0.652446,0.599726,-0.493746,0.149598,-0.953014,0.27922,0.247474,0.419077,-0.78626,0.386076,-0.657344,-0.274141,-0.362699,-0.530563,0.888014,0.169308,-0.240849,-0.258191,-0.0657189,0.224657,0.301904,-0.912462,0.0467996,0.455425,-0.893813,-0.435999,-0.788061,0.0584004,0.721689,0.170232,0.347931,0.201773,-0.974538,-0.00524144,-0.563191,-0.582162,0.827071,-0.532743,-0.861927,-0.303388,-0.178395,-0.035625,0.705004,-0.562051,-0.610122,0.837198,0.576699,-0.674344,-0.376235,0.53058,0.168564,-0.760573,-0.170848,-0.225208,0.29941,-0.528996,-0.103366,0.445899,-0.754053,0.448929,-0.670526,-0.729984,-0.641771,-0.527704,0.297491,0.585221,0.906143,-0.345394,0.039723,-0.429245,0.308183,0.156756,0.665547,-0.957167,0.505313,-0.362866,-0.881562,0.216624,0.0718197,-0.108118,0.0226282,0.130861,-0.808865,-0.356846,0.0472532,0.740539,0.672892,0.13738,0.119504,0.693673,0.611267,0.689638,0.60663,
7th node's weight,-0.405639,-0.466702,-0.11106,-0.878804,-0.866267,-0.278755,-0.42705,-0.825978,-0.0300221,-1.00119,-0.551137,0.350256,0.173838,0.39283,0.199695,-0.277422,0.511238,-0.0594834,-0.704288,0.115668,0.76538,-0.122797,0.223287,-0.37005,-0.186155,-0.627121,0.784204,0.780148,0.452056,0.104688,0.570457,0.475927,-0.712545,0.723665,0.229281,-0.981143,-0.224927,-0.057263,-0.0231279,0.163106,0.393293,-0.332094,0.714816,-0.0273786,0.817778,0.425959,-0.155261,0.0816809,0.398578,-0.515847,-0.0580976,0.484839,0.383645,-0.274361,-0.235753,-0.551833,0.902942,0.79513,0.694417,-0.135445,-0.158055,-0.516703,-0.23518,0.945254,0.75576,-1.00668,0.820723,-0.946973,0.331249,0.576049,-1.03639,0.0985559,-0.0887283,0.508486,0.728335,0.343786,-0.877952,-0.954408,0.818168,-0.124474,-0.166411,0.7348,0.169305,-0.111677,-0.997627,-0.641062,-0.241241,-0.746074,-0.42929,0.556316,0.179359,0.78445,0.700529,-0.593979,0.164521,0.207503,-0.63659,0.385002,0.116931,-0.735841,
8th node's weight,0.069369,-0.144978,-0.899414,0.857798,0.770048,-0.448609,0.518528,-0.810696,0.0733379,-0.259055,0.441252,-0.520754,0.660274,-0.604385,-0.737491,0.549491,-0.106446,0.385064,-0.821496,0.991165,-0.367951,0.560558,-0.0446757,-0.96145,0.520476,0.629838,-0.0555277,0.574433,-0.559368,-0.6487,-0.851089,-0.925931,0.196319,-0.580745,0.159148,0.0863472,-0.992282,0.802776,0.905208,0.945082,0.208116,0.836302,0.106296,0.0171095,0.0517396,-0.984928,-0.608059,0.684185,0.439669,0.914107,0.778155,0.300007,-0.81122,-0.122749,0.61454,0.529515,0.0123745,-0.788378,-0.517408,0.117084,-0.918304,-0.440198,-0.497815,0.594363,0.117592,-0.301216,-0.882078,0.808011,0.881865,-0.855971,0.615217,-0.261129,0.430451,-0.336159,-0.0165888,-0.4665,-0.819967,-0.472074,-0.349245,-0.959429,-0.792489,-0.690999,-0.150107,-0.450544,-0.751036,0.863529,0.535259,-0.376655,0.240191,0.520373,0.53015,-0.491797,-0.0818055,-0.801998,0.265531,0.801077,0.0786411,0.467029,-0.806211,0.532614,
9th node's weight,0.937036,-0.956601,0.286212,-0.552705,0.426669,-0.178923,0.559712,-0.417033,0.57931,-0.42189,-0.924042,0.892283,0.284359,0.716967,0.858936,-0.358647,-0.351025,-0.531324,-0.0701897,-0.64144,-0.230302,-0.559233,-0.91702,0.732113,0.574813,0.583963,-0.211314,0.621485,0.519508,0.616894,-0.516504,-0.580247,-0.0317419,-0.268117,-0.510014,-0.199176,-0.460088,-0.857759,0.220944,0.594333,-0.714315,-0.423621,-0.154634,0.620362,0.833362,0.693078,0.762436,-0.273321,0.202283,-0.959828,0.902776,-0.382164,-0.146796,-0.0410225,0.365296,-0.651548,0.0650612,-0.568309,0.124717,-0.886029,-0.315417,0.186146,-0.296402,-0.725857,0.855861,0.628342,0.357896,-0.396765,0.0133657,0.882293,-1.00635,-0.729115,0.360661,0.645475,0.983088,-0.415613,0.381875,0.999246,-0.748721,0.309192,-0.476684,-0.451691,-0.299541,0.471184,-0.828596,-0.131583,0.0050154,0.834626,0.0985768,-0.379566,0.277115,0.0589837,-0.52693,-0.964989,0.783799,0.656927,-0.625187,0.623763,-0.78469,-0.270678,
10th node's weight,-0.353773,-0.648677,-0.491874,-0.987493,0.37012,0.120677,-0.925597,0.476751,0.281258,-0.515361,0.0603365,0.941199,-0.463382,0.842344,0.560517,-0.951447,-0.37856,0.83555,-0.302226,-0.222362,0.87582,-0.92961,0.608758,0.627908,0.644062,0.115483,0.480568,0.164603,-0.264036,-0.482518,0.144493,0.875552,0.704001,-0.365079,-0.830741,-0.895966,-0.914264,-0.545729,0.874473,0.803729,0.388673,-0.0578407,-0.70987,0.178315,-0.307378,0.522926,-0.689445,-0.100954,0.988322,0.429181,0.505526,-0.508099,0.219106,-0.708084,-0.756647,0.589633,0.0703892,0.444106,0.323345,-0.0322732,-0.0560633,0.614234,-0.836438,0.131945,-0.449564,-0.425958,0.609572,-0.47639,0.225844,-0.596535,0.249703,0.543913,0.697217,0.702329,-0.188476,-0.129809,-0.927002,0.623632,0.663235,-0.665263,-0.557237,-0.872779,0.982922,-0.0692266,-0.962454,-0.960833,0.962554,-0.507955,0.712512,-0.27335,0.194778,-0.210772,0.498582,0.0548296,-0.490907,0.79081,-1.00049,-0.610685,0.493037,-0.831674,
11th node's weight,0.157438,0.169306,0.173278,-0.317829,-0.808764,-0.00604846,0.358211,0.37007,-0.868748,0.855707,0.120515,0.786735,0.286971,-0.611951,0.452731,0.631258,0.284038,-0.125766,0.811966,-0.678746,-0.422938,-0.200981,-0.667001,-0.844817,-0.233079,-0.0605032,-0.787712,0.87083,0.884954,0.314252,-0.636542,-0.102095,0.401651,-0.0080729,0.732879,0.891461,0.994907,0.353416,-0.429053,0.861551,-0.107089,-0.351369,-0.85061,-0.663544,0.763881,0.936062,0.523657,-0.115227,-0.582925,0.316001,0.279424,0.850369,0.829478,0.624175,-0.292614,0.977725,-0.822178,0.596369,0.307386,-0.747676,0.932538,0.829695,0.509252,-0.808924,-0.310243,0.715592,0.329964,-0.559553,-0.261199,0.46368,0.636043,0.955901,-0.338999,0.537344,0.598112,0.3537,-0.93541,-0.718035,0.920109,0.549541,0.65083,0.921283,0.969829,-0.519319,-0.679086,-0.503047,0.941057,-0.00817577,-0.462548,0.318892,0.558046,-0.125573,-0.0752239,-1.03543,-0.613596,-0.737291,-0.749414,0.363691,0.513395,-0.958669,
12th node's weight,-0.175271,0.555008,0.758664,-0.991609,-0.0270114,0.487165,0.292684,-0.326431,-0.622262,0.676862,0.799842,-0.967791,-0.635942,-0.786051,0.838359,-0.581698,-0.865679,-0.0606338,0.772767,-0.239758,0.685694,-0.195353,-0.745295,0.219092,-0.792753,-0.237859,0.218264,-0.928653,-0.459183,-0.665057,0.687841,0.437075,0.136502,-0.593932,0.571511,0.736297,0.758487,0.836589,-0.31202,0.796572,0.17375,-0.795089,0.236282,0.511308,0.156819,0.434603,-0.547545,-0.695499,0.176788,0.0391181,0.512494,0.212779,-0.605328,-0.183502,0.77728,-0.672295,-0.252077,0.598208,-0.00238797,-0.937329,0.683083,-0.449,-0.412182,-0.79541,0.579317,-0.584999,0.107511,0.346768,-0.325996,-0.109216,0.320821,-0.804517,-0.614897,0.756672,0.988866,-0.818371,0.0568838,-0.190546,0.841183,0.711917,-0.456576,0.81086,-0.463022,0.423011,-0.291218,0.488977,-0.891664,-0.979857,-0.235545,0.105785,-0.0862701,0.771025,0.843096,0.831368,-0.617998,-0.609088,0.368112,-0.378727,-0.681589,-0.927101,
13th node's weight,0.903904,0.0230899,-0.39279,-0.524463,0.879836,0.928843,-0.254809,-0.191486,-0.919497,0.572265,0.479868,-0.860179,-0.4237,-0.548941,0.894112,0.623562,-0.565876,0.623198,-0.0326026,-0.706756,0.547055,0.447287,-0.01937,0.00228194,0.255881,-0.60355,-0.577978,0.980606,0.527302,-0.316367,-0.7127,1.01205,-0.874226,0.326388,0.244296,0.313366,-0.128311,-0.829662,0.731831,0.76748,-0.804877,-0.499596,0.984257,-0.940127,0.830691,0.806344,-0.405022,0.19991,-0.1592,-0.226652,0.833811,-0.673608,0.143173,0.0223638,0.93544,0.983694,0.414134,-0.491293,-0.843079,0.768136,-0.719484,-0.633779,0.347312,0.442041,-0.224098,0.493492,-0.539823,0.910565,-0.859011,-0.369465,0.575221,-0.394936,0.945098,0.87001,-0.866589,-0.818368,-0.0218382,-0.841997,0.30693,-0.0884579,-0.723471,-0.90232,-0.69672,0.824848,0.628286,-0.978413,-0.278945,-1.00665,-0.373588,-0.300518,0.797478,-0.376002,-0.934833,-0.0219669,-0.451209,0.414176,0.605705,0.0569226,0.0925739,0.974299,
14th node's weight,0.680871,-0.825497,0.572195,-0.987059,0.0336419,0.248461,-0.162068,-0.800821,0.711785,0.830183,0.77343,-0.624779,0.0766918,0.782135,-0.501683,-0.983014,-0.325496,-0.679544,0.543751,0.707838,-0.382009,-0.470898,0.251614,-0.456585,-0.817261,-0.634786,0.458644,-0.520189,0.0981524,-0.192784,-0.463782,0.774542,-0.458169,-0.33111,-0.188238,0.46319,-0.784787,0.407993,0.396045,0.218497,-0.791361,0.237312,-0.36431,0.00047242,-0.012268,0.213644,-0.479226,-0.10999,0.365361,0.103048,0.9424,-0.289472,-0.39394,-0.350312,0.173366,-0.184299,0.135337,-0.0477995,0.506573,0.368901,-1.01825,-0.746666,0.824605,0.76507,-1.0004,-0.472295,0.401022,0.641958,0.357858,0.768952,0.111543,0.0051109,-0.0218946,0.674829,-0.37681,-0.0553548,0.164778,0.561381,-0.316856,0.905531,-0.872601,0.932356,0.957987,0.421185,-0.264554,-0.78074,-0.0105947,0.458161,0.757383,0.472028,0.270346,-0.511392,-0.820152,-0.56963,-0.761371,-0.231749,-0.665881,-0.626936,-0.290898,0.263127,
15th node's weight,-0.00921274,0.283189,-0.317436,-0.689521,-0.585878,0.994591,-0.263929,-0.133753,-0.994514,0.736705,-0.0507649,-0.63095,-0.962689,-0.380834,0.691773,0.598478,-1.06462,-0.202481,0.892145,0.452304,0.248834,-0.458703,0.567602,-0.330801,0.925671,0.785657,-0.22993,-0.140939,0.41766,0.49561,0.0797369,-0.381317,-0.517617,-0.93959,0.31698,0.866692,-0.426523,-0.752083,0.669056,-0.17683,0.00189847,-0.591894,-0.788493,0.406019,0.321376,0.419544,0.148306,0.55045,0.904592,0.402323,0.337611,-0.797764,-0.533126,-0.119868,-0.511634,0.860629,-0.917681,0.94043,-0.694997,-0.81062,-0.436985,-0.841193,0.0303351,-0.182302,0.607389,-0.899928,-0.667579,0.559865,1.0006,-0.437195,0.0503414,0.381187,0.680537,-0.199821,0.774398,-0.56896,0.584959,-1.00963,0.179219,-0.242077,-0.877563,0.0240639,0.377521,-0.289892,-0.884852,-0.958898,0.497533,-0.0860225,-0.79803,-0.325166,0.866506,-0.564118,-0.833562,0.112304,-0.279644,0.28756,-0.35544,-0.956891,0.384085,-0.889606,
16th node's weight,0.308148,-0.665443,-0.639926,0.51376,0.669796,-0.371345,-0.252295,-0.663617,0.196044,0.624031,0.0851516,0.889419,-0.186993,-0.121045,0.593812,-0.364792,-0.671945,-0.668545,0.525888,0.453708,0.926586,0.216018,-0.921425,-0.623484,0.464634,0.493069,-0.690333,0.73793,-0.203287,-0.00205725,0.102157,0.24148,0.821198,-0.460375,0.92031,0.267164,-0.274687,-0.653637,-0.0328131,0.00716309,0.465989,1.00292,0.361194,0.66037,0.536271,0.457173,0.087376,-0.999144,0.56285,-0.890505,0.902464,-0.50855,-0.270886,0.347429,0.570615,0.256321,0.468757,0.199446,-0.572831,0.465773,-0.601319,-0.332176,0.668705,-0.164416,0.468315,0.701245,0.0423043,0.823258,-0.729566,0.719036,-0.93127,-0.381682,-0.271679,0.347068,-0.903114,-0.245019,0.0951934,-0.273953,-0.526097,-0.265972,-0.589465,-0.200053,-0.463407,0.414947,0.366694,-1.00594,0.98041,0.468659,0.824242,0.326577,0.141703,0.830116,-0.00564088,-0.428509,0.984668,0.389648,0.596644,-0.966454,0.100922,0.913957,
17th node's weight,-0.765884,-0.255262,-0.541478,-0.595386,0.661391,0.965826,-0.864688,-0.517944,0.413837,0.0159498,-0.126459,0.495428,-0.0864487,-0.768722,0.182727,-0.731761,-0.389725,-0.556051,0.0133931,0.790183,-0.433668,-0.178854,0.382537,-0.293292,-0.0337573,0.571127,0.896625,-0.0419281,-0.123853,-0.252195,0.139028,0.77298,-0.446567,-0.460571,0.964675,-0.663861,-0.77203,0.642264,-0.72291,0.236706,0.38288,0.115592,0.345596,-0.720684,-0.320529,-0.833522,0.640986,0.105974,-0.317436,0.366297,-0.277115,-0.401747,0.503473,0.210888,0.358916,0.981421,-0.239064,-0.279401,0.513382,-0.242422,0.123965,0.948931,0.913961,0.933135,-0.912407,0.537276,-0.687056,-0.516093,-0.00699808,-0.932112,-0.218026,-0.144527,-0.240237,0.686089,-0.0720175,-0.169787,-0.741721,0.429456,0.252253,-0.435907,0.294812,0.743358,-0.145876,-0.817768,-0.324678,0.799669,0.559209,0.138732,0.0344547,-0.0180022,-0.703429,0.128141,0.0565088,-0.124561,0.277916,0.494656,0.226049,0.40761,0.755785,0.976125,
18th node's weight,-0.0101635,-0.994262,0.0615241,0.850189,-0.402863,-0.779473,0.838099,0.798715,-0.802967,-0.470669,-0.237373,0.363069,-0.914572,-0.469218,0.791023,-0.3849,0.014085,-0.00972069,0.530138,0.84923,-0.579065,0.540233,0.637201,0.1923,-0.220635,-0.220119,0.39214,-0.174719,-0.336688,-0.866448,0.0211563,0.586433,0.473164,0.722447,-0.286029,0.273512,-0.231117,-0.17885,0.926809,-0.262033,0.274125,-0.0848797,0.033518,0.259243,-0.824838,0.538322,0.859209,0.0763708,-0.250683,0.786083,0.241517,-0.231326,0.318489,0.733801,-0.514913,-0.856847,-0.853813,-0.359334,0.710756,-0.4026,0.587955,0.0234955,-0.873871,0.818163,0.0632042,-0.405404,-0.420726,-0.63798,0.577111,0.59722,0.41177,-0.581403,-0.124331,0.583924,0.0103984,0.118297,-0.128777,0.517135,-0.612672,-0.464189,0.0505494,-0.186064,-0.598438,0.866933,-0.117442,0.608015,-0.385975,-0.0238785,0.10415,-0.594646,0.407098,0.470303,-0.49489,-0.988999,0.300351,-0.0733463,0.521776,0.88224,0.402806,-0.675697,
19th node's weight,0.121144,-0.00805148,0.904616,0.806088,-0.172578,0.943875,-0.815869,0.927069,-0.708046,-0.750306,-0.843513,0.808403,0.96894,0.0664599,0.774266,-0.716163,-0.262441,-0.693295,-0.701805,-0.870859,0.511591,-0.791054,-0.838874,0.661343,0.255783,-0.651825,-0.184955,0.179398,-0.374191,-0.185198,0.849575,0.372729,-0.621793,0.645773,-0.987686,-0.162402,0.157214,0.053727,-0.471429,0.818275,-0.942918,-0.916008,0.386321,-0.0526577,-0.841271,-0.444351,0.197977,0.334302,-0.973499,-0.0579203,0.371429,0.375802,0.949128,-0.800852,0.289633,-0.712386,-0.708746,0.705095,0.380564,-0.992953,0.291197,0.650654,-0.253107,-0.232572,0.658236,-0.0563196,0.800475,0.406751,0.879082,-0.0270923,0.904026,-0.805281,0.621618,0.973448,-0.797889,0.678069,0.745378,0.968576,-0.880338,0.27107,0.259805,0.265438,-0.327084,0.222798,0.994244,-0.199833,-0.745201,-0.709113,-0.153642,0.21227,0.690384,0.284394,-0.294156,-0.761547,0.0811024,-0.022034,0.863957,-0.172536,-0.933932,0.290182,
20th node's weight,-0.304601,0.899386,-0.860181,-0.497498,-1.05415,0.521,0.73071,-0.479626,0.269239,0.690113,-0.625909,-0.164901,-0.556952,-0.217092,-0.925323,-0.73231,-0.834727,0.604322,0.591389,-0.358452,-0.44276,-0.516274,-0.718684,0.0929092,0.592669,-0.907573,-0.684645,-0.156293,0.334529,-0.101489,0.554907,0.0500451,0.610112,-0.620283,-0.917809,0.189654,-0.401427,0.984012,-0.906598,0.0537051,0.258999,0.88363,-0.0468551,-0.658723,0.47914,0.544988,0.729138,-0.785471,0.945937,0.226285,0.814328,0.688647,0.171202,-0.336364,0.797555,-0.784885,0.699596,-0.771794,-0.107505,0.93299,-0.78905,0.723091,-0.540334,0.0581055,-0.132445,0.4844,-0.0641854,0.576151,-0.615432,-0.750071,0.300638,-0.895242,-0.227778,-0.734773,-0.452885,-0.592568,-0.380929,-0.597506,0.999346,0.784505,-0.549442,-0.771706,-0.0272128,-0.171475,-0.500281,0.149235,0.0919469,0.353224,0.599869,-0.0184266,-0.893112,0.226935,-0.0414315,-0.642076,-0.655938,0.918889,-0.0507554,-0.141546,0.960237,-0.95025,
21th node's weight,-0.257371,-0.714609,-0.759299,-0.734677,1.03165,0.411683,0.59794,-0.23494,0.0578427,0.930748,-0.603279,-0.21965,-0.0647525,-0.211097,0.163648,-0.901127,-0.484288,-0.401367,0.336067,-0.308674,-0.180988,-0.288644,0.556091,0.14456,0.166496,-0.510715,-0.415313,0.259151,0.831717,-0.177566,0.688723,-0.797529,0.54594,-0.91249,-0.576958,0.71503,0.770596,0.432334,0.805959,-0.716417,0.292683,0.893562,0.053201,-0.203226,-0.708031,-0.862219,0.788725,0.430735,-0.273003,0.721823,0.594081,0.628808,-0.506397,-0.0669909,0.449534,0.645822,-0.621525,-0.603931,0.289402,0.0601458,-0.762827,-0.443169,0.0959491,-0.585164,-0.501369,0.0797451,-0.483798,0.570752,0.73678,0.70735,-0.0803833,0.542282,0.0659176,0.43355,0.0950357,-0.922894,-0.00750251,-0.665675,0.121233,-0.969141,-0.311072,-0.977288,0.147203,0.489764,-0.981506,0.585989,-0.0231081,0.270402,-0.234316,0.085277,0.731172,0.662239,-0.316744,-0.304413,-1.00294,-0.347175,0.0614618,-0.790486,-0.764606,0.77832,
22th node's weight,-0.91951,-0.857352,-0.86411,-0.455104,0.459437,-0.24343,0.906693,0.602278,-0.845305,-0.734624,0.552483,0.572802,0.705931,0.652427,0.584279,-0.799577,0.733653,-0.407065,0.278217,-0.278455,0.615064,0.555317,-0.595146,0.304615,-0.842189,-0.80899,-0.758588,-0.0205932,0.973244,1.02826,-0.420885,-0.687956,-0.242503,-0.819676,-0.052468,0.199951,-0.131547,0.349246,0.770635,0.634195,0.119002,0.201006,0.214663,0.531616,0.380913,-0.572367,0.131841,0.473843,0.1144,-0.160925,-0.834728,0.0299009,0.4647,0.131114,0.0848419,-0.108145,0.866866,-0.616921,-0.595114,0.884151,-0.505746,0.223558,-0.115506,1.00313,-0.713802,0.413463,-0.108881,0.445771,-0.0457224,0.62069,-0.848974,-0.0326313,0.355123,-0.142244,0.961198,-0.768462,-0.404042,-0.222687,-0.327174,0.299109,0.63728,0.916951,0.590257,0.109236,-0.90014,0.114183,-0.585061,0.794951,-0.951886,0.994549,-0.971833,-0.528133,-0.680519,0.830255,0.385002,-0.242895,-0.245348,0.407664,-0.367705,0.782362,
23th node's weight,0.230367,0.657773,-0.0402986,0.0870837,0.734165,-0.414474,0.538581,0.849514,-0.829472,0.776623,0.196763,0.105565,0.352201,0.235482,-0.257597,-0.297263,-0.714707,0.605416,-0.131094,0.895132,0.136474,0.887892,-0.192728,-0.63155,-0.290865,-0.783074,0.254105,0.862725,0.606767,0.257571,0.523917,-0.223345,0.821073,0.936423,-0.0842915,-0.563621,0.775556,-0.0642835,0.67678,0.142022,0.181376,-0.408559,-0.415172,0.102958,0.993738,0.752706,0.51415,0.0513848,-0.394761,0.527057,-0.853025,0.11047,0.780295,-0.540697,-0.313248,0.459299,0.726392,-0.267256,-0.459619,0.163057,-0.970725,-0.305728,0.16234,0.503724,0.580309,0.613675,-0.346336,-0.431841,-0.500676,0.819912,-0.765083,0.520852,-0.54113,-0.0333576,0.0792437,0.104489,0.798611,0.110649,-0.540405,-0.176277,0.837944,0.427268,-0.795737,0.0987625,0.745474,0.213219,0.652442,-0.125076,-0.691859,0.174327,-0.0879033,-0.442739,-0.733737,-0.560907,-0.477235,0.123066,0.592709,-0.543372,-0.801329,0.338848,
24th node's weight,-0.462994,-0.165683,-0.337873,0.990982,-0.00773097,-0.0820057,-0.115373,0.922649,-0.237547,-0.571219,-0.244374,-0.184758,-0.284699,-0.768906,-0.839242,0.392925,0.290108,0.99051,0.0979712,-0.311293,0.130711,0.872398,0.356339,0.566182,-0.789977,-0.750309,0.575393,0.423465,0.0888037,-0.433615,0.610393,0.18551,0.0972443,-0.173182,0.427512,0.489107,0.401009,-0.804142,-0.813106,-0.700352,-0.774374,-0.747712,0.195445,-0.633168,-0.0621062,0.557564,-0.728005,-0.14437,-0.716881,0.163869,0.433368,0.290561,0.237955,0.520353,0.429169,-0.94032,0.266472,0.330784,-0.444297,0.437155,0.485942,-0.417144,-0.194737,0.913833,-0.993912,0.758449,0.430122,0.140083,0.999309,0.542404,0.894097,-0.616813,0.870445,0.271488,-0.442624,0.535363,-0.237409,0.332756,0.659386,0.286219,0.487737,0.191623,-0.758154,-0.225958,-0.147125,-0.337657,-0.769928,0.00320554,-0.28871,0.5371,0.969596,0.790708,0.599314,-0.551676,-0.932259,0.827967,-0.101274,-0.977941,-0.0473233,0.872089,
25th node's weight,-0.0376571,0.631937,0.752319,-0.287739,-0.881431,0.939782,0.664447,0.0498661,-0.388565,0.592222,-0.609366,0.855852,0.745474,0.149969,-0.387926,-0.702547,-0.0945464,-0.30255,0.220111,0.223671,0.311211,-0.977534,0.774175,-0.91111,-0.148713,0.332117,0.959556,0.154721,-0.381129,0.505291,0.704216,0.924677,-0.566606,0.724627,0.202287,1.02464,0.547939,-0.797318,1.00026,-0.00942496,-0.51271,-0.595682,0.25586,-0.134954,-0.198375,-0.617901,-0.565057,-0.815506,-0.62907,-0.98876,-0.274878,0.676132,0.644661,0.056153,0.295751,1.01609,0.971866,-0.634011,0.790367,-0.937421,0.452095,0.649086,0.637215,0.227477,-0.670639,0.982292,0.320661,-0.260013,-0.390602,-0.213564,0.624952,-0.387743,-0.862822,0.671535,-0.911469,-0.864289,0.522368,0.949523,0.101589,-0.263338,0.210091,-0.532789,0.0497892,-0.340692,-0.457581,-0.800319,0.925829,0.453244,0.306495,-0.445807,0.304064,-0.11902,-0.973248,-0.101821,-0.93642,0.290412,-0.998667,-0.734752,-0.382656,0.92176,
26th node's weight,0.703675,0.401792,0.202491,0.341413,-0.383616,-0.170453,-0.276353,0.91657,-0.324707,0.170889,-0.309878,-0.242877,-0.631632,-0.697823,0.719217,0.508643,0.215028,0.972358,-0.537125,-0.781055,0.150081,0.663609,-0.421568,0.13075,0.578123,0.193084,-0.122196,-0.922497,-0.0606403,-0.390156,0.629324,0.330444,-0.242592,-0.655546,1.00201,-0.332676,0.603802,0.709675,-0.546053,0.0890879,0.0772201,-0.185387,-0.757122,0.418581,0.659102,-0.85206,0.034812,-0.855237,-0.555448,0.959943,-0.184551,-0.248142,0.728143,-0.0225392,0.281634,-0.437036,-0.884474,0.253961,0.920615,-0.152818,0.768428,-0.355523,-0.719238,0.390251,0.551389,-0.479716,0.586565,0.52415,-0.171797,-0.0598595,-0.183523,0.0401266,-0.945787,0.718353,-0.741684,-0.431976,-0.6528,0.0391765,-0.44976,0.0153884,-1.00482,0.9188,-0.0365675,0.128346,-0.659979,-0.526083,0.535673,0.529121,0.838051,0.273126,-0.174481,-0.384431,-0.910642,-0.585652,-0.0361404,-0.180862,-0.72168,-0.931419,-0.909976,0.936363,
27th node's weight,-0.122711,-0.140498,-0.582742,0.132585,-0.971864,0.980956,-0.65887,1.00426,-0.378056,0.00686159,0.62776,0.518424,-0.602663,-0.415878,0.673892,0.322098,-0.589101,0.593304,0.097531,-0.0929774,-0.410038,-0.757975,-0.0499888,-0.967574,0.410814,0.170828,0.698522,-0.32346,0.878582,0.254812,-0.381574,-0.505293,-0.967024,-0.528885,0.340969,-0.467922,-0.78857,-0.905728,0.448018,-0.255352,0.615255,-0.365712,0.168282,-1.03797,-0.784919,-0.311888,-1.07239,0.315931,-0.925131,0.289675,0.192785,-0.806691,0.71295,0.459391,0.702301,-0.289062,-0.358868,0.0766224,-0.423271,-0.481587,0.0519128,0.564606,-0.334264,0.117075,-0.0313305,-0.830722,0.0618397,-0.913614,0.183364,0.781585,0.804078,-0.142626,0.614647,0.418069,-0.318441,-0.962719,0.626254,-0.401401,0.0755459,-0.64271,-0.791908,-0.247328,-0.340747,0.709105,-0.818579,-0.673411,-0.526966,0.588194,0.0645693,-0.104775,-0.525267,-0.225257,-0.308385,0.564087,-0.65892,-0.108058,0.757393,-0.995534,-0.121344,-0.945308,
28th node's weight,-0.605218,-0.893376,-0.426284,-0.00946547,-0.98441,0.212536,0.586217,0.98799,-0.342624,0.256916,-0.346914,0.194391,-0.361894,-0.536241,0.68593,-0.397092,0.792008,-0.960051,0.735806,-0.62006,-0.680612,0.161099,-0.0488254,0.0235723,-0.307863,-0.591541,-0.407433,-0.309406,-0.951655,-0.683479,0.254053,-0.759831,-0.402309,0.261087,-0.737324,0.344803,0.901963,0.333956,0.473895,-0.683176,-0.467535,-0.361593,0.909314,0.73163,0.403,-0.0492627,0.290184,0.478538,-0.589685,0.790278,0.572984,0.247107,0.907748,0.780255,-0.917935,0.204469,0.0551225,0.373903,-0.410786,-0.940965,-0.220024,0.598928,-0.88845,-0.520219,0.0942496,-0.843079,-0.642891,0.543394,0.982745,0.649519,-0.0423489,0.512111,0.473718,-0.0438085,0.123286,0.413988,0.376644,-0.672408,0.753771,-0.546397,0.586888,-0.975183,-0.425166,0.828809,0.675152,0.614871,0.501043,-0.29899,-0.202564,-0.849501,0.6925,0.566179,0.0493356,0.726346,-0.417558,0.855903,0.530736,0.433886,-0.853535,0.529691,
29th node's weight,0.280873,0.279104,0.397733,0.248622,0.553707,-0.137235,-1.00773,-0.930724,-0.441252,0.140296,-0.943923,0.35473,-0.207527,0.801436,0.455853,0.064033,-0.504167,0.195049,-0.71439,0.644192,-0.920016,-0.289861,0.187156,-0.775699,0.129639,-0.155433,-0.895574,-0.138491,-0.901424,-0.350691,-0.485648,-0.0440902,-0.223608,0.136391,0.801244,0.806249,-0.741394,-0.372756,0.0479777,0.832684,-0.0509634,0.391161,-0.977181,0.362541,-0.246641,0.459287,-0.970699,0.512126,-0.118881,-0.390352,0.52387,-0.364456,-0.342363,0.512906,0.128229,-0.628972,0.437833,0.144087,0.0548126,-0.468647,0.960807,0.944967,0.46832,-0.279325,-0.62007,-0.196545,0.890693,-1.00095,-0.0316504,-0.223304,-0.0640203,0.640918,-0.0186238,0.0711862,0.737621,-0.0357849,-0.779956,0.592685,0.408575,0.34687,0.870583,-0.844827,-0.430883,0.268141,0.125493,-0.960791,-0.972258,0.210855,-0.250699,-0.633709,0.424017,-0.69219,0.287933,0.88045,-0.363147,0.781835,-0.444585,0.0985616,-0.153927,0.638596,
30th node's weight,-0.393687,-0.0416541,0.305129,0.62322,-0.648484,0.665808,-0.245929,-0.875647,0.74462,-0.69781,-0.781407,0.729355,-1.00791,0.16557,0.0121372,-0.729895,0.923644,0.760545,0.135561,0.745616,-0.932878,-0.66275,-0.847835,-0.584766,0.257482,-0.989,1.03205,-0.160999,0.462031,-0.0153204,0.898707,0.639201,-0.63105,-0.462408,0.881152,-0.0968104,-0.614297,0.642991,-0.747834,0.412619,0.771013,-0.645726,-0.889918,0.0584443,0.991513,0.512266,0.782159,-0.274396,0.431054,-0.838191,0.237993,0.467236,-0.339322,0.313661,0.149536,0.575984,0.478475,-0.541415,0.0137461,-0.238502,-0.00347666,-1.00969,-0.394236,0.168542,-0.997088,0.643897,0.510925,-0.406462,-0.0782557,0.350853,0.0712255,-0.623072,0.117142,0.749101,-0.219027,-0.627078,-0.951018,-0.936711,-0.873467,-0.665483,0.960509,-0.973833,0.0438675,0.794808,-0.594281,0.402528,-0.808778,-0.863317,-0.281908,-0.660186,0.0174789,1.01687,-0.169834,-0.607066,-0.901869,-0.583803,0.295044,-0.36314,0.705238,-0.0472912,
31th node's weight,-0.186874,-0.43692,1.02218,-0.226287,0.644184,-0.808486,-0.807834,-0.134726,0.441452,-0.827782,-0.240602,-0.550949,-0.144813,0.793855,0.186842,0.648341,0.253689,-0.794619,0.417579,0.756219,-0.850733,0.260007,-0.936005,0.622003,-0.332714,-0.673781,-0.509759,-0.459877,-0.562048,-0.765282,-0.324672,-0.289612,-0.530408,0.168217,0.612639,-0.234099,0.317854,-0.514806,0.243954,-0.202997,0.512271,0.603836,-0.351012,1.01502,0.898479,-0.721315,-0.582453,-0.475866,-0.997718,0.956162,0.69992,0.735223,0.380301,0.592595,-0.221181,0.413531,-0.605201,-0.338507,0.782742,-0.791781,-0.449564,0.0630638,-0.731557,0.217592,-0.935426,-0.937779,-0.953832,-0.477054,0.624355,0.332479,0.861321,-0.18599,-0.316211,0.151616,-0.742282,0.825003,0.915245,-0.133428,0.54846,-0.765996,-0.963289,-0.181079,0.276326,0.744987,0.0818952,-0.406649,-0.980291,0.0234445,-0.559352,-0.618198,-0.276013,0.0217211,-0.85969,0.681472,-0.623134,0.323111,-0.151943,-0.796668,-0.566627,0.777004,
32th node's weight,0.685502,-0.148318,-0.464996,0.521959,0.750419,0.293723,-0.959149,-0.0807122,-0.578622,-0.618632,-0.82352,-0.434027,0.307602,0.252209,0.799997,0.203065,0.833705,0.236817,0.566737,-0.38048,-0.0593795,-0.431062,-0.737524,-0.964798,-0.649986,0.388165,0.866529,0.244378,-0.570588,-0.933755,0.480326,0.133207,-0.167786,-0.408013,-0.14864,-0.00562718,0.13417,-0.60433,-0.295877,-0.600749,0.832967,0.983964,-0.806666,-0.537506,-0.257009,0.180212,-0.070166,-0.562474,-0.0353305,0.300781,0.770963,-0.947555,-0.0210786,0.905445,0.479779,0.0663114,0.71531,-0.854031,0.0525502,-0.644422,-0.394361,-0.505335,-0.535359,-0.403391,0.989028,-0.523749,0.49972,0.76558,-0.439732,0.706796,0.592827,-0.857399,-0.0316096,-0.487044,0.633101,-0.326007,0.0368849,0.480432,-0.783973,0.149782,-0.031362,-0.189735,0.701051,0.571968,-0.95145,0.409338,-0.653089,0.749339,-0.562169,0.112043,-0.886628,0.496861,0.0712478,0.592289,0.888948,-0.526121,-0.438053,0.408733,-0.796509,0.735269,
33th node's weight,0.501451,0.0673483,-0.675025,-0.790005,-0.243646,-0.56443,0.34035,-0.112131,0.744534,-0.0411377,0.160631,0.320168,0.913687,0.79913,-0.769255,0.966264,0.839815,0.11048,-0.657581,0.25623,0.311145,-0.117438,0.93585,-0.212862,0.220994,0.832975,0.929096,-0.0703148,-0.10875,0.0662668,-0.631369,0.924839,-0.295566,0.593495,-0.580902,-0.2182,-0.741396,0.547783,-0.195603,-0.88483,-0.97223,-0.0401351,0.990641,-0.342965,0.106207,0.911799,0.831032,-0.0319034,-0.583496,0.168302,-0.615699,-0.756015,0.0916081,-0.0124823,0.989465,-0.944382,0.230864,0.645629,0.872199,0.330285,-1.02753,-0.94654,-0.811695,-0.516408,0.870505,-0.464331,0.242328,-0.495278,0.90561,0.793268,0.533873,-0.507222,0.676531,0.281508,-0.917201,0.522152,0.779443,0.518566,-0.808153,-0.924452,0.700341,0.164747,0.312137,0.3416,-0.141882,-0.0871852,-0.569707,-0.926039,-0.583451,0.18019,-0.518842,0.748035,-0.769307,-0.0820846,-0.491399,0.0524934,-0.714785,0.266893,0.433589,-0.461344,
34th node's weight,-0.42834,-0.652229,-0.168897,0.225991,0.178487,0.756593,0.797295,0.0161789,0.511172,0.111555,-0.276132,0.074473,0.898431,0.0353136,0.390492,0.283184,-0.500206,0.354119,0.727654,0.376896,-0.833444,0.601803,0.854571,-0.130364,-0.615985,-0.778188,0.109318,0.582498,-0.15934,-0.935688,-0.143707,-0.0391127,-0.702208,0.527555,-0.619469,-0.192063,-0.479791,0.156735,-0.0391293,-0.0560479,-0.981734,0.812443,-0.913325,0.929438,0.583057,0.128958,0.16789,-0.911184,-0.31847,0.219649,-0.291031,-0.379509,-0.361589,-0.296992,0.188846,-0.0646764,0.261972,-0.738994,-0.0524429,-0.73646,0.573422,0.187002,-0.109118,-0.641901,0.446443,0.287986,-0.144523,-1.01505,-0.835742,0.620391,-0.355419,0.0209435,-0.538862,0.663766,0.39031,-0.794476,0.00402022,0.584803,0.559023,0.216278,0.395813,-0.606983,0.40884,-0.0384535,-0.436775,0.0883551,0.6733,-0.856185,-0.503807,-0.836865,0.585389,-0.50554,0.870435,-0.00203849,-0.37796,0.427952,0.683732,-0.405265,-0.241572,-0.365769,
35th node's weight,0.232363,-0.789678,0.247933,-0.235908,0.411298,0.639831,-0.399297,0.400174,0.539409,0.73742,-0.439047,0.278362,-0.97545,-0.07379,0.73421,-0.863915,0.315635,-0.0584517,0.447724,0.307279,0.821605,0.177167,-0.0760615,-0.853543,-0.493428,-0.557238,0.871326,0.857327,0.924997,-0.872013,-0.0619365,-0.304316,-0.378082,0.87584,0.441135,-0.262417,-0.858749,-0.62081,-0.564104,-0.716334,-0.666027,-0.392828,-0.558317,0.210154,-0.194099,-1.00452,0.598681,0.803841,-0.704315,0.515084,-0.210913,-0.838594,-0.620074,0.461401,-0.578443,-0.718352,-0.879783,-0.765886,0.51683,-0.904015,0.136484,-0.534665,-0.831901,-0.676714,0.0453198,-0.137897,0.16705,-0.683921,0.570998,0.671966,-0.0435973,-0.102776,0.101321,-0.0946196,-0.31719,0.652295,-0.564811,-0.665263,-0.244878,-0.25894,0.83679,-0.366611,0.792099,-0.700309,0.160487,-0.827785,0.212714,0.945196,-0.715301,-0.115922,-0.419415,0.303604,-0.937637,-0.861526,0.43919,-0.941778,-0.90676,-0.544756,-0.424841,0.571443,
36th node's weight,-0.925415,-0.715498,0.669893,-0.463176,0.0310805,0.929888,0.275715,-0.243486,0.148477,-0.0478301,0.712285,0.0626572,-0.733765,0.936155,0.783232,0.501574,-0.149208,0.412928,-0.809087,-0.753449,-0.847822,0.470084,0.922229,0.472256,0.126461,0.752349,-0.931134,0.43658,-0.0923594,0.39275,-0.830038,0.933286,0.710651,-0.595229,-0.154058,0.0517495,-0.0507833,0.692066,0.210007,0.007439,0.712022,0.0637159,0.911691,-0.424114,0.127246,0.938044,0.59682,0.393866,0.421337,-0.422133,0.82881,-1.01705,-0.137671,-0.559534,-0.171406,-0.173323,0.111326,0.41971,0.187211,0.432233,0.217276,0.863906,-0.357917,-0.192525,-0.83267,-0.585477,-0.401684,0.67065,-0.307238,0.125262,0.0056473,-0.258534,-0.11249,-0.752156,0.299909,-0.506453,-0.0070844,-0.297988,-0.381557,-0.106508,-0.263975,0.06235,-0.868215,-0.607545,0.919101,0.00657709,0.281075,-0.700681,0.826924,0.439072,-0.826442,-0.8366,-0.100753,0.275675,-0.416661,0.356774,-0.894102,-0.976063,0.13517,0.416421,
37th node's weight,0.245462,0.363521,0.683578,0.371947,0.310125,0.76917,-0.699078,-0.89776,0.997635,-0.518608,0.262245,-0.375878,-0.705319,-0.811432,0.963393,-0.396511,0.839064,0.401231,0.910975,0.225314,0.349627,-0.352419,0.413196,0.511083,0.575971,-0.615005,-0.623723,0.687882,-0.413368,-0.334653,-0.808181,0.563575,-0.788923,-0.394256,-0.798149,0.115693,0.278393,0.345558,-0.587933,0.361092,-0.261251,-0.985451,-0.748397,0.319212,0.987861,-1.01695,-0.757179,0.688376,0.479903,0.724477,-0.0802662,0.743154,-0.629664,0.451261,-0.21196,0.05393,0.771193,0.0826776,0.786995,0.617522,0.564939,0.87694,-0.125529,-0.257767,-0.728054,-0.121179,-0.320886,-0.389985,0.0307715,-0.0969906,-1.05556,-0.837254,-0.86287,-0.938503,0.983738,0.617653,-0.35971,-0.0679061,-0.817252,-0.0932273,0.574796,-0.302425,0.88763,0.898887,-0.683031,-0.562169,0.172714,-0.885805,0.36578,-0.190147,0.975847,0.580294,-0.815743,0.78006,0.794314,-0.981167,0.752763,-0.0717527,-0.953122,0.457993,
38th node's weight,-0.786406,0.105351,-0.208679,-0.774173,-0.611867,-0.691562,-0.238145,0.87995,-0.79792,-0.303538,-0.184154,0.561215,-0.891822,0.666783,0.651881,-0.392947,0.624086,0.357991,-0.805553,0.0901884,-0.542558,-0.323839,0.271383,0.189396,-0.365161,-0.0276441,-0.194822,0.361955,0.706162,-0.653745,-0.782947,-0.626343,-0.417999,-0.979889,-0.835726,-0.0484937,-0.712309,-0.938472,0.973918,-0.734235,-0.646088,0.629275,0.797379,-0.0275216,-0.128747,0.912546,-0.0408463,-0.572853,-0.245475,0.123341,0.35432,0.270254,0.289434,-0.481898,0.2311,0.0549718,-0.772457,0.81277,-0.0939804,0.452411,-0.712891,-0.323547,0.967722,0.394989,-0.748335,0.0682459,0.0318328,-0.202842,-0.868923,-0.298001,0.62312,0.170984,0.774518,0.0381066,-0.405008,-0.693467,-0.815134,0.119353,0.150008,-0.719808,0.0747203,0.128538,-0.162883,0.349707,-0.0281513,0.220111,-0.787471,-0.824619,-0.0429889,0.0797796,-0.495526,-0.207417,0.37434,-0.245175,0.530518,0.476675,0.392789,-0.863155,0.857812,0.929708,
39th node's weight,-0.891027,0.372132,-0.795266,0.0512683,0.911227,0.272216,-0.169994,-0.257241,0.850607,0.429211,0.598063,0.62937,-0.531086,-0.359346,-0.668511,0.281758,-0.178852,0.220046,-0.205451,-0.507978,0.775311,0.134114,-0.342178,0.87317,-0.609643,-0.0937654,-0.826733,0.785864,-0.00330488,-0.804372,1.00628,-0.357755,0.0932191,-0.487422,0.0652153,0.655987,-0.959149,0.615112,-0.795018,-0.567571,-0.284662,0.325393,0.129855,0.999743,-0.433445,-0.606657,0.447009,-0.824763,0.457374,0.631997,-0.521669,-0.463962,0.183955,0.0189424,0.271221,-0.646828,0.680941,0.315461,0.676608,-0.0351165,-0.978931,-0.036824,0.566861,-0.718925,-0.890524,0.983326,-0.982091,0.958269,-0.46787,-0.0235438,1.00596,-0.0129003,0.226715,-0.669458,0.790346,-0.195411,0.720549,-0.896975,-0.1241,-0.374029,0.549499,0.0351679,0.490672,-0.638562,-0.193837,0.939603,0.639318,0.385086,0.391013,0.865034,-0.984885,0.807468,-0.937266,-0.638948,0.997306,0.753526,-0.295849,-0.369403,-0.167486,0.146757,
40th node's weight,0.545436,0.96339,0.475158,0.501767,0.105476,0.385706,0.65122,-0.441653,0.0724118,-0.830263,0.170554,-0.483437,-0.053288,-0.874909,0.868391,0.239139,-0.693686,0.0495255,-0.118207,0.229094,0.493301,0.914264,-0.780427,0.0783455,-0.463498,0.18451,-0.241474,-0.702208,-0.265208,0.504255,-0.789565,-0.152222,-0.567355,0.747458,0.225073,-0.750895,-0.0235628,-0.760034,-0.177675,-0.106681,0.180169,0.878918,-0.301675,-0.876185,0.252121,0.484332,-0.641918,0.382566,0.0600506,0.730116,0.546514,0.805252,-0.196507,-0.344643,0.819658,0.864238,-0.41099,-0.99319,0.588146,-0.95984,-0.107609,-0.578444,-0.719345,-0.798022,-0.64855,0.828529,-0.0490081,-0.0645239,0.799031,0.37129,-0.542468,0.562972,-0.47558,-0.390675,-0.237775,-0.258344,0.461791,-0.381309,0.100699,-0.0628447,-0.975847,-0.782884,-0.570586,-1.003,0.8439,0.761236,0.600478,0.464561,0.671694,0.271613,-0.520091,0.197808,0.223937,0.23008,-0.089244,-0.136822,-0.632596,-0.551704,0.435826,-0.927002,
41th node's weight,0.296904,-0.269977,-0.378766,0.548443,0.0631241,0.442895,-0.500993,0.422213,-0.360063,-0.188274,-0.179898,0.113224,0.318329,0.0302286,-0.0841063,-0.615658,-0.363917,0.449455,0.906002,-0.895506,-0.856417,-0.992406,-0.227933,0.388263,0.950808,-0.365309,-0.935468,-0.125209,-0.366404,-0.795931,0.0477587,0.195463,0.732769,0.625914,-0.158139,0.82257,-0.524587,0.162048,0.4174,-0.279775,0.585002,0.428868,-0.892669,0.0209071,0.433832,-0.393088,-0.95004,-0.692635,0.0535716,0.569665,-0.168549,-0.566894,0.574277,-0.473182,-0.25168,0.986336,-0.585341,0.0199138,-0.844791,0.495795,0.863007,-0.299535,-0.0609043,0.588638,0.749736,-0.0218253,-0.792224,0.673468,-0.341552,-0.955445,0.543146,-0.399993,0.421172,-0.893842,0.989156,-0.234025,0.549522,-0.493784,-0.53208,-0.0942884,0.287434,-0.804814,-0.588547,-0.0165578,-0.95662,-0.486037,0.143234,-1.03925,0.394381,-0.934802,-0.700565,-0.326938,-0.390944,0.30245,-0.730205,-0.105241,-0.589358,-0.811422,0.471178,-0.252501,
42th node's weight,-0.862288,0.748402,0.693204,0.785683,0.650694,-0.209,0.818761,-0.740871,0.493041,0.886959,0.884975,-0.375434,0.870026,0.462374,-0.0075411,-0.583561,-0.153955,-0.128838,-0.953819,-0.316019,0.777921,0.381973,-0.579001,-0.575209,0.00615409,-0.51562,-0.653387,-0.32953,0.736304,0.306343,0.131473,-0.691794,-0.139332,-0.557161,0.869567,0.828665,-0.765996,-0.859574,-0.243811,0.775625,-0.122403,0.619631,0.673385,0.68297,-0.952996,-0.377695,-0.476521,0.687017,0.309333,-0.771279,0.904776,0.226741,0.60996,-0.148006,0.854893,-0.816167,0.228884,-0.00293687,0.23612,0.207347,-0.902285,-0.878661,-0.444418,0.754424,-0.652409,-0.288407,-0.709592,-0.0548468,0.325517,-0.539118,-0.0611708,0.948016,0.319376,-0.678954,-0.609668,0.0603067,0.699145,0.563929,0.0513037,-0.960259,0.733882,0.851521,-0.636374,-0.691429,0.617851,-0.0573254,-0.421169,0.478227,-0.355871,0.168554,-0.429018,0.918418,0.830026,0.308212,0.962214,0.740314,-0.193853,0.245751,0.135363,-0.876567,
43th node's weight,0.693045,0.408015,0.185337,0.607141,-0.936065,0.254639,-0.692105,-0.827943,-0.154002,0.449466,-0.70207,-0.226593,-0.964484,-0.189241,0.294336,-0.753253,-0.0332535,0.439319,0.879588,0.0639522,0.080697,0.456455,-0.744786,-0.890971,0.919573,-0.679257,-0.290717,0.7738,0.735556,0.126648,-0.442412,0.943148,-0.348168,0.948647,0.640151,-0.739539,0.140468,0.361339,-0.936202,0.520175,-0.329439,-0.0522054,0.755643,0.83278,0.509956,-0.275381,-0.418583,-0.583354,0.105821,0.554096,0.909643,0.0542949,0.9111,0.739595,-0.450466,-0.90327,-0.449272,-0.419058,-0.0141547,-0.909072,-0.0229191,-0.184397,0.00748334,0.237251,0.681129,0.520115,-0.76399,-0.212056,0.3871,0.0826922,0.785006,-0.965479,-0.876095,0.24667,0.324961,-0.775069,0.266547,-0.0460821,-0.93561,0.0629501,-0.0135265,0.496055,-0.457918,0.520978,-0.941973,0.456667,0.629026,-0.920933,0.565643,-0.427147,0.129095,0.999488,-0.072626,0.359791,-0.559838,-0.126334,-0.801993,-0.599857,0.660847,0.133862,
44th node's weight,0.110949,-0.913849,0.714413,-0.737006,-0.314641,-0.680346,0.0156496,-0.749321,-0.51783,-0.526479,0.0104373,0.884365,-0.834438,0.781423,-0.932315,-0.239431,0.997265,-0.152557,0.178235,0.31009,0.619532,-0.787276,0.805589,0.727148,0.739222,0.052847,-0.0439274,0.460201,-0.518055,0.996175,-0.351016,0.758777,0.0650328,0.670809,-0.820995,0.650817,-0.18771,-0.0122373,0.388277,0.596634,-0.57748,-0.663876,0.571453,0.751943,-0.314094,0.226707,0.367628,-0.941834,0.410252,0.628519,0.0307975,-0.00556574,-0.595903,-0.391325,-0.105899,-0.450025,0.720488,-0.0811013,0.701928,-0.972871,-0.340814,-0.701609,-0.395079,-0.657249,-0.721907,-0.0203979,0.695971,-0.95201,-0.971811,-0.825105,0.93699,0.64635,-0.221902,0.479734,0.856068,0.0302537,-0.975966,-0.74038,-0.410143,0.255164,0.196229,-0.0752708,-0.0166143,-0.978655,0.429721,-0.512536,0.0481711,1.07091,0.506942,-0.368234,0.0678352,-0.20039,-0.143249,0.122217,-1.08182,0.884222,0.451855,-0.635782,-0.217736,-0.688099,
45th node's weight,-0.69922,0.61312,0.539557,-0.50416,0.191901,-0.333135,0.608612,-0.250168,0.326797,0.670325,-0.306473,0.0810477,-0.612023,-0.840131,0.670592,0.73365,0.223388,0.606899,-0.936379,0.144312,0.402985,-0.6489,0.318281,-0.1573,-0.0771353,0.722523,0.394526,-0.609299,0.0446619,-0.42605,-0.44354,0.397801,-0.968647,0.85357,0.695976,-0.400476,-0.0287572,-0.856823,-0.382887,-0.0261163,0.645176,0.931389,0.81695,0.875703,-0.0920297,-0.115321,-0.900609,-0.776949,0.79681,-0.904363,0.20264,0.590282,0.743369,0.939146,-0.499747,-0.830714,0.218602,0.375902,-0.945589,-0.280463,0.0932255,0.264563,-0.510992,0.841489,0.137306,0.300697,0.771219,0.289677,-0.0951705,-0.122842,0.284204,0.483235,-0.458304,0.958942,0.0872439,0.950216,0.147901,-0.215026,0.752787,-0.831132,0.240424,-0.762108,0.888448,-0.197842,0.523549,-0.233952,-0.896341,0.910959,0.38799,-0.0543146,-0.987749,1.01212,-0.721408,-0.0253628,0.106391,0.384676,-0.895343,0.611141,-0.0376751,0.0745956,
46th node's weight,0.197336,0.561779,-0.181326,0.974601,-0.0971961,-0.260601,0.105246,-0.484308,0.922546,-0.64358,-0.915323,0.416573,-0.884794,-0.0920871,-0.0336765,-0.338154,-0.779135,-0.890832,-0.797306,-0.132625,-1.0605,0.468453,-0.691748,-0.602338,0.43675,-1.00395,0.365097,-0.0170269,0.890578,0.383591,-0.185121,-0.496055,0.895556,0.126915,-0.545406,-0.987646,0.934707,-0.581974,0.392711,-0.462471,0.723064,-0.408884,0.578492,0.362015,0.727998,-0.696796,0.198655,-0.818181,-0.875038,-0.336425,-0.604901,-0.854193,0.237777,0.281978,-0.569821,0.177438,0.384321,-0.813938,0.966187,0.437086,-0.465575,-0.188854,-0.732072,0.311328,-0.666699,1.02438,-0.690781,-0.340622,-0.87871,0.752988,0.696762,-0.837669,-0.205309,0.000518321,0.599093,-0.176798,-0.84559,0.783646,0.0145617,0.388786,-0.302064,0.17929,-0.0430364,0.35573,-0.654789,0.925768,-0.332091,0.423741,0.300134,-0.313448,-0.333567,0.576464,0.22095,-0.539073,-0.851932,-0.605979,0.492214,-0.254236,0.660837,0.938263,
47th node's weight,0.814194,0.828202,0.0688797,-0.0936362,0.121781,0.813274,0.651552,-0.712646,0.384518,-0.762375,-0.57219,0.717112,-0.145532,-0.597679,-0.0561924,-0.704386,0.809447,-0.889769,-0.220251,0.271352,0.571281,-0.970039,-0.185445,-0.57602,-0.948264,-0.354332,-0.208602,-0.252614,0.345408,0.488789,0.265871,0.433736,0.557339,-0.139636,0.44672,-0.713052,-0.0824222,0.0556714,0.949456,-0.562729,-0.395241,1.11178,-0.623807,0.791435,0.516374,0.409274,0.124535,0.122125,0.20092,0.633953,0.743238,-0.938622,-0.626701,0.800015,0.458289,-0.956587,-0.136178,0.388437,-0.372156,-0.827697,-0.329868,0.0865833,0.180877,-0.436142,-0.988144,-0.291199,-0.274216,0.850377,-0.55864,0.0185833,-0.681754,-0.250128,0.645224,0.0342379,0.940137,0.565297,-0.853977,0.563514,0.194152,0.540405,-0.0743498,0.329229,-0.720771,0.91899,0.314168,-0.697981,0.992301,0.27481,-0.781422,-0.270289,0.216898,-0.659184,0.43698,-0.339313,-0.677457,-0.0224379,-0.633619,-1.02369,0.781948,0.414125,
48th node's weight,0.522331,0.404068,-0.449446,0.829745,0.420028,0.514316,0.356246,0.95456,-0.810737,0.959407,0.622037,-0.700852,-0.782995,-0.479318,-0.433007,-0.471459,-0.629563,-0.347106,0.825483,0.217546,-0.412244,0.689895,-0.611642,0.466791,0.554032,-0.75267,-0.322092,0.168422,-0.184769,-0.486524,-0.322637,-0.417317,0.0203509,0.929893,0.302131,0.659992,0.51917,0.158163,-0.241977,-0.237728,0.799986,0.763243,0.638298,-0.258053,0.732661,-0.913766,-0.00406092,-0.401166,-0.753933,0.789107,-0.618856,-0.10438,-0.202659,-0.923941,-0.502218,-0.498302,-0.188107,-0.932961,0.446809,-0.611352,0.823651,0.0374398,-0.752166,-0.841913,-0.337759,0.847079,0.187253,-0.239992,-0.726368,-0.267142,-0.363395,-0.57562,0.498733,0.00118063,-0.589963,0.867033,0.459797,0.26928,-0.481574,0.636757,-0.467192,0.369261,0.944667,0.723514,-0.357718,-0.239279,0.353991,0.543259,-0.236007,0.911605,-0.355763,0.829837,0.912067,0.354603,-0.911649,-0.959386,-0.121361,-0.710753,0.344979,0.0716537,
49th node's weight,0.901574,0.904888,0.458412,0.935654,0.155505,0.348301,-0.796433,0.354137,-0.348202,-0.847033,-0.0698779,-0.526903,0.502638,-0.477636,-0.327449,-0.508986,-0.729431,0.539661,-0.959329,0.20175,-0.258847,-0.588691,0.743151,0.6586,-0.487848,-0.776115,0.802017,-0.824538,-0.825942,-0.0191489,-0.499668,-0.600698,-0.40511,-0.404475,-0.924208,-0.133384,-0.833538,0.680946,0.920634,-0.546234,-0.377353,0.0833514,-0.480628,0.18672,-0.779425,-0.857227,0.881529,-0.277011,0.267898,-0.556576,-0.674672,0.912792,0.241117,0.484081,0.106387,-0.825372,0.238988,-0.941256,-0.709056,0.898632,-0.635066,-0.471393,-0.175174,0.489168,-0.37642,-0.782684,-0.778434,-0.793181,0.321134,0.378565,0.277919,0.928613,0.601122,-0.773943,-0.823019,-0.499721,0.204123,0.7577,0.42353,0.864805,0.975872,0.0981534,-0.244833,0.6299,-0.124902,0.426815,0.977998,0.396815,0.953099,-0.045313,0.133172,0.291743,-0.414826,0.322924,-0.227637,0.65684,0.237392,0.399709,-0.745931,-0.802432,
50th node's weight,-0.590131,-0.4785,-0.420619,0.0561785,0.962588,-0.670667,-0.774392,-0.689816,-0.597286,0.63426,0.969692,0.337402,0.509795,-0.211033,-0.153276,-0.743475,0.642729,-0.464496,0.424188,0.425781,-0.823939,-0.93235,-0.264793,-0.451297,-0.546865,0.780267,-0.130402,-0.3611,0.736059,0.429908,-0.90183,-0.86587,0.196721,-0.189648,1.00106,0.815344,0.328258,0.34756,-0.735007,0.435021,-0.725099,0.116467,0.0268791,0.867548,-0.178128,0.693059,0.128469,-0.667849,-0.294987,-0.843606,-0.921323,0.101174,-0.465704,-0.0270538,-0.462502,0.890613,0.399312,0.0994895,-0.185266,-0.793744,-0.591058,-0.79448,-0.152641,0.882419,-0.248187,0.502937,-0.410254,0.942382,-0.164126,-0.747234,0.613697,0.553343,0.839421,-0.103764,-0.347747,-0.782569,0.826764,0.504605,0.858144,-0.981649,0.456798,0.543152,0.892461,0.523306,0.388746,-0.237434,-0.74801,0.112971,0.432626,-0.130903,-0.67488,0.248233,0.00301274,0.244692,0.610919,0.709674,0.855867,0.952302,0.926127,0.667418,
51th node's weight,0.241774,0.361927,-0.116457,0.209518,-0.65657,-0.398435,-0.894811,0.891831,0.254093,0.921827,-0.502418,-0.525473,-0.802321,-0.318103,0.100645,-0.875729,-0.0594101,-0.302716,-0.389004,-0.0618753,-0.295173,-0.0203937,-0.362751,0.00328789,-0.453053,0.387541,0.734208,0.00633419,-0.0504677,-0.911821,0.756761,-0.263019,0.126525,-0.0636512,-0.331884,0.512621,0.408552,-0.218302,-0.331542,0.277193,0.96937,-0.500471,-0.325124,-0.974052,0.330171,-0.167233,-0.0762638,0.612262,-0.913599,0.89412,0.258711,0.584099,0.0727883,-0.736854,-0.856303,-0.387112,0.856578,0.404165,0.785934,-0.331359,-0.659598,0.0338512,-0.746914,0.26267,-0.264511,-1.06868,0.897603,0.853726,0.218206,-0.605227,-0.179664,-0.0402357,-0.316142,0.237633,0.735,-0.735346,-0.625251,-0.330884,-0.678491,-0.909978,0.242486,0.717906,0.117043,0.000482958,-0.46172,0.0881261,-0.667687,-0.162828,0.141976,-0.827049,-0.161915,0.899054,0.533357,0.917644,0.255962,-0.70978,-0.30764,-0.760189,0.0178982,-0.28704,
52th node's weight,0.867856,-0.335882,-0.9352,-0.92275,0.573906,-0.260796,-0.546354,0.51777,-0.679374,0.796496,0.142742,1.02083,0.463426,0.0669231,0.745205,-0.693688,0.532371,0.335373,0.89816,-0.983987,0.731442,0.218907,-0.288218,-0.627457,0.083261,0.343468,0.810368,0.887847,-0.307005,-0.0657038,-0.578294,-0.15596,-0.473387,-0.701943,0.0816023,-0.823396,0.0886842,0.11305,0.171175,0.958973,0.239768,-0.225962,-0.747971,-0.891895,0.209217,0.890417,0.262517,-0.826743,0.314905,-0.461586,-0.272002,0.304647,-0.555166,-0.793995,0.884394,-0.314189,0.696307,0.421448,0.251197,-0.456753,-0.119974,-0.911009,-0.86411,0.3247,-0.928485,-0.364155,0.903437,-0.158425,-0.49561,0.314027,0.114593,-0.29226,0.298757,-0.993398,0.412476,-0.00549594,-0.350319,0.86326,0.743591,0.100968,0.00660747,0.33863,-0.747962,-0.20844,-0.676445,0.898985,-0.93448,0.0922876,0.408265,-0.573445,0.754311,0.591935,0.9019,0.490011,0.703494,-0.611896,-0.149925,-0.0671504,0.581695,-0.0076307,
53th node's weight,0.649516,0.173302,0.0375057,-0.805544,0.517978,-0.365397,-0.150684,0.0681248,0.174743,0.44559,-0.444666,0.300487,0.153432,0.278697,0.765577,-0.742166,-0.0415455,-0.56192,0.125416,-0.0790034,0.502013,0.0956689,-0.555192,0.292292,-0.200978,-1.01017,-0.708154,0.470731,-0.81425,0.709853,0.0662024,0.824246,-0.939923,-0.9561,0.0828281,-0.497413,0.407371,-0.117117,0.265691,0.636287,0.0487119,-0.824839,-0.381749,0.580689,-0.428142,-0.408445,0.322091,0.0130133,-0.29959,-0.940411,0.574971,-0.147712,-0.571532,0.758031,-0.667574,-0.680573,-0.822127,0.311013,0.361553,-0.309986,0.863859,0.00283817,0.456068,-0.836164,0.89256,0.432084,-0.676441,-0.177594,-0.277602,-0.0707542,0.437718,0.502009,0.221091,-0.149339,-0.890456,0.265966,-0.850528,-0.888602,0.515187,-0.517237,0.536757,-0.938933,-0.925718,-0.404799,-0.714364,-0.699063,-0.775102,-0.910864,0.78458,0.010803,-0.745923,-0.645921,0.753094,-0.443236,0.476966,-0.401838,-0.453372,-0.661417,-0.719729,0.833057,
54th node's weight,0.390854,0.457889,-0.902725,0.748854,-0.211471,-0.697005,-0.153061,-0.621869,0.687327,-0.75224,-1.02072,-0.491167,-0.51065,-0.907363,0.501755,-0.178981,0.112839,-0.409066,-0.00659839,0.0368783,0.195949,-0.513049,0.757493,-0.470035,0.0406085,0.697319,-0.686212,0.60194,0.0698306,0.171686,0.889317,-0.240443,-0.691138,0.938813,0.209553,0.280398,-0.162598,-0.23073,-0.097633,-0.579031,0.823787,0.656135,-0.942869,0.982714,0.0348879,-0.426845,0.0989832,0.916944,-0.340119,0.697011,0.49363,0.909061,0.165212,0.729851,-0.930147,-0.825437,0.334036,-0.542195,-0.243796,-0.386633,-0.643201,0.557686,0.903493,0.375542,0.741782,-0.58858,-0.15709,0.722725,0.351234,0.0994841,0.236218,-0.307366,0.93265,-0.65301,0.617668,0.781272,0.974081,0.101666,0.625643,0.026102,-0.771467,-0.225421,-0.489122,-0.765973,-0.00480244,0.106386,-0.0368594,-0.25377,0.337526,0.181744,0.220433,0.560781,0.983802,-0.781759,0.710472,0.943889,-0.81322,-0.590953,0.0590822,0.160966,
55th node's weight,-0.101841,-0.788582,0.638635,0.293034,-0.187191,0.947717,0.769928,-0.304069,-0.0551336,0.400698,0.943294,0.831846,-0.776946,0.85858,0.278965,0.0719997,-0.0328855,-0.265263,-0.634804,0.272393,0.24534,-0.725544,-0.814104,-0.884463,-0.565498,-0.446458,-0.637691,-0.388782,0.18352,0.982273,-0.519234,-0.627003,0.848356,-0.748214,0.732199,-0.332942,0.306326,-0.467104,-0.447959,-0.911817,0.0111174,0.58037,0.307648,-0.334172,-0.926143,-0.285856,-0.223583,0.423455,0.0511318,0.599249,0.664224,0.718371,-0.0419133,0.893142,0.262012,0.702171,-0.331943,0.754535,-0.784307,0.200043,-0.347999,0.225552,-0.621538,-0.11593,-0.426175,0.368652,0.519326,-0.115053,-0.185725,0.551076,0.216246,-0.327757,0.722653,-0.532541,-0.457029,-0.34441,0.0145741,0.0616799,-0.478271,-0.124376,-0.4672,0.379423,0.18269,0.585429,0.325183,0.21256,-0.647494,-0.0387267,0.543328,-0.65007,-0.959925,-0.323546,-0.685605,-0.457195,-0.106092,-0.0912056,0.147109,-0.264949,-0.486878,-0.314894,
56th node's weight,-0.123757,0.146188,0.913517,0.78655,-0.265018,-0.688399,-0.330525,0.994175,0.0489767,0.814943,-0.432672,0.892198,-0.772582,-0.937378,-0.125264,0.249351,0.379034,0.589578,-0.764184,-0.122055,-0.551919,0.342703,-0.0842899,-0.590314,-0.482089,-0.753241,0.340512,-0.791036,-0.471042,-0.0907448,-0.384146,-0.193236,0.440065,-0.301402,0.507842,0.0551925,-0.737353,0.689077,0.767836,0.951056,-0.905931,0.0594345,-0.140803,-0.99467,0.139626,-0.337481,-0.778976,-0.978855,-0.521837,-0.740968,0.157568,-0.5919,0.387198,-0.809544,0.664383,-0.249308,0.263801,-0.93789,-0.171935,-0.469566,0.0361551,0.039363,-0.150977,0.281082,0.590844,0.313463,0.648939,0.526084,-0.703751,0.875639,0.228615,-0.289414,0.0498032,-0.0192167,0.164971,0.490259,-0.230158,-0.942821,0.995411,0.20803,-0.376496,-0.470492,0.473276,-0.58952,-0.724744,0.028547,-0.761809,-0.696778,0.904802,-0.576179,0.327043,0.460189,0.451372,-0.806841,0.570832,0.543995,0.920896,-0.85104,-0.875305,0.872913,
57th node's weight,0.402396,0.817892,-0.185865,-0.921388,-0.788928,0.818484,0.37844,0.39036,0.391425,0.210723,-0.790561,-0.431852,0.689876,-0.833258,-0.646045,-0.418464,-0.146105,0.469959,-0.432555,0.380843,0.787988,0.497886,-0.922831,0.981661,0.272893,-0.200638,-0.687762,-0.520012,-0.84214,0.703946,0.780996,-0.115534,0.806372,-0.289463,0.133743,0.0266043,0.614636,-0.21895,0.99974,0.598688,-0.32377,0.223192,-0.354158,-0.493757,0.306466,-0.391183,-0.483049,0.719044,0.299344,-0.355257,-0.997183,0.752238,0.671021,-0.684738,0.957296,0.0383167,0.406429,0.107979,-0.307542,0.105096,-0.176315,-0.86325,0.0830516,0.0287922,0.790992,-0.316082,-0.069075,-0.891073,-0.462817,-0.962699,0.585406,0.566848,0.00337302,-0.244427,0.589232,0.166615,0.394772,0.13975,0.460533,-0.576816,-0.896371,0.472947,-0.372914,0.795992,0.117646,0.29231,-0.614874,-0.627748,0.675409,0.969656,0.981357,-0.401915,-0.318271,0.243351,0.481293,-0.982616,0.104231,-0.63452,-0.600365,-0.462415,
58th node's weight,-0.918436,0.864244,-0.387084,0.320085,-0.973402,-0.445748,-0.827287,0.605978,0.219125,0.704491,-0.938373,-0.167957,0.736527,0.736605,-0.728387,-0.178301,0.0144648,0.977849,-0.604944,-0.569134,0.366331,-0.290955,-0.645278,0.011099,0.370392,0.299452,-0.980889,-0.478863,-0.0591066,-0.582331,0.495847,0.248192,0.151595,-0.998236,0.266918,0.102731,-0.0627951,0.582098,0.30031,0.455709,0.792997,0.488338,0.203594,-0.442861,0.794364,0.715788,0.644997,0.253477,0.261511,-0.692672,0.987442,0.554167,0.400122,0.984128,-0.102367,-0.599327,0.735976,0.477648,0.553555,-0.478245,0.287542,-0.4576,-0.745569,0.586479,-0.0576325,0.357803,-0.562325,-0.709244,0.727048,-0.91907,0.850267,0.504237,-0.596056,-0.179389,-0.550511,-0.447417,-0.830393,0.624067,0.346719,0.37167,-0.827966,0.848991,-0.140013,-0.0774829,0.789835,-0.47387,-0.556623,-0.181347,-0.105029,0.145104,-0.615035,0.0727937,0.593922,0.311124,0.60263,0.0942995,-0.706329,-0.678235,0.535662,-0.960409,
59th node's weight,-0.23416,0.763638,0.557812,0.907664,-0.929407,-0.80217,-0.616736,-0.331416,-0.437467,0.544197,0.201523,0.661989,0.448127,-0.208224,-0.55712,0.177741,-0.155018,0.834708,-0.43636,-0.193929,-0.906575,-0.331909,-0.0108803,0.634169,-0.774197,-0.700533,-0.734203,0.251174,0.559435,0.80666,-0.72183,0.541355,0.0855377,0.262684,-0.0339963,-0.273827,0.453019,0.786096,0.884807,-1.00721,0.780736,-0.116217,0.850065,-0.728461,0.633185,0.340565,0.194257,0.389652,0.576833,-0.923029,-0.415682,0.318815,-0.0392677,-0.643471,-0.0221751,0.634229,-0.568757,-0.339285,-0.684864,-0.623737,-0.258524,-0.244709,-0.643685,-0.957027,0.0506096,0.210131,0.257971,-0.0513304,0.208638,0.228003,0.349209,-0.494328,-0.665816,0.116553,-0.95308,-0.124126,0.249498,-0.489771,-0.0144645,-0.4413,0.402749,-0.910112,0.537867,-0.376775,-0.0224009,-0.0784376,0.06194,0.144723,0.159289,0.839955,0.926867,-0.255034,-0.876871,0.959188,0.871031,-0.766832,0.162641,-0.231064,0.0693772,0.842383,
60th node's weight,0.255068,-0.454836,-0.718105,0.909333,-0.898472,-0.715243,-0.67653,0.222765,-0.352982,-0.258751,0.00217892,-0.63168,-0.386433,-0.0970582,0.986224,0.981779,0.769292,-0.337607,0.328631,-0.113514,-0.0597289,0.586715,-0.11251,-0.389607,0.419122,0.288528,0.904683,-0.593387,0.594436,0.701295,0.821285,0.219706,-0.943162,0.169023,0.410567,-0.658725,-0.663554,-0.866076,-0.138644,0.760805,0.691247,-0.485601,-0.644829,0.503781,0.0845422,-0.275932,0.0917582,-0.230819,0.562056,0.273283,0.0310027,0.616841,-0.174984,0.117398,-0.674597,-0.867795,0.363668,0.495513,0.719,0.65054,-0.819625,0.486077,0.0824045,-0.445032,-0.573264,-0.697587,-1.02967,-0.0303981,-0.916642,0.520377,0.751069,-0.816688,0.582897,0.628443,0.665991,-0.319063,0.140708,0.401723,0.550971,-0.3248,-0.129968,-0.251776,-0.0577826,-0.975516,-0.521178,0.782454,0.780012,0.18081,0.786853,0.546434,0.251215,-0.17253,-0.154609,-0.874711,0.645206,-0.0202597,-0.282332,0.00835559,-0.130559,0.761142,
61th node's weight,0.507952,-0.484167,0.869763,0.835351,0.111726,0.655882,-0.621467,-0.248839,-0.394443,0.960029,-0.293537,0.673133,0.835839,-0.340198,-0.418281,0.158994,-0.907446,-0.0950333,-0.596431,-0.417474,-0.404774,-0.308355,-1.00686,0.450153,0.82845,0.856855,0.328584,-0.0232631,0.0647334,0.938354,-0.192553,0.975911,-0.794672,-0.237929,0.490615,0.854608,-0.914543,0.351109,0.719812,-0.972913,0.864659,0.213367,-0.36084,0.666395,-0.390001,0.12926,-0.344261,0.192203,-0.15679,0.449451,0.937384,-0.913142,-0.834293,-0.0649554,-0.292255,0.183127,0.00654834,0.25085,0.339571,-0.237697,-0.728752,-0.749082,-0.0791997,-0.791696,-0.0281609,0.0215827,0.593299,-0.696493,0.151341,-0.971046,0.577577,0.361423,-0.700584,-0.398695,0.339502,-0.739067,0.960188,-0.952817,-0.890788,0.834927,0.520768,-0.458069,0.194682,-0.400547,0.633377,0.708695,0.0535672,-0.98892,-0.774908,-0.31119,0.0602816,-0.751113,0.197114,-0.287447,0.864513,-0.167365,0.816002,0.855254,0.0921409,0.579911,
62th node's weight,0.193366,0.500196,-0.0518973,-0.35488,0.767668,-0.745624,-0.240342,0.479009,-0.765713,-0.3443,-0.0471091,-0.587474,0.0412845,-0.613399,0.997362,-0.696381,0.386577,0.363335,0.113285,-0.983562,0.726758,0.767699,-0.16409,-0.481469,0.464596,-0.716936,-0.250692,0.511857,0.639975,0.641861,0.990445,-0.242439,0.633297,0.445841,0.648094,-0.526737,-0.850494,0.29875,-0.258089,0.195999,-0.275759,-0.558057,0.887285,0.186018,-0.102919,-0.588553,0.836835,0.647756,0.825704,-0.883349,0.653624,-0.150643,0.155406,0.117666,0.787086,0.748677,-0.316782,-0.760285,-0.988448,0.581721,-0.905721,-0.120313,0.772025,0.540533,-0.272851,-0.838406,0.23041,0.21099,-0.112664,0.19568,0.684975,0.00829754,0.121851,0.589864,-0.158683,0.11469,-0.343112,0.838943,1.00771,-0.759101,0.881095,0.633698,0.822721,0.891436,0.42123,-0.533672,0.506358,-0.00758203,-0.338217,-0.274122,0.663455,-0.860687,0.784958,0.317106,0.522927,0.136794,-1.02283,0.935586,-0.046638,-0.353802,
63th node's weight,0.212562,-0.00218905,-0.178697,-0.506486,-0.525725,-0.465076,-0.764507,1.00839,0.52479,0.463613,-0.682772,0.581293,0.194453,-0.530958,0.761497,-0.372628,0.51758,-0.768003,0.892268,-0.610812,0.949756,0.886225,-0.52292,0.365578,-0.752578,0.981046,0.435576,0.952124,-0.771155,0.285272,0.579622,-0.422866,-0.372852,0.474211,-0.556154,-0.736453,0.251527,-0.293873,0.77064,0.145004,0.755093,0.251724,0.0621252,-0.776007,0.372801,0.363064,0.206439,0.360138,-0.764272,-0.0975736,-0.570432,-0.312517,-0.686501,0.886187,-0.632178,-0.853348,0.330804,-0.113463,0.59558,-0.0865828,0.542358,-0.0706155,0.177311,0.684675,-0.662601,0.903503,0.122682,-0.199755,0.37103,-0.00124165,0.975228,0.1807,0.530979,-0.0918863,-0.583296,0.932089,-0.0952035,-0.173207,-0.428452,-0.370082,-0.938801,0.202101,0.83543,0.945809,0.197603,-0.695252,0.627774,-0.902638,0.397614,-0.119904,-0.842531,-0.630867,0.975147,-0.756872,-0.531872,0.745993,0.809493,0.479081,0.307747,-0.665091,
64th node's weight,0.559471,-0.00953015,-0.133304,0.936011,-0.00902651,-1.01843,0.495386,0.915901,0.975339,-0.762429,-0.0623075,0.765604,-0.106006,0.896315,0.885581,0.730591,0.207892,0.774126,0.215402,-0.703687,0.210177,-0.57776,0.0864684,0.583201,0.0358812,0.63489,0.0823839,0.21874,-0.558893,0.973448,0.282353,-0.853585,-0.144828,-0.29773,-0.717617,-0.338903,-0.562147,0.261642,0.328759,0.561348,0.171008,0.347428,-0.223391,0.554156,-0.253435,-0.843869,-0.443796,-0.680964,-0.554329,0.548569,0.142658,0.0617296,0.219678,0.981435,-0.732439,-0.670807,-0.961189,-0.311966,-0.0810208,-0.994668,-0.521752,0.467568,0.235209,-0.295963,-0.228441,0.250774,0.569564,0.534106,0.236105,-0.219769,-0.405641,0.848388,-0.591248,0.686115,-0.801116,0.428827,-0.76558,0.748583,0.794537,-0.18788,0.563388,0.86845,0.768178,-0.288449,0.067814,0.201738,0.660903,-0.893025,0.564388,-0.0774743,-0.854827,0.869714,-0.727244,0.144379,0.591358,0.811698,0.556569,-0.19319,-0.353231,-0.444218,
65th node's weight,-0.574775,0.282423,-0.0469228,0.212336,-0.740625,0.972765,-0.823354,-0.91543,0.932002,-0.523639,-0.0447479,-0.764861,0.120872,-0.635215,-0.412876,0.678982,0.74075,0.668115,-0.76567,-0.839874,0.647641,0.161568,0.235143,0.640235,0.424733,-0.401201,-0.208797,-0.286654,-0.645409,0.864932,-0.866898,0.633851,0.479932,0.906923,0.248651,0.798301,-0.505777,-0.741321,-0.371999,-0.576118,0.779091,-0.879884,0.952957,-0.215641,0.0976954,0.693244,-0.557112,-0.639482,-0.481344,0.786318,0.826627,-0.6166,0.448303,-0.834311,0.0617356,-0.192466,-0.170439,-0.937376,-0.572693,-0.142144,0.0875077,-0.170207,0.859591,0.656725,-0.257772,0.0727528,-0.219941,0.209514,-0.342061,-0.489337,-0.204159,-0.209632,0.326407,0.494396,0.712092,0.629445,-0.0352727,0.995717,0.711732,0.504611,-0.637047,-0.285621,-0.768095,-0.486384,0.413912,0.111756,-0.125927,-0.357109,0.123515,-1.00827,0.598949,0.256832,0.939756,0.751551,0.606202,0.357013,-0.441876,-0.0993466,-0.988489,0.190247,
66th node's weight,-0.0938867,-0.05336,0.459536,0.964691,-0.0893012,-0.963801,-0.373907,-0.136669,-0.139174,-0.358531,-0.666733,0.369002,-0.897891,0.232336,0.609872,-0.743142,0.830715,0.63692,0.23339,-1.00815,-0.0966913,0.169294,-0.0190966,0.926408,-0.301514,0.127997,0.0981271,0.519355,-0.544902,-0.907719,0.85373,0.779696,-0.27298,-0.356824,-0.143691,-0.441547,0.441525,-0.569295,0.555573,-0.815867,-0.763993,-0.33638,0.607737,0.189864,-0.0725787,0.27349,-0.216008,-0.313412,0.910383,-1.02063,0.935258,-0.889336,-0.517387,0.280373,0.981238,-0.436938,-0.759983,-0.907706,0.120271,-0.0699912,0.783257,-0.798354,0.668253,0.556028,0.155885,0.912152,0.105561,0.458831,0.319252,0.895379,0.227058,0.617157,0.739382,-0.135147,0.884149,-0.727424,0.651867,0.140415,0.961808,0.86659,0.427142,0.815977,-0.969985,0.839424,-0.812101,0.333001,0.673088,0.0520472,0.189332,0.508249,0.152193,-0.976463,-0.483787,0.930229,0.437156,0.186376,0.922898,0.274938,0.043167,0.78871,
67th node's weight,-0.199058,-0.055018,0.429428,-0.781555,-0.528311,-0.66454,0.165396,-0.784736,-0.479654,-0.305835,-0.451205,-0.947591,0.0209541,-0.694386,-0.478554,-0.237906,0.0125519,0.323913,0.904815,0.600173,0.299669,0.872159,0.894014,0.192997,0.109297,0.38789,0.47022,0.788844,-0.664563,-0.888667,1.01556,-0.353268,-0.0866412,0.404719,0.423669,-0.192929,0.101656,0.347955,0.251153,-0.287959,-0.806202,0.0584707,0.257208,0.999353,0.699017,0.162842,0.333519,-0.932376,0.413862,-0.185931,0.110788,0.235566,-0.754769,0.369358,-0.300503,0.0824517,0.422902,-0.316595,-0.277907,0.268572,0.605779,0.609262,0.146276,0.332531,-0.269461,0.62338,0.861409,-1.01466,0.472984,0.199184,-0.389229,-0.443439,-0.694051,-0.510119,-0.0657534,0.316193,0.757699,0.79133,0.087278,0.0702092,0.626574,-0.619915,-0.867086,0.345655,0.304181,-0.639908,0.0331506,0.56572,-0.00790931,0.921617,0.507494,0.25378,-0.502275,-0.108958,-0.678171,0.319442,-0.97471,-0.408138,0.0547436,-0.396267,
68th node's weight,0.0140829,-0.600863,0.0532241,-0.007034,-0.696008,0.174445,-0.949225,-0.628807,0.871293,0.612776,-0.507073,0.84366,0.374147,0.956804,-0.283885,0.41682,-0.171085,-1.00953,-0.994024,-0.76621,0.893692,0.251278,-0.761931,-0.115427,0.425446,0.410624,-0.390874,-0.0729538,0.361742,0.52775,0.0315161,-0.584585,-0.732656,0.0393745,-0.840802,0.805004,-0.751301,0.79013,0.708659,-0.633522,0.803969,0.399825,0.916132,-0.250706,0.416075,0.958655,0.895683,-0.964341,-0.748597,-0.846941,-0.125994,-0.780273,0.526705,0.954304,0.89842,0.91833,0.0503703,0.916241,0.907025,-0.310351,-0.662434,-0.600953,0.637559,0.675073,-0.707069,0.577615,0.503058,-0.587086,0.536351,0.237106,-0.336396,-0.028012,0.743256,0.963012,0.288348,0.0682765,0.511827,0.486907,-0.239089,-0.740342,0.298695,0.739175,-0.350142,0.676169,-0.019524,-0.471732,0.565325,-1.00616,0.43764,-0.541778,0.607554,-0.745529,-0.727192,-0.649507,-0.119532,-0.325992,-0.957687,-0.953499,0.249138,0.773556,
69th node's weight,0.196425,-0.611243,0.904182,0.29886,0.0859853,0.730001,0.240937,0.603655,-0.422271,-0.558056,-0.122065,-0.547285,-0.862992,0.187813,-0.851026,-0.271119,-0.841452,-0.405642,0.689267,0.0426681,-0.203025,-0.953948,-0.940826,-0.719095,0.674227,-0.777171,0.131118,0.960963,0.76511,0.00920439,0.606554,-0.297409,-0.308567,0.826096,-0.875549,0.137537,-0.0235372,-0.891397,0.711978,-0.593476,0.759015,-0.578661,-0.671029,-0.472468,0.761578,0.0371615,-0.98543,0.233697,0.646635,-0.500657,-0.487325,-0.298692,0.380275,0.260197,-0.12901,0.174412,0.196972,0.176632,-0.126237,0.416702,-0.0122997,0.228602,-0.113504,-0.998784,0.0711097,-0.479038,0.559297,-0.305934,0.216222,0.12376,0.658515,0.357658,-0.829588,-0.707625,0.6531,0.523429,-0.658844,-0.758429,0.133262,-0.692579,0.674019,-0.92829,0.615517,0.470785,-0.842448,0.436253,-0.708443,0.00269808,0.266013,-0.337815,0.34598,-0.917546,0.248736,-0.763995,-0.529092,0.833515,0.235866,0.920279,0.370582,-0.394365,
70th node's weight,0.915023,-0.441702,0.450015,0.758415,-0.596335,-0.676724,-0.83039,-0.887354,0.198315,-0.224872,0.109754,0.644839,0.256209,0.887206,0.786622,-0.122847,-0.138926,-0.628009,0.682484,0.574424,-0.655582,-0.189812,0.551068,-0.0511967,-0.932131,0.265952,-0.037406,0.402635,-0.0899857,0.326018,0.0754572,0.416794,-0.17192,-0.519879,-0.292079,-0.381636,-0.714206,0.777771,0.915734,-0.0178778,0.215042,-0.407876,0.133695,0.502634,-0.632822,-0.128795,0.665467,-0.699852,0.376855,-0.217495,0.194407,-0.151842,-0.161733,-0.687401,-0.491441,0.800895,-0.213336,0.50065,-0.766206,0.98498,0.562823,-0.762783,-0.537421,0.320466,0.39547,-0.147776,-0.929622,0.874312,-0.646525,0.846176,-0.00121005,-0.675405,0.986949,-0.910977,-0.937119,0.883638,0.188067,0.785044,-0.888369,-0.884765,0.3069,0.429154,-0.718744,0.226576,-0.372765,0.735241,-0.586622,-0.62581,-0.628503,-1.01327,0.320452,0.757896,0.747913,0.843403,-0.786011,0.489249,0.455583,0.0282757,0.88658,0.795852,
71th node's weight,-0.495956,0.382302,-0.688681,0.576082,-0.246479,-0.69951,0.0684915,0.83428,-0.143793,0.124447,0.856423,0.676789,-0.873381,0.271807,-0.134554,-0.156973,-0.674769,0.618669,0.559645,0.880575,-0.726224,-1.02799,0.886599,-0.639351,-0.349201,-0.375608,-0.542176,-0.871713,0.217645,0.753702,-0.419478,0.954779,-0.950683,-0.252067,-0.741968,-0.430481,0.493298,0.362475,0.86384,-0.803507,-0.893137,-0.859563,0.650512,0.482093,-0.945048,-0.281774,-0.203129,0.0682743,0.875478,-0.816528,-0.574073,0.0619163,-0.0872512,0.804072,0.771209,-0.972552,-0.194419,0.43175,0.200354,-0.561557,0.946796,-0.705969,-0.227254,0.364356,0.734606,-0.412899,-0.645867,0.299752,-0.813642,0.490781,0.960252,-0.375457,0.41505,-0.206535,-0.285039,-0.735159,0.349739,-0.175242,-0.676256,0.889757,-0.298198,0.198542,-0.454534,-0.683694,0.348675,-0.497068,-0.956941,-0.256188,-0.278873,-0.563761,0.207421,-0.629222,-0.443577,0.58363,0.841191,0.547749,0.670841,-0.742508,-0.06965,0.727061,
72th node's weight,0.935935,0.783307,-0.815384,-0.136239,0.613124,-0.214556,-0.586991,-0.340414,-0.911283,-0.950272,0.702508,-0.175801,0.834819,-0.0710543,0.844902,0.0779171,0.602028,0.311068,-0.898848,0.502807,0.209667,-0.910668,0.051119,1.0019,-0.389473,-0.0466577,-0.687012,-0.316219,0.13554,-0.839846,0.704287,-0.487121,0.739403,0.744859,0.991534,-0.421656,-0.145709,0.727746,-0.2022,0.893161,-0.689051,-0.959203,0.377535,0.436489,0.0702783,0.0487752,-0.444622,0.0749544,0.440734,-0.714309,-0.256591,-0.321588,-0.394668,-0.484736,0.92206,0.735082,-0.115893,-0.561034,-0.0875906,0.170742,-0.61704,0.885825,0.890073,-0.719976,-0.637501,-0.718024,0.348672,-0.978654,0.766206,-0.334207,-0.9584,-0.211365,-0.58445,0.862883,-0.789237,-0.467862,-0.588269,0.0588221,0.485679,-0.937104,-0.519718,0.934757,-0.115639,-0.3032,-0.469963,-0.849549,0.359137,0.360636,-0.996798,0.0829196,0.27239,0.349411,-0.319244,-0.193253,0.419216,0.411041,-0.593122,0.815705,-0.76216,0.546905,
73th node's weight,-0.175441,0.711559,-0.0558618,0.987658,0.214658,-0.444719,-0.883116,0.395673,-0.85796,-0.580383,-0.78166,-0.00930015,0.971484,-0.83023,-0.218864,-0.935092,0.378943,-0.454718,0.713864,0.966689,-0.821859,-0.26904,0.296128,0.791222,0.25519,-0.786884,0.432302,-0.0325458,0.535408,0.397394,-0.165023,-0.723807,-0.663995,0.0301509,0.00190913,0.0281716,-0.569252,-0.596877,0.0259639,-0.364721,0.998466,0.899467,0.840719,0.960339,0.633903,-0.861955,0.065949,-0.555991,0.898008,-0.465354,-0.452548,0.01163,1.001,0.444519,0.0444807,0.892436,0.870927,0.000701448,-0.411459,0.130501,0.805249,-0.956423,0.368493,0.808249,-0.219265,-0.0795963,0.515817,0.950129,-0.87675,0.799556,-0.989655,0.969162,0.0697746,-0.8684,0.420924,0.0493098,0.850553,-0.879043,-0.583898,0.181314,-0.952525,-0.54501,0.934516,-0.503417,-0.579026,0.0597947,-0.867442,0.501588,0.832504,0.42789,0.720999,-0.0893625,-0.804604,-0.873611,-0.278791,0.416084,0.952675,0.583105,-0.95844,0.293248,
74th node's weight,-0.832185,0.949268,-0.194726,-0.115796,0.864735,-0.235868,-0.567674,0.916769,-0.90745,0.891092,-0.26275,-0.75237,0.890805,-0.902396,-0.307992,-0.0462004,-0.348562,0.962427,-0.685955,-0.543045,-0.0687112,-0.198378,0.0405373,-0.907437,-0.679537,-0.820834,0.957544,-0.22271,0.987444,0.371699,-0.0647811,-0.0692586,-0.219769,-0.551209,-0.236089,0.278384,0.650345,0.138098,0.67525,0.924977,0.40716,-0.573967,0.308787,-0.929662,0.737484,-0.0992425,0.980444,-0.412399,-0.306511,-0.240197,-0.359119,0.0985703,-0.760662,-0.866589,-0.587992,0.129233,0.781355,-0.371862,-0.332285,-0.418483,0.460467,0.40928,-0.118343,0.666598,-0.99517,0.533015,-0.38943,0.83561,0.339605,0.693746,0.422183,-0.801252,0.697813,-0.570925,-0.0675446,0.78916,-0.237123,-0.338935,0.138039,-0.0644402,-0.747467,0.516573,0.0038167,0.372241,0.926895,-0.350906,-0.232961,-0.715414,-0.769661,0.662271,-0.229416,-0.544609,-0.183908,-0.848709,0.739751,0.242086,0.85405,-0.806876,0.496808,-0.0891974,
75th node's weight,0.425978,0.831478,0.647562,-0.551699,-0.836806,0.514015,0.215526,-0.307984,-0.884041,0.704369,0.16213,0.767251,0.156129,-0.771919,0.545959,0.522521,-0.681653,0.737355,-0.579683,-0.736691,-0.506606,-0.855597,-0.122922,0.0660383,-0.224706,0.947689,0.219585,-0.542306,0.120643,0.173949,0.761488,-0.472025,-0.179888,0.504348,-0.0639405,-0.126161,0.172047,0.926433,0.199623,0.364701,-0.881013,-0.109554,0.105952,0.1876,0.933094,-0.521373,0.788637,0.131507,0.395827,-0.149381,0.334748,1.01061,-0.674187,0.956779,-0.479936,-0.418848,0.68947,-0.650641,0.101652,-0.592457,-0.667365,-0.00629209,-0.761955,-0.876421,0.602422,-0.852252,0.799743,0.247417,0.320371,-0.514996,-0.908203,-0.653068,-0.672091,-0.475573,0.189928,-0.321989,-0.933637,-0.485102,-0.347131,-0.738212,0.438366,-0.613457,0.409635,-0.366915,0.433861,-0.255116,-0.190201,0.838848,-0.0768722,0.966192,-0.184807,-0.816239,-0.418665,0.692906,0.570853,-0.768265,0.115351,0.746165,-0.969465,0.613475,
76th node's weight,-0.306769,-1.02551,-0.737727,-0.552116,-0.616186,0.666509,0.66977,0.020069,0.0166374,-0.266713,-0.534646,-0.530451,0.518337,-0.439613,-0.998416,-0.182851,-0.639919,-0.564402,-0.234584,-0.486293,-0.079315,-0.358976,0.776312,0.87795,-0.467706,-0.199407,-0.0284381,-1.03459,0.682999,-0.226581,0.67793,0.874512,0.727854,-0.818426,0.534902,-0.633556,-0.325578,-0.439397,0.883723,-0.933219,1.02824,0.872178,-0.403382,0.507762,0.153167,-0.800147,-0.986101,0.180076,0.330289,-0.53383,0.455762,0.277766,-0.341378,0.485324,-0.429477,0.419125,0.580139,-0.770622,-0.277687,-0.62563,-0.673408,0.748637,-0.140731,-0.0447859,-0.575813,-0.621941,-0.889818,0.270383,0.459549,0.36243,-0.25932,-0.303988,-0.465021,0.796609,-0.8906,0.794891,0.275226,-0.954215,0.0372546,-0.900199,-0.902012,0.776829,-0.316168,-0.675985,-0.458146,0.302017,0.559293,-1.04568,-0.155508,0.0982813,-0.169746,0.190142,0.0242297,0.0206346,0.892017,1.00829,-0.0565054,0.628646,0.619734,-0.925794,
77th node's weight,-0.256392,-0.429304,-0.599376,-0.456083,0.47774,-0.982397,0.0445979,-0.640279,-0.282759,-0.0190147,-0.457648,0.909799,0.252731,0.265821,0.663197,-0.342855,0.659284,-0.535084,0.364937,-0.117824,-0.953037,-0.599177,0.147027,0.453084,-0.932364,-0.271718,-0.889711,0.854481,0.193915,-0.265427,-0.34727,-0.454747,-0.329697,0.613455,0.685483,-0.968311,0.0162216,0.555612,0.880448,0.573402,-0.463794,0.34108,0.54979,-0.028497,-0.494663,0.683215,0.678308,-0.246374,-0.787081,0.188616,-0.873649,-0.00928401,-0.231427,0.401759,0.823875,-0.219975,0.117991,-0.820999,0.849926,-0.491139,-0.828901,-0.667509,0.957431,-0.619521,-0.217221,0.471568,0.377925,-0.377831,-0.433607,-0.29459,-0.0323824,-0.54497,0.0510003,-0.260712,-0.0282851,0.524899,0.359088,-0.431625,-0.813709,0.202494,-0.149175,-0.458939,0.384061,0.840957,-0.48036,0.97702,0.217197,-0.615101,0.426633,0.679456,0.121359,-0.196369,0.729335,0.38284,0.0661097,0.075891,0.361337,-0.999499,0.386534,-0.905189,
78th node's weight,-0.840477,-0.345472,-0.928383,-0.340827,-0.55136,0.218973,-0.231425,-0.893708,0.263889,-0.760935,-0.658398,-0.613227,-0.449671,-0.349786,0.772214,-0.795992,-0.20427,-0.488756,0.757501,-0.139499,-0.495447,0.306118,-0.0202154,0.681631,0.00812577,0.393666,-0.826279,0.734443,0.617013,-0.846256,-0.254066,-0.918533,-0.0810211,-0.135978,-0.51425,-0.179627,0.861477,-0.774821,-0.0509661,-0.930915,0.146666,0.130154,-0.720585,-0.864057,0.622395,0.642765,0.27364,0.0215255,-0.367162,0.299617,0.410428,-0.920271,0.138575,-0.599078,-0.726443,0.798754,0.171763,-0.297299,-0.392682,0.433377,-0.771248,-0.00721752,0.757545,0.295784,0.00793857,-0.843703,0.336741,-0.720635,-0.706056,-0.810573,-0.451009,-0.219112,0.363503,0.160762,0.554126,0.308833,-0.940566,-0.254114,-0.326106,-0.502312,0.74585,0.573543,0.0158345,-0.318804,0.634979,-0.180007,-0.624215,0.17665,-0.100928,0.723197,0.196234,0.480939,0.0285639,-0.0146004,-0.348239,0.832827,0.17094,-0.578783,-0.733598,0.935814,
79th node's weight,-0.711144,-0.568951,-0.0251919,-0.87255,-0.847282,0.627563,-0.429767,0.18351,-0.090708,-0.801259,-0.801371,-0.678772,0.363204,0.82296,-0.000139961,-0.407007,0.57903,0.734912,0.372886,0.314662,0.298543,0.0999561,0.205162,-0.732383,-0.341845,0.189721,0.178153,-0.873924,1.0277,-0.428921,-0.362212,0.222432,0.386842,-0.428675,0.990013,0.804532,-0.780259,1.00146,0.879531,0.503479,-0.821237,-0.0692262,-0.356126,0.861493,0.318779,0.795519,-0.543569,0.284088,0.28344,0.798824,-0.521194,-0.768606,-0.425562,-0.256993,-0.295953,-0.785723,-0.815964,-0.974819,0.896855,0.6081,-0.322517,-0.314755,0.740291,-0.934694,-0.672217,0.673593,-0.397782,-0.903184,0.641897,-0.224034,0.150369,-0.623142,0.617919,0.336812,-0.455198,-0.66102,0.235424,-0.687965,0.993564,-0.717927,-0.507427,-0.281216,-0.616916,-0.0256673,-0.045611,-0.71814,-0.978566,-0.958437,-0.233409,-0.859156,-0.285785,0.259176,0.332683,0.225915,-0.184156,0.707239,-0.126483,0.0927773,-0.320563,0.890741,
80th node's weight,0.0646029,-0.799063,0.325682,0.207112,0.152316,-0.52446,-0.108353,-0.0206692,0.325641,-0.947284,-0.0365051,0.282107,0.189181,0.617982,0.875183,0.0981432,0.962766,0.348682,-0.81583,0.0587869,0.554796,-0.773261,-0.294216,0.360999,-0.58834,-0.295849,0.78896,0.565865,0.812837,0.973721,0.083193,0.777209,0.493585,-0.76591,0.11416,-0.787011,0.263638,-0.138464,-0.45145,0.45471,0.786958,-0.714308,-0.725823,-0.180161,-0.0411356,-0.482532,-0.697435,0.810593,-0.361899,0.871221,0.628394,0.577604,-0.147138,-0.115384,-0.990916,-0.188411,-0.458466,0.600039,-0.382728,0.298293,0.777953,-0.482468,0.508037,-0.854011,0.701765,0.802073,-0.200996,-0.850618,-0.0647822,-0.621029,-0.781363,-0.853438,-0.411976,-0.317733,0.0109638,-0.608088,0.194066,-0.843125,-0.512509,-0.34614,-0.78878,0.38442,-0.478448,0.150726,0.0708723,-0.515308,-0.0290585,0.894673,-0.69183,-0.821776,-0.159467,-0.500784,0.824033,0.79787,-0.0296203,0.105555,-0.37728,-0.918575,0.0408805,0.555126,
81th node's weight,0.105139,0.950083,0.863903,0.766655,-1.00991,-0.290543,0.332484,0.784385,0.620107,-0.0156658,-0.894553,-0.278641,-0.126573,-0.741093,-0.203701,0.569939,-0.450916,-0.48884,-0.926025,-0.402713,0.199233,0.707902,0.537247,-0.848398,0.936175,-0.0675248,0.473079,0.538899,-0.466533,0.635285,-0.92436,-0.86521,0.0966224,0.300987,0.260322,-0.881545,0.712807,0.56002,-0.542452,0.926405,-0.656651,0.0191253,-0.75757,-0.305594,-0.535898,-0.554533,-0.100785,0.55861,-0.801067,-0.0597042,-0.349506,-0.100935,-0.936622,-0.851693,0.0958355,-0.177759,0.0355265,-0.851147,0.468381,-0.0925239,-0.101523,-0.142802,-0.0766965,0.652049,0.030314,0.0704427,-1.03349,-0.93339,0.560507,-0.771327,0.264701,0.365858,-0.608777,0.187105,0.871479,0.0448766,0.442526,-0.993104,0.977266,0.52556,-0.0926437,0.562454,0.310463,0.00502447,0.889879,0.0391468,0.781005,-0.42083,-0.417756,-0.147142,-0.291484,0.542273,-0.427269,-0.977795,0.0233692,-0.896214,-0.856948,0.981472,-0.976247,0.333029,
82th node's weight,0.206624,-0.787296,1.09112,0.0982097,-0.477742,0.241432,-0.54745,-0.757171,0.326109,0.847395,0.61117,0.0681218,0.703095,-0.305226,0.425096,-0.021463,0.145284,-0.747458,0.439665,-0.309116,-0.696182,0.409917,0.497241,-0.156139,0.521514,0.849598,0.235734,-0.0863765,0.210564,0.0231648,-0.843292,0.375382,-0.136253,0.385487,-0.514718,-0.721863,-0.462564,-0.599296,-0.152363,0.694922,-0.87043,0.82602,-0.179831,-0.0543103,-0.0780009,0.0954687,-0.465379,-0.57129,-0.424267,-0.674821,-0.107278,0.877797,0.630766,0.393703,-0.642743,-0.363286,0.702969,-0.899035,-0.243332,-0.551607,0.137218,0.635335,0.355173,0.595423,0.408209,-0.865344,0.983455,-0.982073,-0.908076,-0.467337,0.682684,-0.139081,-1.00448,0.107242,-1.01313,-0.448994,0.369523,0.297167,-0.565984,0.37443,0.71782,-0.934212,0.732131,0.728611,0.724447,0.424084,-0.840893,-0.572096,-0.108448,0.421604,0.0660199,1.04065,-0.712684,0.893121,-0.950592,-0.270585,-0.281864,-1.01424,-0.0597295,-0.661015,
83th node's weight,-0.707955,-0.0733555,-0.944368,0.938055,-0.232129,-0.78154,0.676083,-0.254176,0.664629,0.64341,0.733126,0.0508322,0.454563,-0.281822,-0.412689,0.474805,0.391615,-0.299427,0.492875,0.282353,-0.834404,0.14017,0.520943,0.617122,-0.106763,-0.307679,-1.02147,0.352355,0.516088,-0.125053,-0.425788,-0.730209,0.730762,-0.444954,0.234602,0.835924,-0.984526,-0.965132,-0.331887,-0.739179,0.68362,-0.782972,0.5467,-0.864069,-0.0695746,0.0691162,0.6736,-0.19392,-0.0478119,0.275,-0.496883,0.184361,0.940891,-0.235457,-0.905855,0.046901,0.565814,0.53855,-0.730442,0.566188,0.667005,-0.825332,-0.504444,0.812859,0.701619,-0.428953,-0.495097,0.401497,-0.648314,-0.844337,0.993302,0.294853,0.359941,0.154529,-0.212465,0.000245726,0.520628,-0.584377,0.582584,0.147503,0.359136,0.589321,-0.692963,0.745672,-0.98615,0.821768,0.216005,0.638679,-0.570461,0.306396,-0.428667,-0.169174,-0.880217,-0.0196682,0.90463,0.150784,-0.0625765,-0.136001,-0.789531,0.751287,
84th node's weight,0.924673,-0.437685,-0.733047,0.957016,-0.933773,0.785526,-0.537277,0.610167,-0.964389,0.40248,0.931256,0.347156,0.0164704,-0.124392,0.0743318,-0.796253,0.174649,-0.343561,-0.378118,0.158348,0.365009,0.0839778,-0.986073,0.118351,-0.412381,0.0699611,0.503062,-0.246022,0.235811,0.855357,0.559009,0.641649,0.808236,-0.105943,-0.540057,-0.784055,0.6022,-0.480096,0.575908,0.678401,0.119989,0.823421,-0.00931386,-0.194101,0.24941,-0.221099,0.550887,0.740781,0.615844,0.76997,0.145485,0.42135,0.747335,0.395636,-0.80072,0.476314,0.27043,-0.348064,0.652421,-0.380557,0.552917,-0.897767,-0.163618,-0.462397,-0.112087,-0.353209,0.242662,0.793833,-0.276535,-0.236072,-0.747868,-0.187555,-0.906047,0.98949,-0.516275,-0.97274,-0.840964,-0.761247,-0.586754,0.712369,0.15321,-0.150671,-0.0933523,-0.484115,0.1913,0.170933,0.350759,0.745545,-0.535883,-0.0339689,-0.826467,0.520085,0.124977,0.24398,-0.845122,-0.867575,-0.763972,-0.136288,0.60281,0.056946,
85th node's weight,-0.952393,0.127929,-0.196178,0.920049,-0.693501,-0.972163,-0.094807,0.0196929,-0.588856,0.401333,-0.595937,0.778127,-0.850537,0.242164,0.425657,-0.649788,0.191913,0.218254,-0.586189,-0.842616,0.932318,-0.412982,0.440667,-0.172972,0.119481,-0.790159,0.269731,0.353105,-0.565891,-0.368326,-0.697953,0.987995,-0.460802,0.493476,-0.572532,-0.464517,0.477633,0.342108,0.939111,0.574813,0.695137,0.333011,0.0676259,0.107798,-0.926278,-0.678436,-0.654554,-0.821689,-0.851957,-0.276215,0.432398,0.178307,0.219355,-0.444749,-0.725648,0.0335881,0.66555,-0.172033,0.31377,-0.281604,0.246539,-0.249608,-0.180773,-0.896215,-0.3258,-0.90058,-0.333633,-0.664233,0.0749862,-0.280806,-0.611591,0.178835,0.0104074,0.500618,-0.742988,-0.88639,-0.815448,0.0158364,-0.943296,-0.120076,0.301796,-0.843675,0.922397,-0.776707,-0.0462672,-0.788337,0.184481,0.747794,-0.161485,0.374412,-0.611696,0.122539,-0.921964,0.449324,0.502536,0.124309,0.153577,0.230081,0.151648,-0.49885,
86th node's weight,-0.513004,0.748188,-0.360861,0.173807,0.164961,-0.357208,0.59167,-0.260163,0.724844,0.601146,0.578629,0.932434,-0.864536,-0.248432,0.0298133,0.91366,-0.223359,-0.34568,0.679685,-0.871762,0.812888,-0.537117,-0.447543,-0.0605873,-0.345233,0.155452,0.95995,-0.956293,-0.427473,-0.0157773,-0.105166,0.207402,0.550898,-0.771264,-0.762855,0.376463,-0.537245,0.373944,-0.50398,0.937741,-0.548223,0.385186,-0.248677,-0.983005,-0.0992179,-0.707081,0.249576,0.369106,-0.928773,-0.956714,-0.104517,0.822158,0.992399,-1.01991,0.346099,0.0191369,0.124857,-0.544748,0.916294,0.210061,-0.752181,0.821655,-0.786201,0.372225,0.256091,-0.366758,-0.649755,0.575551,-0.560581,0.572975,0.858104,0.0265149,0.716878,0.639612,0.469938,-0.904127,-0.951057,0.338877,0.440978,-0.503566,0.377713,0.668293,-0.283617,0.0170909,-0.0963893,-0.372117,-0.784166,-0.594574,-0.0627347,-0.512186,0.370251,0.766573,-0.984281,0.743435,-0.761657,0.179478,-0.676538,-0.917321,-0.731438,-0.925213,
87th node's weight,0.425488,-0.349176,-0.805244,0.514774,-0.480828,-0.316629,-0.943615,-0.760128,0.0119281,0.108724,0.300153,0.806367,0.412871,0.617389,-0.463045,-0.735172,0.436958,-0.628717,0.73049,0.179134,0.833117,-0.638009,0.482337,0.0888424,-0.255227,-0.330978,0.483257,0.682295,-0.589547,-0.879193,0.0933688,-0.319989,-0.897847,-0.132545,0.920715,-0.830976,-0.945584,-0.941434,-0.512727,-0.927839,0.657829,0.260117,-0.944826,0.330379,-0.898817,0.342975,-0.284317,-0.714324,-0.774941,-0.233351,0.05094,-0.553075,-0.989792,0.966703,-0.624004,0.339993,-0.791669,-0.669781,0.0946285,0.876416,-0.00224223,0.374142,0.595684,-0.828003,0.520316,0.539909,-0.664318,0.799582,-0.280767,0.703793,0.417959,-0.424307,-0.75356,-0.472319,0.257769,-0.386868,0.368122,-0.0267543,-0.254759,-0.0904558,0.883198,-0.690407,1.02841,0.868254,0.626448,-0.638676,0.539945,-0.474262,0.175356,-0.723951,-0.124859,-0.422261,0.88766,0.872482,0.880713,-0.960795,-0.0740793,0.745918,0.0811463,0.722174,
88th node's weight,0.22241,0.650206,-0.625175,0.40629,0.480193,-0.459239,0.0226223,0.562117,0.807028,-0.72392,0.264912,-0.00765367,0.317033,-0.354632,0.0985384,0.477635,0.268042,0.326255,-0.84717,0.646934,-0.915434,0.490131,0.840101,-0.127045,0.152391,-0.964266,0.471693,0.363557,0.441,0.120628,0.957781,0.811217,-0.455594,0.940324,0.33913,0.97042,0.618829,-0.969054,-0.185525,0.224243,-0.856685,-0.735664,0.422314,0.677849,-0.374671,-0.975444,0.866156,0.319883,0.00384312,-1.03697,-0.184981,-0.0455033,-0.990208,0.749442,-0.199773,-0.858917,-0.656742,0.0643824,-0.0364736,-0.257693,-1.00398,-0.00517843,-0.249386,0.563995,-0.133898,-0.479197,-0.113971,-0.145759,-0.242287,-0.402208,-0.842023,-0.823003,0.518805,-0.698646,-0.458623,-0.954128,-0.960505,0.0258569,-0.237601,0.373552,-0.995203,-0.581523,-0.330692,-0.398704,-0.918183,-0.957545,-0.291258,-0.90394,0.0791381,-0.455457,-0.344949,0.849164,-0.0989916,-0.490713,-0.0899283,-0.176647,0.432596,0.243991,0.971827,-0.0116618,
89th node's weight,-0.835408,-0.209184,-0.594081,0.175291,-0.436662,-0.560889,-0.722298,-0.414255,-0.712766,-0.0267914,-0.29434,0.664903,-0.647057,0.928585,0.0469431,0.324868,0.417885,0.447966,0.936467,-0.911406,-0.0323887,0.412451,-0.148161,-0.0102795,-0.540127,-0.196796,-0.528885,-0.508636,0.272422,-0.103378,0.291363,0.300671,-0.397286,-0.53945,-0.736809,0.993339,0.165055,-0.925637,0.844961,0.159539,0.758277,-0.768215,0.982587,0.861974,0.0585547,-0.63731,-0.386021,-0.603249,0.845218,0.878642,0.793147,0.512304,0.816476,-0.533054,-0.610044,-0.135455,-0.395476,0.891973,0.655929,0.194891,0.858168,-0.707701,-0.233121,0.988212,-0.721147,-0.60522,0.60842,-0.319804,-0.330915,0.547067,0.203116,-0.406051,0.17971,0.548844,0.319863,-0.660354,0.44598,-0.832694,-0.17153,-0.668115,0.576015,0.486935,-0.813664,0.66918,-0.981024,0.24826,-0.507878,-0.188985,-0.712437,-0.506239,-0.0719932,-0.469264,0.6386,0.212241,-0.964388,-0.666153,-0.459282,-0.215569,0.783646,0.711537,
