-0.21609,0.230754,-0.931361,0.650076,-0.0398666,0.272237,0.53294,-0.115393,0.922527,0.712772,-0.557894,-0.820908,-0.511093,0.0543269,0.968934,-0.547948,-0.677279,0.72374,-0.177854,-0.316166,-0.737312,0.158977,0.712261,0.172556,0.565607,-0.0487897,0.12106,-0.740436,0.82359,0.354797,0.179347,0.829252,0.513095,0.27057,0.809932,0.638095,-0.044663,0.142074,-0.424333,-0.178491,0.969379,-0.362521,0.40016,0.356718,0.469232,0.769025,0.244007,-0.908184,-0.80176,-0.629878,0.0369718,0.157624,-0.28919,0.963381,0.684524,0.471346,-0.907301,-0.819229,0.539569,-0.0912868,0.718503,-0.323333,-0.4311,-0.980286,0.821145,-0.175053,0.00203635,0.452268,-0.77863,-0.0533021,-0.703002,-0.020087,-0.351449,-0.997998,0.832845,0.817919,-0.013434,-0.444738,0.42038,0.670195,-0.886628,-0.908773,0.620993,-0.496616,-0.485402,-0.790086,-0.902019,-0.591974,0.458296,-0.70197,-0.795758,0.0769611,0.50391,-0.126751,-0.271318,0.558,-0.387375,-0.632263,-0.543534,0.165684,
0.492429,-0.123754,0.868071,0.84646,0.12814,0.351086,0.190908,-0.615726,-0.709446,0.907552,0.600566,-0.794397,0.756026,-0.813141,0.635517,-0.681142,-0.855131,-0.607062,0.957776,-0.602552,-0.70772,0.560961,0.602586,-0.981532,-0.59533,0.970864,0.132508,-0.441969,0.00195919,-0.0488358,0.928911,0.363762,-0.914742,0.847241,-0.240594,0.798752,0.687767,-0.296578,0.672436,0.89753,-0.420591,-0.147834,-0.254387,0.0299336,0.635363,0.774548,0.623524,-0.32879,0.340984,0.00301076,0.966938,-0.897743,0.123467,0.314894,0.419578,0.222514,-0.668863,-0.232881,-0.109257,-0.874957,-0.883116,0.503251,0.812978,-0.225148,0.236263,0.0989673,-0.78199,0.842997,-0.632728,-0.478054,0.239899,0.389028,0.38614,-0.244794,0.870672,0.606476,-0.444549,0.173736,-0.364494,-0.0430006,0.388538,0.213591,0.282545,0.551589,0.231981,-0.636371,0.495691,-0.139762,-0.372703,-0.57457,-0.873517,0.964143,0.73423,0.916064,0.617116,0.56986,-0.917916,-1.01154,-0.341971,-0.84961,
0.23161,0.303745,-0.180023,-0.583173,0.692827,0.814955,-0.0179402,-0.960885,-0.326203,0.398894,0.559076,-0.436476,0.819268,0.23765,0.690404,-0.767417,0.804019,0.371003,-0.259307,-0.38945,0.335991,0.858936,0.985619,-0.234259,-0.240603,0.431861,0.867885,0.349203,-0.454268,-0.685619,-0.128974,-0.438957,-0.906322,0.026847,0.750558,0.80365,0.424697,-0.994009,-0.803585,-0.249709,0.668391,0.441992,-0.149272,0.490622,0.0423275,0.48955,-0.34864,0.106705,0.244853,-0.674049,0.846931,0.636938,-0.184032,0.981154,-0.347818,-0.163544,0.209802,0.716163,-0.46727,-0.984474,0.415486,-0.243641,-0.992399,-0.815125,0.919872,0.240023,-0.946563,-0.731351,-0.235193,0.524706,0.322814,0.512956,-0.790408,-0.751221,0.573922,-0.380425,-0.373389,0.712966,0.560551,0.167301,0.971229,0.397655,-0.449657,-0.201594,-0.507346,-0.612154,-0.23368,0.00369163,0.384107,0.695066,-0.798943,0.125785,-0.444949,0.478827,-0.559209,-0.357794,-0.217792,0.309003,-0.703192,0.159803,
-0.946169,0.223277,-0.370353,-0.63524,0.402903,-0.558488,0.371954,-0.716537,0.0163828,0.897146,-0.845461,0.125225,0.557406,-0.424937,0.170916,-0.73591,0.352888,0.711476,0.88135,-0.388227,-0.182782,0.740697,0.127829,-0.409119,0.719962,-0.238714,-0.368342,-0.807139,-0.961586,-0.412173,-0.410362,-0.120295,-0.12596,0.301489,0.360058,0.202302,0.25009,-0.0352731,-0.084267,0.948332,0.481892,0.730602,0.95606,-0.4497,0.104784,0.235512,-0.997238,-0.0774968,0.0340026,-0.141484,0.110523,-0.886013,0.590925,0.364392,-0.639959,-0.580739,0.358615,-0.414359,0.728275,0.0150371,-0.435359,-0.897768,-0.0841197,-0.358435,0.421591,-0.0332387,0.743806,0.266725,0.388503,0.305619,-0.524371,0.107284,0.748457,-0.625479,0.65378,0.456933,0.412919,0.927171,0.823101,0.132605,-0.0288497,0.606922,-0.10183,0.919714,0.947589,0.229689,-0.519665,-0.797893,0.902047,-0.477402,-0.46564,0.261957,0.00773014,-0.321545,-0.0511147,0.930989,-0.214759,0.876959,0.831451,-0.422838,
0.549222,-0.458958,-0.751016,-0.229569,-0.68906,0.877781,-0.0156146,0.96941,-0.960134,-0.277397,0.649896,-0.0329035,0.22908,-0.682691,0.743065,-0.701969,0.227749,0.621013,-0.22262,-0.87629,-0.757203,-0.040584,0.693439,-0.229137,0.0642914,0.559551,-0.403087,-0.250584,0.943462,-0.49718,0.551286,-0.196108,0.203291,0.0791973,-0.581148,0.274579,0.647694,-0.58479,0.319972,0.0255259,-0.987202,0.782977,-0.21138,-0.88153,-0.992121,0.54878,0.324853,0.193834,0.256743,-0.487393,0.688818,-0.334295,-0.591228,-0.40471,-0.444126,0.566063,-0.039887,-0.257546,0.402546,-0.648422,0.307572,-0.858718,-0.0907701,0.199433,-0.199246,0.127115,-0.830585,0.785276,-0.588607,0.625819,-0.357676,0.519708,0.348265,0.837082,-0.687297,0.972961,0.448099,0.371442,-0.780607,0.911662,0.239374,0.055862,0.305179,-0.0712878,-0.748329,-0.81171,0.166279,-0.644808,0.305122,0.861183,0.897847,0.594228,0.722032,-0.883097,0.579957,-0.134281,0.354168,-0.0621175,-0.302261,-0.0978003,
-0.192876,-0.387975,-0.109214,-0.326806,0.730937,-0.326163,0.660868,0.0443633,0.120688,-0.756319,0.157069,0.445941,0.625878,0.351131,0.711229,0.567804,0.596019,0.534263,0.726979,0.830268,-0.203393,0.535301,0.439048,0.516698,0.00832529,-0.486818,-0.0766347,-0.400269,0.0995542,-0.341019,0.100492,-0.669941,-0.893502,-0.0657725,-0.71669,0.0140552,0.708593,0.214336,0.905508,0.971267,0.782078,-0.275338,-0.21084,0.170679,0.859562,0.826344,0.529047,-0.273581,0.124177,-0.616175,-0.832724,0.949572,-0.524946,-0.956417,0.573024,-0.338765,0.466183,-0.481319,0.380444,0.988461,0.209456,0.259593,-0.792777,-0.255039,0.51881,0.715546,0.931344,-0.174823,-0.2338,-0.309392,0.816955,0.0175748,0.828681,-0.08351,-0.972303,0.0262104,-0.960156,-0.272263,0.240445,0.748865,-0.459797,-0.605315,-0.0630292,0.0834448,-0.958029,-0.136277,0.00996514,0.257293,0.0640954,0.878428,0.234586,-0.322228,-0.753299,-0.290446,-0.583521,-0.80499,-0.279506,-0.251302,0.0368135,0.302559,
-0.553866,0.71043,0.69315,0.578951,0.135802,0.158163,0.986793,0.499747,0.523354,-0.71182,-0.0385817,-0.983094,0.798699,0.086337,0.659221,0.212882,-0.167139,0.0372626,0.544478,-0.667042,0.929338,0.328146,0.706599,-0.506885,0.248365,0.788445,-0.645297,0.980373,0.0519101,0.2363,0.918209,0.693034,0.981786,0.785529,0.738084,-0.332103,-0.483628,-0.37486,0.0454615,0.976671,-0.338946,0.824009,-0.183099,0.634013,-0.0994562,-0.305698,-0.198935,-0.364629,-0.998064,0.513408,-0.324395,-0.236633,0.387691,-0.88437,-0.0668683,-0.634198,0.123449,-0.54889,0.102831,0.450469,0.70456,-0.167677,0.0291667,-0.861121,0.663469,0.974322,-0.78921,0.891348,0.279745,0.468628,-0.246247,0.634325,0.884026,0.292289,0.508558,-0.953987,-0.22457,0.0239911,0.0372211,-0.289291,0.904382,-0.336135,-0.235175,0.747218,0.461605,-0.379142,-0.439775,-0.00756267,-0.0387083,-0.0622316,0.489424,0.563775,-0.761666,0.314866,-0.705554,0.422458,-0.763515,0.441234,-0.208614,-0.798785,
0.156742,-0.135455,0.570064,-0.699144,0.429261,-0.0830003,0.791339,-0.23211,0.835959,0.918139,-0.959488,-0.224847,-0.911577,0.720532,0.16055,-0.590686,-0.36588,-0.331526,0.603543,0.944774,0.316055,-0.580447,1.00735,0.818187,-0.304691,-0.0276268,-0.356069,0.377896,0.816536,0.891719,-0.1467,-0.182093,0.336715,-0.822756,-0.596394,0.683047,0.180035,0.480524,-0.909969,-0.564938,-0.290132,-0.0996715,0.0299397,-0.113692,-0.202106,-0.473646,0.367888,-0.10479,-0.113114,-0.197233,0.444119,0.128062,-0.816745,0.777787,-0.469156,0.873963,0.559369,-0.41479,-0.828275,0.804069,0.730984,0.330084,0.86061,0.76016,0.836721,-0.617868,-0.529134,0.0184742,0.829055,-0.855236,0.371292,-0.0748995,0.827294,-0.253779,-0.693256,-0.883224,-0.260274,0.960272,-0.608666,-0.845574,-0.953585,0.00845036,0.0382039,-0.0776626,-0.839576,-0.897581,0.292809,0.81927,0.724613,-0.509197,-0.74801,-0.0505465,-0.962035,0.507581,0.925075,-0.193469,-0.841979,-0.861932,0.6688,0.089226,
-0.497121,0.422222,-0.325638,-0.482428,-0.700294,-0.509879,-0.738233,-0.945524,-0.736506,-0.356356,-0.111262,0.248911,-0.264703,0.416221,0.367862,-0.506229,-0.036056,0.757969,0.651402,0.0923387,0.316041,-0.285181,0.420998,-0.939872,0.449719,0.368547,-0.257364,0.845813,0.195523,-0.214008,-0.498233,-0.763838,0.127196,-0.429045,0.447389,0.874899,0.252722,0.871693,0.328769,-0.706687,0.718032,0.470309,-0.17941,0.763936,0.0783526,-0.369777,-0.590864,-0.919872,-0.887957,0.342118,-0.860296,-0.618422,-0.956712,-0.17275,-0.60696,0.574887,-0.0198257,0.000267782,0.596066,0.946751,0.370402,-0.913709,-0.45598,-0.266781,-0.147058,-0.739351,-0.175221,-0.600183,-0.616788,-0.222601,0.857988,0.421461,0.499387,0.0159572,-0.154275,0.663434,-0.487818,-0.389401,-0.151708,0.217064,0.289349,0.0545074,0.743606,-0.444361,-0.616286,-0.465948,-0.724956,0.320913,0.152368,0.225812,0.251683,-0.540323,-0.216003,-0.287091,-0.56291,0.879947,0.695043,-0.900873,0.137357,-0.715653,
0.877844,-0.717734,-0.65784,-0.085473,0.961376,0.0649587,0.142708,-0.293797,0.565789,-0.272235,-0.43799,-0.641584,0.969056,-0.110221,-0.381129,-0.722995,0.309724,0.760829,0.0111682,-0.15978,-0.0230298,-0.998291,0.390522,-0.493248,0.65673,-0.449689,0.784426,0.429405,-0.45103,-0.26078,-0.223754,0.587742,-0.750461,-0.892712,0.514935,0.454558,0.0174206,0.0301879,-0.329129,-0.629634,-0.336295,0.947148,-0.975209,-0.456125,-0.145607,-0.994136,-0.0178642,-0.449596,-0.712268,-0.834404,-0.642163,0.0188108,0.377838,0.359071,0.464244,-0.511812,-0.646249,0.899227,0.787398,-0.756438,0.880419,-0.533443,-0.718106,0.273302,-0.761813,-0.0902962,-0.435043,0.832048,0.935875,0.684794,0.653342,0.552672,0.266892,0.460304,-0.892648,0.588227,-0.669212,0.771473,0.58054,0.296439,0.936489,0.876022,0.435233,-0.769243,-0.0301669,0.0270436,0.798335,0.0679203,-0.411354,-0.701438,0.088405,-0.351174,0.093432,-0.887728,-0.388487,0.461653,-0.883974,0.77923,0.950767,0.231444,
0.322233,0.212579,0.127713,0.949129,-0.400071,-0.0400516,0.75328,0.99229,0.193991,0.32956,-0.368367,0.557266,-0.22292,0.77782,-0.370324,0.271665,-0.616946,0.0810924,0.15497,-0.377802,-0.480228,0.957062,0.818314,0.591355,-0.10026,-0.804086,-0.879963,-0.297371,0.599566,0.128273,0.143634,0.174641,-0.129219,-0.584819,-0.400215,0.0809246,-0.382426,-0.710144,0.451614,-0.871013,-0.199394,0.661997,-0.15986,0.151178,-0.616746,-0.416584,-0.483397,-0.339528,-0.121896,0.958329,-0.43969,-0.618229,-0.952509,-0.945577,0.440546,0.381967,-0.231464,-0.97156,-0.7494,0.543296,0.870267,0.595561,-0.53146,-0.290277,-0.828171,0.922026,-0.874622,-0.781533,-0.15165,0.432119,0.242424,0.847216,0.867636,-0.33014,0.393306,-0.391606,-0.607066,0.0625015,0.522783,0.360333,0.518994,0.621272,0.561856,0.660466,0.726533,0.434002,0.948664,-0.907988,0.321788,-0.739221,-0.906007,0.928583,0.121144,-0.618829,-0.633301,-0.534152,0.0218529,-0.277622,-0.360907,0.516938,
-0.207486,0.364269,0.177713,0.955504,-0.227896,-0.659852,0.353906,-0.16358,-0.511164,0.727955,0.120515,-0.0980709,-0.6881,0.615817,0.346141,0.943768,-0.150507,-0.328355,0.811406,-0.474567,0.732792,-0.395463,0.605854,-0.367076,0.866225,0.553542,0.411453,0.922783,-0.958147,0.153822,-0.740724,0.733175,-0.705628,-0.861633,-0.748649,0.259695,-0.307427,-0.8369,0.137804,0.929445,0.875286,-0.403141,-0.707215,0.635008,-0.43859,0.27629,0.237058,-0.354449,0.87304,0.464859,0.484416,-0.808139,-0.881486,0.8441,0.328484,-0.140199,-0.738593,-0.855383,0.716381,0.126736,-0.827685,-0.251675,-0.999768,-0.630163,0.400209,0.29004,0.544557,-0.0726094,-0.700904,-0.856465,-0.808437,0.566061,-0.216701,-0.730218,0.798702,-0.991079,-0.778539,-0.514031,-0.487841,0.768418,-0.4689,0.357766,0.819812,0.485457,-0.145074,0.817727,-0.746169,0.755113,0.815367,-0.384689,-0.461264,-0.0318239,0.298572,-0.123321,0.760057,0.411312,-0.809891,-0.768791,-0.826487,-0.535827,
-0.123266,-0.672372,-0.216147,0.834443,-0.252723,0.53056,-0.00604763,0.430415,0.609393,-0.85527,0.364172,-0.538969,-0.188193,0.979999,-0.856561,-0.590915,0.589583,0.600314,-0.744416,-0.690525,-0.244274,0.886902,0.327872,0.225356,0.251666,0.930479,-0.900824,-0.443127,-0.349295,-0.14203,0.490732,-0.044455,-0.0753618,-0.230182,0.684659,-0.475698,0.475382,0.213544,0.641486,-0.797216,-0.0507305,-0.908278,-0.556663,0.367027,0.474111,0.966068,-0.827132,0.319397,0.826528,-0.591795,0.346727,-0.428522,0.981669,0.0286795,-0.877818,0.28513,0.847228,-0.0226529,0.618437,0.724278,0.836372,0.506603,-0.0684471,-0.0724257,0.963795,0.805089,0.202916,-0.740759,0.836067,0.273886,0.483585,0.888013,-0.182007,0.877454,0.142761,-0.581616,-0.690095,-0.505102,-0.315346,-0.604494,0.119027,0.743184,0.960559,0.651774,0.021586,0.978859,0.945451,-0.335952,0.474735,-0.775521,0.0636066,0.228985,0.499591,0.305351,-0.0314404,0.682769,-0.888458,0.326479,0.67748,0.389144,
-0.0388447,-0.0268455,0.852811,0.296789,-0.728696,-0.52014,-0.795413,-0.0359561,-0.964524,-0.183585,0.536531,-0.965137,0.463518,-0.52988,-0.390062,-0.765939,0.274758,-0.224255,-0.735609,0.0441415,0.280239,0.0736017,0.327787,-0.316235,0.357466,0.0395957,0.766409,-0.469548,0.0827481,-0.323458,-0.827347,0.556104,-0.841298,0.400048,0.664514,-0.902418,0.88578,-0.365277,-0.0756169,-0.952771,-0.811858,0.338384,-0.229117,0.655796,-0.0846963,0.679949,-0.195218,-0.685972,0.652988,-0.757939,0.581019,0.591263,0.799735,-0.247878,0.955111,-0.0882748,-0.597858,0.431355,0.0852322,-0.799749,-0.420724,-0.53227,-0.516318,0.988469,0.200246,0.675326,-0.903122,0.492853,-0.801079,0.102311,-0.571667,0.183138,0.927612,0.13699,0.803459,-0.510835,-0.425896,0.725327,-0.209506,-0.278606,-0.409222,-0.400511,-0.680318,-0.310488,-0.279069,0.768055,-0.479545,0.857798,0.704522,0.28131,-0.367444,-0.584799,0.798529,-0.67171,0.645079,-0.615973,0.256304,0.461731,0.130595,-0.262708,
-0.279197,-0.699163,0.0314365,-0.0516226,-0.485088,-0.589593,0.393344,-0.999065,-0.680276,0.891423,0.999317,0.644488,-0.468756,-0.0354268,-0.461046,0.756359,-0.175109,-0.704144,-0.46104,-0.99213,-0.336793,-0.831632,-0.511908,-0.366894,-0.0175905,-0.430476,-0.154235,-0.183571,-0.10513,-0.588418,-0.444033,0.95508,-0.906794,-0.256379,0.77452,-0.228314,-0.590165,-0.581728,-0.355784,0.890863,0.340483,-0.630151,-0.158836,-0.866162,-0.0703665,0.136555,-0.116565,-0.0956829,0.055881,0.803727,-0.46401,0.2032,-0.580743,0.44303,0.0277399,0.947004,0.416286,0.758863,0.940369,-0.450624,0.177871,-0.812577,0.092539,0.684373,-0.475654,0.913038,-0.633578,0.179662,0.0130149,0.249331,-0.803597,0.495749,0.545093,0.454342,-0.794832,-0.0248488,-0.970861,-0.168599,-0.906874,-0.285713,0.108127,-0.872384,0.944818,-0.99761,0.68414,-0.0870861,-0.615586,0.60543,0.903807,0.610128,0.437751,-0.138157,-0.882389,0.268203,-0.00368072,-0.475529,-0.484758,-0.424349,0.924129,0.146083,
0.988262,0.875657,-0.116957,-0.96922,-0.676407,-0.558256,-0.004811,0.948894,-0.395685,0.231301,-0.513769,0.456273,-0.171641,-0.481562,-0.11907,-0.218736,0.459409,-0.200453,-0.0102622,-0.841448,-0.347468,-0.799199,-0.455871,0.942185,0.62973,0.559138,0.869929,0.438893,0.31904,0.0144187,-0.568827,-0.215884,0.784611,0.518492,0.157202,0.730209,-0.0446831,0.0818853,0.364005,0.0263065,0.308069,0.204031,-0.671674,-0.504144,0.859832,0.703978,0.877508,0.610346,0.906602,-0.445582,0.611761,-0.233948,-0.140633,0.398172,-0.881307,0.110639,-0.060078,-0.363438,0.118726,-0.0068915,-0.81676,0.74458,0.637675,-0.498161,-0.656371,0.0594148,-0.792849,-0.791207,0.317556,0.934629,0.782086,-0.901249,0.866706,0.0734779,0.593065,-0.180546,-0.995458,-0.0890853,0.0187607,-0.0222719,-0.460189,-0.963126,-0.731899,-0.437609,0.00799128,0.977981,0.105102,-0.299157,-0.789267,-0.456459,-0.0429194,-0.335162,0.500979,0.610627,-0.0425298,0.306627,0.912946,0.584586,0.870216,0.44786,
0.503855,0.513792,-0.664876,0.256455,0.392906,-0.737069,0.349534,0.156065,-0.4742,-0.975366,-0.245898,0.265859,-0.051522,0.385778,0.422046,0.129266,0.785779,0.558067,0.883253,0.195413,-0.11353,-0.400764,-0.317282,-0.554792,-0.177117,0.586089,-0.798114,-0.418153,-0.181958,-0.96791,0.480292,0.45637,0.566958,-0.789306,-0.620197,-0.17211,0.71907,0.51297,-0.199671,-0.135777,-0.861975,-0.281932,0.555916,-0.963153,-0.618426,-0.306527,-0.0847083,-0.115236,0.106294,-0.320597,0.556609,-0.212274,0.435402,-0.963529,-0.34169,0.931296,0.562103,-0.0628309,0.753977,-0.474046,0.519608,0.710125,0.58933,-0.379518,0.176791,-0.658034,0.159527,0.0525313,-0.983979,0.194794,-0.278815,-0.545827,0.460992,-0.67017,-0.0685853,-0.199781,-0.941071,-0.593922,-0.094473,0.944041,-0.745203,-0.470753,0.345498,0.700502,-0.720083,-0.039156,0.456258,0.595565,-0.890563,-0.5875,0.617092,-0.810855,0.463498,-0.69889,-0.784785,-0.254825,-0.149752,0.846807,-0.0822009,-0.0971493,
-0.375258,-0.959558,0.361999,0.650816,0.23128,0.801083,-0.878408,-0.302695,0.450644,0.245302,-0.758327,-0.572053,0.352048,0.938126,0.264912,0.801567,-0.607239,-0.56207,0.948087,0.117911,0.423677,0.890514,-0.224922,0.899381,-0.0177784,-0.711533,-0.153476,-0.862214,0.25846,-0.668241,0.248402,0.577159,0.105855,-0.794936,0.0325153,-0.773881,-0.315117,-0.366293,-0.354896,-0.63071,0.639867,0.851549,0.325087,0.740956,-0.869554,0.269616,0.86598,0.416041,-0.318405,0.349521,-0.0241352,-0.0429356,-0.193507,-0.303624,-0.817834,0.307405,-0.0948412,-0.470592,0.61572,0.714894,0.299799,-0.102869,0.447486,0.495475,-0.970523,0.012667,0.86703,-0.604975,-0.0132191,-0.340373,0.518399,-0.147071,-0.405381,-0.79591,0.383129,-0.277118,-0.445055,0.221796,0.175359,0.0334091,-0.332183,-0.307172,0.436789,0.272024,-0.0851356,-0.25979,0.0200983,-0.157133,-0.513367,-0.0538238,-0.910129,-0.0256215,0.843574,0.209517,-0.293508,-0.811745,-0.693802,-0.732825,-0.885233,0.910252,
-0.524436,0.352466,-0.37791,-0.0521371,-0.689723,0.658004,0.65932,0.6371,0.905057,0.72976,-0.343387,-0.494934,0.00782364,0.116198,-0.720075,-0.276217,0.11467,-0.37799,-0.923918,0.96137,-0.0214099,-0.628788,-0.734257,0.143065,0.625704,0.751987,0.644108,-0.265376,-0.474159,0.194027,0.587501,0.419146,-0.128483,-0.0416636,0.321819,-0.0419862,-0.985311,0.405378,-0.475822,-0.602932,-0.394855,0.582118,0.368949,0.934304,-0.40175,0.868437,0.679138,-0.537793,0.648252,0.131572,-0.576979,0.864604,0.885189,0.642928,0.209578,-0.989492,-0.343451,-0.473591,0.901659,0.494304,-0.615487,-0.965145,-0.0302441,-0.45475,-0.81254,-0.888966,0.576282,0.590494,-0.0291745,-0.140649,0.156297,-0.89034,-0.210783,-0.889126,0.691894,0.319725,0.532588,-0.524762,-0.590384,0.493616,-0.586499,-0.13152,0.0833642,0.349798,0.62649,0.213355,0.578781,-0.830147,-0.163573,-0.955613,-0.815483,-0.593009,-0.473349,0.896904,-0.39996,-0.0949423,-0.987074,0.894046,0.937452,0.516678,
0.323047,0.677609,0.233149,0.578296,-0.532914,0.971375,0.483468,0.636838,0.584996,-0.478394,0.193063,-0.970059,0.291365,0.25965,0.419014,-0.785858,0.443787,-0.680383,-0.291364,-0.373963,-0.409612,0.921816,0.220958,-0.27306,-0.272629,-0.0192835,0.297626,0.387546,-0.937818,0.00870481,0.376985,-0.878394,-0.475071,-0.759042,0.0502528,0.813607,0.177249,0.294908,0.159162,-0.952091,-0.0332636,-0.330611,-0.576759,0.630866,-0.534172,-0.74976,-0.258678,-0.152413,0.00612329,0.718115,-0.570633,-0.62162,0.825619,0.578306,-0.677295,-0.344946,0.497525,0.192854,-0.770062,-0.17117,-0.18334,0.348863,-0.453438,-0.121169,0.467569,-0.777909,0.423885,-0.571918,-0.722412,-0.596022,-0.504923,0.274965,0.606784,0.928727,-0.306637,0.073141,-0.449245,0.295125,0.127233,0.652784,-0.943781,0.565488,-0.327929,-0.854954,0.223166,0.0785871,0.0196751,0.00846895,0.211333,-0.824343,-0.308448,-0.104768,0.667191,0.601617,0.119016,0.120582,0.724531,0.61782,0.754347,0.575188,
-0.414539,-0.43075,-0.0839068,-0.878627,-0.840483,-0.283136,-0.418881,-0.853335,-0.0379656,-0.993742,-0.557285,0.307914,0.168946,0.406359,0.20098,-0.27821,0.613896,-0.0384775,-0.684196,0.132717,0.755327,-0.106351,0.233373,-0.38866,-0.172938,-0.633981,0.847878,0.843335,0.447454,0.1105,0.549253,0.451896,-0.760079,0.747328,0.216948,-0.917346,-0.22972,-0.070301,-0.0364886,0.243048,0.342876,-0.294182,0.720647,-0.109888,0.818999,0.479883,-0.119733,0.105885,0.395893,-0.498425,-0.0554696,0.411533,0.36904,-0.256605,-0.244885,-0.53188,0.910549,0.772589,0.698142,-0.136162,-0.135549,-0.506082,-0.213596,0.938522,0.756306,-0.947758,0.878617,-0.906984,0.311145,0.569472,-0.983081,0.0886902,-0.102354,0.517989,0.721174,0.388704,-0.856228,-0.946988,0.778608,-0.123178,-0.162848,0.787627,0.196188,-0.0981018,-0.992504,-0.626567,-0.232318,-0.706021,-0.373467,0.572779,0.18546,0.728688,0.673182,-0.584272,0.163524,0.183802,-0.604264,0.421166,0.119338,-0.73051,
0.0557134,-0.133087,-0.94162,0.853128,0.780155,-0.419806,0.550435,-0.835866,0.0511192,-0.258358,0.451454,-0.530932,0.630244,-0.598585,-0.737034,0.549312,-0.0789581,0.377626,-0.797896,0.959527,-0.41394,0.576526,-0.00973809,-0.971897,0.497096,0.65448,-0.0655576,0.580087,-0.57891,-0.638858,-0.850594,-0.955138,0.172357,-0.545985,0.15489,0.0950328,-0.987366,0.808168,0.869078,0.962986,0.168366,0.881591,0.0913339,0.0312655,0.0522211,-0.981458,-0.617341,0.708784,0.434199,0.948685,0.771701,0.30117,-0.810916,-0.121478,0.604198,0.533756,0.0346953,-0.798431,-0.517519,0.122136,-0.912924,-0.423761,-0.493582,0.594896,0.123155,-0.245015,-0.879584,0.846122,0.881543,-0.844184,0.668334,-0.274732,0.434232,-0.342612,-0.0292132,-0.42508,-0.807074,-0.472203,-0.346253,-0.963571,-0.785107,-0.660344,-0.178922,-0.422605,-0.743807,0.857055,0.558398,-0.402441,0.234,0.51137,0.532301,-0.528738,-0.0891433,-0.839191,0.266999,0.806173,0.108612,0.50742,-0.822334,0.542864,
0.898352,-0.946682,0.231589,-0.532844,0.417576,-0.168428,0.557813,-0.442554,0.574887,-0.426489,-0.886896,0.914604,0.286439,0.736437,0.859,-0.362451,-0.299221,-0.527895,-0.0679153,-0.656278,-0.159883,-0.54936,-0.88437,0.710273,0.576577,0.609448,-0.181206,0.687069,0.488737,0.546705,-0.563374,-0.572041,-0.0606999,-0.238758,-0.517997,-0.153871,-0.453623,-0.878782,0.183893,0.600935,-0.732803,-0.321501,-0.148487,0.588156,0.823269,0.780108,0.812581,-0.268236,0.215497,-0.957235,0.901135,-0.386942,-0.152287,-0.0299533,0.357784,-0.658531,0.0729052,-0.561872,0.139317,-0.884685,-0.271935,0.175739,-0.267319,-0.733126,0.873939,0.577914,0.402018,-0.302311,0.00359534,0.876466,-0.962731,-0.727909,0.360421,0.638231,0.972198,-0.384161,0.376258,0.987552,-0.807255,0.305156,-0.46941,-0.41046,-0.211675,0.494214,-0.82496,-0.121467,0.0820952,0.826952,0.150117,-0.394718,0.30041,-0.0533808,-0.621472,-0.986214,0.784329,0.6032,-0.604622,0.659365,-0.771958,-0.27324,
-0.385937,-0.628156,-0.530391,-0.974639,0.356668,0.127494,-0.946063,0.475717,0.28366,-0.49997,0.0885837,0.934971,-0.424326,0.858936,0.562947,-0.958543,-0.362563,0.825334,-0.314092,-0.217942,0.949508,-0.908194,0.62459,0.628324,0.623715,0.158822,0.504597,0.212056,-0.284084,-0.515918,0.128304,0.914569,0.695887,-0.359584,-0.85733,-0.930823,-0.91705,-0.568493,0.865353,0.80027,0.380883,-0.0548918,-0.710486,0.189698,-0.315695,0.561153,-0.640363,-0.0999834,1.0007,0.4499,0.496858,-0.506116,0.198817,-0.688794,-0.760165,0.570419,0.0733928,0.430646,0.318906,-0.0317639,-0.0198254,0.629302,-0.850724,0.132436,-0.441759,-0.404045,0.673626,-0.443123,0.215382,-0.59004,0.245316,0.548204,0.695913,0.707863,-0.187102,-0.132858,-0.900373,0.614337,0.65794,-0.665284,-0.533538,-0.846539,0.976435,-0.0427408,-0.961035,-0.948228,0.951868,-0.488153,0.742342,-0.260724,0.182326,-0.263528,0.489522,0.038512,-0.499921,0.786888,-0.998604,-0.618115,0.55513,-0.821533,
0.137595,0.203641,0.28755,-0.329771,-0.736121,-0.0406413,0.353165,0.333257,-0.871382,0.872387,0.0890295,0.768076,0.296868,-0.594458,0.454893,0.623916,0.380143,-0.0760137,0.841246,-0.672096,-0.503549,-0.211469,-0.688895,-0.844208,-0.229739,-0.0722922,-0.74552,0.871928,0.91828,0.334592,-0.621446,-0.133968,0.3502,-0.00070908,0.741976,0.895287,0.9695,0.37892,-0.424417,0.933262,-0.16606,-0.43934,-0.857463,-0.648143,0.759696,0.932457,0.588945,-0.0958143,-0.610494,0.286596,0.2906,0.797627,0.80321,0.651618,-0.313976,0.97912,-0.790698,0.564775,0.296406,-0.746137,0.939192,0.855474,0.486067,-0.810976,-0.318804,0.817645,0.499788,-0.573173,-0.288547,0.423827,0.617491,0.928879,-0.359353,0.527861,0.552746,0.357782,-0.884467,-0.693894,0.883246,0.550746,0.645857,0.952387,0.983352,-0.536771,-0.674834,-0.506611,0.900297,0.0553198,-0.435965,0.414628,0.510607,-0.129417,-0.0614719,-0.962239,-0.660865,-0.766844,-0.723998,0.360751,0.483337,-0.953099,
-0.215737,0.58097,0.704037,-0.980638,-0.0322349,0.491596,0.266905,-0.335339,-0.621911,0.694766,0.8264,-0.971645,-0.592216,-0.770911,0.840948,-0.590374,-0.842083,-0.0681452,0.764226,-0.243166,0.758918,-0.170804,-0.725442,0.217629,-0.812601,-0.19221,0.252078,-0.876333,-0.484796,-0.695287,0.672598,0.47514,0.116967,-0.5873,0.542755,0.7082,0.758665,0.808044,-0.32711,0.787215,0.16541,-0.781229,0.231819,0.506671,0.148362,0.47213,-0.494576,-0.695005,0.185371,0.0522875,0.506849,0.215304,-0.623192,-0.160934,0.780455,-0.694665,-0.24256,0.580661,-0.0107852,-0.93769,0.724537,-0.434114,-0.418539,-0.799245,0.58533,-0.569153,0.167018,0.38542,-0.337742,-0.106427,0.303503,-0.801766,-0.625385,0.76051,0.990088,-0.822808,0.0837383,-0.202505,0.833186,0.711804,-0.434739,0.848936,-0.472039,0.463698,-0.289089,0.50508,-0.897369,-0.962535,-0.203068,0.117949,-0.106967,0.721891,0.818856,0.813058,-0.632371,-0.612763,0.369552,-0.387975,-0.621533,-0.920229,
0.899013,0.0357945,-0.376365,-0.52372,0.922796,0.942948,-0.241539,-0.217437,-0.937118,0.578572,0.468493,-0.851365,-0.448296,-0.536802,0.894934,0.61934,-0.566924,0.633885,-0.00858251,-0.713182,0.467227,0.453972,-0.0117799,-0.00203906,0.235362,-0.590241,-0.608922,0.96942,0.515339,-0.331008,-0.697857,0.986569,-0.879247,0.357698,0.24384,0.303555,-0.123212,-0.802088,0.708234,0.782567,-0.837924,-0.568735,0.975762,-0.866546,0.829717,0.796127,-0.376624,0.216789,-0.190128,-0.187354,0.836332,-0.686178,0.127919,0.0228133,0.909727,0.964653,0.469467,-0.50444,-0.837913,0.77634,-0.720272,-0.625976,0.324163,0.4434,-0.219235,0.566677,-0.444366,0.955377,-0.8806,-0.39002,0.615439,-0.390739,0.951115,0.854037,-0.902157,-0.793633,0.00588919,-0.839442,0.278961,-0.090042,-0.718552,-0.89374,-0.687821,0.851658,0.634441,-0.982297,-0.311901,-0.994433,-0.393374,-0.29227,0.77919,-0.384808,-0.953111,-0.00879491,-0.457224,0.41612,0.62358,0.0798087,0.0688589,0.986981,
0.640028,-0.803312,0.515112,-0.976775,0.0226758,0.293467,-0.152066,-0.816774,0.703496,0.852074,0.798944,-0.642562,0.0869904,0.803491,-0.501005,-0.98864,-0.322618,-0.693537,0.533188,0.687834,-0.356323,-0.425675,0.288138,-0.48007,-0.837787,-0.585699,0.482118,-0.481929,0.0575815,-0.236029,-0.513225,0.789099,-0.479975,-0.306142,-0.193901,0.506301,-0.772965,0.38299,0.357089,0.230309,-0.798171,0.375579,-0.358537,-0.0231018,-0.0141088,0.263535,-0.441422,-0.0911025,0.385576,0.159929,0.9374,-0.312424,-0.39446,-0.342862,0.151752,-0.185546,0.17628,-0.0231437,0.493779,0.376972,-0.97863,-0.711376,0.8551,0.751232,-0.973669,-0.483017,0.448516,0.737013,0.362734,0.772191,0.130747,0.00514605,0.0203124,0.682702,-0.351615,-0.0295636,0.160228,0.540681,-0.35222,0.899525,-0.83494,0.964214,0.99363,0.460551,-0.258907,-0.785434,0.021804,0.454377,0.826056,0.450855,0.288896,-0.585191,-0.897692,-0.628413,-0.756512,-0.219001,-0.666462,-0.613412,-0.238383,0.260755,
0.00532409,0.302628,-0.283174,-0.690238,-0.566321,0.996856,-0.263707,-0.146864,-0.991667,0.747821,-0.0611261,-0.68001,-0.965689,-0.367275,0.693935,0.59602,-0.996613,-0.19719,0.900425,0.455423,0.212566,-0.445781,0.575303,-0.33622,0.902039,0.806735,-0.194283,-0.133562,0.432441,0.51411,0.0803834,-0.396271,-0.545843,-0.930663,0.3073,0.862414,-0.438628,-0.74983,0.669737,-0.129475,-0.0463421,-0.61691,-0.778834,0.396011,0.323362,0.42371,0.189924,0.571516,0.903276,0.421408,0.338385,-0.829105,-0.564329,-0.114419,-0.530189,0.867903,-0.90079,0.919323,-0.702882,-0.809391,-0.447278,-0.807353,0.00928907,-0.172997,0.60335,-0.814634,-0.607694,0.544611,0.992009,-0.445596,0.0430383,0.368791,0.690118,-0.189218,0.769698,-0.557017,0.630635,-0.99657,0.172892,-0.242614,-0.873051,0.0369239,0.331705,-0.299836,-0.88005,-0.9745,0.469634,-0.0601052,-0.798715,-0.284401,0.849833,-0.581273,-0.811172,0.135634,-0.305493,0.301951,-0.329861,-0.953502,0.403942,-0.876541,
0.258709,-0.623526,-0.614949,0.5297,0.712783,-0.372025,-0.277581,-0.671323,0.202716,0.656074,0.0847258,0.878901,-0.161348,-0.106418,0.596885,-0.369309,-0.687293,-0.661475,0.540645,0.448844,0.927919,0.236036,-0.926375,-0.616987,0.44993,0.51913,-0.676586,0.755923,-0.219318,-0.0240736,0.128956,0.234224,0.815758,-0.459616,0.899786,0.24304,-0.276717,-0.675374,-0.0370917,-0.0114707,0.450949,0.977905,0.347845,0.738333,0.530798,0.44673,0.131837,-0.99112,0.548091,-0.876692,0.896378,-0.524385,-0.276535,0.374445,0.568904,0.21214,0.50262,0.15477,-0.597284,0.467292,-0.58868,-0.31629,0.645409,-0.173285,0.475664,0.770275,0.174056,0.858776,-0.74727,0.709033,-0.961463,-0.372707,-0.282126,0.332702,-0.91718,-0.243275,0.137942,-0.272938,-0.555415,-0.262615,-0.560901,-0.167091,-0.495709,0.454464,0.369245,-0.996525,0.91679,0.493683,0.839441,0.36506,0.0903967,0.829146,-0.00237481,-0.442293,0.974164,0.406837,0.585766,-0.960619,0.114925,0.955706,
-0.795708,-0.219479,-0.579172,-0.597893,0.671386,0.99799,-0.845026,-0.541813,0.394567,0.0388248,-0.118294,0.48153,-0.0979786,-0.759034,0.183967,-0.736599,-0.394768,-0.558961,0.0295107,0.78182,-0.474636,-0.148135,0.409482,-0.293804,-0.0565721,0.607375,0.908821,-0.0167894,-0.161902,-0.269201,0.133986,0.756313,-0.473745,-0.435066,0.952796,-0.669889,-0.769658,0.625373,-0.761948,0.24213,0.364446,0.132406,0.311338,-0.713507,-0.320235,-0.843262,0.658266,0.124464,-0.318987,0.407666,-0.280411,-0.408389,0.501206,0.221197,0.344341,0.96466,-0.199297,-0.290505,0.506945,-0.237918,0.156158,0.965212,0.924155,0.926255,-0.899013,0.592711,-0.617282,-0.457414,-0.0136733,-0.931363,-0.182261,-0.143558,-0.225803,0.678066,-0.0758036,-0.135591,-0.727928,0.422116,0.235395,-0.442541,0.317951,0.78055,-0.180402,-0.764651,-0.31778,0.797419,0.543439,0.146695,0.06268,-0.0136305,-0.713791,0.102795,0.0329158,-0.167085,0.279702,0.505879,0.23237,0.426257,0.752848,0.988681,
-0.0216516,-0.986231,0.0215461,0.865135,-0.425866,-0.778312,0.819447,0.796582,-0.798578,-0.467895,-0.204476,0.357938,-0.887041,-0.454153,0.792966,-0.38774,0.0784394,-0.0354024,0.516952,0.827624,-0.504039,0.5484,0.658704,0.189836,-0.237232,-0.188026,0.421035,-0.132885,-0.350596,-0.881378,-0.0129527,0.612784,0.446839,0.731405,-0.295517,0.266044,-0.236733,-0.197464,0.922882,-0.269104,0.253155,-0.0211979,0.0462306,0.190112,-0.832321,0.573973,0.905277,0.0841535,-0.22706,0.790568,0.228243,-0.224911,0.304338,0.755001,-0.517949,-0.85497,-0.86712,-0.369282,0.699875,-0.405946,0.618668,0.0501063,-0.869755,0.815642,0.0678775,-0.416437,-0.410916,-0.632995,0.567914,0.602326,0.396373,-0.587817,-0.120888,0.591113,0.0111053,0.128716,-0.103435,0.512249,-0.616756,-0.460951,0.0659489,-0.158825,-0.590564,0.865607,-0.116166,0.605313,-0.351938,-0.0190623,0.12187,-0.565957,0.402732,0.399987,-0.504472,-0.998365,0.295951,-0.0801419,0.535848,0.883147,0.451238,-0.675256,
0.123319,-0.000696319,0.977723,0.808011,-0.131839,0.94026,-0.820048,0.903001,-0.706313,-0.751606,-0.853408,0.814335,0.946434,0.0754422,0.774954,-0.716687,-0.226724,-0.676939,-0.670526,-0.8716,0.454942,-0.799922,-0.837799,0.659626,0.245658,-0.660891,-0.189425,0.195547,-0.374098,-0.193175,0.849449,0.33334,-0.652508,0.666494,-0.989102,-0.148796,0.143857,0.0713412,-0.477332,0.858163,-0.989333,-0.952361,0.377516,-0.0348515,-0.842342,-0.450394,0.218304,0.35394,-0.986426,-0.0448995,0.374795,0.367357,0.938705,-0.788947,0.265358,-0.708867,-0.69704,0.680991,0.397933,-0.99293,0.299148,0.649479,-0.26422,-0.236145,0.658986,-0.00668487,0.882696,0.404022,0.850713,-0.0374014,0.949499,-0.82155,0.627028,0.96455,-0.840564,0.710873,0.776376,0.986229,-0.881866,0.276773,0.25617,0.286275,-0.313934,0.217008,0.998979,-0.208314,-0.753878,-0.692216,-0.160236,0.251487,0.66712,0.267242,-0.286487,-0.734001,0.0735256,-0.0451024,0.895032,-0.149214,-0.971224,0.302831,
-0.349038,0.955426,-0.825752,-0.497663,-0.960922,0.494571,0.720127,-0.515014,0.254625,0.707289,-0.645474,-0.160387,-0.529239,-0.200776,-0.922112,-0.740901,-0.766257,0.65379,0.633942,-0.363908,-0.515882,-0.513083,-0.73232,0.0968331,0.598731,-0.905402,-0.649578,-0.107774,0.342127,-0.129909,0.617496,0.00986263,0.593487,-0.611375,-0.944225,0.129288,-0.404786,0.985873,-0.904543,0.0829126,0.228574,0.747801,-0.0322272,-0.510442,0.468397,0.530627,0.782089,-0.788811,0.891487,0.226304,0.827066,0.633904,0.150202,-0.292081,0.805235,-0.832981,0.74666,-0.837558,-0.113153,0.933159,-0.768142,0.676587,-0.578409,0.0695048,-0.133429,0.574706,0.108195,0.618998,-0.661041,-0.794986,0.303663,-0.873398,-0.298231,-0.757696,-0.506025,-0.581333,-0.327585,-0.585273,0.929387,0.797509,-0.547516,-0.740622,-0.0382336,-0.118462,-0.498798,0.176818,0.00243489,0.410758,0.6093,0.0313686,-0.963181,0.246141,-0.0471284,-0.579129,-0.686842,0.897033,-0.0386344,-0.0989893,0.914514,-0.907145,
-0.272779,-0.705171,-0.864084,-0.723449,0.995557,0.436065,0.592164,-0.230022,0.0487853,0.942748,-0.570215,-0.206151,-0.042543,-0.204326,0.165931,-0.905745,-0.510099,-0.437755,0.322995,-0.336625,-0.13189,-0.262469,0.591368,0.151384,0.122417,-0.453082,-0.44816,0.266288,0.783185,-0.203996,0.687178,-0.756749,0.541772,-0.892441,-0.599093,0.647931,0.778842,0.41844,0.779339,-0.781036,0.294444,0.894289,0.0198969,-0.136923,-0.719679,-0.866775,0.801948,0.431684,-0.262931,0.766396,0.583002,0.691253,-0.502457,-0.0491046,0.45284,0.614665,-0.603972,-0.612729,0.282304,0.0630084,-0.741196,-0.436286,0.075499,-0.574784,-0.495764,0.103606,-0.469106,0.584154,0.739528,0.719561,-0.0925836,0.54993,0.0726038,0.420701,0.0943815,-0.92211,0.0153944,-0.681899,0.156664,-0.970223,-0.287069,-0.958692,0.0725563,0.523601,-0.978336,0.589181,-0.0415239,0.247862,-0.257307,0.0761691,0.708029,0.642726,-0.316071,-0.36371,-0.988749,-0.332167,0.0597409,-0.789977,-0.725359,0.802074,
-0.980294,-0.83687,-0.920434,-0.44345,0.450678,-0.214545,0.910833,0.586195,-0.864873,-0.722005,0.586492,0.587027,0.727571,0.662051,0.584973,-0.80066,0.726016,-0.41769,0.273752,-0.298726,0.650868,0.589557,-0.563943,0.295916,-0.857474,-0.76447,-0.765648,0.0153488,0.933391,0.994079,-0.440045,-0.678832,-0.252316,-0.801387,-0.0677433,0.195296,-0.114202,0.334675,0.731097,0.620378,0.120857,0.299389,0.194778,0.539034,0.376897,-0.570477,0.153355,0.487152,0.1284,-0.132728,-0.846246,0.0323605,0.475676,0.14062,0.0767883,-0.124389,0.876263,-0.615592,-0.613049,0.887257,-0.462866,0.247914,-0.103001,0.985983,-0.692375,0.407795,-0.0762244,0.525757,-0.0510223,0.636275,-0.82034,-0.0292178,0.360569,-0.146144,0.963272,-0.744298,-0.403223,-0.239431,-0.329845,0.29808,0.676249,0.939243,0.624214,0.160474,-0.89671,0.124957,-0.568954,0.786894,-0.911412,0.971356,-0.971563,-0.594476,-0.731884,0.765999,0.39392,-0.234864,-0.253048,0.421768,-0.347636,0.776486,
0.218938,0.672004,-0.020554,0.0851635,0.771257,-0.408325,0.562724,0.82658,-0.852961,0.783117,0.190612,0.11007,0.325424,0.239401,-0.257054,-0.29492,-0.68573,0.616555,-0.104158,0.87333,0.0697002,0.895066,-0.177305,-0.636692,-0.300181,-0.781402,0.247357,0.871036,0.600293,0.248477,0.526074,-0.260034,0.799669,0.964833,-0.0866764,-0.553309,0.777129,-0.0545802,0.654351,0.173495,0.144169,-0.410765,-0.435206,0.136638,0.992153,0.75529,0.520606,0.0748793,-0.407832,0.540784,-0.855456,0.103977,0.780489,-0.531052,-0.328484,0.462145,0.750335,-0.285664,-0.4572,0.167309,-0.97174,-0.295916,0.155582,0.508171,0.585649,0.684722,-0.299724,-0.405965,-0.523606,0.817762,-0.706893,0.508153,-0.551239,-0.0456508,0.0402753,0.144896,0.81867,0.120371,-0.54824,-0.177789,0.845915,0.453795,-0.795116,0.121021,0.75144,0.214283,0.659084,-0.125339,-0.699752,0.190634,-0.0960721,-0.469873,-0.737227,-0.567962,-0.48404,0.118038,0.620483,-0.507019,-0.83991,0.348914,
-0.485705,-0.129972,-0.371684,0.979756,0.013978,-0.0637911,-0.0812484,0.887467,-0.255074,-0.562379,-0.24352,-0.19839,-0.303417,-0.755925,-0.838022,0.387549,0.333113,0.999029,0.124115,-0.322526,0.0847018,0.891258,0.381742,0.552457,-0.810942,-0.723299,0.611603,0.451019,0.0677088,-0.433307,0.597816,0.15044,0.0549841,-0.145942,0.428789,0.507335,0.398817,-0.809423,-0.851004,-0.661899,-0.810409,-0.712889,0.178343,-0.665413,-0.0628705,0.571729,-0.703017,-0.120259,-0.725572,0.180669,0.432779,0.259784,0.238498,0.529206,0.412073,-0.933944,0.308819,0.332025,-0.449842,0.4437,0.517549,-0.401209,-0.178398,0.911159,-0.985826,0.826886,0.496042,0.175638,0.984923,0.536236,0.939461,-0.630642,0.872488,0.268704,-0.454457,0.579876,-0.220883,0.332754,0.640201,0.281652,0.500276,0.237531,-0.770933,-0.190422,-0.139791,-0.342398,-0.766741,0.0191266,-0.264353,0.558038,0.96191,0.757832,0.578408,-0.567131,-0.943274,0.823653,-0.0740378,-0.940613,-0.0728623,0.87228,
-0.0523201,0.639352,0.667345,-0.277725,-0.915699,0.955798,0.673308,0.0452582,-0.410105,0.595972,-0.578012,0.862018,0.786851,0.157073,-0.38604,-0.705836,-0.0814286,-0.328307,0.207235,0.197935,0.377761,-0.945252,0.80462,-0.910428,-0.162375,0.383634,0.963716,0.191432,-0.407669,0.491027,0.709537,0.953811,-0.567766,0.74093,0.181177,0.962357,0.554356,-0.814347,0.981068,-0.0366537,-0.511649,-0.583269,0.253863,-0.118489,-0.205647,-0.581233,-0.544316,-0.814064,-0.617541,-0.953945,-0.290224,0.696,0.635986,0.0721483,0.307084,0.994968,0.965395,-0.632678,0.790811,-0.938713,0.480132,0.659215,0.631751,0.219925,-0.663878,0.982523,0.320063,-0.222934,-0.399858,-0.196185,0.627307,-0.381843,-0.884094,0.663036,-0.909594,-0.86208,0.545461,0.933706,0.110769,-0.264223,0.226099,-0.513245,0.0266353,-0.291872,-0.456279,-0.790688,0.942381,0.427363,0.303379,-0.463113,0.294257,-0.185994,-0.997226,-0.133051,-0.943169,0.294449,-0.984581,-0.725304,-0.337918,0.915233,
0.618606,0.449696,0.191176,0.349733,-0.363355,-0.164132,-0.268883,0.906695,-0.342562,0.204328,-0.291206,-0.228276,-0.585955,-0.68824,0.720917,0.507954,0.206497,0.961747,-0.537548,-0.795287,0.189371,0.704525,-0.401771,0.132264,0.571012,0.239047,-0.101861,-0.890657,-0.0818427,-0.428117,0.635793,0.340366,-0.247896,-0.657576,0.996508,-0.366365,0.611432,0.689463,-0.576376,0.0832741,0.0892796,-0.139745,-0.779857,0.483279,0.649454,-0.838034,0.0819444,-0.849189,-0.558044,0.972955,-0.187137,-0.257319,0.739378,-0.00465808,0.274985,-0.459724,-0.865878,0.255052,0.889823,-0.147938,0.803816,-0.330861,-0.720297,0.386854,0.568163,-0.449894,0.708403,0.593987,-0.186212,-0.0402965,-0.19269,0.0448044,-0.967051,0.709982,-0.740766,-0.424064,-0.641169,0.0319619,-0.488208,0.0106743,-0.953141,0.950426,0.00203721,0.187254,-0.658262,-0.504081,0.528967,0.538503,0.900578,0.284634,-0.207864,-0.427982,-0.946226,-0.618125,-0.0620671,-0.181426,-0.736092,-0.934328,-0.878349,0.936572,
-0.18382,-0.0850355,-0.564314,0.137263,-0.899312,0.958408,-0.669353,0.971148,-0.395114,0.0325949,0.623433,0.513601,-0.560894,-0.39823,0.676903,0.314003,-0.522584,0.628877,0.120275,-0.0933592,-0.409973,-0.746405,-0.0622528,-0.979197,0.423685,0.177776,0.771568,-0.250261,0.890416,0.217034,-0.349052,-0.521781,-0.98407,-0.521054,0.322926,-0.491517,-0.790236,-0.92417,0.449302,-0.21452,0.599119,-0.42263,0.187589,-0.979671,-0.794626,-0.274078,-1.00321,0.315546,-0.962806,0.278697,0.192455,-0.881266,0.689639,0.501457,0.709788,-0.325089,-0.329354,0.0245537,-0.439518,-0.482641,0.0861977,0.547592,-0.346091,0.115132,-0.0275074,-0.761836,0.207591,-0.840211,0.141164,0.752386,0.796348,-0.12948,0.549105,0.413326,-0.354073,-0.95925,0.669859,-0.396967,-0.012431,-0.638343,-0.78179,-0.201516,-0.290323,0.771873,-0.817917,-0.64006,-0.568216,0.656031,0.114904,-0.0581276,-0.571335,-0.252701,-0.340151,0.615108,-0.702293,-0.127393,0.767522,-0.971898,-0.125349,-0.923176,
-0.616648,-0.877225,-0.426762,-0.0121599,-0.98254,0.229192,0.619731,0.959301,-0.358514,0.255957,-0.340658,0.178228,-0.376975,-0.521968,0.685979,-0.397055,0.867311,-0.960715,0.748758,-0.637424,-0.706698,0.17674,-0.0148289,-0.000214529,-0.316767,-0.570803,-0.37346,-0.282539,-0.964001,-0.689958,0.223656,-0.781845,-0.440159,0.292155,-0.738109,0.377513,0.902626,0.335847,0.439238,-0.637119,-0.512316,-0.273948,0.924699,0.67916,0.404108,-0.0231416,0.310677,0.503764,-0.586661,0.804452,0.570689,0.218213,0.896614,0.780604,-0.934073,0.229411,0.0697303,0.38073,-0.409122,-0.938312,-0.201445,0.621095,-0.862361,-0.522024,0.108718,-0.820039,-0.623348,0.58229,0.981815,0.656227,0.0135365,0.497398,0.487973,-0.0408505,0.120708,0.459115,0.383352,-0.669234,0.726021,-0.549524,0.597477,-0.942298,-0.396027,0.833884,0.682152,0.610574,0.553454,-0.309736,-0.178311,-0.848412,0.711489,0.492606,0.0130823,0.718756,-0.429806,0.843684,0.569394,0.467938,-0.846203,0.516482,
0.313705,0.262475,0.39549,0.248773,0.545371,-0.114275,-0.979972,-0.953282,-0.461346,0.119811,-0.932645,0.352613,-0.246998,0.812254,0.455995,0.0632033,-0.447693,0.189669,-0.699023,0.617173,-0.968981,-0.284051,0.214745,-0.791774,0.108041,-0.140601,-0.905061,-0.136898,-0.909619,-0.341696,-0.495927,-0.0668249,-0.25453,0.170683,0.806986,0.8129,-0.744754,-0.348627,0.0212723,0.86752,-0.10252,0.409565,-0.976559,0.338362,-0.239927,0.473846,-0.964148,0.535748,-0.116145,-0.360897,0.509225,-0.367097,-0.359567,0.504063,0.107752,-0.612495,0.446998,0.159085,0.0727359,-0.464867,0.959442,0.952042,0.473497,-0.276758,-0.612936,-0.175613,0.875156,-0.991419,-0.0448731,-0.225979,0.00127866,0.626362,-0.00519975,0.062738,0.7125,0.00999142,-0.763322,0.59641,0.416394,0.34747,0.863403,-0.830495,-0.43393,0.26754,0.131213,-0.987562,-0.932636,0.17903,-0.276544,-0.635455,0.445964,-0.747372,0.26519,0.880782,-0.352452,0.778555,-0.401001,0.136943,-0.173549,0.626761,
-0.381579,-0.0497483,0.137731,0.645305,-0.778249,0.712548,-0.222322,-0.854138,0.709471,-0.710466,-0.721074,0.751956,-1.00376,0.152971,0.0129808,-0.728962,0.875041,0.670304,0.104592,0.697826,-0.817544,-0.611576,-0.800037,-0.578039,0.209472,-0.932805,0.956688,-0.134892,0.411986,-0.0166403,0.871797,0.684217,-0.645057,-0.442441,0.867835,-0.148017,-0.591539,0.608569,-0.786887,0.368666,0.7857,-0.545775,-0.932018,-0.0254907,0.987412,0.56242,0.712471,-0.267263,0.489807,-0.740993,0.217517,0.548067,-0.319697,0.310549,0.170421,0.582013,0.439593,-0.515465,0.0282338,-0.238881,0.0197568,-0.994225,-0.389073,0.173604,-0.986232,0.624503,0.349774,-0.391995,-0.0709868,0.411278,0.138546,-0.61916,0.118259,0.755767,-0.184582,-0.598873,-0.955031,-0.964347,-0.8102,-0.674759,0.988617,-0.951168,-0.0699802,0.854897,-0.593406,0.400389,-0.744259,-0.916947,-0.316495,-0.73467,0.0344061,0.938012,-0.176097,-0.725695,-0.837326,-0.572805,0.313224,-0.350183,0.775034,-0.0610319,
-0.196398,-0.418047,0.940362,-0.244538,0.612225,-0.778477,-0.769428,-0.151734,0.406661,-0.828797,-0.207797,-0.578017,-0.155723,0.798997,0.187032,0.647974,0.296383,-0.826361,0.422239,0.736775,-0.829806,0.295042,-0.888715,0.606863,-0.349221,-0.636113,-0.465097,-0.404696,-0.583111,-0.739145,-0.342992,-0.30166,-0.5674,0.199554,0.601127,-0.215133,0.324379,-0.538322,0.204134,-0.172514,0.476809,0.744367,-0.348494,0.907174,0.904244,-0.672825,-0.563298,-0.451312,-0.978209,0.983277,0.680381,0.723249,0.374066,0.599493,-0.213058,0.438228,-0.631148,-0.326418,0.784322,-0.792185,-0.419561,0.0866601,-0.685032,0.210607,-0.922606,-0.916106,-1.00103,-0.428239,0.621316,0.380695,0.910817,-0.203493,-0.327119,0.158572,-0.72402,0.871156,0.913876,-0.136115,0.551768,-0.771052,-0.953798,-0.124775,0.259587,0.784893,0.0891456,-0.399692,-0.911512,-0.00248915,-0.519152,-0.61772,-0.237068,-0.0612978,-0.890478,0.622449,-0.638886,0.338238,-0.110609,-0.764996,-0.549112,0.741077,
0.665207,-0.117365,-0.460498,0.514643,0.773617,0.296481,-0.916766,-0.111092,-0.607725,-0.612694,-0.830698,-0.447607,0.295356,0.256018,0.800976,0.202413,0.889383,0.239641,0.594564,-0.400592,-0.122297,-0.414092,-0.71843,-0.974696,-0.650625,0.390801,0.870351,0.272643,-0.58043,-0.919345,0.498684,0.0869241,-0.201536,-0.381355,-0.153012,-0.00551918,0.137035,-0.606,-0.323791,-0.561673,0.794384,0.996497,-0.81858,-0.550123,-0.256998,0.185505,-0.0739427,-0.538192,-0.0519803,0.324666,0.770512,-0.976973,-0.0120111,0.919008,0.477298,0.0747077,0.731589,-0.875024,0.0509548,-0.643383,-0.376238,-0.501067,-0.530551,-0.403543,0.991402,-0.453484,0.531143,0.798884,-0.467367,0.70834,0.654303,-0.868537,-0.0608339,-0.499846,0.610345,-0.276229,0.0557951,0.487497,-0.806557,0.152682,-0.019463,-0.152021,0.70472,0.610161,-0.945722,0.419771,-0.65571,0.754134,-0.553646,0.123792,-0.901564,0.469086,0.0671366,0.587866,0.891127,-0.534895,-0.408955,0.451959,-0.837807,0.731852,
0.496344,0.0816523,-0.793381,-0.768223,-0.305364,-0.54141,0.337826,-0.107847,0.751698,-0.0360692,0.198607,0.295853,0.937672,0.817091,-0.767025,0.958003,0.863664,0.0691841,-0.67837,0.228454,0.397503,-0.0858677,0.975349,-0.21869,0.187062,0.891673,0.948709,-0.0358429,-0.150122,0.0481937,-0.662748,0.962544,-0.316848,0.613009,-0.602921,-0.242072,-0.735748,0.531103,-0.223579,-0.909946,-0.98896,0.033567,0.998551,-0.385341,0.101403,0.964717,0.850423,-0.0269207,-0.556289,0.21728,-0.624446,-0.731284,0.0767987,-0.00718053,0.99388,-0.950915,0.236838,0.650737,0.870548,0.330922,-0.995463,-0.933435,-0.808308,-0.508406,0.87775,-0.492794,0.218883,-0.475229,0.908246,0.801269,0.534752,-0.50058,0.695846,0.284452,-0.89583,0.541754,0.793977,0.50005,-0.794361,-0.924593,0.727377,0.192257,0.259721,0.364983,-0.139632,-0.0857761,-0.545713,-0.950075,-0.565875,0.160267,-0.512607,0.687807,-0.795472,-0.12518,-0.482735,0.0662535,-0.704789,0.278701,0.505369,-0.456467,
-0.463648,-0.617866,-0.23236,0.221292,0.184518,0.796719,0.81457,-0.00243051,0.485593,0.133185,-0.265249,0.0618667,0.901464,0.0425218,0.39197,0.27835,-0.522573,0.336316,0.737412,0.361418,-0.852878,0.638051,0.886884,-0.12543,-0.642557,-0.733267,0.0971695,0.611169,-0.200013,-0.948287,-0.143128,-0.045659,-0.722203,0.558854,-0.635194,-0.203023,-0.465269,0.134119,-0.0789052,-0.0729834,-0.995611,0.849465,-0.944961,0.948475,0.583346,0.119619,0.175791,-0.893795,-0.320816,0.269048,-0.295761,-0.384836,-0.359442,-0.281922,0.183858,-0.0837567,0.284365,-0.750001,-0.0535704,-0.731425,0.604567,0.198022,-0.101763,-0.64738,0.460068,0.334131,-0.104283,-0.945887,-0.842255,0.633692,-0.316455,0.0266809,-0.533089,0.656956,0.397085,-0.76482,0.010899,0.568452,0.546374,0.213353,0.418855,-0.576417,0.382176,0.0291958,-0.429876,0.0908496,0.656827,-0.863509,-0.484013,-0.861179,0.57019,-0.523606,0.845188,-0.0608757,-0.371039,0.449561,0.691733,-0.377243,-0.229765,-0.35545,
0.18417,-0.784911,0.19,-0.22118,0.401847,0.667197,-0.395577,0.389792,0.525859,0.743705,-0.394999,0.313609,-0.961464,-0.0586803,0.734975,-0.867494,0.303395,-0.0718279,0.440144,0.270101,0.874106,0.19076,-0.0416623,-0.862322,-0.512838,-0.511116,0.862406,0.885053,0.886652,-0.914348,-0.0864973,-0.289423,-0.376664,0.900341,0.430736,-0.283802,-0.853708,-0.628761,-0.605339,-0.762258,-0.66865,-0.318534,-0.572733,0.227971,-0.204285,-0.999364,0.613613,0.810233,-0.696759,0.535271,-0.22436,-0.801147,-0.618871,0.470252,-0.592108,-0.739813,-0.874696,-0.764579,0.507664,-0.902546,0.185068,-0.515228,-0.824655,-0.687031,0.0630367,-0.161765,0.215358,-0.620937,0.568966,0.686078,-0.021288,-0.105243,0.120388,-0.106215,-0.323914,0.672938,-0.560489,-0.679375,-0.256103,-0.260116,0.866075,-0.350585,0.838914,-0.6698,0.164248,-0.824561,0.249694,0.920599,-0.694195,-0.126138,-0.400997,0.23663,-0.971457,-0.912879,0.443273,-0.939887,-0.904619,-0.535315,-0.40756,0.565724,
-0.933364,-0.721637,0.614375,-0.442308,0.0109263,0.952652,0.243631,-0.243113,0.165707,-0.0459853,0.748535,0.0617639,-0.719645,0.958911,0.784943,0.49517,-0.13936,0.397764,-0.822748,-0.765997,-0.77099,0.481952,0.947881,0.468604,0.0902436,0.808488,-0.906971,0.448579,-0.11624,0.356004,-0.871603,0.979582,0.707856,-0.583604,-0.166459,0.0375326,-0.053477,0.692116,0.195748,-0.0166891,0.696524,0.104205,0.923833,-0.402425,0.11937,0.970315,0.663935,0.39497,0.438137,-0.405156,0.816268,-0.993916,-0.170924,-0.559752,-0.19053,-0.192485,0.128232,0.434459,0.183492,0.436029,0.231955,0.881446,-0.365958,-0.193071,-0.82215,-0.605207,-0.355686,0.7013,-0.294283,0.123117,-0.016375,-0.255796,-0.0702639,-0.748602,0.305267,-0.511704,0.0157663,-0.307334,-0.381115,-0.108435,-0.253285,0.0721544,-0.880943,-0.620095,0.92175,-0.0109977,0.306804,-0.71361,0.83376,0.450709,-0.82085,-0.905442,-0.132937,0.258709,-0.437719,0.365854,-0.886661,-0.980741,0.205006,0.428649,
0.25529,0.364781,0.704637,0.372716,0.305695,0.782042,-0.689749,-0.920744,0.987817,-0.515973,0.269691,-0.390262,-0.732474,-0.801002,0.963985,-0.398208,0.894267,0.405497,0.924204,0.218542,0.315319,-0.343884,0.43045,0.5004,0.571063,-0.6159,-0.603723,0.722567,-0.43177,-0.332769,-0.827813,0.547499,-0.819738,-0.367239,-0.807624,0.141043,0.274812,0.351752,-0.606101,0.396082,-0.306664,-0.958938,-0.754284,0.258242,0.988944,-1.0038,-0.753433,0.712784,0.485501,0.760408,-0.0875642,0.727531,-0.641923,0.460227,-0.224302,0.0669928,0.775316,0.0683721,0.799855,0.619475,0.592907,0.890837,-0.11255,-0.264559,-0.720867,-0.0914311,-0.311949,-0.37219,0.015845,-0.0999285,-0.982885,-0.850405,-0.844602,-0.937631,0.96961,0.664217,-0.341653,-0.061817,-0.833277,-0.0885329,0.584332,-0.273949,0.900894,0.898737,-0.677638,-0.572417,0.197403,-0.893091,0.368974,-0.188093,0.988207,0.52883,-0.828599,0.772598,0.810859,-0.999959,0.786688,-0.0340434,-0.955351,0.456379,
-0.775408,0.108973,-0.22734,-0.759218,-0.638122,-0.674736,-0.235452,0.880293,-0.790251,-0.308756,-0.160933,0.546706,-0.885665,0.680329,0.653959,-0.396553,0.674682,0.337176,-0.814343,0.0749226,-0.485298,-0.316179,0.297608,0.183691,-0.397778,0.014565,-0.173273,0.379942,0.691965,-0.661372,-0.793072,-0.609165,-0.43404,-0.97421,-0.858995,-0.0873742,-0.725273,-0.949375,0.968374,-0.743756,-0.67424,0.656659,0.801756,-0.0623108,-0.133205,0.928426,-0.0170436,-0.56267,-0.228004,0.144477,0.347445,0.293853,0.269501,-0.480037,0.221332,0.0590221,-0.780539,0.80601,-0.106962,0.449883,-0.700076,-0.295117,0.957205,0.40782,-0.748809,0.0883388,0.0326041,-0.240498,-0.874043,-0.288079,0.624315,0.15704,0.791656,0.0442272,-0.407777,-0.681277,-0.78303,0.118912,0.172745,-0.717766,0.0881241,0.137956,-0.222034,0.344508,-0.0260067,0.202599,-0.769402,-0.818115,-0.0594537,0.10568,-0.492276,-0.266246,0.404933,-0.257857,0.520129,0.490298,0.410312,-0.874189,0.893654,0.924763,
-0.929622,0.40569,-0.84214,0.0632704,0.89498,0.269223,-0.181711,-0.266295,0.863276,0.443447,0.617749,0.594063,-0.489055,-0.340041,-0.666036,0.273701,-0.10521,0.202614,-0.218855,-0.523242,0.868519,0.156158,-0.311227,0.862635,-0.622102,-0.0485371,-0.764236,0.845832,-0.0192926,-0.829591,0.981087,-0.335981,0.0548306,-0.482653,0.0378395,0.64774,-0.962889,0.586186,-0.811351,-0.5654,-0.305386,0.411459,0.148277,0.933756,-0.442505,-0.55185,0.490135,-0.817911,0.476205,0.632263,-0.520891,-0.481579,0.165628,0.038352,0.272781,-0.647828,0.677006,0.298466,0.656273,-0.0396025,-0.939091,-0.0171856,0.572414,-0.713431,-0.883223,0.98626,-0.950635,0.974343,-0.470578,-0.0163423,0.989522,-0.0166676,0.222944,-0.65767,0.806052,-0.182319,0.744186,-0.904666,-0.13541,-0.371726,0.577965,0.0777904,0.475891,-0.621712,-0.192164,0.950767,0.660291,0.397306,0.45188,0.887701,-0.985084,0.743059,-0.947607,-0.655225,0.97515,0.745914,-0.292141,-0.372336,-0.111772,0.1447,
0.519396,0.990089,0.428283,0.504593,0.0967084,0.427445,0.674662,-0.455518,0.0530513,-0.810543,0.187491,-0.497629,-0.0672518,-0.86867,0.868967,0.23528,-0.723201,0.0246262,-0.112723,0.219376,0.47134,0.950327,-0.748171,0.0801356,-0.490542,0.226796,-0.245237,-0.689136,-0.304936,0.495526,-0.798705,-0.155172,-0.582417,0.775049,0.213727,-0.760069,-0.0170153,-0.776962,-0.216916,-0.120103,0.168004,0.916887,-0.337844,-0.86358,0.252904,0.467511,-0.632498,0.401367,0.0652406,0.793769,0.538781,0.816783,-0.193605,-0.343001,0.805372,0.850487,-0.378406,-0.998044,0.578688,-0.954381,-0.0836823,-0.557044,-0.707701,-0.799813,-0.636002,0.874581,-0.00423307,-0.00854877,0.799162,0.383208,-0.509272,0.562951,-0.451378,-0.393566,-0.231161,-0.228684,0.471659,-0.395739,0.0932967,-0.0687111,-0.949382,-0.757062,-0.621709,-0.950634,0.850206,0.757013,0.594454,0.461074,0.695415,0.259766,-0.523196,0.171625,0.205801,0.169804,-0.0817249,-0.111827,-0.629981,-0.544869,0.451982,-0.919514,
0.221065,-0.208738,-0.361714,0.558481,0.135255,0.424051,-0.517186,0.388982,-0.359791,-0.164903,-0.17305,0.0931681,0.372423,0.0562337,-0.0810958,-0.626357,-0.274909,0.485772,0.925022,-0.898352,-0.812318,-0.976149,-0.233881,0.373892,0.95239,-0.338346,-0.84528,-0.0553688,-0.364598,-0.832301,0.0467492,0.188021,0.704452,0.635013,-0.181889,0.833489,-0.530592,0.141826,0.411973,-0.247895,0.55831,0.433575,-0.873734,0.0274658,0.424429,-0.345517,-0.860882,-0.689655,0.0250677,0.534909,-0.168702,-0.654709,0.538943,-0.438429,-0.246975,0.956088,-0.561061,-0.0285596,-0.873311,0.495418,0.90244,-0.29676,-0.0624314,0.585484,0.753488,0.0366403,-0.636042,0.753954,-0.374231,-0.976784,0.511925,-0.389359,0.382653,-0.891279,0.966732,-0.235082,0.589743,-0.493653,-0.625004,-0.0920767,0.306667,-0.751926,-0.546208,0.028046,-0.954901,-0.456658,0.119986,-0.974917,0.473152,-0.876708,-0.727147,-0.370366,-0.426305,0.327063,-0.788175,-0.107793,-0.587557,-0.800188,0.490299,-0.231338,
-0.8698,0.75466,0.640376,0.778944,0.657369,-0.181919,0.853589,-0.768824,0.47187,0.886957,0.89147,-0.369946,0.842516,0.466168,-0.00703033,-0.583854,-0.126005,-0.136153,-0.927727,-0.354234,0.730509,0.39579,-0.544527,-0.585484,-0.0255053,-0.489642,-0.664169,-0.329651,0.711518,0.311197,0.131091,-0.721249,-0.174341,-0.521335,0.866748,0.830156,-0.761374,-0.854975,-0.282764,0.788053,-0.161232,0.656105,0.6516,0.687016,-0.9528,-0.381307,-0.490058,0.710756,0.30608,-0.743851,0.902625,0.240591,0.612384,-0.143512,0.844726,-0.812128,0.254453,-0.0065295,0.24076,0.212156,-0.888189,-0.865834,-0.436484,0.752925,-0.645743,-0.240382,-0.712209,-0.0271493,0.321251,-0.530113,-0.0116149,0.934252,0.327252,-0.690456,-0.632094,0.10194,0.712743,0.562788,0.0643911,-0.961585,0.737006,0.884835,-0.673212,-0.662919,0.62519,-0.0683432,-0.392985,0.447796,-0.375224,0.158432,-0.432099,0.887338,0.816167,0.26999,0.966476,0.741422,-0.160654,0.284371,0.116512,-0.869033,
0.66288,0.432731,0.126247,0.607522,-0.951451,0.295695,-0.66285,-0.840575,-0.183739,0.466827,-0.687195,-0.233559,-0.959599,-0.18295,0.295936,-0.756078,-0.0674179,0.403929,0.881776,0.0414739,0.0640296,0.502203,-0.713585,-0.886328,0.89093,-0.628173,-0.311582,0.783207,0.694622,0.110966,-0.443223,0.948945,-0.358217,0.972053,0.630141,-0.762325,0.154411,0.34341,-0.975906,0.504065,-0.333925,-0.0284224,0.721988,0.868438,0.508912,-0.281606,-0.412799,-0.566597,0.109715,0.63446,0.904288,0.0619646,0.923787,0.747204,-0.460312,-0.913485,-0.415316,-0.413721,-0.0283847,-0.901237,0.00495151,-0.165244,0.00971812,0.239436,0.696046,0.569194,-0.740548,-0.159128,0.384304,0.0975639,0.831293,-0.95984,-0.863952,0.243204,0.338593,-0.748656,0.272822,-0.0646357,-0.940294,0.0582283,0.022683,0.51358,-0.486887,0.584701,-0.936751,0.455735,0.604625,-0.929621,0.579813,-0.456781,0.121774,0.981538,-0.0879795,0.29923,-0.54532,-0.0951336,-0.803459,-0.591012,0.681389,0.135908,
0.145811,-0.95111,0.542428,-0.708084,-0.422238,-0.620432,0.0358522,-0.719763,-0.520206,-0.544513,0.0617573,0.908472,-0.860807,0.775663,-0.932015,-0.240644,0.896611,-0.253563,0.159915,0.252828,0.692436,-0.760318,0.86371,0.745141,0.658461,0.125014,-0.163498,0.426751,-0.605271,0.984535,-0.374464,0.804635,0.0785145,0.71064,-0.832423,0.554589,-0.172331,-0.00414653,0.34629,0.506142,-0.576284,-0.634665,0.509726,0.765374,-0.318749,0.226094,0.299706,-0.939692,0.454547,0.72923,0.0149832,0.134344,-0.584458,-0.414397,-0.113558,-0.456091,0.732785,-0.0493069,0.725904,-0.967063,-0.332611,-0.706498,-0.405921,-0.62797,-0.718742,-0.054226,0.561087,-0.982034,-0.954439,-0.781926,0.983156,0.66559,-0.157431,0.467014,0.869311,0.061643,-0.976759,-0.762691,-0.297184,0.252263,0.211052,-0.0907584,-0.160291,-0.961096,0.433145,-0.544046,0.0863832,0.964973,0.420151,-0.445751,0.0773617,-0.225082,-0.129679,0.0158759,-1.00741,0.913487,0.463488,-0.619427,-0.174414,-0.663077,
-0.719527,0.610194,0.429625,-0.475569,0.147805,-0.295878,0.608869,-0.248094,0.330874,0.67488,-0.268219,0.0947058,-0.604709,-0.825752,0.670984,0.731025,0.197427,0.564098,-0.952566,0.110541,0.457085,-0.612758,0.371626,-0.162204,-0.118387,0.783438,0.391052,-0.597873,-0.0261311,-0.497715,-0.483967,0.427571,-0.975061,0.875328,0.687464,-0.418551,-0.0131139,-0.863588,-0.421879,-0.0735807,0.650462,0.987465,0.793252,0.896572,-0.101261,-0.0709565,-0.883734,-0.774794,0.818622,-0.847502,0.19725,0.661492,0.748784,0.931453,-0.505808,-0.838759,0.261698,0.400987,-0.945441,-0.271975,0.112911,0.263693,-0.50149,0.85241,0.153858,0.25318,0.784965,0.32612,-0.0942012,-0.105777,0.290909,0.495928,-0.414633,0.950819,0.095737,0.97988,0.143637,-0.234516,0.779077,-0.83668,0.270815,-0.747242,0.8586,-0.165496,0.526256,-0.241898,-0.858889,0.856111,0.380132,-0.0924964,-0.993822,0.95743,-0.767789,-0.0820436,0.120322,0.391792,-0.896136,0.620786,0.0103242,0.0886023,
0.150834,0.575078,-0.226861,0.985783,-0.13971,-0.241833,0.115473,-0.493429,0.91884,-0.627832,-0.871745,0.397509,-0.865989,-0.0780149,-0.0339884,-0.338467,-0.72405,-0.913654,-0.827041,-0.122215,-0.941526,0.494587,-0.646667,-0.626174,0.451402,-0.973924,0.458404,0.0592052,0.872432,0.345199,-0.264254,-0.459551,0.865166,0.132644,-0.544124,-0.920373,0.932933,-0.617399,0.365756,-0.431468,0.717776,-0.213907,0.584819,0.231142,0.719762,-0.588218,0.245744,-0.804931,-0.840326,-0.324881,-0.613227,-0.856672,0.243485,0.278356,-0.580596,0.214158,0.363857,-0.780073,0.95509,0.438251,-0.420124,-0.146241,-0.683135,0.300581,-0.65037,0.994236,-0.684522,-0.261546,-0.87522,0.784129,0.712988,-0.860299,-0.187327,0.02634,0.627087,-0.14889,-0.866521,0.771816,-0.0135285,0.378388,-0.269493,0.221858,0.049898,0.367768,-0.652677,0.935246,-0.224752,0.416787,0.404094,-0.318004,-0.296852,0.445346,0.161301,-0.573866,-0.874632,-0.636215,0.51374,-0.260787,0.740464,0.908464,
0.798033,0.854648,0.125215,-0.0780125,0.196163,0.794092,0.617447,-0.745015,0.395494,-0.754333,-0.583933,0.705209,-0.133844,-0.574343,-0.0530958,-0.708496,0.89557,-0.840181,-0.185082,0.257848,0.523162,-0.97046,-0.195839,-0.577543,-0.94388,-0.353745,-0.197708,-0.224163,0.355428,0.446031,0.287317,0.419685,0.528764,-0.124556,0.434732,-0.757798,-0.0913026,0.0821508,0.950902,-0.521562,-0.45049,1.01412,-0.605391,0.967774,0.509033,0.416214,0.185959,0.118257,0.158814,0.621973,0.756202,-0.980842,-0.664869,0.830772,0.43856,-0.990678,-0.0948312,0.336229,-0.358827,-0.828658,-0.322941,0.0423619,0.124882,-0.420358,-0.990322,-0.235411,-0.09131,0.871262,-0.587972,-0.0303311,-0.674903,-0.234372,0.620933,0.0133365,0.875088,0.575035,-0.801324,0.582881,0.149376,0.546576,-0.0746818,0.357186,-0.726092,0.927665,0.316034,-0.698393,0.929772,0.303365,-0.778478,-0.226125,0.176662,-0.662117,0.411739,-0.275841,-0.704876,-0.0522515,-0.614479,-0.987628,0.763395,0.449179,
0.523201,0.401999,-0.449912,0.859608,0.419018,0.514259,0.321231,0.958846,-0.797026,0.96607,0.645374,-0.704873,-0.7642,-0.46218,-0.431085,-0.47582,-0.608127,-0.358818,0.815784,0.20402,-0.357384,0.697444,-0.601086,0.469908,0.5412,-0.72933,-0.31542,0.184608,-0.202902,-0.518636,-0.337239,-0.384009,0.0257431,0.937702,0.282056,0.632156,0.514227,0.1631,-0.242072,-0.259939,0.778995,0.751683,0.647363,-0.223415,0.724127,-0.891313,0.0454223,-0.400958,-0.747452,0.810353,-0.628162,-0.0914346,-0.22952,-0.914541,-0.511991,-0.525592,-0.18034,-0.946275,0.449176,-0.613871,0.82101,0.0390513,-0.776575,-0.837414,-0.335436,0.846531,0.24029,-0.217313,-0.736569,-0.277473,-0.375665,-0.569813,0.509129,-0.00569967,-0.603537,0.868103,0.497301,0.269109,-0.494864,0.642424,-0.45365,0.373495,0.939411,0.709305,-0.356997,-0.244828,0.352905,0.53739,-0.246468,0.93101,-0.363811,0.786299,0.898622,0.361457,-0.919879,-0.959015,-0.116311,-0.713536,0.395261,0.0926106,
0.90462,0.923699,0.456107,0.930488,0.179027,0.332006,-0.799114,0.332091,-0.352713,-0.850959,-0.0667937,-0.550615,0.515192,-0.462782,-0.325055,-0.513997,-0.626132,0.566358,-0.941208,0.203549,-0.248024,-0.597259,0.75039,0.64638,-0.49082,-0.766866,0.864977,-0.770711,-0.825781,-0.00764883,-0.504659,-0.618909,-0.432757,-0.387302,-0.93986,-0.145981,-0.849491,0.676776,0.921827,-0.504564,-0.422899,0.0576994,-0.456262,0.153643,-0.785033,-0.819086,0.924604,-0.268515,0.252335,-0.561144,-0.68203,0.87171,0.220273,0.507971,0.107524,-0.823613,0.240786,-0.969151,-0.702055,0.895436,-0.616738,-0.473779,-0.177164,0.49166,-0.382429,-0.73406,-0.75446,-0.794247,0.29862,0.36153,0.302249,0.921469,0.571231,-0.777395,-0.847981,-0.475436,0.24476,0.767679,0.398159,0.868165,0.964729,0.134079,-0.255129,0.62901,-0.122002,0.439553,0.985677,0.429822,0.953763,0.00382591,0.119135,0.237689,-0.403101,0.362557,-0.248879,0.639648,0.277045,0.432153,-0.751319,-0.791191,
-0.600809,-0.484803,-0.49208,0.073845,0.954013,-0.662928,-0.771721,-0.696509,-0.614724,0.629253,0.998421,0.363424,0.533187,-0.200783,-0.152052,-0.746067,0.646123,-0.488317,0.41861,0.389821,-0.790465,-0.918386,-0.23768,-0.453002,-0.565393,0.823832,-0.129685,-0.355127,0.720305,0.39882,-0.894212,-0.843484,0.198972,-0.170234,0.996279,0.769205,0.33322,0.356818,-0.753581,0.406149,-0.736652,0.111171,0.0200445,0.927592,-0.185721,0.729557,0.172474,-0.667102,-0.302228,-0.835766,-0.935122,0.136757,-0.478444,-0.0180174,-0.463491,0.863245,0.417671,0.111386,-0.182912,-0.792524,-0.582656,-0.7956,-0.164534,0.877863,-0.242647,0.500144,-0.41122,0.982628,-0.181591,-0.750391,0.61009,0.55707,0.825345,-0.123661,-0.378949,-0.779171,0.851487,0.49575,0.854402,-0.98254,0.464403,0.55584,0.88706,0.549619,0.390663,-0.239709,-0.723205,0.0848822,0.420733,-0.136912,-0.672895,0.185971,-0.0344627,0.23291,0.59264,0.715669,0.872894,0.968515,0.939985,0.661066,
0.220633,0.38747,-0.127338,0.219943,-0.658854,-0.375245,-0.885393,0.884892,0.240004,0.940734,-0.499867,-0.528343,-0.814247,-0.312021,0.101904,-0.876843,-0.115294,-0.327221,-0.380025,-0.071305,-0.326891,0.0138369,-0.344598,0.0130629,-0.47828,0.42342,0.703049,-0.00751694,-0.0806671,-0.932351,0.76629,-0.27126,0.120637,-0.0442641,-0.346136,0.476634,0.418361,-0.219363,-0.363684,0.260496,0.955606,-0.522963,-0.356121,-0.910614,0.33012,-0.179603,-0.0752312,0.626217,-0.915535,0.943208,0.254482,0.599626,0.0723354,-0.737995,-0.871042,-0.40699,0.896336,0.392946,0.779069,-0.32542,-0.658932,0.0470074,-0.766865,0.267576,-0.253487,-1.00412,0.981855,0.893349,0.211706,-0.595357,-0.148603,-0.030473,-0.304089,0.229285,0.730626,-0.712217,-0.609073,-0.338441,-0.68707,-0.914202,0.273988,0.726989,0.083314,0.0457833,-0.456412,0.0834437,-0.707191,-0.166832,0.137146,-0.841959,-0.185668,0.897989,0.529817,0.876457,0.267318,-0.687845,-0.308701,-0.749848,0.0274496,-0.267878,
0.8391,-0.298917,-0.979541,-0.924726,0.584514,-0.26613,-0.555241,0.504831,-0.67919,0.814508,0.157325,0.982157,0.494707,0.0823263,0.747943,-0.702572,0.604613,0.336256,0.89986,-1.00051,0.78692,0.243265,-0.261528,-0.617189,0.0743086,0.380264,0.851546,0.938461,-0.317967,-0.0679886,-0.574472,-0.150403,-0.5025,-0.696205,0.0578425,-0.84786,0.0820536,0.103576,0.164791,0.957767,0.213611,-0.195407,-0.74073,-0.928165,0.200466,0.933288,0.298644,-0.821555,0.312501,-0.454318,-0.277286,0.280086,-0.564173,-0.76818,0.891232,-0.329379,0.691677,0.401888,0.243014,-0.459569,-0.0904733,-0.911445,-0.877327,0.329295,-0.928554,-0.326376,0.973158,-0.125319,-0.510805,0.316511,0.106525,-0.295979,0.267834,-0.99611,0.409625,0.011737,-0.31322,0.863811,0.734607,0.105127,0.0251946,0.379565,-0.802219,-0.179918,-0.674935,0.907628,-0.943101,0.0977561,0.437313,-0.540196,0.738855,0.548658,0.910018,0.483494,0.68437,-0.609339,-0.132627,-0.0397973,0.616393,-0.000416621,
0.594306,0.190365,-0.018179,-0.803193,0.520012,-0.349557,-0.147612,0.0462817,0.150632,0.461899,-0.422514,0.323791,0.166409,0.28074,0.76597,-0.739329,-0.0509817,-0.576446,0.135085,-0.0984245,0.491001,0.128024,-0.531325,0.295442,-0.209279,-0.986268,-0.72573,0.503941,-0.85937,0.689532,0.0651858,0.827702,-0.957467,-0.934273,0.0718452,-0.503497,0.428211,-0.120909,0.227273,0.612507,0.0465235,-0.784765,-0.421406,0.622907,-0.43196,-0.4169,0.335736,0.0310505,-0.291338,-0.91032,0.564147,-0.133196,-0.556441,0.775508,-0.665364,-0.706988,-0.81258,0.299312,0.363707,-0.307041,0.897445,0.00413995,0.458151,-0.853301,0.907906,0.443866,-0.64895,-0.0945534,-0.29296,-0.0560703,0.478369,0.511991,0.202822,-0.165953,-0.909494,0.297401,-0.846982,-0.899587,0.505502,-0.516029,0.567052,-0.898728,-0.893087,-0.352818,-0.710882,-0.677781,-0.780181,-0.928886,0.814578,-0.0183657,-0.765697,-0.685541,0.702834,-0.504603,0.499529,-0.420817,-0.453924,-0.620631,-0.71296,0.856679,
0.364973,0.487169,-0.940632,0.748487,-0.246207,-0.666417,-0.133892,-0.630707,0.68882,-0.736825,-0.992255,-0.535144,-0.506577,-0.891245,0.502027,-0.181024,0.152229,-0.439272,-0.0144111,0.0406792,0.258149,-0.479053,0.799408,-0.493066,0.0216681,0.744566,-0.631168,0.662658,0.0437545,0.17037,0.82134,-0.22798,-0.717847,0.961717,0.197453,0.339989,-0.163469,-0.267044,-0.134994,-0.547732,0.795052,0.845279,-0.932692,0.861795,0.0362751,-0.369591,0.136832,0.944475,-0.300847,0.73106,0.482503,0.879845,0.166633,0.73232,-0.952165,-0.792203,0.327575,-0.53088,-0.255491,-0.384492,-0.606721,0.611342,0.949381,0.36859,0.756468,-0.578395,-0.131293,0.779723,0.361136,0.134011,0.277863,-0.321598,0.974569,-0.631221,0.658784,0.821391,0.965243,0.0929428,0.609661,0.0210345,-0.740514,-0.175043,-0.466408,-0.757971,0.00214561,0.110808,0.0218023,-0.264282,0.409122,0.186561,0.252958,0.454636,0.962991,-0.838213,0.705836,0.957965,-0.794826,-0.582733,0.116418,0.153068,
-0.0812231,-0.805093,0.628905,0.295072,-0.206114,0.975972,0.802112,-0.321422,-0.0804905,0.384457,0.962107,0.855507,-0.81089,0.863634,0.278995,0.0729676,-0.00213155,-0.286286,-0.622269,0.238754,0.227369,-0.71681,-0.789454,-0.906231,-0.59442,-0.428616,-0.664302,-0.391513,0.17282,0.994047,-0.53182,-0.631976,0.828163,-0.717186,0.739901,-0.325442,0.307094,-0.455078,-0.478601,-0.892649,-0.0256664,0.62717,0.285496,-0.355031,-0.921221,-0.280427,-0.219226,0.448538,0.0614854,0.632351,0.650482,0.734781,-0.0464624,0.886439,0.241688,0.716424,-0.326677,0.769852,-0.768763,0.202923,-0.346284,0.24926,-0.608076,-0.116306,-0.417041,0.390269,0.49469,-0.106909,-0.194265,0.559256,0.280018,-0.346695,0.740117,-0.540573,-0.467651,-0.310163,0.0229,0.0618444,-0.466209,-0.125836,-0.470145,0.397275,0.189322,0.588905,0.331068,0.19058,-0.59458,-0.0584164,0.513948,-0.653507,-0.946335,-0.381721,-0.710176,-0.47338,-0.0909328,-0.089681,0.18134,-0.240098,-0.49405,-0.320742,
-0.147955,0.163683,0.936665,0.810274,-0.210075,-0.702287,-0.369445,0.97095,0.054958,0.826838,-0.437633,0.902552,-0.75163,-0.922231,-0.122136,0.242418,0.423762,0.611373,-0.747852,-0.139657,-0.571688,0.338784,-0.0914408,-0.584859,-0.48801,-0.749212,0.339207,-0.770753,-0.47639,-0.144742,-0.357522,-0.181805,0.426926,-0.290852,0.482012,0.00902445,-0.741013,0.704153,0.767967,0.95237,-0.93767,-0.0544458,-0.14032,-0.905581,0.128748,-0.324538,-0.738734,-0.979638,-0.554575,-0.737057,0.170464,-0.599066,0.358675,-0.778172,0.659532,-0.289835,0.301882,-0.990779,-0.1688,-0.47081,0.046362,0.0209705,-0.192959,0.285981,0.587319,0.35508,0.770754,0.544519,-0.738173,0.834504,0.218925,-0.280577,0.0236571,-0.0403735,0.107068,0.492678,-0.177976,-0.940253,0.976461,0.219274,-0.368352,-0.455069,0.476699,-0.565236,-0.723958,0.0314346,-0.811298,-0.676679,0.89251,-0.55493,0.279869,0.448713,0.439466,-0.76632,0.562459,0.521645,0.929094,-0.84026,-0.874807,0.903335,
0.365611,0.838185,-0.202649,-0.908216,-0.757575,0.814609,0.359405,0.3791,0.382595,0.234173,-0.778603,-0.412765,0.721998,-0.82645,-0.643105,-0.423498,-0.141764,0.466228,-0.430083,0.370833,0.815047,0.509722,-0.916204,0.989552,0.264357,-0.178805,-0.694671,-0.485528,-0.854892,0.664056,0.810767,-0.0945192,0.810368,-0.282127,0.104422,-0.0277722,0.615056,-0.230613,0.998899,0.576818,-0.329186,0.155618,-0.369448,-0.420247,0.296437,-0.374839,-0.452322,0.719137,0.285009,-0.329767,-0.9995,0.760087,0.658347,-0.655073,0.956545,-0.0003443,0.426721,0.069822,-0.31391,0.104639,-0.158598,-0.856862,0.0511218,0.0318176,0.791022,-0.261459,0.00708448,-0.859396,-0.494235,-0.977856,0.58099,0.57899,-0.0360657,-0.25874,0.553869,0.164954,0.432959,0.138239,0.438805,-0.567688,-0.87561,0.495231,-0.37666,0.844847,0.118065,0.309543,-0.65184,-0.618653,0.679871,0.979121,0.948736,-0.417024,-0.324526,0.249716,0.474668,-0.984317,0.101551,-0.62977,-0.585809,-0.429742,
-0.92274,0.886405,-0.420949,0.31252,-0.983163,-0.416797,-0.806276,0.589402,0.214224,0.710673,-0.924834,-0.193159,0.712607,0.748784,-0.727019,-0.183547,0.0368401,0.953073,-0.587569,-0.584417,0.346992,-0.269093,-0.613643,0.00593062,0.336924,0.336579,-0.974202,-0.456737,-0.0915221,-0.579625,0.475545,0.22651,0.1206,-0.974801,0.255012,0.102781,-0.0642279,0.569842,0.262927,0.467304,0.759943,0.548066,0.188047,-0.486956,0.794992,0.707921,0.65529,0.277667,0.272196,-0.652141,0.985821,0.552708,0.402082,0.989765,-0.121141,-0.591395,0.7615,0.469862,0.553918,-0.475138,0.310786,-0.437763,-0.734168,0.586078,-0.0510056,0.403053,-0.509176,-0.69273,0.71991,-0.910058,0.895625,0.493381,-0.564161,-0.179994,-0.54096,-0.402945,-0.815864,0.621711,0.357512,0.372831,-0.813701,0.882635,-0.179306,-0.055373,0.797195,-0.485512,-0.556563,-0.189919,-0.100325,0.1638,-0.619812,0.0478821,0.604256,0.279584,0.615514,0.101743,-0.68503,-0.652409,0.536385,-0.947947,
-0.22759,0.773914,0.586501,0.907874,-0.915855,-0.795271,-0.609671,-0.356619,-0.448203,0.545234,0.197141,0.64698,0.417133,-0.200449,-0.556048,0.176477,-0.111975,0.840321,-0.411929,-0.197098,-0.970241,-0.324967,-0.0015222,0.633401,-0.77962,-0.70404,-0.739279,0.271252,0.543539,0.80875,-0.732065,0.511658,0.0520799,0.287269,-0.0399961,-0.256234,0.448002,0.803254,0.86964,-0.98349,0.736764,-0.139804,0.833874,-0.765046,0.63301,0.328184,0.187648,0.413897,0.570776,-0.881525,-0.415333,0.30728,-0.0427635,-0.631562,-0.0362949,0.641957,-0.552752,-0.366812,-0.67956,-0.621943,-0.244906,-0.240757,-0.650176,-0.955905,0.0524928,0.267122,0.282656,-0.0476952,0.186274,0.221072,0.418434,-0.506494,-0.658346,0.112384,-0.973996,-0.077556,0.276663,-0.480964,-0.0157379,-0.437587,0.409642,-0.892013,0.524628,-0.372895,-0.0174561,-0.0842933,0.04983,0.154473,0.149491,0.849246,0.916552,-0.268911,-0.861111,0.959047,0.892417,-0.786833,0.189442,-0.198994,0.0509959,0.854042,
0.240326,-0.438562,-0.736215,0.908283,-0.883202,-0.678,-0.653482,0.198089,-0.373302,-0.251087,0.0089437,-0.642969,-0.41205,-0.0878248,0.986957,0.977371,0.765915,-0.335645,0.350059,-0.122997,-0.121118,0.61031,-0.084794,-0.395377,0.393664,0.322014,0.898446,-0.588795,0.567377,0.693053,0.827897,0.199203,-0.952614,0.20352,0.399365,-0.664999,-0.657746,-0.854656,-0.177911,0.766635,0.660406,-0.502449,-0.666166,0.565033,0.0847669,-0.285275,0.101525,-0.212518,0.549475,0.322247,0.0265329,0.614492,-0.184555,0.114132,-0.689545,-0.882621,0.395106,0.487817,0.725941,0.658067,-0.811377,0.487037,0.0764536,-0.443115,-0.562805,-0.636753,-0.984826,0.0244704,-0.920732,0.524853,0.805366,-0.818681,0.595236,0.617052,0.654246,-0.284794,0.156073,0.399068,0.550643,-0.326809,-0.121765,-0.237583,-0.087539,-0.942898,-0.5138,0.777543,0.767306,0.163052,0.780833,0.533235,0.248018,-0.193979,-0.16727,-0.903467,0.639946,-0.00955709,-0.260574,0.0459041,-0.134881,0.773493,
0.52423,-0.496917,0.848931,0.852251,0.0814128,0.659809,-0.630395,-0.240706,-0.389756,0.952518,-0.266804,0.671129,0.835723,-0.331013,-0.417054,0.158172,-0.869262,-0.129389,-0.609963,-0.436297,-0.346321,-0.305834,-0.988404,0.447203,0.814625,0.881508,0.325912,-0.0156546,0.0563065,0.932569,-0.202924,0.997643,-0.793308,-0.231892,0.481834,0.837314,-0.919619,0.359212,0.719985,-0.988517,0.841973,0.235658,-0.343994,0.672565,-0.397616,0.162006,-0.326524,0.199318,-0.142418,0.481174,0.922492,-0.884908,-0.845158,-0.0614954,-0.29536,0.181107,0.00187653,0.248765,0.337032,-0.239286,-0.732413,-0.737573,-0.100355,-0.783366,-0.0296435,0.0298054,0.592052,-0.706988,0.143589,-0.965439,0.577076,0.35885,-0.700415,-0.397397,0.328921,-0.729464,0.991552,-0.951138,-0.881532,0.83964,0.533671,-0.454018,0.173094,-0.416062,0.633972,0.701986,0.0751977,-1.006,-0.796993,-0.298185,0.0634765,-0.804691,0.20825,-0.290306,0.872832,-0.175219,0.836676,0.863704,0.127999,0.592706,
0.189295,0.49866,-0.0599671,-0.345192,0.776045,-0.754744,-0.243199,0.46035,-0.765663,-0.35304,-0.026268,-0.582236,0.0502468,-0.602701,0.997984,-0.698753,0.472721,0.377513,0.123647,-0.995432,0.771648,0.758865,-0.144913,-0.496203,0.461793,-0.711117,-0.212407,0.556848,0.645031,0.631199,0.973397,-0.237068,0.604677,0.461359,0.642709,-0.514424,-0.862351,0.314197,-0.26156,0.225755,-0.314833,-0.521025,0.906982,0.150651,-0.110879,-0.55052,0.874542,0.657,0.825387,-0.896165,0.652,-0.156856,0.13513,0.128175,0.781309,0.756155,-0.336273,-0.758966,-0.975151,0.579403,-0.881924,-0.118803,0.766423,0.539878,-0.275562,-0.834645,0.222609,0.222925,-0.130558,0.191478,0.711571,-0.00907109,0.0997562,0.590698,-0.188524,0.133663,-0.315012,0.848065,0.997551,-0.750115,0.875572,0.660323,0.857833,0.87155,0.4238,-0.524984,0.566514,-0.00606681,-0.332072,-0.249115,0.66832,-0.944143,0.762067,0.337102,0.505732,0.0967043,-0.983197,0.961717,-0.0360062,-0.361228,
0.207648,0.00343437,-0.153233,-0.494983,-0.510335,-0.482037,-0.778596,0.992982,0.530503,0.458351,-0.668754,0.579526,0.200039,-0.518495,0.762942,-0.374495,0.599675,-0.753741,0.90273,-0.612891,0.981699,0.872799,-0.516061,0.354621,-0.755624,0.983281,0.470061,0.990886,-0.757702,0.276666,0.571537,-0.416258,-0.391148,0.487969,-0.57155,-0.745952,0.236301,-0.281973,0.770941,0.171498,0.710659,0.259874,0.0745016,-0.80244,0.364944,0.391971,0.249465,0.368661,-0.766634,-0.125297,-0.576042,-0.320044,-0.717222,0.898665,-0.638987,-0.85291,0.309863,-0.135909,0.602496,-0.0915308,0.556212,-0.0613688,0.163286,0.6864,-0.668232,0.934861,0.164535,-0.198235,0.354139,-0.00530853,0.98511,0.166174,0.514129,-0.0928529,-0.614972,0.946761,-0.0556869,-0.156557,-0.438526,-0.362363,-0.944511,0.230995,0.85608,0.923098,0.200054,-0.69013,0.660764,-0.894122,0.398287,-0.0766771,-0.848801,-0.697905,0.979979,-0.728931,-0.559465,0.706058,0.84513,0.501179,0.323824,-0.656974,
0.535187,-0.00543177,-0.213106,0.943927,-0.0222202,-0.969641,0.508233,0.905866,0.954187,-0.753658,-0.0367488,0.771617,-0.115689,0.899068,0.885966,0.728212,0.153214,0.736728,0.218379,-0.732987,0.200013,-0.537989,0.12859,0.590717,0.00149401,0.688221,0.0317424,0.207561,-0.605834,0.958974,0.288583,-0.84793,-0.148921,-0.27099,-0.735789,-0.360976,-0.543028,0.264786,0.287349,0.511335,0.164532,0.388298,-0.25985,0.606143,-0.254175,-0.869779,-0.458383,-0.664812,-0.546728,0.614351,0.13146,0.104028,0.228475,0.97528,-0.73929,-0.693674,-0.94536,-0.312659,-0.0852417,-0.989124,-0.512083,0.478518,0.224823,-0.295639,-0.214916,0.269723,0.574594,0.594903,0.234012,-0.196678,-0.367822,0.85489,-0.570165,0.676178,-0.799305,0.455235,-0.758539,0.730438,0.816636,-0.187089,0.597305,0.870626,0.722224,-0.235089,0.0731856,0.191318,0.655647,-0.939343,0.557299,-0.123411,-0.864208,0.854023,-0.742356,0.0630066,0.613447,0.839872,0.555376,-0.175473,-0.336807,-0.42748,
-0.618721,0.323789,-0.0969147,0.22526,-0.733808,0.975867,-0.846147,-0.922123,0.94583,-0.501315,-0.0288152,-0.810735,0.15931,-0.611658,-0.41008,0.671895,0.779033,0.667839,-0.770674,-0.835451,0.692257,0.184457,0.259447,0.644063,0.414077,-0.353287,-0.166238,-0.243164,-0.673664,0.835252,-0.887519,0.649535,0.463008,0.919257,0.2169,0.778858,-0.508338,-0.757534,-0.38673,-0.579332,0.758455,-0.870659,0.974055,-0.199587,0.0866379,0.732782,-0.511949,-0.638185,-0.48042,0.803694,0.824336,-0.632203,0.425825,-0.813617,0.0588298,-0.215025,-0.149603,-0.965266,-0.591311,-0.142229,0.115687,-0.161901,0.841065,0.662241,-0.253805,0.105066,-0.137091,0.256349,-0.34268,-0.489068,-0.228628,-0.199125,0.325102,0.498044,0.713822,0.639607,-0.0013633,0.988553,0.691577,0.505062,-0.609215,-0.25592,-0.790962,-0.458565,0.416823,0.130207,-0.156935,-0.34462,0.174736,-0.991372,0.584367,0.215965,0.939585,0.735181,0.585086,0.362641,-0.4387,-0.092438,-0.93204,0.209847,
-0.106353,-0.0321372,0.483423,0.966726,-0.0690219,-0.949724,-0.372606,-0.155621,-0.128898,-0.348415,-0.663861,0.328981,-0.920596,0.246671,0.610957,-0.746316,0.888088,0.646839,0.249247,-1.00139,-0.114334,0.181519,0.00284171,0.919128,-0.316277,0.140058,0.126355,0.543827,-0.563855,-0.904372,0.831269,0.748519,-0.308609,-0.339833,-0.162903,-0.400511,0.434892,-0.5719,0.537664,-0.790293,-0.808706,-0.297078,0.605845,0.12723,-0.0729315,0.277457,-0.203688,-0.289921,0.916292,-0.992311,0.936671,-0.908684,-0.526932,0.283735,0.966605,-0.430427,-0.754852,-0.934425,0.116285,-0.0700404,0.799369,-0.775707,0.669007,0.553346,0.159255,0.962244,0.173945,0.479229,0.313803,0.894589,0.252576,0.604546,0.766024,-0.129357,0.886938,-0.690123,0.677279,0.147073,0.953448,0.870537,0.441025,0.842187,-0.978834,0.841565,-0.806392,0.322144,0.669615,0.0651484,0.215969,0.536615,0.149052,-0.998857,-0.472135,0.918303,0.433662,0.178368,0.942246,0.296572,0.0548126,0.814326,
-0.217515,-0.0306087,0.354306,-0.788019,-0.544914,-0.643813,0.177566,-0.809547,-0.495881,-0.298571,-0.416982,-0.985342,0.0371949,-0.677389,-0.47795,-0.243551,0.12884,0.315611,0.899902,0.593619,0.373194,0.894394,0.931349,0.169585,0.110367,0.41384,0.576322,0.892491,-0.681324,-0.909748,0.951798,-0.339362,-0.131487,0.430966,0.413092,-0.144498,0.100118,0.313755,0.21977,-0.232936,-0.844628,0.212018,0.272142,0.874354,0.697433,0.252528,0.385328,-0.919872,0.432704,-0.176066,0.106144,0.203683,-0.768673,0.389468,-0.29826,0.108859,0.405462,-0.305188,-0.268618,0.267885,0.660885,0.616567,0.192515,0.323354,-0.26143,0.608633,0.873784,-0.940654,0.469863,0.216841,-0.348411,-0.462527,-0.699128,-0.49111,-0.047374,0.357093,0.754629,0.787966,0.057339,0.0669658,0.630897,-0.55083,-0.83615,0.368303,0.310046,-0.623721,0.120406,0.573251,0.0815257,0.934773,0.551005,0.144322,-0.555382,-0.128189,-0.715971,0.299559,-0.929628,-0.377084,0.102871,-0.421811,
0.0198685,-0.585952,0.0896703,-0.013742,-0.625252,0.159016,-0.959794,-0.659971,0.857562,0.602131,-0.520831,0.862567,0.373946,0.964976,-0.281093,0.413408,-0.102381,-0.975453,-0.952212,-0.789717,0.813969,0.229846,-0.769469,-0.106534,0.412017,0.403602,-0.414751,-0.0794954,0.384481,0.557305,0.0838041,-0.621122,-0.76441,0.0592344,-0.852383,0.727795,-0.763379,0.824002,0.706973,-0.61237,0.745698,0.264994,0.900986,-0.126133,0.412643,0.914211,0.916644,-0.961949,-0.801233,-0.859968,-0.123175,-0.795644,0.499288,0.979941,0.882379,0.886387,0.0590433,0.863355,0.918964,-0.314706,-0.664579,-0.635034,0.572207,0.684126,-0.719717,0.676041,0.627661,-0.604035,0.506686,0.208449,-0.314153,-0.0380387,0.706592,0.93803,0.225419,0.0744249,0.575221,0.508309,-0.244582,-0.731451,0.273793,0.758471,-0.398724,0.683165,-0.0159368,-0.476895,0.502752,-0.972641,0.395783,-0.48157,0.561183,-0.717553,-0.6957,-0.599074,-0.141111,-0.336153,-0.927248,-0.924991,0.201233,0.786819,
0.154965,-0.565789,0.853067,0.29848,0.101211,0.743145,0.254806,0.588848,-0.44826,-0.530094,-0.122422,-0.553212,-0.844184,0.192277,-0.848091,-0.276336,-0.874168,-0.429496,0.706333,0.0166875,-0.227586,-0.916347,-0.92723,-0.707747,0.644905,-0.734661,0.103529,0.981687,0.722914,0.00630071,0.638314,-0.308356,-0.328556,0.848766,-0.901316,0.083719,-0.0122413,-0.915179,0.678481,-0.612152,0.748069,-0.621859,-0.720078,-0.428744,0.757898,0.0222615,-0.994186,0.24645,0.636597,-0.440305,-0.489076,-0.299629,0.393131,0.288866,-0.128144,0.141701,0.23086,0.138734,-0.140424,0.419326,0.0112116,0.231945,-0.119738,-0.99496,0.0785704,-0.396105,0.635146,-0.265438,0.194443,0.129373,0.688594,0.370544,-0.84115,-0.731557,0.643736,0.549248,-0.634374,-0.769449,0.131453,-0.695003,0.706256,-0.889645,0.541802,0.546199,-0.837311,0.444999,-0.773787,0.00463994,0.265733,-0.339675,0.30264,-0.909128,0.252347,-0.814838,-0.51672,0.866805,0.230722,0.939969,0.367257,-0.362716,
0.921872,-0.448839,0.448029,0.78884,-0.605748,-0.66886,-0.857301,-0.877395,0.208286,-0.224185,0.134269,0.64385,0.266454,0.902928,0.788905,-0.128746,-0.138345,-0.650193,0.672736,0.560877,-0.60787,-0.182737,0.560079,-0.0417159,-0.961651,0.296579,-0.0572147,0.402861,-0.111434,0.296126,0.0671808,0.451732,-0.156802,-0.513164,-0.312803,-0.432791,-0.719816,0.793168,0.914919,-0.0561482,0.197801,-0.459044,0.134284,0.551345,-0.640825,-0.126076,0.704056,-0.698969,0.383877,-0.178463,0.182074,-0.123137,-0.186851,-0.686488,-0.502235,0.771655,-0.204303,0.491758,-0.763824,0.985061,0.562075,-0.756023,-0.578871,0.328538,0.399584,-0.136172,-0.893628,0.877425,-0.655691,0.837423,-0.00386298,-0.667922,1.0066,-0.916568,-0.950668,0.882984,0.227943,0.783132,-0.883546,-0.879704,0.322951,0.418286,-0.750463,0.213779,-0.371984,0.723109,-0.605453,-0.635296,-0.655784,-0.996327,0.306635,0.728898,0.758252,0.842724,-0.782659,0.492925,0.457948,0.0234702,0.935456,0.822256,
-0.553966,0.420311,-0.740147,0.585456,-0.23415,-0.688742,0.0689714,0.820232,-0.149696,0.142985,0.882157,0.657508,-0.835683,0.294552,-0.132063,-0.165172,-0.625649,0.615909,0.554518,0.869482,-0.65384,-1.00085,0.911743,-0.654567,-0.364309,-0.318221,-0.483707,-0.831804,0.202372,0.7295,-0.441934,0.978024,-0.968899,-0.243469,-0.756883,-0.437692,0.492037,0.335687,0.843035,-0.80401,-0.905095,-0.806151,0.668898,0.476138,-0.953614,-0.232298,-0.12413,0.0708592,0.875905,-0.81416,-0.582163,0.0281221,-0.10539,0.817924,0.767918,-0.988576,-0.17105,0.43045,0.168383,-0.559134,0.97559,-0.676821,-0.221638,0.361928,0.74406,-0.387706,-0.563655,0.364319,-0.814648,0.48795,0.921541,-0.37183,0.405873,-0.202294,-0.276903,-0.737346,0.373178,-0.188111,-0.72434,0.884842,-0.274713,0.232563,-0.435006,-0.646434,0.351669,-0.485612,-0.950232,-0.23827,-0.224584,-0.533742,0.203606,-0.699022,-0.477803,0.57188,0.799006,0.558841,0.672627,-0.745827,-0.00916147,0.728405,
0.928236,0.795812,-0.81043,-0.131785,0.634163,-0.224127,-0.599568,-0.361997,-0.903528,-0.948713,0.719381,-0.19692,0.856446,-0.0463108,0.846978,0.0727093,0.738789,0.339338,-0.892764,0.48937,0.250826,-0.917567,0.0648002,0.975236,-0.398452,-0.0316464,-0.606394,-0.251965,0.133551,-0.855991,0.665036,-0.48459,0.70074,0.761187,0.980071,-0.409009,-0.163763,0.716069,-0.202749,0.939768,-0.733825,-0.91407,0.414939,0.371164,0.0637402,0.0997389,-0.375604,0.0861291,0.441036,-0.745895,-0.261918,-0.362253,-0.427286,-0.457136,0.910723,0.742338,-0.105364,-0.576423,-0.0848231,0.16768,-0.579865,0.902705,0.903918,-0.722946,-0.633872,-0.71238,0.396263,-0.96902,0.751133,-0.35506,-0.962517,-0.229439,-0.579969,0.868486,-0.808694,-0.449251,-0.556693,0.0659436,0.450627,-0.935555,-0.527467,0.978313,-0.0860792,-0.318542,-0.467114,-0.850061,0.404384,0.388376,-0.974488,0.138184,0.279703,0.261022,-0.344718,-0.158979,0.393613,0.38869,-0.556943,0.83922,-0.740004,0.545748,
-0.17619,0.735319,-0.0326042,0.986419,0.228769,-0.47104,-0.887233,0.379225,-0.859452,-0.580094,-0.781602,-0.0149212,0.985307,-0.817465,-0.21607,-0.939101,0.4633,-0.437211,0.730491,0.962172,-0.820602,-0.278393,0.295963,0.785743,0.252955,-0.784947,0.479722,0.0129373,0.543124,0.397261,-0.158748,-0.731827,-0.693451,0.0418254,-0.00688429,0.000208747,-0.587446,-0.599869,0.0277393,-0.324917,0.958282,0.849107,0.854,0.949554,0.625918,-0.82549,0.116369,-0.549113,0.885204,-0.477637,-0.455135,-0.0136694,0.979857,0.47246,0.0429001,0.892548,0.883476,-0.0231834,-0.405366,0.128387,0.827044,-0.955094,0.357409,0.811547,-0.225162,-0.0255968,0.581846,0.934985,-0.903846,0.780393,-0.973755,0.957503,0.0352007,-0.874993,0.387408,0.069723,0.892769,-0.863607,-0.601998,0.185005,-0.959541,-0.501281,0.934381,-0.505948,-0.576839,0.0710793,-0.866565,0.535222,0.824733,0.48658,0.700538,-0.135835,-0.795031,-0.823765,-0.30032,0.390344,0.988312,0.606648,-0.964451,0.294631,
-0.829494,0.931183,-0.362747,-0.0997619,0.814747,-0.179663,-0.554168,0.919903,-0.92144,0.878125,-0.208336,-0.739118,0.88553,-0.89555,-0.306993,-0.0480695,-0.392292,0.913411,-0.691981,-0.589846,-0.0249607,-0.16743,0.098867,-0.914096,-0.729559,-0.753317,0.913491,-0.210053,0.910746,0.350403,-0.0756498,-0.0525463,-0.211335,-0.516196,-0.262138,0.232291,0.673247,0.131356,0.629628,0.857626,0.406046,-0.511233,0.295378,-0.900849,0.73387,-0.0959745,0.969305,-0.406498,-0.294371,-0.175454,-0.387987,0.152171,-0.74978,-0.871521,-0.592267,0.0999664,0.801849,-0.362906,-0.3234,-0.415761,0.480188,0.400913,-0.117118,0.670939,-0.980462,0.509879,-0.453707,0.883074,0.342531,0.717318,0.476364,-0.790275,0.727496,-0.58135,-0.0618874,0.827223,-0.230236,-0.364086,0.187345,-0.0644872,-0.725051,0.522866,-0.0558079,0.416788,0.93105,-0.358287,-0.207131,-0.777337,-0.811492,0.604738,-0.211475,-0.591467,-0.212355,-0.941723,0.776742,0.285325,0.865197,-0.770642,0.523004,-0.0791324,
0.395069,0.851012,0.618352,-0.54361,-0.878793,0.545335,0.222384,-0.32288,-0.871476,0.729445,0.200667,0.713278,0.170429,-0.744457,0.546035,0.517652,-0.610726,0.719493,-0.600791,-0.738037,-0.40991,-0.82214,-0.083338,0.0304078,-0.238867,0.995657,0.316584,-0.466331,0.0951667,0.142494,0.653575,-0.442678,-0.219748,0.524487,-0.0623441,-0.0092035,0.170411,0.891129,0.163139,0.41209,-0.914149,0.128461,0.136695,-0.0123894,0.933369,-0.42437,0.858307,0.162351,0.452132,-0.139883,0.323397,0.961005,-0.690457,0.959239,-0.51265,-0.37579,0.690986,-0.616873,0.0849758,-0.589284,-0.611573,0.0775255,-0.690588,-0.897936,0.623377,-0.891374,0.830478,0.326193,0.332198,-0.494452,-0.879051,-0.682552,-0.608286,-0.445399,0.231134,-0.287517,-0.952443,-0.496001,-0.391525,-0.746018,0.476817,-0.551095,0.502847,-0.373037,0.441141,-0.264993,-0.081718,0.827508,0.0303777,0.981892,-0.12688,-0.966894,-0.483704,0.649889,0.546488,-0.769208,0.136231,0.746318,-0.884212,0.580911,
-0.345916,-0.973384,-0.677028,-0.574666,-0.550642,0.647442,0.671496,-0.0280334,-0.00394165,-0.240414,-0.551154,-0.553698,0.534745,-0.428006,-0.996028,-0.184614,-0.519549,-0.52113,-0.203234,-0.487152,-0.124073,-0.349624,0.773664,0.86209,-0.45021,-0.216502,0.0241528,-0.956665,0.70397,-0.212669,0.691067,0.842389,0.670073,-0.797213,0.522394,-0.59894,-0.331545,-0.459281,0.871071,-0.842721,0.973302,0.896463,-0.404937,0.462534,0.152266,-0.776527,-0.943466,0.204848,0.303522,-0.55494,0.465425,0.181032,-0.360354,0.531449,-0.431317,0.413277,0.589558,-0.822521,-0.2746,-0.630709,-0.634091,0.762096,-0.135457,-0.0622673,-0.575501,-0.530562,-0.76661,0.335655,0.42602,0.342876,-0.213436,-0.317491,-0.522496,0.797582,-0.926817,0.832052,0.312733,-0.937727,-0.0321255,-0.895325,-0.900082,0.846862,-0.258236,-0.637341,-0.451579,0.324838,0.553227,-0.974161,-0.0873467,0.141858,-0.188108,0.147039,-0.0179135,0.0499841,0.875778,0.973173,-0.0242899,0.664945,0.59927,-0.924489,
-0.283912,-0.419011,-0.627051,-0.444141,0.512549,-0.987849,0.0329932,-0.662371,-0.294596,-0.00749177,-0.444765,0.936985,0.284694,0.281343,0.664927,-0.347781,0.700395,-0.514117,0.369949,-0.146463,-0.94136,-0.595111,0.155837,0.446945,-0.943232,-0.249458,-0.864788,0.87537,0.191671,-0.300377,-0.341004,-0.440165,-0.344948,0.630935,0.68338,-0.988395,0.0168586,0.562236,0.875427,0.575713,-0.484319,0.313523,0.553888,0.0336501,-0.503614,0.723741,0.739009,-0.245888,-0.809026,0.167366,-0.881427,-0.0149925,-0.256678,0.4244,0.817667,-0.249022,0.15106,-0.829731,0.848893,-0.488476,-0.810227,-0.665838,0.943023,-0.620831,-0.212293,0.487751,0.43871,-0.330576,-0.455678,-0.319712,-0.0466657,-0.543875,0.0271778,-0.277415,-0.0746119,0.52403,0.389689,-0.432675,-0.849731,0.20233,-0.146447,-0.431125,0.405017,0.865261,-0.478999,0.977152,0.231092,-0.607355,0.432953,0.69906,0.106025,-0.249284,0.675143,0.400569,0.0359698,0.0710922,0.37641,-0.988443,0.391682,-0.906887,
-0.868017,-0.314462,-0.985084,-0.339627,-0.551939,0.252751,-0.216559,-0.912004,0.244497,-0.738489,-0.648635,-0.624625,-0.451621,-0.340502,0.77394,-0.800618,-0.223449,-0.507934,0.766853,-0.163356,-0.524864,0.344388,0.00772381,0.683524,-0.02328,0.438484,-0.837962,0.746785,0.575512,-0.863337,-0.255287,-0.924018,-0.103431,-0.108729,-0.527927,-0.190886,0.872081,-0.794608,-0.090028,-0.936417,0.129792,0.143645,-0.752538,-0.839015,0.62219,0.640922,0.286063,0.0375513,-0.368837,0.351564,0.4053,-0.921619,0.141076,-0.585943,-0.740051,0.776787,0.216937,-0.314181,-0.401432,0.437992,-0.748339,0.00723435,0.760214,0.295324,0.0211049,-0.791227,0.410681,-0.660826,-0.711809,-0.807803,-0.418091,-0.213165,0.383617,0.152378,0.554111,0.337383,-0.929379,-0.268879,-0.335288,-0.508576,0.773825,0.607944,-0.0316501,-0.257967,0.641272,-0.185749,-0.651848,0.173391,-0.0887588,0.714885,0.182836,0.46567,0.00426097,-0.0646401,-0.340954,0.865248,0.170382,-0.566672,-0.722287,0.947526,
-0.742395,-0.529396,-0.0555666,-0.867297,-0.836718,0.658614,-0.420368,0.158717,-0.0920413,-0.779232,-0.784384,-0.703889,0.360667,0.845669,0.000968459,-0.412601,0.608457,0.746158,0.381637,0.310141,0.306335,0.129937,0.237135,-0.756535,-0.366155,0.238359,0.237281,-0.832736,0.999731,-0.476339,-0.41306,0.21358,0.356608,-0.402671,0.980861,0.833549,-0.780567,0.977345,0.841948,0.538083,-0.851574,0.00636613,-0.356279,0.836812,0.320634,0.842197,-0.481489,0.304499,0.292897,0.817668,-0.526602,-0.799447,-0.438797,-0.246262,-0.325967,-0.77763,-0.766118,-0.980539,0.87976,0.614051,-0.287915,-0.280766,0.777056,-0.935751,-0.650397,0.69967,-0.294932,-0.832095,0.639689,-0.230161,0.172217,-0.627081,0.662885,0.340894,-0.447802,-0.629006,0.239258,-0.696903,0.961946,-0.728209,-0.484138,-0.235013,-0.600956,0.0153045,-0.038758,-0.726214,-0.960378,-0.949896,-0.182988,-0.846214,-0.279814,0.186888,0.281105,0.197946,-0.197946,0.729867,-0.119248,0.0992479,-0.292746,0.890471,
0.017334,-0.763322,0.291711,0.216435,0.164447,-0.525263,-0.121194,-0.0328713,0.315258,-0.927032,-0.0188085,0.281027,0.2362,0.632175,0.87794,0.0907062,0.993276,0.342753,-0.816564,0.0587982,0.622705,-0.750384,-0.286061,0.357427,-0.598353,-0.255822,0.824913,0.620358,0.800535,0.943918,0.088681,0.798815,0.479149,-0.760762,0.0894105,-0.815487,0.262908,-0.165716,-0.460759,0.460274,0.781582,-0.726634,-0.733998,-0.174939,-0.0505903,-0.440175,-0.646394,0.811047,-0.366331,0.880371,0.624533,0.559321,-0.161378,-0.0906572,-0.991565,-0.210749,-0.448165,0.577546,-0.395101,0.298817,0.814451,-0.469551,0.49697,-0.858667,0.703696,0.849753,-0.1199,-0.809867,-0.0891576,-0.622484,-0.794642,-0.845876,-0.442603,-0.320043,0.000775777,-0.609961,0.2254,-0.850682,-0.538195,-0.343199,-0.766596,0.421667,-0.480428,0.199541,0.0720077,-0.493532,-0.0517181,0.931318,-0.651068,-0.797771,-0.180666,-0.546389,0.811455,0.793586,-0.0501083,0.105425,-0.378365,-0.92051,0.0773074,0.56473,
0.0767086,0.964917,0.865015,0.778429,-0.980262,-0.302322,0.302501,0.769357,0.61534,-0.00098861,-0.883182,-0.275879,-0.0794476,-0.728057,-0.20108,0.566276,-0.396023,-0.472905,-0.923723,-0.415683,0.227298,0.715304,0.538262,-0.852133,0.933677,-0.0520819,0.496509,0.588022,-0.477458,0.61132,-0.906542,-0.846332,0.0812987,0.312879,0.23271,-0.903908,0.71319,0.553494,-0.543068,0.924667,-0.680598,-0.0149636,-0.748509,-0.28451,-0.544625,-0.526042,-0.0505794,0.559102,-0.814092,-0.0675328,-0.357565,-0.117369,-0.96103,-0.817861,0.0980428,-0.210032,0.0386873,-0.899248,0.471388,-0.0991089,-0.0782038,-0.13889,-0.0919755,0.647926,0.0316039,0.0885774,-0.961976,-0.898523,0.5395,-0.78541,0.248399,0.37125,-0.638466,0.174916,0.837384,0.044112,0.481897,-0.993842,0.948447,0.533551,-0.0840811,0.592838,0.339014,0.0333567,0.891012,0.0537575,0.774101,-0.400753,-0.404718,-0.12505,-0.316427,0.497142,-0.447966,-0.960025,0.00702526,-0.906577,-0.847679,0.988394,-0.945605,0.350589,
0.222147,-0.804024,1.00043,0.090735,-0.552357,0.281257,-0.503948,-0.75857,0.294571,0.842479,0.634815,0.0717494,0.669082,-0.312452,0.425003,-0.0187857,0.0966032,-0.804031,0.434886,-0.338408,-0.689367,0.43616,0.551448,-0.151875,0.48218,0.894743,0.189651,-0.094123,0.163123,0.0394078,-0.854008,0.382365,-0.147541,0.411322,-0.519116,-0.752348,-0.454621,-0.601867,-0.19254,0.65517,-0.876748,0.889083,-0.215465,-0.130722,-0.079034,0.0938409,-0.512628,-0.550393,-0.395493,-0.603966,-0.126803,0.946135,0.662812,0.384648,-0.646937,-0.347988,0.694638,-0.880253,-0.242421,-0.549115,0.150698,0.667111,0.374368,0.592921,0.420636,-0.851189,0.882264,-0.971944,-0.897728,-0.418832,0.746379,-0.152743,-0.98001,0.102146,-0.998085,-0.407984,0.370801,0.288766,-0.498614,0.371454,0.734456,-0.926935,0.673854,0.758721,0.730107,0.405367,-0.797018,-0.631026,-0.154326,0.391284,0.0845573,0.985276,-0.68686,0.820621,-0.915896,-0.261518,-0.256607,-0.994184,-0.0398237,-0.671555,
-0.722672,-0.049064,-0.96507,0.947191,-0.226931,-0.79314,0.652733,-0.262761,0.665708,0.650328,0.755255,0.0370926,0.494705,-0.264989,-0.410049,0.469636,0.471023,-0.304721,0.487725,0.270258,-0.780476,0.14961,0.532382,0.61508,-0.11645,-0.285435,-0.987377,0.400604,0.512912,-0.126864,-0.439845,-0.711948,0.702429,-0.433149,0.223339,0.825584,-0.990416,-0.982452,-0.333096,-0.722565,0.654173,-0.749224,0.558299,-0.918435,-0.0772945,0.120166,0.736192,-0.187653,-0.0446922,0.270974,-0.5082,0.164888,0.923571,-0.204102,-0.90614,0.0433028,0.556419,0.514111,-0.740375,0.561906,0.693479,-0.811978,-0.508301,0.814188,0.700458,-0.418257,-0.450586,0.421757,-0.668117,-0.846777,0.975555,0.283266,0.346834,0.157293,-0.223694,0.00670981,0.552463,-0.585074,0.568948,0.15011,0.3693,0.627546,-0.693696,0.754762,-0.985015,0.829852,0.224211,0.665207,-0.546463,0.350222,-0.443593,-0.228916,-0.893258,-0.0123183,0.887888,0.155991,-0.0454676,-0.129963,-0.749587,0.744717,
0.902284,-0.40325,-0.738657,0.954287,-0.904613,0.767428,-0.552835,0.587142,-0.963296,0.412391,0.946032,0.309839,0.0482186,-0.105436,0.0769543,-0.801857,0.317054,-0.310734,-0.367351,0.147736,0.410779,0.0864053,-0.977467,0.10234,-0.409262,0.0818754,0.595458,-0.164352,0.241404,0.852622,0.546614,0.634098,0.771786,-0.0917,-0.556663,-0.774268,0.586381,-0.504117,0.575868,0.731216,0.0750963,0.874104,0.0147335,-0.255735,0.241338,-0.150751,0.615789,0.749289,0.607934,0.7394,0.140641,0.3607,0.721409,0.436566,-0.799257,0.474067,0.267389,-0.381192,0.649521,-0.385481,0.589378,-0.892827,-0.149671,-0.462673,-0.11377,-0.325478,0.292849,0.827965,-0.293505,-0.252683,-0.748442,-0.201528,-0.936893,0.993234,-0.526725,-0.952232,-0.806337,-0.752109,-0.621508,0.71531,0.153376,-0.0915761,-0.0917149,-0.475615,0.193988,0.187879,0.377869,0.776153,-0.49698,0.0229093,-0.83548,0.442762,0.106763,0.268808,-0.877664,-0.885007,-0.729761,-0.105741,0.621873,0.0602326,
-0.927745,0.142092,-0.155757,0.916964,-0.653059,-0.979939,-0.0976928,-0.00603606,-0.584668,0.395188,-0.623268,0.746782,-0.864602,0.253378,0.427911,-0.655375,0.261825,0.236024,-0.557196,-0.847092,0.854452,-0.413302,0.438355,-0.171378,0.0919124,-0.781056,0.282417,0.338509,-0.55772,-0.350357,-0.676862,0.949209,-0.508055,0.510015,-0.580005,-0.477482,0.46513,0.364557,0.939732,0.623515,0.636719,0.238022,0.067833,0.131073,-0.926056,-0.685309,-0.616859,-0.805016,-0.870332,-0.271111,0.441659,0.156145,0.193089,-0.434722,-0.74191,0.0338277,0.707088,-0.197276,0.318188,-0.279963,0.227389,-0.248596,-0.210634,-0.885171,-0.335806,-0.815823,-0.266498,-0.697857,0.0547099,-0.315156,-0.607538,0.168764,0.0115169,0.492148,-0.777689,-0.870414,-0.761997,0.0322028,-0.93974,-0.118054,0.286207,-0.828908,0.849928,-0.786918,-0.0418946,-0.810373,0.144152,0.780476,-0.192725,0.422501,-0.656592,0.127145,-0.904994,0.497693,0.47866,0.114466,0.18777,0.245528,0.134048,-0.477121,
-0.510228,0.741966,-0.349457,0.190601,0.160114,-0.361156,0.568049,-0.264832,0.733721,0.595743,0.594499,0.931109,-0.84511,-0.22981,0.0319205,0.911271,-0.146123,-0.356874,0.670417,-0.893521,0.86786,-0.538588,-0.43792,-0.0759386,-0.35864,0.173198,0.975415,-0.939093,-0.418373,-0.0282492,-0.126582,0.230891,0.53879,-0.758791,-0.770937,0.361584,-0.542443,0.38372,-0.504023,0.954929,-0.589322,0.407875,-0.219346,-0.991656,-0.107318,-0.657857,0.289517,0.377387,-0.928882,-0.955185,-0.112232,0.817942,0.962459,-1.00615,0.33128,0.0176676,0.125853,-0.561521,0.915578,0.206839,-0.748546,0.842599,-0.809509,0.377701,0.255615,-0.350546,-0.599479,0.575179,-0.56911,0.564728,0.856101,0.0139669,0.721418,0.648754,0.454242,-0.904387,-0.917979,0.342792,0.430463,-0.499336,0.386283,0.680592,-0.259893,-0.0107219,-0.0949989,-0.380196,-0.763153,-0.586417,-0.0701341,-0.484035,0.36877,0.708233,-0.98675,0.771448,-0.775965,0.172597,-0.650361,-0.914221,-0.682828,-0.929477,
0.412255,-0.336735,-0.764534,0.510033,-0.463607,-0.328753,-0.956405,-0.780888,-0.00247632,0.106615,0.294638,0.802096,0.414954,0.618654,-0.461086,-0.734769,0.47073,-0.620946,0.744599,0.177777,0.811538,-0.637901,0.478388,0.103737,-0.248085,-0.32942,0.448207,0.693474,-0.582369,-0.860888,0.132009,-0.326537,-0.911675,-0.125853,0.90502,-0.898999,-0.950582,-0.924778,-0.511106,-0.928856,0.629765,0.179302,-0.956869,0.403395,-0.908061,0.322367,-0.275906,-0.71177,-0.794972,-0.215654,0.0490801,-0.552799,-1.00307,0.986043,-0.617701,0.315569,-0.806419,-0.711202,0.096575,0.871834,0.00441927,0.363119,0.546302,-0.820537,0.50874,0.609123,-0.609466,0.782727,-0.302586,0.699307,0.426936,-0.429488,-0.801617,-0.482969,0.226802,-0.381077,0.42145,-0.0100999,-0.253676,-0.0817413,0.890352,-0.683683,0.996035,0.881399,0.628014,-0.629523,0.492201,-0.446406,0.157867,-0.692367,-0.16088,-0.421189,0.930414,0.895128,0.871714,-0.990394,-0.0555373,0.769249,0.0832934,0.733609,
0.218883,0.654729,-0.670901,0.410483,0.496291,-0.420632,0.0365745,0.540718,0.791695,-0.722741,0.276005,-0.00362563,0.291799,-0.344874,0.0989553,0.474987,0.25192,0.317202,-0.828341,0.619265,-0.968336,0.504886,0.864888,-0.133731,0.117289,-0.933341,0.446344,0.346648,0.408586,0.116729,0.960092,0.795425,-0.470555,0.980973,0.336938,0.969768,0.629064,-0.947928,-0.225709,0.216864,-0.890326,-0.74884,0.400228,0.740559,-0.372977,-0.986829,0.882384,0.337385,-0.00708836,-0.990087,-0.194455,-0.03131,-1.00093,0.746167,-0.21754,-0.878805,-0.621521,0.057013,-0.0259535,-0.25244,-0.998164,-0.000330757,-0.255434,0.561817,-0.126612,-0.442405,-0.0830304,-0.0956168,-0.24808,-0.402848,-0.802515,-0.822179,0.546069,-0.714384,-0.480127,-0.924766,-0.9438,0.0171526,-0.227706,0.373075,-0.994246,-0.56789,-0.356163,-0.370447,-0.910858,-0.971474,-0.294168,-0.92605,0.0600885,-0.469206,-0.352854,0.834696,-0.123799,-0.5269,-0.0863193,-0.158289,0.451509,0.274702,0.965872,0.00462728,
-0.901625,-0.156618,-0.602862,0.190566,-0.411332,-0.570638,-0.749103,-0.421968,-0.714399,0.0125323,-0.290129,0.658936,-0.59768,0.93906,0.0498928,0.321317,0.414171,0.452407,0.939243,-0.897763,0.0170528,0.438286,-0.147345,-0.00434237,-0.539428,-0.170511,-0.491913,-0.445837,0.252235,-0.158919,0.301663,0.320714,-0.399621,-0.541001,-0.766643,0.968,0.165341,-0.958064,0.841245,0.151486,0.7592,-0.790441,0.967332,0.905928,0.0438227,-0.611739,-0.34612,-0.602583,0.834404,0.893145,0.797672,0.498023,0.815716,-0.500954,-0.60322,-0.16849,-0.379353,0.855544,0.635517,0.196329,0.897002,-0.705887,-0.250293,0.985149,-0.716263,-0.547705,0.732512,-0.2651,-0.354481,0.54294,0.195285,-0.395678,0.146587,0.544695,0.313294,-0.660072,0.477469,-0.834832,-0.203772,-0.663484,0.611456,0.523963,-0.824787,0.718221,-0.97986,0.28367,-0.557514,-0.142432,-0.670445,-0.481683,-0.115368,-0.495162,0.641819,0.203916,-0.979797,-0.678048,-0.468371,-0.212472,0.818175,0.744008,
0.778537,0.798963,0.0544279,0.0184635,0.729875,-0.26977,-0.222327,0.492385,-0.967457,-0.261343,0.174782,0.160556,-0.0416682,-0.15618,0.263926,0.790311,-1.00145,-0.253018,-0.575433,0.381392,0.756344,-0.100441,-0.868764,0.41279,0.978879,0.0962963,0.763848,0.0206823,-0.322465,-0.513306,0.157268,0.391398,-0.32566,-0.627148,0.552413,-0.907357,0.82201,0.391788,0.0882994,-0.818362,0.0252794,0.116467,0.615546,0.5349,0.858258,0.343881,-0.418317,0.43899,-0.309749,-0.0297015,0.176762,0.104322,0.431764,0.251194,0.832491,0.15208,0.18554,0.919774,0.244817,0.594933,-0.0242515,0.733169,-0.209823,0.934373,-0.998396,0.221455,-0.737992,-0.640975,-0.369911,0.876368,0.900557,0.498907,0.25442,0.668669,-0.375296,-0.297575,-0.775968,0.318281,0.461731,0.476137,0.00146146,0.674134,0.215529,-0.862436,-0.283992,0.274516,-0.960064,0.692961,0.749398,0.63384,0.865774,0.411768,-0.997571,-0.469366,0.319058,-0.14443,0.61585,0.426573,-0.340184,-0.633933,
-0.309232,-0.726788,-0.581675,-0.119098,-0.691723,0.938421,0.986819,-0.496307,0.782661,-0.83667,0.680562,0.630847,-0.455055,0.302456,-0.392019,0.667298,-0.119055,-0.414929,0.552925,-0.376507,-0.450665,0.868139,-0.970727,-0.804068,-0.635424,0.745943,-0.564922,0.615998,0.96744,-0.805026,-0.21881,-0.337301,0.872502,0.195395,0.833037,-0.914484,-0.163671,-0.274282,-0.230742,0.406534,-0.196406,-0.127365,0.184083,0.112641,0.229216,-0.942124,-0.500276,0.440557,-0.085172,-0.225051,-0.195276,0.634322,0.052895,-0.147687,0.903423,0.605516,-0.639881,0.400878,0.828484,0.032256,-0.431492,0.0185413,-0.76158,0.645208,0.270688,-0.334258,0.8661,-0.766485,-0.348754,0.448267,0.31117,-0.934222,-0.751214,0.370982,0.778314,-0.732225,-0.881705,-0.920163,0.383748,0.878215,-0.928126,0.891873,-0.300347,-0.383047,0.30456,-0.678446,-0.0836812,-0.190537,0.0702193,0.915029,0.866676,0.396372,-0.692579,-0.595567,0.2333,-0.522179,0.23023,-0.316813,0.345729,0.395349,
